2.28804 -1.82383 -1.44282 -0.945103 -0.617407 -1.08939 -0.789545 -0.592653 -0.919518 0.00672961 -1.41635 -0.669398 -1.30974 -2.04604 0.158533 0.0130808 -1.31768 -2.00663 -1.67012 -2.24705 -0.242829 -0.723769 -1.03486 -0.795495 -1.64436 -0.73202 -2.01146 -1.50575 -1.38898 -0.526851 -1.23777 -1.01157 -0.606392 -1.78372 -1.59245 -1.21621 -0.528641 -1.02395 -1.12131 -1.38851 -0.0619905 -1.37661 -1.18336 -0.210256 -1.36669 -0.453858 -0.134995 -0.697824 -0.600034 -1.02346 
1.13239 0.330933 0.756947 -0.507349 -2.7069 1.0931 0.0466155 -0.283845 -3.3755 0.492633 0.48349 0.614334 0.917869 1.25061 0.35878 0.567867 0.679522 0.56612 0.356678 -1.18847 0.476752 -2.68167 0.492733 0.545742 0.338307 0.386268 -0.83536 -3.21675 0.181441 -0.17695 -1.45897 -1.40079 0.366955 -3.12552 -0.619926 0.658908 0.576931 -0.115659 0.757514 0.349252 0.336155 0.155238 -2.60615 -0.125298 -0.339679 0.388514 -0.656289 1.14125 0.365205 0.352925 
-8.89881 4.50984 -6.08663 -5.47007 -3.89366 -4.56507 -8.39392 3.4239 -1.60849 -0.509834 
