0.857382 -0.989134 1.7793 0.345138 -0.717673 -0.925049 -0.222095 -0.348455 -0.238494 0.155777 0.0058611 -1.07139 -0.769204 -0.763374 -0.93588 0.124154 -0.620341 -1.19432 -1.02853 -0.829016 -0.743847 0.598669 -0.980206 0.390462 0.0707184 -0.278553 -1.58894 -0.783132 -0.969468 -0.580476 -0.858525 -0.766254 -1.13207 -0.831395 -0.799399 -0.0952918 -0.852608 0.326524 -0.530929 -0.982188 0.452199 0.0947299 0.0977461 -0.70884 -0.904229 0.79516 -0.48758 -0.838643 -0.572766 -0.109049 
0.146122 0.700051 0.632319 0.549111 -1.6053 0.159645 0.82012 0.544293 -3.40516 1.00802 0.707564 0.721067 0.331075 0.288706 0.701682 0.613679 0.62097 0.61352 0.866056 -0.237154 0.502235 -1.43877 0.663391 0.658347 0.674273 0.576135 -0.25844 -0.49047 -0.11641 1.10821 -0.163105 -0.200536 0.574815 -0.981388 0.425609 1.31691 0.614525 0.387312 0.639126 0.768271 0.700491 0.470209 -0.583003 0.781794 0.558368 0.681405 -0.0267496 0.258589 0.683075 0.690972 
-3.22534 1.76264 -2.90314 -1.75567 -2.11004 -2.79193 -3.74024 1.64252 -0.4274 -0.16332 
