0.00696347 -0.0781582 0.0399611 0.0105237 0.0408732 -0.0105225 -0.020731 -0.0565246 -0.0709209 0.082463 -0.0303529 -0.0200786 0.00851246 -0.0411214 -0.00508185 0.116695 0.0344323 0.00481 0.0377868 0.0137927 -0.0156882 -0.0185819 -0.0244604 0.0142107 -0.00900718 -0.0163435 -0.0196658 -0.0343934 0.0112179 0.0285497 0.016061 -0.0309681 -0.0534374 -0.0543468 -0.0421844 0.000609232 0.0440895 0.0146132 0.0289613 0.00365613 -0.0530773 -8.5867e-05 -0.00437579 0.0123389 0.0114453 -0.0383193 -0.00231995 -0.05877 0.0205893 -0.00114351 -0.00900871 -0.011375 0.0374181 -0.0523198 0.0124739 -0.030785 0.0432642 0.0173635 -0.0054807 -0.0582566 -0.0453054 -0.0152899 0.0631657 0.129863 0.140299 0.22824 0.120035 0.128538 0.186973 0.146819 0.185129 0.306229 0.285295 0.233223 0.14008 0.153941 0.136648 0.074482 0.0399055 -0.00485752 0.0265703 -0.117667 0.0434124 0.0137244 -0.00846693 0.0573754 0.00498216 0.0219945 0.0711162 0.0445582 0.222349 0.28431 0.281642 0.444629 0.420133 0.508517 0.472479 0.146533 0.227331 0.212109 0.0423947 -0.107514 0.243491 0.234886 0.258114 0.359692 0.152499 0.0911822 -0.0226474 0.00203861 -0.00147196 0.0657655 0.0440568 0.0405787 -0.0400115 0.00413565 0.0477445 0.140915 0.222346 0.244123 0.23215 0.0546671 0.205979 -0.0378231 0.082646 -0.237291 -0.0696969 -0.0787421 0.0854193 -0.315982 0.0558499 -0.059763 -0.161097 0.272643 0.150534 0.0236712 0.175536 0.089793 0.0420762 0.0189625 0.0229268 0.0467137 -0.0223943 -0.0255668 0.0681519 0.171578 0.207871 0.376743 0.244975 0.313367 0.111554 0.0319753 0.0561122 -0.170194 -0.0154052 -0.261052 -0.0907664 -0.336791 -0.070747 -0.142732 0.0600759 0.124269 -0.0926704 0.174028 0.304343 0.138383 0.0868595 0.0332219 0.0376827 0.0292397 0.0378681 -0.0315068 -0.0168283 0.150415 0.244206 0.389715 0.429819 0.93794 0.172868 0.066394 0.209209 0.163444 0.0919154 -0.132294 0.103801 -0.276356 -0.266408 -0.13351 -0.0531539 -0.564436 -0.404071 0.079005 0.426292 0.341538 0.210442 -0.00490678 -0.0964102 0.023902 -0.0359343 -0.183701 -0.123718 0.0397651 -0.036366 -0.165206 0.413956 0.328038 0.219785 0.123458 -0.0689572 -0.0493141 0.167864 -0.00565129 0.00737932 -0.138971 -0.237723 -0.206469 -0.181321 -0.144294 0.179166 -0.0363301 0.56962 0.306146 0.152242 0.0595019 0.0598272 0.0793762 -0.0207953 -0.225581 -0.0715297 0.0849202 -0.0078503 -0.225703 0.0835512 0.166788 0.0757932 0.229336 -0.239734 0.249583 0.147356 -0.0537973 -0.689222 -0.443196 -0.387028 0.236034 -0.226912 0.0992284 0.0170491 -0.467884 0.442786 0.657484 0.177178 -0.014555 -0.050044 -0.0389482 -0.0249634 -0.283878 -0.0957004 -0.155879 0.0403643 0.11266 0.104657 -0.0691361 0.0553727 0.274963 0.0484231 0.346691 0.339433 0.402794 -0.289362 -0.562833 -0.128281 -0.335961 0.0127189 0.257073 0.0983481 -0.478848 0.338021 0.783829 0.163155 0.0506062 -0.0108887 -0.10351 -0.0804623 -0.231242 -0.115404 -0.0855164 0.20352 -0.14883 0.0938048 0.036349 0.186892 -0.334965 0.00504079 -0.085788 0.381421 0.368423 0.165064 -0.193711 0.0013751 0.098512 -0.239927 -0.271417 -0.284181 -0.428666 0.105647 0.55914 0.179467 0.0714963 0.00813232 -0.053031 -0.153218 -0.276539 -0.0233546 -0.136787 -0.0718631 -0.15508 0.107618 -0.013039 -0.124017 -0.132541 -0.0355603 -0.299133 0.338053 0.629956 0.227613 -0.338306 -0.172662 0.0512903 -0.467091 -0.31055 -0.168163 -0.0997254 -0.211226 0.282729 0.199881 -0.00991846 0.0558864 -0.00846812 -0.210405 -0.16812 -0.0386141 -0.318446 -0.265275 -0.0799634 -0.263386 -0.171296 -0.2674 0.0565662 -0.267281 -0.18884 0.335549 0.800527 0.260495 -0.292978 -0.224183 -0.392241 -0.550543 -0.158405 -0.622867 -0.135362 -0.383414 0.0996379 0.0465219 0.0179507 0.0180475 0.0105778 -0.153425 -0.0558578 0.0426346 0.0878246 -0.386407 -0.0169428 0.0222323 -0.271182 -0.524523 -0.0362783 -0.756204 -0.0468933 0.395098 0.878455 0.389546 -0.0763182 0.113435 0.0290763 -0.115559 -0.0938392 -0.317751 -0.0996653 -0.184807 -0.02744 0.0211382 -0.0246425 -0.00565014 -0.0109582 -0.0752148 -0.0600799 0.300939 -0.256399 -0.132343 -0.444023 0.00952172 0.154117 0.242606 0.183606 -0.524588 0.0596873 0.947838 0.450842 0.252693 -0.0871965 0.247126 0.0236259 0.0271738 -0.128964 -0.0154663 -0.0461871 -0.237926 -0.0198218 -0.0373301 0.0521973 -0.0223568 -0.02363 -0.0767942 -0.0525199 0.182787 -0.231095 0.132949 -0.597112 -0.0934508 -0.00627743 -0.194016 0.100934 -0.23704 0.964807 1.04712 0.130139 0.026668 0.210071 -0.0904791 0.0657429 -0.245722 0.116265 -0.12728 -0.117191 -0.0958484 -0.00856003 -0.028728 -0.0123491 -0.0155206 0.00129994 0.0508427 0.0634805 0.148399 -0.0522578 0.073404 -0.0859706 -0.112278 -0.0230522 -0.179518 -0.267562 0.446338 1.26304 0.795058 0.0206574 0.288635 -0.0783142 -0.0144432 0.0255434 -0.103614 -0.0736719 0.0968633 0.0742892 0.095162 0.154679 -0.0108618 -0.00321873 0.00211722 0.0137444 0.058598 0.0425809 -0.0807893 -0.211078 -0.0999958 0.0777085 -0.0495146 -0.113311 -0.355261 -0.092402 0.70555 0.766654 0.269294 0.220561 0.177982 0.141065 0.181411 0.141516 -0.119463 -0.128251 -0.021972 -0.0528309 0.0928307 0.0846744 -0.0450854 0.0764678 0.0457215 0.0362693 0.0230102 0.206647 0.0892492 0.0799557 0.034105 0.08604 -0.38688 -0.00600021 -0.103609 0.404154 0.743452 0.582769 0.266429 -0.113329 -0.175786 -0.0357552 -0.0275269 0.037507 0.0139784 -0.0620971 -0.284697 -0.0640542 0.184271 -0.0350452 -0.0327642 -0.0054895 -0.0118351 -0.0116794 -0.0638379 0.20742 -0.00897143 0.0343905 -0.103036 -0.223382 -0.198985 0.0946518 0.0657419 0.377865 0.00601066 0.481753 0.19906 0.0695189 -0.102143 0.168285 -0.275251 0.0705303 0.201859 0.0231468 -0.0311108 0.0796894 0.143258 0.0341287 -0.0198165 0.0193277 -0.0162599 -0.0337153 -0.024353 0.266299 0.0626625 -0.0209878 -0.0554747 0.047403 -0.180818 0.159686 -0.201138 -0.263415 -0.167789 -0.112517 0.123403 0.408449 0.279283 0.000517336 -0.0266636 0.102067 0.140126 -0.146256 0.229659 0.322111 0.222439 -0.0114904 0.0107297 -0.023498 0.0469162 0.00940827 -0.00804902 0.160908 0.258065 -0.0046934 -0.0389875 0.113425 0.298994 0.247273 -0.0244155 -0.3631 0.0389398 -0.122932 0.368854 0.0629808 0.0666977 0.162353 0.0809754 0.141886 -0.170612 -0.0012035 0.160342 0.269351 0.116613 -0.00565809 -0.136211 -0.0112354 -0.000754465 -0.108739 -0.00548827 0.0236666 0.275173 0.164967 -0.0959263 0.0362787 -0.101958 -0.0719517 0.116301 -0.0555318 0.0261193 -0.263253 0.0580765 -0.228401 0.280917 0.0213799 0.169917 -0.0218141 0.0715553 0.183209 0.275598 0.272843 0.103939 0.00222971 -0.0192428 0.0439052 -0.00040085 -0.00972107 0.0577448 0.0581944 0.221511 0.253602 0.0791613 0.0439945 0.0538823 0.0239014 -0.083074 -0.0778533 -0.182726 0.0430899 0.0370712 0.187005 0.156861 -0.0683152 0.283702 0.409864 0.505873 0.350594 0.367482 0.142987 0.0709903 -0.0409674 -0.00116595 -0.0222837 -0.0376428 -0.0134746 0.0118993 0.0174641 -0.0739686 0.0178237 -0.00229638 0.22606 0.24236 0.0584884 0.00186274 0.0319623 -0.124579 0.0683407 0.157315 -0.0351057 -0.0705215 0.0948427 0.141514 0.354783 0.3086 0.167465 0.220699 0.175761 -0.0287205 -0.076685 0.0191711 0.005515 -0.0203744 -0.00427023 0.0776673 -0.0454744 -0.00508789 -0.00347683 0.167761 0.198581 0.0994268 0.0934826 0.300494 0.0547544 0.04571 0.0736429 -0.0148124 -0.0898514 -0.133679 -0.0741229 -0.0290548 0.116398 0.157942 -0.0342441 0.0139883 0.104141 -0.0112837 0.0380846 -0.00780322 0.0145891 0.0419335 -0.0104707 -0.0031234 0.00860971 0.0972271 0.125905 0.0753213 0.121687 -0.0896103 0.114185 0.282706 0.0571019 -0.0377607 -0.133427 -0.111123 -0.138617 -0.251965 -0.266754 -0.221128 -0.169066 0.0833071 -0.0452627 -0.0846256 0.00451082 -0.0277115 0.0767142 -0.0164291 0.00261141 0.0336983 -0.0141033 0.0524128 -0.0419375 -0.0238756 0.00408177 -0.0302988 0.0273034 -0.0706696 -0.0376185 0.0613851 -0.0244369 0.00436155 -0.00792125 -0.0562434 0.0370443 -0.0800144 -0.0379224 -0.0429937 0.00210727 -0.0605614 -0.0277137 -0.00497327 0.0641695 0.000268062 0.0469423 0.00250063 0.0770542 
0 0 0 0 0 0 0 0 0 0 0 0 -3.23762e-05 -6.14025e-05 1.05609e-05 4.40039e-07 0 0 0 0 0 0 0 0 0 0 0 0 0 0 0 0 -8.86803e-07 -2.65895e-06 -1.90664e-06 -3.86487e-05 -0.00156997 -0.00142205 -0.00152792 -0.00147772 -0.00124919 -0.00129362 0.00893964 0.0201499 0.00131525 -0.00066077 -0.000508017 -0.000616758 -0.000741851 -0.00045139 -5.70148e-05 -3.51268e-05 0 0 0 0 0 0 4.72407e-07 2.11845e-06 -1.30965e-05 4.44552e-06 -3.1828e-05 -0.00115017 -0.00369334 -0.00470179 -0.0104312 -0.0139298 -0.00964394 -0.0217107 -0.0306644 -0.011689 -0.01096 -0.0212727 -0.0248039 -0.0247808 -0.018617 -0.0101226 -0.00542476 -0.00372453 -0.00135934 -7.82516e-05 0 0 0 0 0.0022999 0.00058095 0.000460259 0.000163329 -0.0010033 -0.00508973 -0.014 -0.0265914 -0.0410799 -0.074109 -0.0976398 -0.153449 -0.178781 -0.121112 -0.127414 -0.0869346 -0.0625922 -0.0351511 -0.0444814 -0.0294043 0.00689743 -0.0171866 -0.0186995 -0.00167888 -0.00277789 0 0 -1.59116e-07 0.00788724 0.00186173 0.000667103 -0.00411743 -0.00958318 -0.0211747 -0.0501392 -0.105218 -0.131024 -0.149848 -0.15645 -0.175899 -0.165804 -0.135887 -0.0193374 -0.0484251 -0.0792274 0.0298079 0.0195474 -0.026943 0.032732 0.038346 -0.0232411 -0.0183913 -0.00472158 -0.00119188 0 0 0.0013985 0.00241992 0.00315261 -0.00996643 -0.0305925 -0.0553622 -0.132064 -0.197374 -0.232405 -0.23259 -0.273317 -0.30072 -0.266954 -0.162477 -0.121546 -0.103042 -0.0736893 -0.0828062 -0.081302 0.0369374 0.131572 0.108041 0.0579793 -0.0433642 -0.00668856 -0.00119511 0 -1.12574e-06 -0.0037611 0.000840491 0.00429328 -0.0303621 -0.065577 -0.104621 -0.161312 -0.240297 -0.256564 -0.252858 -0.317238 -0.405148 -0.379853 -0.381064 -0.150346 -0.0652776 0.0227372 -0.0854414 -0.00839091 -0.0103967 0.042864 0.0913721 -0.00801694 -0.0498098 0.00413309 0.00389514 1.25255e-06 -0.000264892 -0.00222639 -0.0020892 -0.00575485 -0.0394363 -0.0884216 -0.118031 -0.194131 -0.235474 -0.327293 -0.330571 -0.305949 -0.37892 -0.310697 -0.270146 -0.147808 -0.0268447 -0.0518209 0.0186412 0.050662 0.00433529 0.0468289 0.0499886 -0.11298 -0.05798 0.00673579 0.000662188 -4.95774e-06 -7.67872e-05 0.000525893 0.00220295 -0.000652099 -0.0339373 -0.0852189 -0.136284 -0.213415 -0.25144 -0.321408 -0.357014 -0.403876 -0.39839 -0.302147 -0.120987 -0.0582245 0.163832 0.048328 0.0434143 -0.0470936 -0.031087 -0.0435677 -0.10604 -0.138649 -0.0762791 -0.00411006 -0.00062285 -1.86525e-05 -0.00395793 0.00123515 0.00429503 -0.00424699 -0.0344258 -0.0775493 -0.119255 -0.195186 -0.219584 -0.266738 -0.305756 -0.303582 -0.340998 -0.222874 0.0793712 0.276118 0.152958 0.0506009 -0.0797898 -0.148265 -0.0763185 -0.0510873 -0.133857 -0.124888 -0.0765649 0.000876061 0.00260349 -1.27275e-05 -3.85011e-05 -4.26702e-05 -0.00284517 -0.00278596 -0.0216523 -0.0673142 -0.107963 -0.17834 -0.196387 -0.215855 -0.229963 -0.178382 -0.216178 -0.0219977 0.347068 0.297018 0.14398 0.0817808 -0.0114527 -0.0808832 -0.0221933 -0.0962202 -0.0897438 -0.0424133 -0.00983028 -0.00549678 0.00162196 1.51046e-05 -0.000150225 -0.00262938 -0.00147317 0.0105127 0.00145915 -0.0490277 -0.0921574 -0.157008 -0.178234 -0.231538 -0.217101 -0.13569 0.00104252 0.202405 0.406894 0.223687 0.0846224 0.170937 0.0341862 0.0285243 -0.0231497 -0.0666392 -0.0227179 0.040225 0.0151754 -0.0101685 0.00101262 1.05334e-05 -9.53384e-06 -0.00535025 0.0020444 0.0240687 -0.00173304 -0.03468 -0.0737175 -0.121691 -0.127317 -0.231376 -0.272965 0.0916794 0.149508 0.322654 0.212704 0.0764338 0.0553373 -0.00593921 -0.0484517 -0.13281 -0.0874611 -0.077005 -0.0287937 0.00719651 0.0159053 0.00474842 0.00218462 1.07337e-05 1.91149e-05 -0.00210672 0.0123088 0.0194884 -0.0217704 -0.0428083 -0.0658482 -0.0706903 -0.0973278 -0.220632 -0.108873 0.138977 0.14939 0.138882 0.0295791 0.0325346 0.0210314 -0.0937112 -0.160368 -0.189483 -0.0558763 -0.0676638 -0.0513688 -0.0212558 0.000343083 0.000562061 2.72658e-05 -2.48983e-06 1.96168e-05 0.000840556 0.0175736 0.0132614 -0.0357334 -0.0494107 -0.052907 -0.0421827 0.00245827 -0.0345744 0.0359884 0.0644573 -0.0467438 -0.0221558 -0.0506903 0.0854339 -0.171806 -0.28366 -0.277217 -0.179696 -0.0545056 -0.030849 -0.0182362 0.00684314 0.000332153 0.00262782 -4.55419e-06 -5.01926e-07 8.10482e-06 0.00499418 0.00517601 0.00330754 -0.0324479 -0.0502721 -0.01495 0.0275121 0.0744505 0.0662124 0.102669 0.0211426 0.0249692 -0.0663073 -0.0416184 0.0762256 -0.344367 -0.343181 -0.247957 -0.147789 -0.0405407 -0.0411096 -0.0378926 -0.0146938 0.000171733 -5.12863e-05 -0.00126183 1.79045e-06 1.55662e-05 0.00296357 0.00362975 -0.00250305 -0.00832767 -0.00506558 0.00288941 0.00479916 0.135213 0.102918 0.114507 -0.0123549 0.148821 0.045321 0.0861492 -0.0239102 -0.391325 -0.30471 -0.172082 -0.111045 -0.0348624 -0.0479162 -0.0341865 -0.0107352 -0.00150096 0.00244145 8.73418e-05 0 7.97177e-05 -0.000455 -0.00316277 -0.010574 -0.0299207 -0.0467595 -0.073162 -0.0721179 0.0218105 0.171194 0.159737 0.269769 0.198549 0.132125 -0.0486063 -0.353625 -0.443803 -0.280711 -0.141204 -0.0933629 -0.0332171 -0.0348099 -0.03366 -0.0101989 0.00948186 -0.000457616 -0.00155757 5.42736e-05 1.37642e-05 -0.000112429 -0.00397523 -0.0270401 -0.0927247 -0.189478 -0.198743 -0.0912255 0.0789925 0.148739 0.277945 0.207194 0.0942645 0.0126142 -0.238682 -0.454737 -0.346319 -0.238924 -0.115821 -0.109706 -0.047548 -0.0482064 -0.0349252 -0.0192 0.00810212 0.00440633 0.00237687 6.73346e-06 -0.000793409 -0.00117758 -0.000414139 -0.010749 -0.0794035 -0.155499 -0.129972 -0.0721926 0.0384464 0.0191926 0.19732 0.115872 0.0172159 -0.18322 -0.33866 -0.332829 -0.256369 -0.201173 -0.134874 -0.130357 -0.0901403 -0.0609558 -0.0223695 0.0116552 0.0169976 0.0037594 0.00133223 0 -0.00201419 -0.00286639 -0.0017631 0.0181924 -0.0131942 -0.0032948 -0.126869 -0.078359 -0.0476944 0.0188076 0.179627 0.0670685 -0.151701 -0.189397 -0.32502 -0.215729 -0.21773 -0.20779 -0.17067 -0.150775 -0.127216 -0.06258 -0.0127165 0.0188861 0.0102876 0.00344869 1.6711e-05 2.07841e-05 -0.000105758 -0.0032818 -0.00221869 0.0117571 0.15837 0.0353326 -0.16979 -0.153001 -0.0866937 0.103849 -0.0525866 -0.174786 -0.111966 -0.116181 -0.142255 -0.179768 -0.172605 -0.185717 -0.187027 -0.158344 -0.120821 -0.0607882 -0.0171176 0.019617 -0.00144323 -0.00234097 -2.51871e-06 2.01345e-05 -2.92488e-05 -0.00319126 -0.00477142 0.0134183 0.206767 0.10887 -0.119444 -0.101354 0.00857032 -0.160588 -0.278147 -0.209363 -0.0413586 -0.0103917 -0.120538 -0.0610948 -0.0432887 -0.0991575 -0.137554 -0.139088 -0.102169 -0.0466508 -0.0158317 -0.00563409 -0.00161838 0.00359915 -4.64993e-06 0 0 -8.25082e-05 -0.0202027 -0.0353565 0.110257 0.0547504 -0.0816072 -0.0628855 -0.0907535 -0.104682 -0.156557 0.0421112 -0.0137556 -0.153911 -0.113001 -0.0293498 0.0372209 -0.0439733 -0.0842205 -0.0801395 -0.0666181 -0.0182534 -0.00846517 0.000759784 0.00418209 0.0178937 0 0 0 3.61613e-05 -0.0139334 -0.0490167 -0.0345852 -0.0892229 -0.13298 -0.11918 -0.0548623 -0.242265 -0.240976 -0.0941965 -0.084858 -0.141668 -0.172932 -0.142084 -0.033252 -0.0174715 -0.0166006 -0.0263461 -0.00911816 0.00454567 0.00410015 0.000667495 0.000499999 8.66525e-05 0 0 0 -9.11387e-07 -0.00236528 -0.037812 -0.0421782 -0.0617992 -0.0658073 -0.000585225 -0.0602562 -0.231025 -0.188063 -0.0994947 -0.0946504 -0.125164 -0.132964 -0.0710799 -0.0203519 -0.00631406 -0.00196611 -0.00189334 0.000994888 0.00174282 -0.000841233 -0.000392603 4.68712e-07 -2.47805e-08 0 0 0 0 3.49386e-05 0.00145584 0.00193293 -0.000233893 -0.000221538 -0.00109819 -0.00372334 -0.0421679 -0.0425762 -0.0222584 -0.0371834 -0.0365293 -0.0277465 -0.00572368 0.00269286 0.0102726 0.00577264 0.00102773 0.000513008 0.000269919 6.30205e-05 6.08371e-06 3.73008e-06 0 0 0 0 0 0 -2.68053e-05 -3.17162e-05 0.000274279 0.00127717 0.00137052 0.00108655 0.00635666 0.00313619 0.0179274 0.0143963 0.00617878 0.00179301 0.00115623 0.00269788 0.00657023 0.000327758 0.000205354 0.000273629 0.000460921 7.51891e-05 0 0 0 0 
0 0 0 0 0 0 0 0 0 0 0 0 -1.1072e-05 -1.36095e-05 1.18339e-05 4.93077e-07 0 0 0 0 0 0 0 0 0 0 0 0 0 0 0 0 -5.08387e-07 -2.66701e-06 -4.29801e-05 -0.000218137 -0.00132393 -0.000699159 0.00291655 0.00945338 0.00953015 -0.00159972 0.0306382 0.0462902 0.0195447 0.00339433 0.000933543 -0.000924433 -0.000970258 -3.80343e-06 -2.95947e-05 -3.84099e-05 0 0 0 0 0 0 -3.76356e-07 0.0004991 7.51705e-05 0.000230891 0.00711338 0.0208495 0.0439493 0.130972 0.136507 0.180747 0.123977 0.128234 0.224179 0.271645 0.187743 0.149633 0.146052 0.126267 0.108305 0.0644236 0.00846096 -0.000333799 0.00194618 0.000187048 0 0 0 0 -5.43909e-05 0.00401118 0.0115372 0.0131291 0.0354325 0.0544617 0.0316624 0.213869 0.365718 0.3707 0.139722 0.12052 0.10382 0.156717 0.185071 0.0641953 0.210572 0.163709 0.0425 0.171479 0.183139 0.115339 0.0492282 -0.0499378 -0.0177553 0 0 -4.95826e-05 -0.000309434 -0.00503783 0.00119941 -0.0107679 8.78016e-05 0.0529909 -0.0247476 -0.0498776 -0.0735201 -0.155178 -0.150271 0.0885404 0.372684 0.211022 0.157102 0.0119321 -0.168037 0.114043 0.138648 0.0847927 0.137806 0.102868 -0.0336777 -0.00287861 -0.00233143 0.00120971 0 0 0.00166258 -0.0252301 -0.0246712 -0.0709051 0.0353766 0.0822226 0.0781181 0.24768 0.0752901 -0.0212623 0.153419 0.121937 0.227812 -0.00712855 0.0980711 0.445744 0.0113438 0.0121548 0.19148 0.237753 -0.0233961 -0.199863 -0.068223 0.0450962 -0.0633792 -0.000893305 0 -3.13307e-05 -0.00288315 -0.115479 -0.194673 -0.017536 0.140594 0.115685 0.153402 0.151153 0.127027 0.00153373 0.347008 0.196779 0.0422171 0.158289 0.366033 0.231597 0.168074 0.186833 0.321405 0.0837868 -0.255376 -0.185996 -0.089742 0.0511016 -0.0138544 -0.000769302 -4.51614e-06 -0.00385244 0.0200312 -0.060885 -0.154278 -0.097535 -0.163212 -0.257323 -0.113431 -0.02404 -0.258592 -0.159472 -0.258056 -0.132347 -0.122844 0.609843 0.26868 0.0165863 0.234676 0.23937 -0.117552 -0.180971 0.0383482 0.138164 0.228753 -0.0972677 0.0416985 -0.00564665 0.00597752 0.00395452 0.00227259 -0.038243 -0.0175647 0.00243088 0.0578081 -0.109054 -0.0537804 0.0118555 -0.119325 -0.0297862 -0.273426 -0.0280529 -0.125313 -0.300936 -0.372388 -0.235189 -0.727656 -0.0667761 -0.394244 -0.236287 -0.0581673 -0.152496 -0.357836 -0.273328 0.0267026 0.000948305 -0.000849032 -0.0203307 -0.0279397 -0.086723 0.00492893 0.182337 0.137689 0.0722629 0.0710477 0.0454208 -0.0670595 -0.305245 -0.178949 -0.30465 -0.338969 -0.438945 -0.423806 -0.378986 -0.408222 -0.111661 -0.101638 -0.17914 -0.135462 -0.206693 -0.627037 -0.535735 -0.0946213 -0.0130156 -0.00101817 -0.00860719 -0.0798856 -0.115981 0.0426959 0.155803 0.0788332 0.0478173 -0.152676 -0.292574 -0.192375 -0.449757 -0.0635697 -0.290435 -0.247229 -0.318254 -0.492352 -0.471134 -0.259708 -0.375357 -0.44448 -0.204229 -0.110606 -0.239487 -0.423512 -0.687486 -0.138763 -0.00861662 -0.00021406 -0.016319 -0.0822672 -0.0509864 -0.0145154 0.186623 0.0205184 0.205327 0.103753 -0.291437 -0.2689 -0.465428 -0.19204 -0.563504 -0.268643 -0.196682 0.136687 -0.288508 -0.31207 -0.163216 -0.427919 -0.197644 0.00508191 0.0142799 0.0740083 -0.340025 -0.112491 -0.00634189 -0.000130367 -0.0245406 -0.0464045 0.0306855 -0.061283 -0.0690289 -0.210108 -0.290333 -0.171768 -0.2354 -0.495665 -0.207055 -0.118063 -0.12226 0.169651 0.327374 0.323814 0.164793 0.468477 0.462754 0.0144358 -0.0258272 0.132986 0.375087 0.463196 0.0182007 -0.0453145 0.00056655 1.22127e-05 -0.00792488 -0.0322371 0.109533 0.0273009 -0.212078 -0.0131203 -0.316787 0.0328065 -0.208007 -0.294678 -0.0329614 -0.11545 0.372179 0.760009 0.988628 0.350209 0.627598 0.462624 0.346988 0.31776 -0.133245 -0.0622257 0.281594 0.291661 0.0915513 -0.000538967 0.00941413 -0.000482502 -0.0140602 -0.0215398 0.0692104 0.078837 -0.193849 0.0370784 0.0430949 0.0217948 -0.0715903 0.0824485 0.342208 0.19202 0.440606 0.405913 0.100369 0.337763 0.267809 0.373492 0.501889 0.209891 -0.307933 -0.189959 -0.0907333 0.00536599 0.0956477 0.0255731 0.00314953 -0.000157687 -0.0258268 -0.0150526 0.138567 0.112586 -0.16761 -0.13978 0.00635214 0.236418 0.14945 0.128066 0.404424 0.0260048 0.583064 0.565863 -0.0583337 0.381729 0.271482 0.347893 0.13967 -0.0596994 0.0280118 0.114165 -0.208569 -0.157379 0.102442 0.0302015 0.0191312 1.71838e-06 -0.0126834 -0.0673095 0.0354329 -0.0480488 -0.249466 -0.059743 0.101804 0.0264363 0.303386 0.227836 0.378336 0.552156 0.585296 0.619625 0.432174 0.515843 0.28313 -0.0503227 -0.0290975 -0.0471841 0.234446 0.124477 -0.162794 -0.102772 0.302081 0.0919935 0.0299872 0 -0.00514431 -0.0515617 -0.123633 -0.144908 -0.327741 -0.216997 0.239305 0.289997 0.397152 0.21682 0.636566 0.621077 0.653723 0.265705 0.201573 0.250818 -0.0307907 -0.121581 0.221118 0.0955373 0.14147 -0.164607 -0.311389 -0.0992365 0.241365 0.0603456 -0.0190609 -0.00042576 -0.000301201 -0.0581864 -0.0878638 -0.249853 -0.252239 -0.0152515 0.0205769 -0.0389866 0.057486 0.125852 0.190708 0.250068 0.26375 0.0608533 -0.22036 0.336778 -0.148218 -0.0864049 0.167805 0.0398359 -0.152746 -0.247851 -0.145833 0.0447866 0.197873 0.0331106 0.0100896 1.57753e-06 -0.0180731 -0.0572522 -0.193677 -0.475322 -0.40307 -0.130535 -0.0426786 -0.241063 -0.225446 0.0117245 0.0404205 -0.149532 -0.0778142 0.0162612 -0.0333747 0.10868 0.0454016 0.0405506 0.212099 0.317128 0.195997 0.0129626 -0.0865678 -0.0245096 0.0828553 0.0439245 0.0075725 0 -0.00483517 -0.023949 -0.134282 -0.272842 -0.368108 -0.189511 0.282587 -0.0945762 -0.177178 0.163465 0.156486 -0.104832 -0.0907668 0.215317 0.293004 0.206917 -0.144515 0.286968 0.305999 0.445113 0.391819 0.0194084 0.0237274 -0.00668298 0.0145086 0.0195223 -2.98056e-05 3.48663e-06 -0.00110219 -0.00699559 0.00251308 0.129416 0.00279024 -0.202516 0.21781 0.259774 0.364531 0.282072 -0.0560783 -0.214347 0.171852 0.354016 0.0413918 0.295371 0.257867 0.123721 0.0091286 0.0672162 -0.0675825 -0.0983995 0.106742 0.131771 0.0328591 0.014654 -9.54852e-05 3.37767e-06 -2.85411e-05 0.00605227 0.0690885 0.247623 0.236164 0.0621115 0.36896 0.212503 -0.166513 0.279775 0.314932 0.0669106 -0.0556751 -0.162069 -0.265809 -0.210784 -0.24278 -0.0994986 0.0494261 0.0602625 -0.0846609 -0.161026 0.0650313 0.128221 0.0508725 0.000805168 -0.00017628 0 0 -0.00291771 0.0183248 0.0140933 0.0182555 0.171592 0.286997 0.104973 -0.120407 -0.0668966 -0.154766 0.0959862 0.396497 0.229303 -0.140866 -0.188221 -0.175031 0.0962444 0.24083 0.174669 0.0256757 0.094706 0.116457 0.0375955 0.0316547 0.000421153 0 0 0 -0.0024476 -0.020998 -0.149465 -0.225287 -0.11107 0.015935 0.0810525 0.0504106 -0.0724348 0.141144 0.177593 0.0775955 0.166084 0.132771 0.00549205 -0.288105 0.0612435 0.172877 0.100428 -0.0191488 -0.0586103 0.0226615 0.0190471 0.0102235 6.45586e-06 0 0 0 0.000113071 -0.00705323 -0.102576 -0.178285 -0.0620103 -0.0328833 0.134464 0.0517953 0.101953 -0.0814358 -0.0710697 0.145875 0.127234 -0.0587068 -0.277672 -0.087368 -0.1875 -0.199001 -0.0944172 -0.152343 -0.124235 0.0113328 -0.00619384 -3.35158e-05 -9.38547e-06 0 0 0 0 -0.000137246 0.010698 -0.0357389 -0.0131661 0.0708094 0.0115251 -0.0698625 -0.0257929 -0.0177797 -0.0740304 -0.160657 -0.147249 -0.228336 -0.288395 -0.144825 -0.163935 -0.141519 -0.102904 -0.112223 -0.0741185 0.000428519 -0.000358423 -1.15171e-05 0 0 0 0 0 0 -0.000448792 -0.000901204 -0.00359645 -0.0197056 -0.0319001 -0.0508458 -0.151458 -0.0391787 -0.0134165 -0.0551596 -0.0796872 -0.0416338 -0.0230234 -0.033477 -0.0212963 -0.0349561 0.00868252 -0.020375 -0.0223648 -0.00131552 0 0 0 0 
0 0 0 0 0 0 0 0 0 0 0 0 -0.000103579 -0.000196131 3.41312e-05 1.42213e-06 0 0 0 0 0 0 0 0 0 0 0 0 0 0 0 0 -3.5711e-07 7.8601e-07 0.000158602 0.000225035 -0.00156626 -0.00119243 -0.0209505 -0.0753188 -0.0359314 -0.00355519 -0.0356427 -0.0525659 -0.00516942 -0.000172422 -0.000159466 -0.00044962 -0.00165233 -0.000970982 -0.000246947 -0.000115606 0 0 0 0 0 0 4.57811e-07 -1.4864e-05 -3.07793e-05 8.22487e-05 0.00596471 0.000849852 -0.0106961 -0.0929948 -0.224207 -0.231843 -0.11911 -0.120744 -0.162637 -0.148612 -0.145948 -0.105034 -0.0553879 -0.0596455 -0.0480752 -0.0369714 -0.013078 -0.00350538 -0.00225614 -4.35025e-06 0 0 0 0 0.00295039 0.000827931 0.0127007 0.0356587 0.012206 0.00495508 -0.00737046 -0.139642 -0.302827 -0.365364 -0.154375 -0.0866185 0.0480181 -0.041533 -0.142552 -0.0760866 -0.0561845 -0.0442679 0.0815072 -0.0855351 -0.131181 -0.0600559 0.0208324 0.0129385 -0.00039408 0 0 1.37781e-05 0.0101403 0.00834684 0.0336726 0.0823241 0.0439921 0.0427296 0.165229 -0.174179 -0.177456 -0.201887 0.0601257 0.130243 -0.0311122 0.163417 0.120718 -0.228317 0.0762874 -0.0582892 -0.0850374 -0.0765824 -0.0786949 -0.0804782 0.160165 0.00815725 -0.0170966 -0.00055843 0 0 -0.00174982 0.0488741 0.127136 0.166029 0.148952 0.1649 0.03959 -0.195697 -0.182258 -0.0854858 -0.240361 0.104677 0.133894 -0.0432933 0.000948626 -0.101465 0.0661121 0.041317 -0.107959 0.0340329 0.0347611 0.0503415 0.113822 -0.0227347 -9.38055e-05 0.000363564 0 5.38674e-05 -0.0176586 0.116681 0.187142 0.139534 0.0840482 -0.0152241 -0.142424 0.0563492 -0.00907291 -0.0478961 -0.084001 -0.0418202 -0.0980496 -0.0273272 0.0697759 0.106559 0.0877991 -0.0636103 0.152048 0.185721 0.110052 -0.0391292 0.0356344 0.0153313 0.0305732 0.0049598 2.11616e-07 0.00398697 -0.0246594 0.153903 0.197308 0.0755133 0.0472513 -0.132396 -0.279026 -0.170249 -0.0887785 -0.0511255 -0.0430241 -0.212196 0.0301984 -0.177029 -0.0480627 0.0435158 -0.134942 0.113566 0.0358607 -0.147172 0.0723676 -0.0419709 -0.0723158 -0.000746194 0.0394456 0.00109002 -0.00234784 0.00192805 0.0239294 0.0577991 0.0686857 -0.0560324 -0.0461322 -0.121103 -0.260288 -0.334278 -0.123245 -0.312031 -0.0505659 -0.0193434 -0.199067 -0.144263 -0.175076 -0.416318 -0.15672 -0.259794 -0.128547 0.0515148 0.263122 -0.155737 -0.00898997 0.049999 0.029845 0.000187775 -0.000213444 0.0134266 -0.0191765 0.019575 0.0283978 -0.157919 0.0862575 -0.0358418 -0.173183 -0.334256 -0.518338 -0.196356 -0.0490411 -0.0190967 -0.0708459 -0.0666966 0.090482 -0.0435038 -0.336415 -0.389382 -0.16226 -0.0238137 0.191277 -0.255348 -0.0813903 0.0900323 0.0485717 0.000759188 -0.000231159 0.000606246 0.00909749 0.065633 0.0488052 -0.0132017 0.00786775 -0.211264 -0.339073 -0.186908 -0.164479 -0.0824268 0.188516 0.283377 0.194018 0.0723508 0.185009 0.0679149 -0.121295 0.00174037 -0.148388 0.0899392 0.17217 -0.025826 0.0986781 0.251438 0.0513734 0.000724041 2.56017e-05 0.00120528 0.00698488 0.0648357 0.184728 0.07732 0.0534496 -0.215093 -0.167361 0.00348696 0.143127 0.249105 0.298537 0.320665 0.477613 0.362219 -0.168025 0.1617 0.36514 -0.012108 0.156242 0.0179454 0.0699297 0.0180501 -0.00349716 0.147137 0.0123799 0.000660783 2.79243e-05 0.00245255 0.0129355 0.0480574 0.204799 0.243598 0.246194 0.419096 0.204811 0.200588 0.153392 -0.0959782 0.247963 0.099447 0.36729 0.333431 0.18108 0.0651404 0.125539 0.0803089 -0.142107 -0.350384 -0.483554 -0.282016 -0.233193 0.00613039 0.00578778 0.000228764 1.59217e-05 -0.000530451 0.0162633 0.0229385 0.103784 0.250952 0.189677 0.131885 0.109888 0.160996 -0.0914075 -0.187221 0.248276 0.462826 0.306996 0.219972 0.386682 0.0418341 -0.0227074 0.285176 0.0648444 -0.253606 -0.401605 -0.366244 -0.178179 -0.0222913 -0.00638517 -0.00852414 0.000326484 0.00598602 0.0144311 0.0381518 -0.0163199 -0.0675768 -0.301361 -0.66878 -0.540028 -0.402576 -0.448195 -0.0719477 0.23935 -0.028068 0.2986 0.041861 -0.00116897 -0.11945 0.00308981 0.172111 0.12963 0.118609 -0.22041 -0.16933 -0.148631 -0.0208457 -0.0139048 -0.00386276 0.000100099 0.0138468 0.0228985 -0.0131101 -0.132228 -0.200058 -0.51229 -0.965576 -0.956696 -0.956198 -0.776164 -0.467222 -0.0591577 0.133581 0.157715 0.334604 0.0470893 0.0761696 -0.0275739 0.0894506 0.206545 0.171901 -0.0778308 -0.0992873 -0.124489 -0.0379494 0.0058633 -0.00166217 -3.88738e-05 0.00689659 0.0372425 0.0243846 0.18621 0.0930612 -0.271429 -0.399214 -0.739528 -1.07087 -1.33273 -1.27017 -1.16567 -0.399114 -0.33849 -0.0705077 -0.135074 0.186847 0.358987 0.298668 0.224785 0.106499 0.0983725 -0.0738068 -0.0207496 -0.116072 -0.0171893 -0.0030412 0 0.00312152 0.00941629 0.164687 0.237925 0.115373 0.0600592 0.190607 0.099888 -0.322397 -0.590997 -0.949312 -0.963283 -0.644174 -0.56994 -0.531623 -0.0727077 0.0844261 -0.0935782 0.240457 0.121834 0.0877713 0.0954967 0.011058 -0.162782 -0.193201 -0.014992 0.00199377 -8.43458e-06 0.000210283 0.0169821 0.292367 0.169869 0.0955274 0.0944286 -0.018656 0.365938 0.271687 0.300562 0.124133 -0.180462 -0.268866 -0.480768 -0.190441 -0.0768415 -0.0105278 -0.106937 0.116914 0.00507001 0.268432 0.0276709 -0.0283826 -0.200969 -0.0884141 -0.00276132 0.00576936 4.85164e-06 0.0082843 -0.000359718 0.247939 0.119894 0.330757 0.298124 0.062629 0.287241 0.25312 0.363481 0.434666 0.319007 0.110343 -0.264971 -0.0616271 -0.345342 -0.0719878 -0.0648656 0.0771855 -0.115817 0.00920278 -0.297725 -0.0708486 -0.0924124 -0.0250413 -0.00180605 0.00267906 0 -0.000172252 -0.0238464 -0.0661981 -0.0991535 0.0328627 0.420982 0.0554585 0.457118 0.282564 0.174984 0.262416 0.11578 0.122126 0.298294 -0.154729 -0.218769 0.109952 -0.100623 -0.0369219 0.110989 -0.108502 -0.238053 -0.101207 -0.0437898 -0.0157575 -0.000398491 1.21335e-05 -1.38576e-05 -0.000369339 -0.0597243 -0.206877 -0.453692 -0.0936822 0.0154309 0.0926773 0.389468 -0.114604 0.154783 0.104539 0.155814 -0.00982444 0.181154 -0.0696533 -0.219538 -0.175583 0.0635452 0.140074 0.0411126 -0.149976 -0.154418 -0.201041 -0.0674407 -0.0130154 -0.00395304 -3.71731e-06 -1.34246e-05 -3.26151e-05 -0.0355107 -0.0870853 -0.280077 -0.296192 -0.233633 -0.0492446 -0.044841 0.0683732 0.163702 -0.020767 -0.0953675 0.023819 0.256304 0.0365224 -0.151812 -0.136163 -0.127362 0.0861738 -0.00152333 0.0518565 0.0107539 -0.122109 -0.103742 -0.0326334 0.00155349 -6.86272e-06 0 0 0.0162445 0.0782925 0.0573439 0.0857661 -0.163306 0.0040107 -0.168158 0.0609597 0.191074 0.314654 0.148261 0.0915304 0.0176006 0.262275 -0.0150682 0.00254225 -0.000475011 0.035587 0.0412028 -0.0627485 -0.140355 -0.117238 0.0184731 -0.00423388 0.00757658 0 0 0 0.00980394 0.0612196 0.138999 0.224147 0.124387 -0.00339545 -0.167612 -0.159365 -0.347801 -0.245455 -0.222205 -0.0786362 -0.0240991 -0.320666 -0.264983 0.0661393 -0.00274298 -0.0484562 -0.0791414 -0.0659908 -0.0445081 -0.0410889 -0.00740524 -0.00075133 6.60124e-05 0 0 0 0.000765914 0.00707946 0.0778797 0.0542585 0.00108456 -0.0565804 -0.112712 -0.0939414 -0.180512 -0.120812 -0.0318042 -0.0176675 -0.103676 -0.199609 -0.0987024 -0.122385 -0.0476659 -0.00295144 -0.0211222 -0.00173469 0.0134377 -0.0136554 -0.000485181 1.95093e-05 -2.77849e-07 0 0 0 0 -3.20127e-05 -0.0138515 -0.0130308 -0.00945854 -0.0120606 -0.0219466 -0.0542818 -0.0864184 -0.00643005 0.016274 0.023971 -0.0617124 -0.0178747 -0.0270379 -0.0537211 0.00339677 0.043472 0.0263797 0.00331727 0.00811974 0.00190187 0.000166019 5.844e-06 0 0 0 0 0 0 6.05504e-06 0.000113289 0.000526354 0.00223009 0.00620488 0.012072 0.0254357 0.00749758 -0.0094946 0.0188493 0.0113654 -0.0138152 -0.0251865 -0.00130396 0.00955691 0.0219387 0.0174808 0.00227519 0.00229881 0.000310946 0 0 0 0 
0 0 0 0 0 0 0 0 0 0 0 0 -0.00101506 -0.00185421 0.000409974 1.70822e-05 0 0 0 0 0 0 0 0 0 0 0 0 0 0 0 0 -0.0001689 -0.000435664 0.00221107 0.00128768 -0.0221556 -0.0163774 -0.00964857 -0.0127183 -0.0147729 -0.0371186 -0.0421318 -0.0300068 0.0197268 -0.0210704 -0.0346538 -0.0279391 -0.0223281 -0.0112206 -0.00048369 0.00156305 0 0 0 0 0 0 3.97118e-07 6.41881e-05 -0.000438497 -0.00293749 -0.0259927 -0.0420441 -0.0438652 0.052241 0.0832081 0.0320988 -0.0203135 -0.0432057 0.0499891 0.175678 0.261535 0.0572641 -0.15582 -0.180033 -0.154462 -0.162414 -0.0881414 -0.0281178 0.0688786 0.0530734 0 0 0 0 0.0121373 0.00365248 0.00237567 0.0520553 -0.00587494 0.0219605 0.0593115 0.246977 0.404195 0.530207 0.406947 0.27434 -0.0073192 0.0683219 0.328317 -0.238522 -0.544523 -0.385102 -0.317217 -0.364397 -0.261967 -0.191896 0.00269906 0.0518129 -0.00297368 0 0 7.2169e-06 0.041441 0.0133729 0.0226007 0.0403716 0.0746869 0.0419051 0.30111 0.29083 0.343382 0.243083 0.367452 0.365957 0.209741 0.180554 0.288451 0.0713144 0.319467 -0.0306784 -0.124369 -0.339757 -0.441316 -0.371781 -0.0598222 0.0491427 3.31469e-05 -0.00036395 0 0 0.00465502 0.0380204 0.192451 0.243382 0.33618 0.318384 0.184411 0.0814982 0.125408 0.133291 0.362421 0.0823928 -0.0992693 0.152136 0.0606649 -0.0610446 -0.0527414 -0.335194 -0.157795 -0.21157 -0.457893 -0.576301 -0.127894 0.0112067 -0.00698997 -0.00068367 0 0.000107507 0.00569184 0.126356 0.251766 0.265624 0.342615 0.317835 0.0502357 0.26805 0.340823 0.198854 0.171256 0.399631 0.172667 -0.00260602 0.180575 -0.17957 0.286671 -0.230607 0.0489103 0.0795288 -0.44772 -0.776597 -0.336087 -0.101555 -0.0162347 -0.00293002 2.92331e-06 0.00666007 0.0224545 0.100488 0.410805 0.252832 0.29052 0.230268 0.279953 0.282429 0.110927 0.293415 0.113344 0.244487 0.255472 -0.208831 0.0852457 0.189915 -0.310686 0.300465 0.0780045 -0.269618 -0.334582 -0.776283 -0.474209 -0.113509 -0.00596036 -0.00105109 -0.00588452 0.00879845 0.0304422 0.0949331 0.443903 0.0971202 -0.129262 0.317431 0.11962 0.165806 0.467773 -0.0731318 0.0665322 0.228139 0.0733204 0.239827 -0.00289303 0.137893 0.121757 0.335703 -0.100647 -0.293324 -0.142545 -0.961296 -0.683443 -0.200261 -0.0157108 -0.00137744 0.000905622 0.0148787 0.0453149 0.194634 0.364255 -0.0494322 -0.310728 0.0447765 -0.294094 -0.44975 -0.871473 -0.847835 -0.844539 -0.673876 -0.218103 0.231093 0.44233 0.134739 0.106017 -0.016654 -0.138877 -0.122333 -0.163506 -0.827728 -0.733806 -0.168489 -0.019346 -0.00937938 0.00108094 0.0056755 0.0462421 0.0920819 0.126876 -0.345662 -0.727728 -1.09668 -1.54394 -1.63658 -1.00474 -0.858899 -0.84222 -0.229688 -0.136479 0.106521 0.459018 0.133715 0.0780563 0.138364 -0.0440392 0.247395 -0.197764 -0.747822 -0.593722 -0.0529206 0.0119881 0.00270896 0.000203195 0.00335363 0.0173621 0.0316362 -0.135711 -0.712915 -1.24157 -1.63227 -1.2796 -0.776082 -0.431139 -0.017946 0.154466 -0.0700861 0.255561 0.21222 -0.0916969 -0.217739 -0.0924399 -0.0433662 0.0767607 -0.0804943 -0.260421 -0.389848 -0.213276 0.0432038 0.00275121 0.00154373 0.000100628 -0.000163323 0.0151606 -0.0684603 -0.35575 -0.765195 -1.20282 -0.862785 -0.0573447 0.30622 0.311436 0.0249306 0.364391 -8.53627e-05 -0.136618 -0.0571425 0.0860133 -0.121558 0.0739686 -0.0226165 -0.11174 -0.446665 -0.487969 -0.269991 0.183182 0.233458 0.0177926 0.00267958 2.37213e-05 -0.00743397 0.0307029 -0.0879727 -0.393372 -0.637482 -0.30519 0.289542 0.360384 0.299979 0.420899 0.186079 0.136466 -0.139675 0.310681 -0.23348 0.083111 -0.222838 -0.0586443 0.0641005 0.0414828 -0.0596229 -0.441474 -0.154803 0.181089 0.342539 0.0674251 0.00571303 -0.000159654 -0.00108376 0.00322624 -0.0399547 -0.0601577 -0.145462 0.156414 0.332699 0.249297 -0.0230821 0.0946881 0.0841125 0.0291276 -0.0497312 0.175346 0.00751119 0.213164 -0.333011 0.0944357 0.137184 -0.136122 0.0633925 -0.0989237 -0.11134 0.0130496 0.336197 0.223372 0.00367945 -4.72298e-05 0.00594368 0.00517267 0.136025 0.236106 0.216156 0.134685 0.131438 0.011753 0.0692365 -0.0922913 -0.00337598 -0.148192 0.0364051 -0.0377739 0.17614 0.356628 0.0384591 -0.0721172 0.045235 -0.23562 -0.26089 -0.375056 0.0282754 0.173729 0.377311 0.1803 0.0473514 2.88364e-05 0.00304521 0.0369815 0.267501 0.238742 0.0698524 0.462802 0.395766 -0.177117 0.115587 -0.107476 0.0057778 0.420791 0.0241107 0.179121 -0.142768 0.0903649 0.0307003 -0.00145149 -0.0509777 -0.0344775 0.0164468 0.0324652 -0.11055 0.111647 0.363957 0.271624 0.108699 0 0.00130515 0.0599171 0.257294 0.203454 -0.0741148 0.1498 -0.0599186 -0.255281 -0.196944 -0.493157 -0.301936 0.0313053 -0.0272485 -0.0157867 0.063812 -0.143689 -0.0368848 -0.187044 -0.182365 -0.0700175 -0.0140321 0.107493 -0.0487446 0.323849 0.559683 0.199419 0.032478 0.000761272 7.72144e-05 0.00372396 0.299704 0.133721 0.146966 0.0317111 -0.0207056 0.0414988 -0.119891 -0.0084758 0.0535962 0.0087524 -0.0592219 0.128722 0.00967078 -0.059109 0.000170661 -0.028258 -0.118099 -0.00685799 0.337515 0.387897 0.236127 0.418123 0.469452 0.0843137 0.0569031 -2.83179e-07 0.000942648 0.0289292 0.272884 0.141279 0.206266 -0.153267 -0.0393652 -0.0894257 0.0237306 0.132917 -0.177352 -0.194344 0.329796 -0.213281 0.00478482 0.0557056 0.0538705 0.220712 0.122449 0.229218 0.0598968 0.195997 0.10814 0.106498 0.360389 0.130297 0.0233806 0 -0.00460633 0.0864539 0.37245 0.440306 0.13398 0.195368 0.153901 -0.148169 0.222127 -0.0461151 -0.0893315 0.0289189 -0.0340029 -0.045692 -0.138011 -0.0170688 -0.337745 0.197583 -0.122384 0.247989 0.121629 -0.0561419 0.035982 0.155393 0.216063 0.051356 -2.33162e-06 -1.84195e-05 -0.000105428 0.0585541 0.230509 0.329545 0.0873608 0.0341599 -0.190848 -0.19026 -0.23631 -0.0161347 -0.166593 0.0968362 -0.182185 -0.272854 -0.196637 -0.0631284 -0.338827 0.00713905 -0.121641 -0.24327 -0.279944 -0.0484964 0.109643 0.236215 0.192708 0.0252291 -7.29508e-06 -1.78439e-05 -1.63209e-05 0.035562 0.124883 0.226697 0.324252 0.026358 0.199781 0.0285886 -0.207309 0.096565 -0.185247 0.0482838 -0.215232 0.00593291 -0.119009 0.0343265 0.029755 -0.0302767 -0.0493639 0.0216177 0.0566793 0.0705602 0.0662134 0.137337 0.0588429 0.00925076 -1.34679e-05 0 0 0.0135019 0.108201 0.180449 0.297422 0.0497503 0.0881808 -0.224866 0.211655 0.0876779 0.0403697 -0.0960325 0.0131694 -0.106604 -0.0124606 -0.0747256 -0.287422 0.0844489 -0.000495986 -9.00594e-05 0.108873 0.118342 0.0397518 0.097109 0.0427493 0.0422087 0 0 0 0.00903009 0.057618 0.2235 0.251947 0.152065 -0.118548 -0.135755 0.113775 0.0969714 0.236354 0.121506 0.0909625 0.329965 -0.306254 -0.339915 -0.127141 -0.282793 -0.2089 -0.0756854 0.163301 0.0942349 -0.0124009 0.0635716 0.0349655 0.000981386 0 0 0 4.55745e-05 0.00212376 0.135081 0.122379 0.0601318 0.00639263 0.0958526 0.136882 0.0221586 0.0868518 0.299348 0.0550985 -0.0841876 -0.266078 -0.202194 -0.0104068 -0.145935 -0.239099 -0.212036 -0.117285 -0.0639306 -0.0401576 -0.0113102 0.000427661 0.000666586 0 0 0 0 -0.00059258 -0.00906411 -0.0492293 -0.057483 -0.0541729 -0.0498656 -0.0536107 0.0264409 0.128155 -0.000430705 -0.106596 -0.167987 -0.0908981 0.0503392 0.0844648 0.0338335 0.011451 -0.0420392 -0.0877024 -0.0284529 -0.00248831 2.52252e-05 1.02675e-05 0 0 0 0 0 0 0.000110881 0.000457534 -0.00386728 -0.0255236 -0.0192033 0.004284 -0.00999778 -0.0135016 -0.00568595 0.0157482 0.0072459 0.0155797 0.0183442 0.00685407 -0.0211296 0.00862907 -0.00849799 -0.00559919 -0.00664413 0.000322004 0 0 0 0 
0 0 0 0 0 0 0 0 0 0 0 0 -0.000173726 -0.000476773 -0.000107244 -4.4685e-06 0 0 0 0 0 0 0 0 0 0 0 0 0 0 0 0 6.05666e-06 8.26854e-06 -0.00415977 -0.00721531 -0.015268 -0.00769255 -0.026487 -0.0698231 -0.0739023 -0.0211272 0.0187192 0.0699613 0.0251446 0.00218193 0.00176157 -0.00878738 -0.0101964 0.00447528 -0.000465119 -0.00879247 0 0 0 0 0 0 -4.24098e-06 -0.00143773 -0.000615115 -8.81891e-05 -0.00392133 -0.0182322 -0.032253 -0.0424379 -0.135503 -0.190612 -0.166466 -0.117502 -0.150405 -0.061555 -0.102999 -0.132299 -0.102796 -0.0972341 -0.0414031 -0.016984 -0.00536994 -0.0119177 -0.0263724 -0.0156027 0 0 0 0 0.0104346 -0.00337456 -0.00165835 -0.017371 -0.0358869 -0.0488375 -0.0685029 -0.142619 -0.244573 -0.403615 -0.333581 -0.429949 -0.414588 -0.194733 -0.506684 -0.271516 -0.331466 -0.323064 -0.0108128 0.13656 0.130491 0.0691039 0.0375231 0.0411036 0.0068069 0 0 -3.12119e-07 0.0360887 0.0106748 0.010088 -0.0277742 -0.0913948 -0.155496 -0.253701 -0.474954 -0.591836 -0.611673 -0.397157 0.0488375 0.182701 0.134641 -0.0725552 -0.0185306 -0.120809 -0.170331 0.0822958 0.154505 0.275551 0.169236 0.179959 0.10848 0.0232356 0.00267447 0 0 0.00469598 -0.000121829 -0.00251458 -0.0505544 -0.156993 -0.291368 -0.507078 -0.596549 -0.667348 -0.354828 -0.0280686 0.545165 0.152627 -0.213768 -0.545602 -0.380053 0.00220764 0.00166012 0.149393 0.118139 0.0834058 -0.041353 0.0675702 0.0582914 0.0372077 -0.000214121 0 -4.99633e-05 -0.00495716 0.0124471 0.0278904 -0.0773654 -0.218043 -0.34865 0.00582298 -0.300891 -0.211914 0.0586206 0.280034 0.306989 0.672619 0.397303 0.097111 0.356222 0.000993574 -0.0861384 -0.353923 -0.265952 -0.487229 -0.252163 0.0803292 0.202936 0.0720202 0.00885874 2.51194e-06 0.000257507 0.000127026 0.0564775 -0.00320283 -0.0970281 -0.0279565 -0.00378076 -0.191113 -0.115994 0.0794654 -0.180731 0.323076 0.0691945 0.565422 0.503119 0.0667322 -0.375514 -0.299642 -0.515632 -0.166773 -0.141803 -0.299984 0.10994 0.360258 0.423688 0.0918642 0.00408849 -0.00571258 -0.00965693 -0.0254741 0.00811581 0.0292316 0.00432516 -0.000554464 -0.0522137 0.0103166 -0.032746 -0.166047 -0.0855513 -0.090478 0.234056 0.589781 0.0115902 -0.246078 -0.39274 -0.144869 -0.199588 0.0924632 0.00643236 0.218729 0.462602 0.790839 0.512895 0.136805 0.0149139 -9.74909e-05 0.00135891 -0.0178731 0.0551668 0.153898 -0.0211317 0.0423496 0.304014 0.0596136 -0.194113 0.0503954 -0.0429861 -0.119701 0.0500591 0.592171 0.162066 -0.285603 0.147841 -0.0757019 0.200027 0.173666 0.0890587 0.513535 0.492916 0.78998 0.533972 0.136431 0.00610726 -9.46414e-05 0.0028647 0.0328114 0.0753453 -0.0181748 0.0210362 0.107925 0.271888 0.175643 0.000126573 0.111027 -0.218489 -0.114415 0.765865 0.843735 -0.284566 0.0264 -0.156162 0.275441 0.0225791 0.126478 0.0365424 0.287358 0.536728 0.610038 0.386447 0.108829 0.00649505 4.98245e-05 0.00527989 0.0159492 -0.0105357 0.0721117 0.11615 0.184921 0.398536 0.332084 0.120797 -0.0375928 0.0285088 -0.336484 0.5611 0.428672 0.0985197 -0.278044 0.072726 0.433068 0.31707 0.126271 0.40634 0.414369 0.254244 0.432276 0.314877 0.140902 0.00289433 3.31945e-05 0.0195955 0.00930391 0.0266167 0.410832 0.409441 0.364552 0.255354 0.00633488 0.493841 -0.0669612 -0.493054 -0.69089 -0.298673 0.657839 0.203198 -0.0827046 0.318299 0.107794 0.518964 0.411337 0.178733 0.172922 0.00481912 -0.197097 0.121736 0.12258 0.0041008 1.42389e-06 0.0118641 0.0125092 0.101989 0.491481 0.125824 -0.0102755 -0.171986 -0.0350939 0.109894 0.0918511 -0.141267 -0.433536 0.159815 0.255055 -0.0172712 0.0863305 -0.0819454 0.11056 0.120325 0.23527 -0.298396 -0.0621054 -0.540978 -0.514205 -0.0741382 0.0439351 0.00599717 -0.000691694 0.00908098 0.0108021 0.0886875 0.18506 -0.158669 0.226406 -0.229002 0.15312 -0.18647 0.0472612 -0.00495402 -0.305135 0.150596 0.23519 0.249607 -0.0223843 -0.165036 -0.0891178 -0.352724 0.210806 -0.160955 -0.122522 -0.432738 -0.408693 -0.130099 -0.0115026 8.20534e-05 -0.000222467 0.00263449 -0.0813835 -0.202514 0.0325133 -0.186523 0.195438 -0.0152442 -0.165673 -0.297066 -0.0158131 0.135939 0.0257167 0.0426608 -0.136106 0.154041 -0.0924888 -0.0681176 0.133375 -0.0539085 0.224765 -0.164466 -0.3867 -0.446237 -0.52273 -0.363965 -0.12748 -0.0189849 2.2957e-05 0.000954292 -0.0483048 -0.225424 0.0774627 -0.0240635 -0.16019 -0.0398776 0.0904706 -0.12987 -0.107499 0.161853 0.148261 -0.0641474 -0.217417 -0.279844 -0.0173088 0.0605675 -0.287801 -0.355473 -0.127255 -0.192012 -0.251508 -0.509545 -0.708719 -0.54595 -0.133369 -0.0290718 0 0.000960173 -0.0963044 -0.119649 -0.189493 -0.115537 -0.0763959 0.15719 0.247454 -0.0115185 0.055869 -0.164766 0.419836 0.331368 -0.0109925 -0.0895907 0.0131861 0.144486 -0.00731814 0.0811375 0.0451964 -0.0657768 -0.281168 -0.569696 -0.734673 -0.534895 -0.196887 -0.0305231 0.00139317 0.00012845 -0.0258943 -0.213699 -0.299516 -0.344968 -0.0241156 -0.0896738 -0.412394 -0.0469541 0.71529 0.429411 -0.107662 0.559518 0.0855528 0.23442 0.00047465 -0.0588523 0.0481427 -0.314053 -0.259151 -0.330301 -0.489564 -0.741393 -0.868912 -0.41996 -0.024618 -0.00659603 8.09366e-06 -0.00113728 0.0217049 -0.199616 -0.436992 -0.40426 -0.349966 0.212541 0.0218291 -0.00115742 -0.0712977 -0.576046 0.223114 -0.054755 0.190213 -0.0198465 -0.0265729 0.0516823 0.250433 0.0509178 -0.362852 -0.584551 -0.377043 -0.485126 -0.545003 -0.259924 -0.0509007 0.000691103 0 0.001078 -0.0108894 -0.184857 -0.639755 -0.594122 -0.430033 -0.10145 -0.0809957 -0.386056 -0.212761 -0.367201 -0.27541 0.101012 -0.00791073 -0.197715 -0.34224 -0.0227303 -0.181356 0.238931 -0.336945 -0.57128 -0.246858 -0.280907 -0.225186 -0.0432884 -0.0363934 -1.57569e-06 6.1907e-06 -0.00124659 -0.0289136 -0.161908 -0.499385 -0.552497 -0.312843 -0.245189 -0.205706 -0.375826 -0.112142 -0.49506 -0.314198 -0.384256 -0.154558 -0.0106732 0.101929 -0.367559 -0.280408 -0.297506 -0.0681892 -0.295597 -0.179395 -0.224206 -0.17369 -0.0199946 -0.0191225 -8.31032e-06 5.99725e-06 -0.000132562 -0.0383303 -0.151277 -0.295652 -0.286411 -0.167228 -0.119217 0.00613697 -0.0896276 0.164984 0.070954 0.151055 -0.187743 0.317883 -0.192654 -0.0297389 -0.30731 -0.532822 -0.565569 -0.478911 -0.29231 0.151666 0.0977426 -0.0654937 -0.0998313 -0.0183374 -1.53421e-05 0 0 -0.0173838 -0.108227 -0.0790056 -0.101616 0.0159994 -0.0860231 0.00451204 -0.148754 0.0493162 0.0970376 0.0747973 -0.063981 -0.121005 -0.273147 -0.352771 -0.334837 -0.477582 -0.251969 -0.15265 0.0765949 0.384944 0.379766 0.0647765 -0.111264 -0.0200503 0 0 0 0.000305827 -0.0020342 0.0808901 0.160237 0.258201 0.305499 0.25516 0.0314184 -0.0151041 -0.19485 -0.0433173 0.0706914 -0.197311 0.0307211 0.297941 0.293175 0.0391472 0.215441 0.373639 0.371947 0.15989 0.157638 0.00292159 -0.105857 -0.00557347 0 0 0 -0.000392064 0.00638442 0.0877193 0.239439 0.305772 0.426994 0.656269 0.710884 0.645388 0.55071 0.648863 0.404393 0.354038 0.135124 0.399026 0.372811 0.405353 0.412291 0.591488 0.438024 0.156701 0.169154 0.0624531 -0.00452913 -0.00592498 0 0 0 0 0.000191621 0.0199351 0.0552002 0.100296 0.1989 0.297661 0.383634 0.417684 0.394267 0.475787 0.526589 0.815964 0.478021 0.398311 0.429263 0.398404 0.258297 0.280597 0.293643 0.139256 0.0322512 0.00953453 1.48396e-05 0 0 0 0 0 0 1.21855e-06 0.000320005 0.00910462 0.0486513 0.0500896 0.0221385 0.0742512 0.0436742 0.0546053 0.0356904 0.167705 0.0874239 0.0307138 0.0472953 0.106646 0.0734671 0.0297005 0.049013 0.0518036 0.00287121 0 0 0 0 
0 0 0 0 0 0 0 0 0 0 0 0 -4.40191e-05 -8.44393e-05 1.32951e-05 5.53962e-07 0 0 0 0 0 0 0 0 0 0 0 0 0 0 0 0 -2.06997e-06 -6.21874e-06 -1.18301e-05 -5.76173e-05 -0.00150457 -0.00140646 -0.00165448 -0.00161294 -0.00173071 -0.00276002 0.0417224 0.0725055 0.0101561 -0.000678561 -0.000640611 -0.000927841 -0.000908103 -0.000455902 -0.00015201 -9.01389e-05 0 0 0 0 0 0 7.6888e-08 3.0251e-06 -2.0963e-05 -1.64462e-05 -0.000150558 -0.00142085 -0.0058498 -0.00328442 0.00143051 -0.0107762 0.00106309 -0.00635408 0.0387439 0.0948223 0.0419739 -0.0296227 -0.0381328 -0.0227693 -0.0154171 -0.00941423 -0.00547309 -0.00335571 0.000229368 0.000691615 0 0 0 0 0.00281645 0.000717434 0.00036033 0.00555138 0.0042984 -0.00384366 -0.0246532 -0.0149767 -0.0444921 -0.102809 -0.103965 -0.0795314 -0.0467613 0.0231472 -0.0106739 -0.094693 -0.101246 -0.065774 -0.0618455 -0.0249809 0.00413772 -0.00457429 0.000159369 -0.00449277 -0.00316547 0 0 4.38148e-08 0.00966188 0.00189083 -0.000217564 -0.000724841 -0.0045561 -0.0139424 -0.0309258 -0.0326476 -0.000386912 -0.0342479 0.0119368 0.0227648 -0.0299655 -0.00195598 0.0178198 -0.0461041 -0.065529 -0.015873 -0.0263358 0.0038336 0.00776729 -0.0192722 -0.0566847 -0.0251119 -0.00177765 -0.00142448 0 0 0.00168441 -0.00113849 0.00101632 -0.0108586 -0.0313883 -0.0550902 -0.15466 -0.14012 -0.0605362 -0.0562265 -0.0363313 -0.113283 -0.00767808 0.159497 0.0500042 -0.0350598 -0.0308565 -0.0744511 -0.134436 -0.0373019 -0.0164619 -0.0424526 -0.0317389 -0.0389506 -0.0117757 -0.00240177 0 -1.02046e-06 -0.00543338 -0.0155106 -0.0372557 -0.086957 -0.101854 -0.152919 -0.253842 -0.228732 -0.0169433 0.0677673 -0.0722449 -0.145624 -0.0500724 -0.125384 0.0238898 -0.0205369 0.0273799 -0.144532 -0.180719 -0.11586 -0.13564 -0.106421 -0.0987688 -0.0448588 -0.00445345 -0.000431834 1.83153e-06 9.10461e-05 0.000708438 -0.0151917 -0.0537632 -0.116596 -0.154114 -0.186914 -0.266282 -0.19119 -0.0359486 0.0948792 0.0964993 -0.155842 -0.073758 -0.0673934 -0.00163794 0.0838266 -0.0684644 -0.102083 -0.139172 -0.207333 -0.164367 -0.155052 -0.172282 -0.0570053 -0.00333744 -0.000921311 -7.81242e-06 0.000258295 0.00393845 -0.00196438 -0.0187495 -0.0476527 -0.0746757 -0.145716 -0.242742 -0.210258 -0.03675 0.0345721 0.0276433 -0.107278 -0.0951639 -0.0209508 -0.058862 0.201608 -0.101763 -0.180595 -0.238448 -0.228475 -0.192162 -0.218132 -0.183325 -0.064059 -0.00830648 -0.000382977 -2.09901e-05 -0.000652276 0.00439277 0.0103178 -0.0269809 -0.0620786 -0.0740086 -0.0804531 -0.181818 -0.141769 -0.00246639 0.102948 -0.0690783 -0.143812 -0.0160477 0.214249 0.191865 0.0412707 -0.111054 -0.247187 -0.309043 -0.246375 -0.224101 -0.214379 -0.166966 -0.0717833 -0.0135011 -0.000162269 -1.39327e-05 0.000423767 0.00355371 -0.0132696 -0.0206557 -0.0517632 -0.115749 -0.0869438 -0.0520253 0.0320335 0.1153 0.124994 0.11517 0.112914 0.28559 0.477751 0.301141 0.117244 -0.181794 -0.295889 -0.37399 -0.270287 -0.24375 -0.207871 -0.127559 -0.0554794 -0.0126796 0.00188087 2.22426e-05 -0.000458861 0.000132542 -0.0137258 0.0035873 -0.0270891 -0.0743526 -0.0466006 0.0317666 0.0806484 0.0767198 0.0468288 0.155323 0.252691 0.382403 0.361734 0.156103 0.0527352 -0.254609 -0.337076 -0.300016 -0.233911 -0.199981 -0.152123 -0.0845995 -0.0409592 -0.00458245 0.000971929 1.53402e-05 -0.000159346 -0.000761939 -4.00274e-06 0.0118184 -0.0286546 -0.0556546 -0.00483506 0.0696789 0.0887475 0.00985368 -0.0450363 0.294693 0.205574 0.208119 0.12614 0.114105 0.0151238 -0.239866 -0.262904 -0.191621 -0.151911 -0.150375 -0.0833232 -0.0141145 0.00180932 -0.000236518 0.00127229 1.18244e-05 0.000280581 0.000272977 0.00979493 0.00792551 -0.0438449 -0.0787608 -0.0415002 0.00454812 0.020508 -0.13287 -0.157911 0.150123 -0.0509632 0.0738571 -0.0280948 0.121333 -0.0593313 -0.282043 -0.254067 -0.133971 -0.0840732 -0.119042 -0.0851456 -0.0356984 -0.00011724 0.000785611 0.00268501 -2.50262e-05 0.000205695 0.000955891 0.0137944 0.00206816 -0.0800083 -0.118345 -0.111734 -0.0860142 -0.0826665 -0.189465 -0.223768 -0.0904179 -0.0945321 -0.00487352 -0.0338973 0.0988151 -0.290037 -0.399245 -0.359202 -0.21354 -0.0845779 -0.0613629 -0.0522522 -0.0144518 0.0133402 0.0120271 0.000566829 -7.515e-06 -2.97106e-05 0.00392672 0.00407947 -0.0163095 -0.106837 -0.151725 -0.13784 -0.0914612 -0.0930828 -0.13154 -0.0292923 -0.0593352 0.00167126 0.0825791 -0.0770783 -0.000332218 -0.407454 -0.46202 -0.431769 -0.267966 -0.064278 -0.0378999 -0.0318368 -0.00164892 0.0266529 0.0162179 0.00540565 3.88239e-06 -3.49193e-06 0.00282908 0.00283677 -0.0324408 -0.108087 -0.126374 -0.108981 -0.0976619 -0.0184478 0.00555451 0.00888274 -0.13645 -0.0478135 0.217506 -0.0547128 -0.0638503 -0.499919 -0.420124 -0.352556 -0.171487 -0.00609609 0.00921937 0.0056537 0.0188594 0.0414988 0.0265242 0.0100452 0 7.8503e-05 0.000436286 0.0029417 -0.0367979 -0.116085 -0.170114 -0.140245 -0.103224 -0.0500089 -0.0371681 -0.17699 -0.0348138 0.109313 0.22674 0.00842597 -0.279822 -0.421629 -0.319872 -0.194422 -0.0668003 0.0467766 0.0528239 0.0295311 0.0555644 0.0551024 0.0139315 0.000959011 4.36845e-05 1.58347e-05 -0.000351398 -0.00313466 -0.0320389 -0.135222 -0.250624 -0.196994 -0.119958 -0.000664509 -0.141651 -0.167179 -0.0622285 0.0726371 0.0726623 -0.0579455 -0.280535 -0.0683369 -0.0684996 0.00616917 0.0769936 0.107471 0.0849125 0.0590446 0.0495124 0.0168028 0.00480753 0.0144801 6.55357e-06 -0.000989153 -0.00287146 -0.00396435 -0.0141918 -0.132879 -0.196245 -0.162792 -0.128398 0.00205728 -0.114248 0.0138626 0.060963 0.152704 -0.00173414 -0.0256611 0.0559254 0.0616143 0.0789581 0.0852644 0.113809 0.0778612 0.00681429 0.0234105 0.00989228 0.00902099 0.00621544 0.00629005 0 -0.000430657 -0.000619375 -0.001598 -0.0106621 -0.0913741 -0.0832586 -0.102248 -0.11772 -0.0783281 0.0323345 0.263413 0.25236 0.144368 0.10747 0.0365162 0.192984 0.16969 0.132739 0.137136 0.0843047 0.0169717 -0.0433516 -0.0533679 -0.022841 -0.000628732 0.00419772 1.5833e-05 1.72825e-05 -0.000125813 -0.00150927 0.00306058 -0.00536994 -0.0201468 -0.0289007 -0.113385 -0.151439 -0.0613061 0.222695 0.196219 0.124627 0.0472858 0.0467742 0.0578793 0.0149871 0.039311 0.186519 0.137208 0.0741081 -0.00094242 -0.0627512 -0.0503825 -0.0148621 0.00284348 -0.00107521 -3.88973e-06 1.67424e-05 -3.58004e-05 -0.00209845 -0.00181885 -0.00255529 0.0548301 -0.0049216 -0.0829206 -0.0972937 -0.00678008 0.0525681 -0.0614767 -0.0850465 -0.0907098 -0.00353333 -0.0476228 0.0610895 0.199422 0.23403 0.153343 0.104163 -0.0113994 -0.0473057 -0.0115425 0.00256365 0.00534709 0.00354177 -7.18106e-06 0 0 -4.83177e-05 -0.0113965 -0.0121383 0.026868 0.0182118 -0.10848 -0.100518 -0.0548558 -0.021402 -0.0462601 0.0358451 -0.11658 -0.201881 -0.0454377 0.0762473 0.21447 0.0546923 0.0330749 -0.00113441 -0.0540229 -0.018536 -0.00232017 0.00752213 0.00900149 0.0176289 0 0 0 5.23902e-05 -0.00866443 -0.0131626 -0.00340354 -0.00431569 -0.0796916 -0.136482 -0.154068 -0.180931 -0.212023 -0.22925 -0.266671 -0.255106 -0.249426 -0.254736 -0.129189 -0.0900174 -0.023826 -0.019033 -0.0319975 -0.0160907 0.00815267 0.0125314 0.00598541 0.000591678 0 0 0 -9.91545e-07 -0.000902409 -0.00448229 -0.00870691 -0.0165249 -0.0376158 -0.0497142 -0.1012 -0.204252 -0.191305 -0.166271 -0.154625 -0.168033 -0.205703 -0.107816 -0.053255 -0.0480718 -0.0215868 -0.00447786 -0.00389978 -0.00164788 0.000939592 0.000169067 0.000449924 0.000535913 0 0 0 0 1.49846e-05 5.42001e-05 -0.000539047 -0.000568559 -0.00101977 -0.00243459 0.000828744 -0.019909 -0.0365338 -0.0286784 -0.0726507 -0.0520836 -0.0405564 -0.00809302 0.0129771 0.00767242 0.000460665 -0.00514944 -0.00500543 -0.000753507 0.000207756 3.96973e-06 4.49221e-06 0 0 0 0 0 0 -2.5064e-05 -1.53087e-05 0.000191481 0.00057616 0.000768689 0.00119 -0.00133257 0.000554799 0.00483716 0.00228751 0.00762702 0.00821894 0.00538606 0.00165485 0.00191488 2.41601e-05 -0.000380374 -0.000520749 4.32689e-05 9.13027e-05 0 0 0 0 
0 0 0 0 0 0 0 0 0 0 0 0 -0.00014033 -0.000292238 1.67321e-05 6.97171e-07 0 0 0 0 0 0 0 0 0 0 0 0 0 0 0 0 -1.32111e-05 -2.9249e-05 0.00186641 0.00307462 0.00484097 -0.000121539 -0.00401448 -0.00532142 -0.00540461 -0.00851217 0.000168499 0.00961935 0.000100246 -0.00296295 -0.00334571 -0.00106946 -0.000377678 0.00025419 0.000452633 -0.000437001 0 0 0 0 0 0 -8.52641e-08 -3.64951e-06 -4.23945e-05 -0.00031407 -0.00157541 0.00476151 0.000935608 -0.00231273 0.00395405 -0.0235429 -0.0517929 -0.0765414 -0.0560154 -0.0420688 -0.0451192 -0.0537259 -0.0350157 -0.0239036 -0.013597 -0.00880249 -0.00444803 -0.00151089 0.00868483 0.00596555 0 0 0 0 0.000711032 0.00021362 0.000295307 -0.00335677 -0.00834949 -0.00905342 -0.0264126 -0.0388259 -0.0448908 -0.0539865 -0.073428 -0.100055 -0.161057 -0.154672 -0.17273 -0.168124 -0.135069 -0.0949787 -0.048266 -0.0255954 -0.0122935 -0.00774722 0.00398105 0.00576592 -0.000175103 0 0 1.87145e-06 0.00245388 0.000855283 0.0032897 -0.00973142 -0.00316656 -0.0131664 0.013773 -0.0674924 -0.044795 -0.0234081 -0.0410619 -0.101984 -0.310559 -0.362223 -0.443932 -0.43229 -0.261354 -0.125 -0.0654748 -0.0156128 -0.0136363 0.0070377 -0.00449159 0.000621727 0.000297623 -0.000205521 0 0 0.000454906 0.00983396 0.0452515 0.0331455 0.0564281 0.0836094 0.0209882 -0.0159809 0.00748511 0.0438698 0.0348399 -0.0810501 -0.334363 -0.24078 -0.431619 -0.568657 -0.453401 -0.24334 -0.157932 -0.0532439 0.00530004 0.0103146 0.00613841 -0.0125417 -0.00352427 -0.000302571 0 1.85194e-06 -0.00794271 0.0438907 0.0434791 0.00336835 0.0555365 0.0707569 0.00894532 -0.0342244 -0.0635624 -0.0171596 -0.0432019 -0.104443 -0.24935 -0.252101 -0.0739831 -0.381758 -0.415832 -0.406245 -0.237333 -0.119574 -0.0901945 -0.0358532 -0.0274138 -0.021122 0.000617644 0.000656256 -8.07833e-07 0.00021835 -0.00377758 0.0455766 0.0291435 -0.0703868 0.00709855 0.0174282 -0.0716199 -0.082565 -0.125042 -0.0300533 0.0238881 0.11157 -0.00677039 -0.176663 -0.201647 -0.347925 -0.479981 -0.448195 -0.306682 -0.241029 -0.169552 -0.0724079 -0.0882772 -0.035569 0.00159613 -4.20051e-05 -6.49706e-05 0.00140826 -0.00268408 0.0203772 0.0487789 -0.0661798 -0.0502875 0.0362918 -0.137491 -0.136252 0.13649 0.0713105 0.159349 0.348407 0.19061 -0.178259 -0.386826 -0.324228 -0.414585 -0.453977 -0.377312 -0.306009 -0.201665 -0.187838 -0.126201 -0.0547902 -0.00179967 7.61907e-05 0.000112386 0.00259242 0.00652253 0.0202005 0.0293843 0.00152244 0.0761055 0.150045 -0.0607393 0.0808045 0.277855 0.355601 0.336879 0.437973 0.348324 -0.121685 -0.368813 -0.349549 -0.300412 -0.372464 -0.310332 -0.213209 -0.182185 -0.199244 -0.130766 -0.0537997 -0.000535116 0.0039202 0.000145377 0.001787 0.0117134 0.0118989 0.00972909 0.0478125 0.171197 0.0886483 0.0734414 0.220862 0.338908 0.33274 0.292056 0.380526 0.179011 -0.218241 -0.295849 -0.195802 -0.145284 -0.16124 -0.150997 -0.111002 -0.125417 -0.154766 -0.114679 -0.0318645 -0.00198149 0.00180807 4.6646e-05 0.00254934 0.0176258 0.0332132 0.0377351 0.0515777 0.0871095 -0.0414382 0.00634645 0.0271101 0.123387 0.0418645 0.0300293 0.165175 0.276354 0.070082 -0.105889 0.102533 0.0728085 -0.0167952 -0.0981083 -0.129232 -0.0883691 -0.116737 -0.0567611 -0.000660135 -0.000961119 0.00164648 1.85661e-05 0.00395961 0.0203643 0.0320015 0.055459 0.0452871 -0.0423788 -0.104326 -0.0596839 -0.0277404 -0.201389 -0.221261 -0.1117 0.169354 0.456966 0.113282 -0.0447525 0.225133 0.160725 0.0597543 -0.0339624 -0.10609 -0.0417674 -0.0388734 0.0322031 0.0505108 0.0220229 0.00527067 1.26939e-05 0.00308879 0.0187405 0.0047421 0.053498 0.0201852 -0.102033 -0.18476 -0.183227 -0.113531 -0.194735 -0.145912 0.0882262 0.186427 0.349504 -0.0123705 0.018642 0.187168 0.0609474 -0.00219821 0.082006 -0.0570549 -0.00855113 0.0226047 0.0531478 0.0518939 0.0331644 0.00716645 -6.71686e-05 0.00205823 0.0127854 -0.0171282 -0.0266128 -0.09322 -0.189298 -0.280357 -0.119901 -0.071514 0.0447885 -0.0624304 0.0291898 0.228266 0.247875 -0.030656 -0.0920104 -0.0565735 -0.0828978 -0.00282269 0.024514 0.0588949 0.0210341 0.0630797 -0.0316109 0.0342188 0.0423191 0.000695482 -1.84588e-05 0.000389453 0.00476521 -0.0338724 -0.0634875 -0.0754876 -0.140152 -0.201132 -0.0618953 0.0144209 -0.0411323 -0.0213222 0.103867 0.203281 0.141011 -0.278425 -0.151069 0.0376806 0.0695837 0.0841552 0.147682 0.117094 0.00399567 0.0536375 -0.0108196 0.0422795 0.0264985 0.007291 2.01969e-05 0.000211676 0.00229547 -0.0164626 -0.0429368 -0.0295001 -0.0107517 -0.0290233 -0.00520271 0.0524354 0.0784409 0.013273 0.0220639 0.0393645 0.134168 -0.293797 -0.0636887 0.0999436 0.243138 0.168643 0.185615 0.164404 0.0616186 0.0377029 0.000525118 0.031577 0.0459196 0.0147572 0 0.000147396 0.00101728 0.0262189 0.00383013 -0.0355662 0.0237862 0.0467824 0.0465886 0.0278061 -0.00312229 -0.0780052 0.0686511 0.0600295 0.0821255 -0.0721586 -0.124566 0.139143 0.215732 0.139409 0.126932 0.149442 0.075988 0.0112851 0.0558495 0.0642918 0.0139674 0.0100132 4.91581e-05 2.53995e-05 0.000353908 0.0123287 -0.0040409 -0.0306633 -0.0621425 -0.0837235 0.0286037 -0.0061159 -0.0951419 -0.310419 -0.319114 -0.134403 -0.0171737 -0.0409481 -0.193958 0.0502529 0.0993858 0.0748688 -0.0328578 0.133838 0.0779624 0.0390508 0.0467442 0.047806 0.00165777 0.00378094 5.53723e-06 0.00159445 -0.00347192 -0.0190159 -0.026509 -0.0653169 -0.109575 -0.112599 -0.0603823 -0.104723 -0.218241 -0.44958 -0.456089 -0.270075 -0.112366 0.0718836 0.00861451 0.0785071 0.0955024 0.0898516 -0.103339 -0.0584526 0.00495378 0.0229382 0.0208433 0.0435999 0.00432399 0.00141865 0 -0.000378696 -0.00251211 -0.0223252 -0.0368692 -0.0716305 -0.0746956 -0.0468986 -0.0015056 -0.126614 -0.219126 -0.337871 -0.357586 -0.282655 -0.080934 0.0762054 0.0969401 -0.00649022 0.0470151 -0.102802 -0.187207 -0.128824 -0.0526987 -0.0266808 0.00851953 0.0226334 0.00175357 1.05016e-05 1.06392e-05 -0.000108467 3.93377e-05 -0.00110708 -0.0217069 -0.0309585 -0.0862437 -0.113189 -0.0526952 -0.104113 -0.140692 -0.190814 -0.21348 -0.265629 -0.16868 0.075085 0.00325863 -0.217566 -0.0294647 -0.0876959 -0.122356 -0.122482 -0.0875418 -0.0500575 0.00477391 0.0206618 -0.00103961 -4.41043e-06 1.03067e-05 -3.78356e-05 -0.000542919 0.000274961 -0.00277831 0.0138725 -0.00573092 -0.0502372 -0.0524462 -0.0690545 -0.158297 -0.257079 -0.141762 -0.215427 -0.290748 -0.113561 -0.141966 -0.0853172 0.0447917 0.0518364 0.0546376 -0.0328717 -0.0421269 -0.03585 0.0135758 0.0135221 4.85834e-05 -8.14233e-06 0 0 0.000273375 -0.00377899 0.00684486 0.0424547 0.0347332 -0.00996827 -0.0437603 -0.0810031 -0.196832 -0.234121 -0.190066 -0.142213 -0.16429 0.0429738 -0.0398051 0.200055 0.0573682 0.0431001 0.0599423 -0.0547658 -0.0571809 -0.010419 0.0283621 0.0126465 0.00133851 0 0 0 0.000134002 -0.00330492 0.00603257 0.0262858 0.0130465 -0.0282127 -0.0824683 -0.116412 -0.171491 -0.0725208 -0.0711871 -0.0401692 0.0497283 -0.0748386 -0.150027 -0.00182613 -0.0599254 -0.015898 0.0169129 -0.0215977 -0.0348227 0.00427298 0.0336895 0.0167695 0.00312193 0 0 0 -4.1473e-06 1.37107e-05 0.00499153 0.00877208 -0.00377218 -0.0245075 -0.0377988 -0.0772547 -0.104395 -0.100669 -0.0684296 -0.046806 -0.0172543 -0.115959 0.0190586 -0.0359834 -0.0342542 0.0228979 0.0302101 0.00883262 -0.00245954 -0.00424577 0.00263664 0.00269175 0.00321507 0 0 0 0 -8.47481e-06 -0.000674895 -0.00253166 -0.00111687 0.00256858 0.00609244 0.0021312 0.0121242 0.0114154 -0.0185668 0.010382 0.0226586 -0.0167108 -0.0849723 -0.0913834 -0.0165829 0.0133367 0.00451187 -0.0072038 0.0118854 0.00629757 0.000792123 5.53188e-06 0 0 0 0 0 0 -1.45285e-05 2.61942e-05 0.000446953 0.00171896 0.00220102 0.00262517 0.00636961 0.000730365 0.00160221 0.0156303 0.00898574 -0.00599068 -0.0050447 -0.00223368 -0.00240486 0.00206171 -0.000902564 0.00466726 0.00239538 0.00123701 0 0 0 0 
0 0 0 0 0 0 0 0 0 0 0 0 -4.15519e-05 -7.89576e-05 1.33833e-05 5.57638e-07 0 0 0 0 0 0 0 0 0 0 0 0 0 0 0 0 -2.18764e-06 -6.57509e-06 -1.28706e-05 -5.72702e-05 -0.00145614 -0.00135411 -0.00162234 -0.00163213 -0.00168589 -0.00242652 0.0391848 0.0666957 0.00893456 -0.000744557 -0.000624139 -0.000969443 -0.000927029 -0.000439911 -0.000138609 -7.44525e-05 0 0 0 0 0 0 1.08611e-07 3.17688e-06 -1.97971e-05 -6.33247e-07 -6.82595e-05 -0.00128101 -0.00748873 -0.00900662 -0.00314836 -0.0116025 -0.00164507 -0.0139133 0.0278057 0.0859354 0.0478526 -0.0186044 -0.028493 -0.0218412 -0.0137106 -0.00813823 -0.00478025 -0.00278898 -0.000362386 0.000248328 0 0 0 0 0.00485624 0.00120506 0.00021948 0.000261415 -0.000650081 -0.00611804 -0.0234932 -0.0154502 -0.0448727 -0.101095 -0.0871783 -0.0814475 -0.0589822 -0.0135052 -0.0248984 -0.0632984 -0.068605 -0.0495861 -0.0410532 -0.0315245 -0.00978886 -0.0091061 -0.00454912 -0.000403915 -0.00039185 0 0 8.30251e-08 0.016656 0.00378345 0.000205662 -0.00602098 -0.00861422 -0.0179981 -0.0344344 -0.0302347 0.00600619 -0.00186261 0.0176453 0.0286116 -0.00109079 0.00257886 -0.075591 -0.163103 -0.0942075 -0.0443382 -0.0701781 -0.0298139 -0.0147455 -0.00915305 -0.0325832 -0.0125261 0.000117049 -0.000285733 0 0 0.0024701 -0.000187884 0.00308553 -0.0100719 -0.02923 -0.0605144 -0.157388 -0.133879 -0.0638435 -0.0269006 -0.0614971 -0.0821248 0.0494648 0.209069 0.0478146 -0.153404 -0.227934 -0.195252 -0.188417 -0.0596941 -0.00663254 -0.0128271 -0.0103829 -0.0274388 -0.0048229 -0.000406616 0 -9.11512e-07 -0.00504072 -0.0101089 -0.0307996 -0.0723338 -0.0944983 -0.157198 -0.26245 -0.241346 -0.0247314 0.0899591 -0.0665939 -0.095755 -0.0529699 -0.0786458 0.0439024 -0.139367 -0.251042 -0.323508 -0.218246 -0.0918704 -0.0582827 -0.0400696 -0.05407 -0.0374186 -0.00166324 0.000564367 1.90396e-06 1.27564e-05 -0.000222528 -0.00880207 -0.0468488 -0.10713 -0.151246 -0.205418 -0.313258 -0.214989 -0.0592008 0.0857522 0.0679876 -0.118989 -0.0326087 -0.0236662 -0.102262 -0.139481 -0.376642 -0.300819 -0.168535 -0.122858 -0.0819929 -0.090717 -0.113904 -0.0448702 -0.000955665 -0.000437877 -1.03781e-05 0.000185897 0.00361166 0.00265501 -0.018287 -0.0540446 -0.0832887 -0.178543 -0.289466 -0.249412 -0.0566098 0.0214147 0.0763262 0.00373705 0.074836 -0.014018 -0.260259 -0.12029 -0.391999 -0.303004 -0.209332 -0.154825 -0.132631 -0.16393 -0.140581 -0.0560321 -0.00568442 -0.000320161 -6.18565e-06 -0.000243107 0.00375821 0.0122435 -0.0229964 -0.0625542 -0.0713884 -0.0980871 -0.214056 -0.204593 -0.0510002 0.106317 0.0350422 0.0404053 0.167037 0.137533 -0.108817 -0.253573 -0.335123 -0.303597 -0.27219 -0.199517 -0.179884 -0.17972 -0.137547 -0.0587695 -0.00920768 -0.000215203 3.50553e-06 0.000475664 0.00297666 -0.0105786 -0.0146514 -0.0442092 -0.109383 -0.0887167 -0.063435 -0.0378955 0.0624911 0.0999509 0.175907 0.183875 0.32003 0.295036 0.0600986 -0.0824729 -0.306842 -0.250565 -0.294372 -0.209147 -0.189666 -0.167465 -0.0995795 -0.0395138 -0.0070334 0.00233741 2.50654e-05 1.77786e-05 0.00109654 -0.00961997 0.00748607 -0.0125789 -0.0600236 -0.0487152 -0.00764332 -0.00715078 0.0225047 0.0090416 0.100731 0.171524 0.293669 0.220178 0.0707502 -0.0377459 -0.315374 -0.227565 -0.198449 -0.150654 -0.139019 -0.107007 -0.0583825 -0.0269164 -0.00140891 0.00116791 1.61752e-05 0.000453752 0.000392425 0.001754 0.0127238 -0.00763313 -0.0285585 -0.00659851 0.0192018 0.0120927 -0.0367926 -0.100694 0.188139 0.0569542 0.13751 0.0794054 0.0902077 -0.0334966 -0.239271 -0.185231 -0.119506 -0.0957872 -0.109639 -0.0665669 -0.0189877 -0.00166885 0.000420952 0.00132345 1.17675e-05 0.000252394 0.00074028 0.00751795 0.0103859 -0.020998 -0.0418609 -0.0349676 -0.035698 -0.0599727 -0.163828 -0.220107 0.017742 -0.199069 0.0626528 -0.0281989 0.0902432 -0.0884764 -0.236766 -0.18212 -0.108297 -0.0671971 -0.0844593 -0.0715137 -0.0327132 -0.00157364 -0.00104596 0.00103967 -2.29519e-05 0.000129992 0.000802703 0.00929016 0.00427963 -0.0504208 -0.0764109 -0.0880014 -0.110688 -0.131508 -0.273343 -0.276947 -0.138254 -0.167418 0.0294984 0.000215842 0.0554864 -0.284957 -0.31605 -0.257556 -0.163773 -0.0777821 -0.0600265 -0.0568895 -0.0258656 0.00485341 0.00771751 0.000344592 -6.74685e-06 -2.49036e-05 0.00239639 0.00342461 -0.00658332 -0.0696587 -0.09907 -0.111134 -0.130011 -0.156155 -0.240786 -0.0688224 -0.0357551 -0.00303359 0.144718 -0.045706 0.0118379 -0.35132 -0.349113 -0.324015 -0.200491 -0.0617911 -0.0488252 -0.0417209 -0.0132669 0.015104 0.0105077 0.00328337 4.39062e-06 -1.14772e-06 0.001792 0.00282458 -0.0134884 -0.0736092 -0.0958023 -0.107335 -0.120313 -0.0811574 -0.109027 -0.0394756 -0.0904773 0.0124843 0.26065 -0.0192976 -0.0529662 -0.416509 -0.379854 -0.304236 -0.13869 -0.0168626 -0.00532364 -0.014509 -0.00262519 0.0140893 0.0153702 0.00648184 0 7.57765e-05 0.000406442 0.00334786 -0.0186323 -0.0914907 -0.149808 -0.152146 -0.114402 -0.0959027 -0.144502 -0.197823 -0.0289648 0.142266 0.318554 0.0857126 -0.249706 -0.339478 -0.31998 -0.198414 -0.0706091 0.0308472 0.0194188 0.00554059 0.0237645 0.0244752 0.0115903 0.000605116 4.51607e-05 1.51986e-05 5.69456e-05 0.00276829 -0.0251795 -0.112939 -0.222077 -0.201787 -0.131285 -0.0987498 -0.291367 -0.251894 -0.0577047 0.139861 0.237253 0.0424543 -0.261169 -0.0594432 -0.0909519 -0.0316994 0.0259902 0.043755 0.00103771 0.00292626 0.0149035 0.00652326 0.00563875 0.0144162 6.37906e-06 -0.000899669 -0.000962901 0.000672761 -0.0187578 -0.114074 -0.170415 -0.161768 -0.135799 -0.116189 -0.306451 -0.161246 0.0304435 0.208106 0.138035 0.0570254 0.042491 0.0217447 0.0323433 0.0298198 0.033932 -0.0232854 -0.0791481 -0.0265015 -0.00908896 0.00125642 0.00592432 0.00627851 0 -0.000301776 -0.00141934 -0.000170407 -0.0135076 -0.0736425 -0.0684589 -0.104526 -0.13526 -0.174441 -0.149232 0.128888 0.25594 0.206297 0.182575 0.0814939 0.182001 0.122288 0.100883 0.0494997 -0.0127877 -0.0738418 -0.0925841 -0.0838612 -0.0360069 -0.00555534 0.0043502 1.46503e-05 1.70925e-05 -0.000129737 -0.00205627 0.00154123 -0.000728178 -0.00123312 -0.0252299 -0.124389 -0.171333 -0.18699 0.0232724 0.1551 0.169071 0.0671376 0.11587 0.134175 0.0354178 0.0436969 0.173238 0.0904697 -0.00586355 -0.0558502 -0.0925719 -0.0717543 -0.0254845 -0.00166106 -0.00109095 -3.99539e-06 1.65584e-05 -3.65846e-05 -0.00228286 -0.00171917 0.00332273 0.0572302 0.00919213 -0.0856015 -0.150646 -0.135816 -0.089005 -0.0660546 -0.0352316 -0.0855585 -0.00273519 -0.0423619 0.0198825 0.175362 0.221448 0.145532 0.0680738 -0.0428386 -0.0587897 -0.0263052 -0.00292972 0.00154862 0.00203416 -7.37611e-06 0 0 -6.19903e-05 -0.00860521 -0.00464222 0.038788 0.0517917 -0.0646353 -0.128331 -0.167731 -0.172511 -0.102505 0.0130494 -0.0925795 -0.149832 -0.0565645 0.013225 0.199533 0.0584389 0.0309369 -0.0256774 -0.0718074 -0.0339292 -0.012681 0.00285189 0.00487801 0.00928439 0 0 0 5.97e-05 -0.00677183 -0.00974454 0.00537474 0.0100608 -0.0536277 -0.108954 -0.170556 -0.220185 -0.234457 -0.221978 -0.247436 -0.27764 -0.32289 -0.305316 -0.116017 -0.0814612 -0.0304954 -0.0301473 -0.0399126 -0.020913 0.00460261 0.00823227 0.00270008 0.00012039 0 0 0 -5.35196e-07 -0.000739688 -0.00395744 -0.00711388 -0.0139809 -0.0370724 -0.0491241 -0.0890849 -0.191385 -0.186445 -0.166401 -0.159856 -0.209029 -0.260289 -0.135817 -0.0557578 -0.032948 -0.0104805 -0.00161974 -0.00127057 -0.00177189 0.000359414 5.4997e-05 3.21189e-05 3.62667e-05 0 0 0 0 1.16348e-05 -0.000130882 -0.00102985 -0.000988447 -0.000925504 -0.000815995 0.00186479 -0.0148019 -0.0258964 -0.0298407 -0.0565308 -0.056879 -0.0568402 -0.0165417 0.00487374 0.00483996 0.0031972 -6.08803e-05 -0.0013829 9.28721e-05 0.000279729 4.09363e-06 4.60594e-06 0 0 0 0 0 0 -2.41496e-05 -1.1451e-05 0.000199117 0.000581893 0.000795789 0.00118722 -0.000210503 0.000662221 0.00286611 0.00145709 0.00652253 0.00535442 0.00354977 0.00117945 0.000758276 2.80627e-05 -0.000298904 -3.34296e-06 0.000409516 9.47643e-05 0 0 0 0 
0 0 0 0 0 0 0 0 0 0 0 0 -5.57783e-06 -6.73981e-05 -6.141e-05 -2.55875e-06 0 0 0 0 0 0 0 0 0 0 0 0 0 0 0 0 6.39768e-05 0.000199108 0.000719382 0.0027615 0.00865751 0.00770519 0.0136729 0.0154128 0.0184364 0.0111634 0.0123968 0.0128202 -0.00165531 0.0200484 0.0402318 0.0217628 0.00851906 -0.00414767 -0.00534494 0.00380033 0 0 0 0 0 0 2.93937e-07 0.000732335 0.000168331 0.00237377 0.0300084 0.0581839 0.0997039 0.194303 0.174069 0.168287 0.20958 0.162316 0.165145 0.208244 0.265705 0.251939 0.173485 0.165089 0.115421 0.0670451 0.00905822 0.00547967 0.00103399 -0.001447 0 0 0 0 -0.00280469 0.00482116 0.0146241 0.0366629 0.0902996 0.136198 0.306147 0.44789 0.498217 0.456052 0.441213 0.46098 0.41892 0.369016 0.148717 0.0528927 0.241986 0.215786 0.156715 0.147834 0.128835 0.0493627 0.00299299 -0.00353134 0.000201901 0 0 -4.67717e-07 -0.00961522 -0.00652475 0.0148898 0.0679818 0.128772 0.297125 0.303544 0.450359 0.58306 0.433136 0.489504 0.487748 0.693523 0.589627 0.435696 0.109923 0.236125 0.0981009 0.0738744 0.218475 0.160851 0.0697283 0.110751 0.0143623 -0.00510883 -0.000661046 0 0 0.00041257 -0.0147134 0.0035458 0.0501872 0.162277 0.273177 0.020962 -0.152883 0.0403404 0.187361 0.04249 0.080276 0.173401 0.261343 0.389318 0.0818439 0.062635 0.0809141 0.240661 0.343739 0.261606 0.260766 0.174451 0.0900657 0.0327594 0.00789036 0 -5.14653e-07 -0.0235096 -0.123531 -0.102595 -0.0519354 -0.013187 0.0603633 -0.273415 -0.376405 -0.373759 0.073568 -0.157097 -0.071952 -0.0357419 -0.127927 0.0358025 0.0999223 -0.179399 -0.160843 -0.0789879 -0.479409 0.0155934 0.224108 0.458583 0.292726 0.13005 0.0383774 -1.22266e-05 -0.00790903 -0.0503867 -0.232633 -0.284297 -0.119832 -0.106778 -0.196361 -0.269544 -0.297659 -0.184266 0.0783027 -0.186803 -0.337015 0.0172235 0.310989 -0.330516 -0.232591 0.0401532 -0.152485 -0.195674 -0.0668175 0.0541041 0.025607 0.446495 0.359054 0.15905 0.0133777 0.0069864 -0.0124292 -0.0632086 -0.205752 -0.326241 0.00234577 0.162178 -0.210839 -0.209962 0.0769532 -0.324728 -0.262777 -0.115585 0.0365616 -0.305213 -0.217741 0.116961 -0.094969 0.0295296 0.330775 -0.0116727 0.0868575 -0.129433 -0.323813 0.412686 0.497307 0.156234 0.0135273 -0.00348506 -0.0198158 -0.105902 -0.259445 -0.29939 -0.200779 0.0552569 -0.175015 0.0572873 -0.0217784 -0.0739687 0.0902903 -0.0404499 -0.220207 -0.319048 -0.205756 0.133687 0.151901 0.22872 0.131138 0.350678 0.210276 0.0709966 -0.165634 0.219633 0.471981 0.109218 0.00270367 -0.00409805 -0.0112726 -0.117084 -0.212502 -0.159112 -0.185951 -0.10896 -0.0770241 0.159773 -0.214006 -0.0844254 -0.19969 -0.119907 -0.639683 -0.260406 -0.21709 -0.16368 0.116045 0.294186 0.145434 0.0734064 -0.186185 -0.0248728 -0.227833 0.0428137 0.520888 0.192291 -0.00233932 -0.000594356 -0.0297476 -0.11333 -0.152352 -0.115219 -0.155606 -0.28997 -0.437898 0.0883462 -0.533189 -0.397474 -0.144204 0.0471192 0.219658 0.219182 0.123673 -0.0546175 0.174849 0.162722 0.22431 -0.0397678 0.0826242 0.0754229 -0.270012 -0.26017 0.171157 0.107483 0.00144273 -0.000247534 -0.0356739 -0.106122 -0.0452691 -0.139993 -0.250195 -0.448592 -0.393433 -0.249964 0.00422073 0.0881416 0.283298 0.276453 0.655537 0.296217 -0.228767 -0.215825 -0.00290759 -0.193328 0.257528 0.043793 0.105534 -0.130592 -0.342913 -0.550888 -0.128015 -0.0226614 -0.00945097 6.19081e-06 -0.00738029 -0.0870666 -0.034932 -0.172624 0.0260875 -0.0367957 0.13529 0.435328 0.414141 0.21225 0.121752 0.254175 0.304095 0.187582 0.304568 -0.148291 -0.235852 -0.288876 0.0813015 0.0981356 -0.0136314 -0.26565 -0.385384 -0.466931 -0.171366 -0.0797843 -0.0193112 0.000183829 -0.00260541 -0.0763001 -0.025117 -0.0151133 0.0897781 0.241661 0.0314542 0.242354 0.26451 0.135736 0.291044 0.135779 0.206075 0.23815 -0.0466302 0.0889367 -0.398112 -0.301504 -0.480131 -0.0150873 -0.32692 -0.351004 -0.73174 -0.26358 -0.151194 -0.114684 -0.00222228 -1.06145e-05 -0.0031815 -0.0421879 0.0405389 0.0232385 -0.074102 0.321136 0.0111574 0.344274 0.542429 0.188293 0.271159 0.0933367 0.233915 -0.209348 -0.456487 0.124375 -0.0637344 0.14222 -0.171514 -0.299132 -0.206216 -0.423546 -0.647959 -0.103543 -0.140439 -0.106076 -0.00941795 -0.000404606 -0.00103671 0.00415994 0.093569 0.156712 0.148728 0.0610848 0.00144217 0.204002 0.359781 0.185867 0.332508 0.199723 -0.144049 -0.211366 -0.358599 0.0188172 0.211929 0.212395 0.0226109 -0.239098 -0.329336 -0.419122 -0.192403 -0.12284 -0.0975068 -0.100768 -0.0160662 0 -0.000515259 0.0484262 0.101255 0.196864 0.392754 0.18052 -0.0945005 0.157438 0.0716023 0.0373542 -0.102912 -0.0434141 -0.0882808 0.0216904 -0.047993 0.156204 -0.1788 -0.0453199 -0.180373 -0.300262 -0.151081 -0.23295 -0.0641967 -0.265116 -0.0980234 -0.00941288 -0.000788602 -0.00193074 -1.19227e-05 0.0305963 0.184929 0.103883 0.282241 0.306778 0.0594264 -0.00062976 -0.125211 -0.322086 -0.0826088 -0.124556 -0.247924 0.160192 0.324565 0.133252 -0.189798 -0.0995134 -0.205941 -0.0875755 0.0335542 -0.125894 -0.0962328 -0.0896602 -0.0786544 0.00546093 -0.00819681 4.01827e-06 -0.00585697 0.00618093 0.209301 -0.0343626 -0.0166541 0.0231447 0.0107305 0.0663281 0.195527 -0.183202 -0.71825 -0.491828 0.107891 0.518635 0.521238 0.372952 0.305107 0.455242 0.216585 0.162015 0.255139 0.0235202 -0.126072 -0.0181319 -0.0419518 -0.00586941 -0.00162822 0 -0.00606587 0.0133459 0.205316 0.166957 0.0598993 -0.0401008 0.0464383 0.194705 0.497566 -0.067346 -0.398881 -0.203762 0.393344 0.416224 0.397611 0.503485 0.480404 0.644385 0.251917 0.560507 0.334619 0.266636 0.136727 -0.0109095 -0.0332429 -0.00192263 -2.22142e-05 3.30157e-05 0.000251129 0.034053 0.196357 0.331199 0.0617291 -0.0468008 0.0493928 0.202766 0.175719 -0.173103 -0.0434841 -0.0592092 -0.0375902 -0.0330541 0.172058 0.132547 0.389963 0.552908 0.532224 0.644372 0.619468 0.390238 0.195317 -0.0614203 -0.052261 -0.006119 -2.50442e-05 3.1984e-05 1.3814e-05 0.0357154 0.101641 0.301081 0.0693394 -0.104056 -0.160335 -0.319781 -0.113133 0.106859 0.0883609 -0.343717 -0.141832 -0.224067 -0.200685 0.0977475 0.13803 0.268475 0.276352 0.565718 0.587215 0.372134 0.146707 -0.0356962 -0.0258626 0.00305238 -4.62354e-05 0 0 0.0268392 0.049831 0.0786061 -0.011701 -0.245341 -0.0326396 0.250197 0.1658 0.265388 -0.035201 0.0531841 0.0735776 -0.206108 0.0960394 -0.0141781 -0.198914 -0.0687201 0.268777 0.594742 0.498924 0.37536 0.176465 -0.035857 -0.0243924 -0.00504623 0 0 0 0.000369162 -0.00643655 -0.115848 -0.233885 -0.176742 0.185483 0.241468 0.376385 0.383762 0.180299 0.257237 0.114614 -0.0149724 -0.0885233 -0.0296286 -0.0304052 0.0449964 0.1506 0.302674 0.271541 0.283131 0.206407 0.00928589 0.00343947 -0.000434341 0 0 0 0.00319688 -0.00209811 -0.143323 -0.135295 0.174902 0.327554 0.231657 0.143238 0.302316 0.090374 0.100905 0.301566 0.128024 0.0150241 -0.0457966 0.0820911 -0.103051 -0.179273 -0.00726691 0.0785336 0.0891083 0.0694951 0.0167214 -0.000352248 -0.000460659 0 0 0 0 8.84442e-05 0.0170921 -0.0116046 0.0269556 -0.033366 -0.176782 -0.0912418 -0.124594 -0.183071 0.060409 -0.0521608 -0.071767 0.103708 0.0469082 0.122548 -0.315575 -0.47636 -0.180427 -0.042901 -0.00296609 0.0104408 0.000151583 -2.77964e-06 0 0 0 0 0 0 -9.48832e-05 -6.19631e-05 -0.00199411 -0.0208058 -0.0477668 -0.0690685 -0.115004 -0.0244632 -0.0161283 -0.106779 -0.0176191 0.0398882 0.0268595 -0.0287173 -0.0417589 -0.0677224 -0.0439876 -0.0142707 0.00564101 -0.00292816 0 0 0 0 
0 0 0 0 0 0 0 0 0 0 0 0 -0.00104871 -0.0020578 0.000265421 1.10592e-05 0 0 0 0 0 0 0 0 0 0 0 0 0 0 0 0 -1.33142e-05 -6.52065e-05 -0.0119346 -0.0258181 -0.0625468 -0.0226288 -0.0329267 -0.0662847 -0.0622289 -0.0433956 -0.0302698 -0.0222572 -0.0123497 -0.0695499 -0.0969957 -0.0493897 -0.0221208 -0.0212397 -0.0155136 -0.00730513 0 0 0 0 0 0 -2.60791e-06 -2.13397e-06 -0.00026008 -0.000795035 -0.0285706 -0.0970043 -0.131032 -0.100743 -0.1802 -0.163027 -0.0960912 -0.101058 -0.11832 -0.122757 -0.0903192 -0.0934039 0.00490998 -0.147375 -0.0657895 -0.0918978 -0.0840806 -0.0425019 -0.00147036 0.00517642 0 0 0 0 0.0113632 0.00311591 0.0134643 0.00662143 -0.0449895 -0.0981326 -0.22545 -0.186837 -0.222028 -0.089506 -0.0467125 -0.0748376 -0.00529245 0.205331 0.232688 0.18784 0.154975 0.082202 0.0476123 -0.139928 -0.248012 -0.201077 -0.111325 -0.00191207 -0.0134628 0 0 7.06388e-06 0.0388902 0.00906984 -0.000127423 -0.00239978 0.0154785 -0.0928177 -0.182187 -0.274635 -0.246852 -0.121472 0.0178412 0.0781499 0.08404 -0.0730729 0.242189 -0.1635 0.10313 0.0867952 0.378001 -0.00286989 -0.252323 -0.379 -0.278591 -0.0229178 0.0363646 0.00518018 0 0 0.00522137 0.00673978 0.0183217 -0.065577 -0.0565609 -0.198763 -0.232042 -0.374242 -0.649553 -0.427843 -0.172975 -0.190818 0.141665 -0.0657378 0.333381 -0.0738835 0.204965 -0.00887932 -0.0953635 0.240973 -0.0631749 -0.0182513 0.0451342 0.137336 -0.0190491 -0.00601883 0 7.09014e-05 0.00889308 0.0331126 0.0809216 0.0397796 -0.00661916 -0.235583 -0.0355087 0.123769 0.12974 -0.175877 -0.0810956 -0.165457 0.00808177 0.152333 0.232415 -0.40934 0.0662016 -0.0457377 -0.0977056 0.0392173 -0.0653567 -0.0967092 0.0645414 0.050978 -0.0151526 0.00601706 3.47732e-06 0.00378923 0.0674477 0.0813 0.21945 -0.00580191 0.0252825 -0.298803 -0.127191 -0.0751273 -0.182319 -0.0956306 -0.198476 -0.266933 -0.234244 0.0776867 0.10335 -0.172757 -0.172219 0.526907 0.119564 -0.0841273 0.203603 -0.117757 0.10998 -0.0349413 0.0615852 0.00248734 -0.00114474 0.0102317 0.0645574 0.0889861 0.337892 0.144519 0.0947105 0.183111 0.116679 0.0989702 0.150591 0.317356 -0.0991871 0.0924667 0.11475 -0.0556636 0.110765 0.165296 0.217759 0.233464 -0.0391128 0.0166075 0.58832 -0.524409 -0.340858 0.0411752 0.0308028 0.0183646 0.00050982 0.00784206 0.0854353 0.119552 0.410299 0.522089 0.55836 0.178214 0.232072 0.571583 0.270521 0.445061 0.45885 0.130133 -0.271437 -0.187052 0.0238803 -0.0036428 0.00102369 -0.153851 0.0424868 -0.146049 0.108386 -0.22097 -0.473839 0.0573436 0.0927243 -0.0440047 0.000632641 0.00484292 0.0508741 0.0593646 0.37459 0.435043 0.511109 0.237865 0.514181 0.337559 0.0986026 -0.118585 -0.116061 -0.5959 -0.792069 -0.31946 0.0369135 0.197041 0.221359 0.142042 0.235188 0.061676 0.155125 -0.107664 -0.61875 -0.154763 -0.0276655 -0.0238812 0.000169106 0.00336131 0.0110401 0.0137259 0.10958 -0.0418235 -0.0314644 0.0656542 -0.099056 -0.355263 -0.564932 -0.631293 -0.502421 -0.517644 -0.438779 -0.22034 0.170333 0.379877 0.117509 -0.0146764 -0.0123692 -0.287289 -0.0227972 -0.073583 -0.231889 0.00616751 0.00794445 0.00772854 0.000113173 -0.000202014 0.00106099 -0.103904 -0.314846 -0.717788 -0.718068 -0.477304 -0.793666 -0.604474 -0.362267 -0.820394 -0.257397 -0.255592 -0.148852 -0.115844 0.178202 0.113863 0.041761 0.0674682 0.270808 0.0781359 -0.163026 -0.197615 0.0129092 0.173425 0.061451 0.00269273 1.88176e-05 -0.00518919 0.000835418 -0.0988419 -0.461286 -0.889765 -1.07988 -0.913111 -0.641834 -0.394855 -0.629323 -0.3378 -0.261493 0.0371184 0.10688 0.0241831 -0.0529644 -0.0415599 0.0174386 -0.0251835 0.246478 0.0527917 -0.0693067 -0.285202 -0.171578 0.170029 0.113185 0.00994403 -0.000103467 -0.00216789 -0.000777116 -0.0770122 -0.297617 -0.709775 -0.677182 -0.473991 -0.232867 -0.13948 -0.145106 0.419062 0.254894 -0.101692 0.107812 -0.171397 0.273285 0.191488 0.0517621 0.107632 -0.270579 -0.142233 -0.160145 -0.182611 -0.152473 0.0663392 0.131655 0.00089553 -3.10209e-05 0.000962998 0.0064485 0.102222 0.0593109 -0.103776 -0.280456 -0.224538 0.223812 0.040406 -0.226367 0.274373 0.245529 0.323431 -0.102405 0.270616 0.00630816 -0.10871 -0.215524 -0.0904285 -0.275921 0.0858304 -0.18976 -0.157694 0.134345 0.22243 0.15177 0.0203665 1.63293e-05 0.000549516 0.0257213 0.280095 0.386812 0.265587 -0.0720469 0.00151208 -0.352333 -0.0349069 0.0456896 -0.00548379 0.445541 0.213985 -0.0160696 0.162935 0.202256 0.271361 0.0233202 0.105757 -0.0164219 0.415407 0.1853 0.212215 0.366532 0.470311 0.152225 0.0222049 0 0.000365263 0.0480794 0.322097 0.533036 0.302859 0.142292 -0.00706484 -0.0188245 0.164591 -0.148434 0.13115 0.254585 0.16547 0.144935 0.0825299 0.271718 0.134511 0.0178952 0.13156 -0.148755 0.139723 -0.119892 -0.077413 0.490157 0.355703 0.104571 0.0281167 0.000247633 4.96685e-05 0.0384212 0.335969 0.310817 0.266172 -0.100938 0.457544 -0.0784899 -0.000107484 0.183602 -0.0260326 0.124493 0.250881 0.57922 0.116262 -0.0457749 0.0272949 0.0228244 0.0935048 -0.188046 -0.18229 -0.410997 0.109293 0.46089 0.303124 0.0180728 0.030865 1.8698e-06 -0.000338358 0.0328114 0.0867589 0.0788065 0.244088 -0.00728758 0.000952655 -0.0877989 0.125824 0.0187938 -0.289806 -0.519281 0.295924 0.119709 0.129487 -0.0976411 -0.111032 -0.123084 -0.114644 -0.238568 -0.176944 -0.17105 0.231505 0.171113 0.235384 0.0469516 0.0116174 0 -0.000465002 0.0169452 0.0989818 0.46265 -0.00899288 0.148378 0.372702 0.182155 0.09568 -0.135634 0.0796157 -0.00525913 -0.242783 -0.0886844 0.311434 0.181359 0.0369385 0.0916352 0.121924 0.195317 0.191491 0.208091 0.327116 0.246328 0.206082 0.026004 -9.50206e-06 -1.31559e-05 0.000108307 0.0271888 0.0714464 0.243602 -0.0943757 0.0296965 -0.0538766 0.187887 -0.0662245 0.134871 0.24891 -0.233673 0.209441 0.196198 -0.0695929 -0.0974158 0.0403274 -0.0923299 0.28599 0.0936688 0.0579413 0.287122 0.288867 0.252578 0.205617 0.0252773 -3.16274e-05 -1.27447e-05 -1.53271e-05 0.0385915 0.0255181 0.177737 0.20691 0.0502454 0.353527 0.238578 -0.11503 0.0276824 -0.0562905 -0.164396 0.0862787 0.23955 -0.330433 -0.102396 -0.0475448 0.0436494 0.189592 0.0813627 0.263936 0.18156 0.203059 0.129783 0.0957974 0.00593831 -5.83891e-05 0 0 0.0070272 0.0104483 0.0468872 0.068591 -0.112607 0.235784 -0.0481471 -0.111781 0.0205779 -0.28083 -0.00647574 0.197161 -0.239453 -0.0499237 0.429436 -0.0433771 0.182427 0.119951 0.00260653 0.105577 0.0715563 0.021452 0.0828208 0.0797041 0.0288387 0 0 0 0.00369935 0.033267 0.0977263 0.0785471 -0.0711881 -0.175519 -0.0448181 0.0344035 0.156952 0.0485495 -0.109468 -0.111143 0.142529 0.210737 -0.251696 -0.201105 -0.0519637 -0.130569 -0.0619727 0.0723593 -0.0794504 -0.0918491 0.00639163 0.0645988 0.00229698 0 0 0 -0.00155438 0.00270015 0.0471138 -0.0655423 -0.190836 -0.15811 0.0318498 0.0392979 0.142952 -0.0575806 0.0657883 0.0668266 0.133511 0.120159 -0.0962043 -0.112538 -0.319989 -0.202454 -0.160598 -0.160197 -0.163972 -0.105632 -0.0451853 0.00150707 0.00231314 0 0 0 0 -0.000533233 -0.0140293 -0.00420246 -0.00212018 0.0302714 0.0844641 -0.0638247 -0.139722 -0.156913 -0.218756 -0.406281 -0.197699 -0.109041 -0.127109 -0.201484 -0.190176 -0.156341 -0.19588 -0.115014 -0.028657 -0.00638996 -5.43544e-05 1.16181e-05 0 0 0 0 0 0 2.80119e-05 0.000315036 0.00162242 0.00521173 0.0112403 0.0172898 0.0385155 0.00680395 0.0116156 0.0538809 0.0268508 0.0212196 0.0239943 0.0148162 -0.0186403 -0.00384753 -0.084419 -0.0521307 -0.00286913 0.000479025 0 0 0 0 
0 0 0 0 0 0 0 0 0 0 0 0 -0.000646892 -0.00211041 -0.00077222 -3.21758e-05 0 0 0 0 0 0 0 0 0 0 0 0 0 0 0 0 -1.06368e-05 -0.000347574 -0.0391547 -0.0836808 -0.112107 -0.0429741 -0.0822351 -0.125971 -0.185438 -0.0740726 -0.0159492 -0.022818 -0.0378019 -0.0194387 -0.0108753 -0.037104 -0.0309993 -0.01192 -0.0373922 -0.0352362 0 0 0 0 0 0 -4.3823e-07 -0.000842982 -0.000520258 -0.00116493 -0.037292 -0.130821 -0.185656 -0.165941 -0.341186 -0.34449 -0.337831 -0.27544 -0.212128 -0.163931 -0.210031 -0.164994 -0.111616 -0.0715579 -0.0270466 -0.017246 -0.0373605 -0.0386574 -0.00358808 -0.000251913 0 0 0 0 0.000150255 -0.00237335 0.0018328 -0.0115756 -0.0889922 -0.211037 -0.305766 -0.36116 -0.51669 -0.556281 -0.572723 -0.69331 -0.583701 -0.619057 -0.489861 -0.251561 -0.122811 -0.0886922 -0.108799 -0.0763722 0.014912 -0.0112349 -0.025472 -0.000954678 -0.00195004 0 0 -3.36015e-07 0.00051898 0.0010631 0.0039588 -0.0174692 -0.13733 -0.26307 -0.352272 -0.487108 -0.649531 -0.558749 -0.52289 -0.611498 -0.806044 -0.749111 -0.404965 -0.330846 -0.248994 -0.0944996 -0.0677514 0.0667765 0.114691 0.122009 0.000506834 -0.050317 -0.0393154 -0.00855765 0 0 -9.14251e-05 -2.87708e-05 0.000777687 -0.00962549 -0.0703441 -0.172297 -0.186192 -0.0238599 -0.195193 -0.150217 -0.247973 -0.385382 -0.413988 -0.244797 -0.205563 -0.179578 -0.11111 -0.259973 -0.395889 -0.179339 0.0968291 0.101209 0.0194472 -0.0535731 -0.0240607 -0.000467189 0 -6.22532e-05 -0.00379537 0.0526339 0.0237768 0.0506645 -0.0365528 -0.14494 -0.0959221 0.00724979 -0.0984895 0.135871 -0.00555167 -0.287997 -0.0890458 0.11052 0.299532 0.267156 0.226905 -0.051731 -0.219818 0.126939 -0.0133796 -0.198305 -0.176466 -0.0789007 -0.0068235 -0.00218921 -4.51177e-07 0.0030902 0.0303462 0.145644 0.0455878 -0.0249416 -0.010073 0.102859 -0.135697 0.194296 0.019055 -0.139248 0.0791605 -0.0280213 -0.202277 -0.10586 0.507386 0.649474 0.177749 0.0430564 0.113151 0.0296436 -0.091143 -0.237407 -0.240335 -0.106909 -0.00292553 -0.00174246 -0.00655667 -0.000567961 0.0449466 0.10135 0.13362 0.155377 0.021245 0.300736 0.458708 0.410851 0.0184216 0.156893 -0.175015 -0.230904 0.0395831 0.117176 0.336338 0.638088 0.315064 -0.177827 -0.13281 0.0786451 0.0488522 -0.0931107 -0.249312 -0.161132 -0.0829413 -0.0104789 0.000224713 0.0192509 0.0243731 0.0752103 0.133538 0.0596201 -0.0131622 0.104694 0.0749992 0.185986 0.388583 0.369346 0.0940227 -0.211552 -0.270043 0.316836 0.417177 0.447783 0.235419 0.168553 -0.0521571 -0.16937 0.0538642 -0.251599 -0.291715 -0.247951 -0.0852837 -0.00362199 0.000267215 0.0059482 0.0360433 0.0501441 -0.0504641 -0.080691 -0.0998011 -0.0871073 0.194819 0.0552112 -0.185718 -0.0499364 -0.174783 -0.24605 -0.187122 0.379763 0.420875 0.177677 0.150531 0.124656 0.124667 -0.0520591 0.0629885 -0.330377 -0.405077 -0.200163 -0.0733546 -0.00683391 8.53385e-05 0.00808028 0.0339008 0.0840388 0.0142716 -0.0244437 0.0311145 0.0018141 0.102296 -0.13192 -0.0770696 0.0860634 -0.0684464 -0.368993 0.0246834 0.605459 0.643551 0.564792 0.223391 0.0725227 0.116465 -0.0368339 -0.0767255 -0.308965 -0.373069 -0.177534 -0.0457545 -0.0065569 2.69391e-05 0.0107694 0.0387115 0.0566793 0.0977376 -0.191643 0.0805295 0.230759 0.125416 -0.0703421 0.0276428 0.0641676 -0.315133 -0.460361 -0.0010615 0.623612 0.736974 0.376283 0.42427 0.0701986 0.000786671 0.0145295 0.0830511 -0.246612 -0.359603 -0.129556 -0.031637 -0.00427465 -1.12846e-05 0.00288422 0.0338976 0.0150157 0.132739 -0.161879 0.00743283 0.165282 -0.0229274 -0.237287 -0.0275049 -0.161621 -0.51621 -0.214072 0.177761 0.265933 0.440921 0.246869 0.215024 0.0435099 0.162161 0.11015 -0.0402328 -0.402824 -0.36976 -0.158187 -0.0765479 -0.012365 -0.000994734 0.00260392 0.0209868 -0.00178987 0.0723486 -0.193531 -0.13451 -0.00569932 -0.0838842 0.134709 0.0799202 -0.0544619 -0.28322 0.14393 -0.0391635 0.375507 0.0955516 0.275185 0.455492 0.46046 0.399417 -0.150454 -0.118638 -0.101155 -0.265768 -0.0553452 -0.0673529 -0.0011737 -0.000297606 -7.73857e-05 -0.0031641 -0.0146547 0.0513917 -0.278649 -0.295376 -0.158525 -0.139287 -0.140835 0.148341 0.0428858 -0.0121468 -0.154263 -0.0486159 0.134936 -0.000944544 0.465816 0.28114 0.524269 0.251195 -0.0787069 0.044198 0.0304255 -0.273109 -0.158426 -0.0774502 -0.0118197 0.000160591 -0.000337642 -0.00724382 -0.0504708 0.00419475 -0.255138 -0.439179 -0.0271048 0.152284 -0.283024 -0.0270321 -0.206725 -0.156162 -0.347076 -0.0114671 0.134171 0.12125 0.220102 0.113464 -0.079605 0.0708299 0.034607 -0.115337 -0.193177 -0.276416 -0.263375 -0.10011 -0.0112447 0 6.9417e-05 -0.036073 -0.121921 -0.179421 -0.397277 -0.635438 -0.214826 -0.203236 -0.219229 -0.242846 -0.371466 -0.190874 -0.0828276 0.0638751 0.196104 0.0351997 0.0906517 0.192611 -0.223142 -0.00661545 -0.0354933 -0.410342 -0.37199 -0.389632 -0.215622 -0.120236 -0.0324442 0.000705204 2.11856e-05 -0.0299458 -0.195422 -0.393457 -0.496794 -0.753627 -0.491403 -0.347415 -0.132352 -0.0315483 -0.105612 -0.281001 -0.0606861 -0.043573 0.0934904 0.150363 0.0483872 0.00976132 -0.195916 -0.115309 -0.31976 -0.580653 -0.575845 -0.393166 -0.153957 -0.0113884 0.00375444 4.66054e-06 0.000180557 -0.00207348 -0.113368 -0.274417 -0.456737 -0.484318 -0.299072 -0.518277 -0.453299 -0.375655 -0.289079 -0.337767 -0.238829 0.0471999 -0.029922 -0.0681863 -0.0748204 -0.288235 -0.325357 -0.460677 -0.403203 -0.553443 -0.440055 -0.249374 -0.0954046 -0.0176523 0.00335776 0 -0.00474345 -0.0180337 -0.10337 -0.323948 -0.452535 -0.400362 -0.366805 -0.347163 -0.247414 -0.485024 -0.191408 -0.390303 -0.333052 -0.264162 -0.234386 -0.210467 -0.256212 -0.531695 -0.382102 -0.58149 -0.557375 -0.470382 -0.329732 -0.107302 -0.0440455 -0.012329 -1.1632e-05 -5.89311e-06 -0.00190709 -0.0279728 -0.156941 -0.234111 -0.319834 -0.345825 -0.202228 -0.132728 -0.187594 0.0448266 -0.202649 -0.164193 -0.198177 -0.273785 -0.363391 -0.0235556 -0.361381 -0.216172 -0.237934 -0.242087 -0.328064 -0.362877 -0.236821 -0.0538368 -0.0262019 -0.0131161 -7.81386e-06 -5.70894e-06 -9.0868e-05 -0.0401002 -0.0901382 -0.139525 -0.115689 0.0119352 0.13236 0.12802 -0.0463402 0.0801832 -0.328042 -0.335343 -0.257866 -0.153967 -0.282424 -0.222965 -0.223518 -0.278734 -0.265384 -0.303668 -0.377708 -0.270162 -0.188406 -0.0326165 -0.0348993 -0.00349207 -1.44256e-05 0 0 -0.0288227 -0.0748679 -0.00517273 0.181767 0.479888 0.325006 -0.0323007 -0.362119 -0.174383 -0.405278 -0.262827 -0.107999 -0.21921 -0.371494 -0.470685 -0.341055 -0.288602 -0.13661 -0.21109 -0.219384 -0.176041 -0.0768524 -0.00980986 -0.0220362 -0.00356574 0 0 0 -0.00206951 -0.0224102 0.11163 0.412052 0.45213 0.242692 0.192061 -0.0406815 -0.0191303 -0.0337945 -0.419774 -0.32776 -0.271876 -0.496812 -0.430973 -0.0927923 -0.181703 -0.215654 -0.025804 0.0581313 -0.0976535 -0.0549954 -0.0298121 -0.0457784 -0.00608322 0 0 0 -0.00125212 0.0162351 0.161091 0.309392 0.189994 0.0971716 0.171506 0.3308 0.0498244 0.142301 -0.0128771 -0.158387 -0.0303637 -0.288458 -0.0634797 -0.130989 -0.0257592 -0.0293293 0.127227 0.067136 -0.0391334 -0.00188959 -0.00173384 -0.00502977 -0.00646747 0 0 0 0 0.000790874 0.0110822 0.0723279 0.121852 0.0932124 0.170235 0.268205 0.200341 0.13818 0.0569353 0.124002 0.27096 0.198897 0.0259632 0.0145529 0.0339847 0.14593 0.0610293 0.0549976 0.0112607 0.00365085 0.00145914 1.45077e-05 0 0 0 0 0 0 -4.81971e-05 0.000217622 0.000809972 0.0021612 0.0060652 0.00978609 0.0214994 0.00404038 0.0209933 0.0334837 0.0294493 0.0165675 0.00472639 0.00302234 0.0157488 0.00548688 0.0117113 0.0222282 0.0217336 0.00163565 0 0 0 0 
0 0 0 0 0 0 0 0 0 0 0 0 -0.000842998 -0.00257172 -0.00080772 -3.3655e-05 0 0 0 0 0 0 0 0 0 0 0 0 0 0 0 0 -1.02088e-05 -0.000255018 -0.0146529 -0.0324272 -0.0428333 -0.0409461 -0.103315 -0.149801 -0.211756 -0.0880298 -0.0161815 -0.0265567 -0.0378858 -0.0201579 -0.0134046 -0.0700605 -0.0528278 -0.0352666 -0.0702689 -0.0454918 0 0 0 0 0 0 -7.83993e-07 -0.0025707 -0.00112784 -0.00108162 -0.0282292 -0.10829 -0.121262 -0.164285 -0.347076 -0.387421 -0.424434 -0.355449 -0.252823 -0.163958 -0.195612 -0.17974 -0.140787 -0.117445 -0.0582328 -0.0449035 -0.0926145 -0.076548 -0.0153199 -0.000235839 0 0 0 0 3.86208e-05 -0.00728741 0.00072967 -0.00939398 -0.0504736 -0.156937 -0.21804 -0.316188 -0.530839 -0.544437 -0.573775 -0.80717 -0.655371 -0.581271 -0.373372 -0.199374 -0.208859 -0.116537 -0.107197 -0.0565876 0.0106425 -0.0213525 -0.0137436 5.59908e-05 -4.91649e-05 0 0 -3.95796e-07 0.00013671 0.000439708 0.00921496 0.00477457 -0.0670628 -0.131908 -0.16304 -0.331887 -0.589414 -0.412224 -0.490391 -0.415378 -0.484747 -0.490963 -0.250148 -0.281918 -0.281914 0.0220763 0.0528272 0.188083 0.242444 0.231271 0.112108 -0.0199646 -0.018848 -0.0036071 0 0 -2.47308e-06 -0.000658896 0.0133555 0.0184679 0.0227228 0.055003 0.0716491 0.0590949 -0.175083 -0.22967 -0.318427 -0.113756 -0.112257 -0.0790473 -0.301925 -0.25145 0.0332791 0.03459 -0.0191438 0.0744924 0.216159 0.279472 0.11657 -0.0288607 -0.0186019 -0.00012804 0 -5.89805e-05 -0.0163283 0.0250143 0.0630169 0.133989 0.202534 0.279426 0.158333 -0.00988198 -0.325762 -0.277034 -0.351395 -0.060871 0.100784 -0.132798 -0.134375 -0.00914131 0.0358887 -0.10155 -0.250186 0.0100963 0.0352474 0.0276956 -0.0851831 -0.0682727 -0.0318566 -0.000642475 -1.36891e-07 -0.000754698 0.0108152 0.109761 0.107514 0.115582 0.196691 0.371347 -0.0950365 -0.0275423 -0.12233 -0.316374 -0.206552 0.0404096 -0.0773873 -0.24912 0.050994 0.0830655 0.073615 0.0509244 0.133752 -0.0357089 -0.0132041 -0.0468837 -0.22429 -0.103715 -0.00669562 -0.00138359 -0.00597836 0.00120281 0.0199378 0.0468623 0.134538 0.121787 0.0905073 0.0379347 0.0978837 0.159564 0.158601 -0.0270675 -0.369161 -0.0811842 -0.0621379 -0.274175 -0.190061 0.00333145 0.155476 0.0746549 0.131067 0.0195152 -0.151152 -0.162048 -0.196798 -0.127183 -0.0426336 -0.00867631 0.000118229 0.00433331 0.0217515 0.0491289 0.052115 0.0251191 -0.0286579 -0.0391886 -0.0924565 0.327959 0.331819 -0.216113 0.00350744 0.119829 -0.438971 -0.370383 -0.129997 0.12328 0.0318435 0.305946 0.081312 -0.157933 -0.126322 -0.249814 -0.370854 -0.222883 -0.056501 -0.00393437 0.000143877 0.00343985 0.054734 0.039045 -0.127336 -0.0957434 -0.0356236 0.00874553 0.0734403 0.125488 -0.22841 -0.164153 0.0672611 0.179405 -0.365046 -0.222572 0.20561 0.0823363 0.0238566 0.15183 0.0751347 -0.0198357 -0.0799481 -0.442179 -0.434806 -0.17198 -0.072399 -0.00387173 6.10304e-05 0.00476731 0.0202512 0.0297772 0.0246922 0.167713 0.164669 0.20477 0.175382 -0.116244 0.0542455 0.0486208 0.195079 -0.0304754 -0.21249 0.258978 0.272336 0.321763 0.156189 0.104635 0.222549 0.0601085 4.10599e-05 -0.414193 -0.440695 -0.147151 -0.0301911 -0.00475699 1.33324e-05 0.00680059 0.0225984 0.0393198 0.319474 0.298225 0.172667 0.28324 0.28916 0.22051 0.0994447 0.125456 -0.133257 -0.54956 -0.449567 -0.0292292 0.0212981 0.414025 0.20614 0.136526 -0.0906054 -0.0177815 0.174351 -0.335249 -0.520724 -0.134796 -0.0299723 -0.00841251 -2.86515e-06 -0.000438847 0.0204822 0.0556614 0.402395 0.357696 0.0068668 0.0413771 0.138775 -0.102717 -0.0186539 -0.095829 -0.377373 -0.628698 -0.313618 -0.310919 -0.0887033 0.392428 0.292422 -0.053559 -0.0339647 0.146821 0.207413 -0.5619 -0.618414 -0.212397 -0.109024 -0.0278022 -0.000543346 0.000808489 0.00542917 0.076199 0.388635 0.203001 0.202254 0.200926 0.294503 -0.00379284 -0.0236376 0.00622731 -0.366482 -0.266544 -0.312478 -0.213284 0.0674635 0.364468 0.0349119 0.152366 0.22756 -0.00408387 0.277672 -0.323333 -0.428248 -0.153623 -0.111292 -0.00305668 -0.000164949 -8.46997e-05 -0.0129268 -0.00700852 0.200076 0.0579141 0.245334 0.148259 0.313728 0.101445 0.0721449 -0.0350466 0.0660457 -0.256636 -0.601579 -0.320779 0.248506 0.270971 0.0945957 0.301863 0.0933358 -0.00647958 0.34686 -0.17778 -0.394053 -0.239474 -0.075164 -0.0102233 7.40585e-05 -0.000319496 -0.0185426 -0.0985471 -0.00847996 -0.0585326 0.0348686 0.376756 0.511475 -0.128294 0.241447 0.317265 0.236251 -0.434043 -0.552941 0.100509 0.351211 0.483926 0.43025 -0.0661653 0.105313 0.136218 0.0464467 -0.321631 -0.403564 -0.319017 -0.122582 -0.0126151 0 9.08181e-06 -0.0232543 -0.146137 -0.204881 -0.18331 -0.192506 0.209139 0.0408852 -0.0777002 0.0381308 0.224841 0.0823382 -0.238636 -0.0192603 0.498907 0.31784 0.051091 0.164545 -0.123563 0.143065 0.16232 -0.116633 -0.224107 -0.343995 -0.268566 -0.142487 -0.0362615 0.00106075 3.14906e-06 -0.00917845 -0.193884 -0.195454 -0.139199 -0.334832 -0.0768832 -0.0466783 0.19977 0.101655 -0.0605124 -0.438044 -0.0338476 0.366058 0.35727 0.141065 -0.0710588 -0.103433 0.100937 0.239229 0.136686 -0.120795 -0.232345 -0.359234 -0.204861 -0.0145386 -0.0027872 4.73373e-06 -0.000977854 0.0035647 -0.0865223 -0.0493599 -0.0830047 -0.122143 -0.0761451 -0.203588 -0.29269 -0.513817 -0.56158 -0.42016 0.00296808 0.542024 0.336344 0.122865 0.223372 0.0029525 0.093125 -0.057324 0.0978785 -0.325851 -0.249632 -0.185482 -0.107694 -0.0208544 0.000849224 0 -0.00347219 -0.0124843 -0.105016 -0.203732 -0.301599 -0.277216 -0.325919 -0.574355 -0.673465 -0.875739 -0.701274 -0.398721 -0.0805253 0.296935 0.0136129 0.16613 0.249133 -0.139614 -0.0802886 -0.187034 -0.28761 -0.402774 -0.28438 -0.0615742 -0.0387055 -0.0132434 -1.40846e-05 6.44636e-06 -0.00195765 -0.0275124 -0.1458 -0.217426 -0.315146 -0.515807 -0.632116 -0.785443 -0.819041 -0.515544 -0.315917 0.140039 0.00645947 0.0481874 -0.254687 0.25476 0.00993056 -0.14274 0.0813578 0.10563 -0.110974 -0.185055 -0.163409 -0.0340337 -0.0262466 -0.0172336 -7.5995e-06 6.24491e-06 -8.9607e-05 -0.0477356 -0.113018 -0.198204 -0.266545 -0.37577 -0.596452 -0.515397 -0.3932 -0.151577 0.0159526 0.0346198 0.0407233 0.00377826 -0.108472 0.12962 0.1023 -0.0768436 0.00413989 -0.0111575 -0.0755865 -0.0327304 -0.118171 -0.00346545 -0.0230563 -0.00190556 -1.40298e-05 0 0 -0.037299 -0.0720632 -0.133102 -0.179363 -0.189559 -0.468937 -0.441238 -0.38932 0.109836 0.0665363 -0.00871782 0.233747 0.124359 -0.0313076 -0.053651 0.0558394 -0.0825679 0.0438981 -0.0933912 -0.0446012 -0.0128425 -0.0515133 -0.0159221 -0.0113544 -0.00482832 0 0 0 -0.00758908 -0.0317555 -0.0614024 -0.0403336 -0.0435449 -0.251366 -0.284546 -0.351901 -0.0654716 0.0697173 -0.168599 -0.0334656 -0.210328 0.0263637 -0.0598843 -0.0434817 -0.120093 -0.0405007 0.0828955 0.0766397 -0.0403235 -0.00797784 -0.0624259 -0.0413985 -0.00577198 0 0 0 -0.00183253 -0.00482726 -0.0474866 0.0267504 -0.0150167 -0.103164 -0.143961 -0.152733 -0.285172 -0.228364 -0.0115993 -0.00524977 0.194123 0.0270661 -0.0868192 -0.216468 -0.0178076 0.0526804 0.124587 0.047182 -0.0980303 -0.0160642 -0.0259289 -0.00472038 -0.0061376 0 0 0 0 0.000829734 0.0117773 0.0587416 0.0956899 0.109089 0.226121 0.270306 0.191353 0.224022 0.175446 0.186586 0.291201 0.185792 -0.0442508 0.0201478 0.0412317 0.0711573 0.0898146 0.0905502 0.0306823 0.0173736 0.000829438 1.46288e-05 0 0 0 0 0 0 -5.99542e-05 0.000204291 0.0015827 0.00675534 0.0107013 0.0142873 0.0234188 0.00247871 0.0314968 0.0437062 0.0366965 0.0120593 -0.00037745 0.00820232 0.0409212 0.0252794 0.0207533 0.0205556 0.0254276 0.00189715 0 0 0 0 
