-0.0273162 0.0251126 0.00519108 0.00334536 0.0430043 0.00932219 -0.0247129 0.060051 -0.0250724 0.00625709 0.00979189 -0.0308237 0.0423654 0.0470193 0.0243226 0.033663 0.0295845 -0.0210614 0.00746802 0.0307306 0.010515 -0.016674 -0.0595994 -0.00470508 0.056308 -0.0282754 -0.0329399 -0.0374035 -0.0157844 0.0341204 -0.00115686 0.000367157 0.0328485 -0.0715755 0.00644375 -0.000145267 0.0117366 -0.0150601 -0.00860538 -0.0863716 0.000527133 0.0156318 -0.00842063 -0.0844832 0.0706852 0.0273975 0.0265164 -0.00356106 0.00311604 0.0117928 0.0335227 0.0321896 0.0337337 -0.0270787 -0.0373028 0.00696347 -0.0781582 0.0399611 0.0105237 0.0408732 -0.0105225 -0.020731 -0.0565246 -0.0709209 0.082463 -0.0303529 -0.0200786 0.00851868 -0.0411675 -0.00514833 0.116692 0.0344323 0.00481 0.0377868 0.0137927 -0.0156882 -0.0185819 -0.0244604 0.0142107 -0.00900718 -0.0163435 -0.0196658 -0.0343934 0.0112179 0.0285497 0.016061 -0.0309681 -0.0534371 -0.0543465 -0.0422366 -3.10342e-05 0.0402976 0.0101668 0.0190883 0.00377687 -0.0410588 0.00655194 -0.00169951 0.00900311 0.00717479 -0.0395982 -0.00276735 -0.0597237 0.0198847 -0.00155118 -0.00913097 -0.0113731 0.0374181 -0.0523198 0.0124739 -0.030785 0.0432642 0.0173635 -0.00548221 -0.0586546 -0.0452219 -0.0168675 -0.0391755 -0.00804377 -0.00424064 0.0211584 -0.00697549 -0.0222191 -0.0210377 -0.0142375 -0.00830624 0.0526247 -0.0231756 -0.0731108 -0.0417317 0.0222245 0.0219743 0.00965077 0.0211957 -0.0146768 0.0244084 -0.117773 0.0434124 0.0137244 -0.00846693 0.0573754 0.00497129 0.0169045 0.0452076 -0.00844704 0.0401327 0.0375078 -0.0164062 0.0273538 0.0408269 0.105854 -0.00691521 -0.0318982 0.0359062 0.00731507 0.0596414 -0.0155657 0.0142442 0.0243916 0.0227039 0.0330574 0.00233717 0.0361071 -0.026264 -0.00221545 -0.00340714 0.0657655 0.0440568 0.0405791 -0.0400411 0.00487725 0.00909601 -0.000922916 -0.00984191 -0.051869 0.00565063 -0.0710277 -0.00566364 0.0358477 0.0493824 -0.00522863 -0.0434646 -0.0203162 0.0487295 0.0546507 0.0266707 0.0320694 -0.0284209 -0.0624619 0.0410175 0.0414564 0.017936 -0.0157137 0.0301287 0.0191492 0.0229268 0.0467137 -0.0232125 -0.0231877 -0.00692475 -0.026094 -0.0527856 -0.0251929 -0.0394982 0.0351461 0.0246221 0.024015 -0.0590946 -0.0210343 0.0249092 -0.0199402 -0.0102137 -0.0364547 -0.0425734 0.0133088 -0.0118394 0.0113581 -0.0122298 -0.00817857 0.0212848 -0.0443319 0.0349535 0.0232423 0.0376827 0.029236 0.0405037 0.0514593 0.00478071 -0.0215903 -0.0256814 -0.0386863 -0.0242808 0.0126832 0.00565354 0.0568249 0.076509 0.0468775 0.0435996 -0.0365855 -0.00631663 -0.0066647 0.0408148 -0.00166271 0.00856665 0.0472174 -0.0309782 0.040239 0.00311672 -0.0398122 0.0281758 -0.0605155 -0.0963814 0.0252041 -0.0262622 -0.0488029 -0.0380175 -0.076546 -0.0847282 -0.0182071 -0.014037 -0.00734594 -0.0483036 -0.0255689 0.0430642 0.0419761 0.0629971 0.00384042 0.00533812 0.00264975 0.0250016 -0.00223242 -0.0155115 -0.0699562 0.0753502 0.00800657 0.0583443 -0.0542172 -0.0424606 0.0462439 0.0525682 0.0961354 0.0302448 -0.0477622 0.0295669 0.00326463 0.022824 -0.0168052 -0.015244 0.0668432 0.0178274 -0.0292243 -0.0190169 0.0623757 0.0541103 0.0177181 0.0339688 -0.0295031 -0.0298025 -0.000305694 0.0251257 0.0288244 -0.00477347 -0.000614737 0.0201282 0.0923573 0.00268673 -0.0264354 -0.0468459 -0.0181777 0.0550261 -0.0495475 0.0455997 0.0346493 -0.0631975 0.0111205 -0.0166088 0.0409654 -0.0405402 0.0397437 0.0547893 0.00416264 -0.0340638 0.0375521 -0.00114438 -0.0231704 0.0463856 -0.0994108 -0.0415316 -0.0063553 0.0289635 -0.0185801 0.0245417 0.0617321 -0.0408198 0.0438033 -0.00712559 -0.0843159 0.0565274 0.0180193 0.0141962 0.0701975 0.0430812 -0.0561257 -0.0343508 0.00988203 0.0212512 0.00247425 0.0365602 -0.0154712 -0.0168394 -0.0552987 0.0286301 -0.0280585 -0.0163697 0.0662475 0.0303744 -0.0433822 -0.00848639 -0.0112035 0.00431601 -0.0354951 -0.0481734 0.0702946 0.00870461 -0.0193908 0.0386142 -0.014321 0.0561413 -0.00119922 0.0447476 -0.0233357 0.0595967 -1.06816e-05 0.0431817 0.0408612 -0.025927 -0.0250975 0.0695905 0.0285444 -0.0544182 0.0493699 -0.0256515 -0.0265078 -0.0360425 0.0165082 -0.02444 0.0175343 0.00480407 -0.0134152 0.0841007 -0.0109912 0.0562617 0.0237211 -0.0240713 -0.000184349 0.0322803 -0.0982596 0.0141091 -0.00169156 -0.0721207 -0.0136098 0.0581839 -0.012932 -0.01878 -0.0168392 0.0203635 -0.00590357 -0.044068 0.00341453 -0.0346052 0.00155202 -0.0143283 0.037236 -0.0645103 -0.028418 0.0214789 0.0597422 0.0128355 0.0184836 0.018039 0.0303912 0.0226657 -0.00577731 -0.0583137 0.0446508 -0.0781611 0.0687267 -0.0512475 -0.0194099 -0.00535284 -0.0284575 -0.065593 -0.00861747 -0.00694394 -0.00967185 0.00456996 0.0503009 0.0304464 0.0141347 0.0290681 -0.0352077 -0.0253724 -0.0511736 -0.00283312 -0.0295016 0.0252707 -0.0228562 -0.0056806 -9.89922e-05 0.0307321 -0.0436439 -0.046089 -0.0110094 0.0133226 -0.0413303 -0.00661978 -0.0189335 0.00311187 -0.0668666 0.0133974 0.0130567 -0.032372 0.0429771 0.0184371 0.0422694 0.0159119 -0.0206557 0.00113673 -0.0258087 0.0382256 0.0369721 -0.0614774 -0.00138559 -0.0301507 0.0524446 -0.0223024 -0.0249683 -0.043016 -0.0901228 -0.0179292 -0.00213572 -0.0180585 0.000916561 0.0191181 0.0528475 -0.0186953 0.0354214 0.00756531 -0.0554888 -0.0695079 -0.0500168 -0.0299241 -0.0160335 0.0269991 -0.00199566 0.033746 0.0204112 0.082913 0.0473002 -0.0127322 0.011873 -0.0040428 -0.0118638 -0.0151529 0.000595628 0.0399806 0.00688798 0.0727775 0.00705075 0.0317724 0.0379704 -0.0421187 0.0467268 0.0460009 -0.0641142 0.0379485 0.0276468 -0.0148394 0.00750245 0.0261073 0.00551038 -0.00424901 0.0262499 0.0458158 0.000825649 0.00646599 0.026671 0.00549852 0.0636496 -0.0445609 -0.00120858 0.00211722 0.0135562 0.00866758 -0.0625368 0.0372422 0.0442669 0.00392905 -0.0324544 0.0568997 0.0375133 0.0992955 -0.00676184 -0.0489392 0.0741242 0.00027956 -0.0428644 0.00115234 -0.0234184 -0.0038476 -0.00148427 -0.0153478 -0.0099575 0.0337632 -0.0762377 0.0593906 0.0519383 -0.0921337 0.0909553 0.0476157 0.0362873 -0.0130278 -0.0915994 0.065966 -0.0063371 -0.062925 0.00963475 -0.0545583 0.026185 0.00998234 0.0665835 0.0619486 -0.0549766 0.0342907 0.019377 -0.0555947 0.00565015 0.0273412 -0.0448566 0.0247056 -0.0154698 -0.0379294 0.000686055 0.0599911 -0.0247479 -0.0337967 -0.00547183 -0.0118371 0.00787421 -0.0701324 -0.0265031 0.0364393 -0.0287043 -0.0450392 -0.0429764 0.00375231 -0.0227854 -0.0513416 -0.00253914 -0.000897649 0.0401129 0.041838 -0.0181952 -0.0103547 -0.0102749 -0.081585 -0.0217975 -0.00686557 0.0347235 0.0633252 -0.0367291 -0.0132958 -0.00579379 -0.0221351 0.0181575 -0.0162599 0.00251367 0.00367993 0.0502373 -0.0151322 0.0245605 0.00858096 0.0365017 0.0432272 -0.0153602 0.0253543 0.00147964 0.0615542 -0.0616308 0.0183453 0.0120032 -0.0378027 -0.0197159 0.0311279 0.0345698 0.0236203 0.0130928 -0.0255083 -0.00874564 -0.0102085 -0.0415893 0.0101668 -0.0234872 0.0469143 0.0093832 0.0112765 0.0158327 0.0284331 0.00969503 -0.00134559 0.037636 -0.00984769 -0.0311011 0.0546697 -0.0342106 -0.00258934 -0.0413079 -0.0353788 0.0281685 0.0107544 -0.00246403 0.0524216 0.0372527 -0.00876699 0.0260392 0.0123087 0.0150247 -0.0268568 -0.00447898 -0.131823 -0.0111938 -0.000756294 -0.108732 0.00606886 0.00337566 -0.0283201 -0.0159991 -0.00265926 0.0136833 -0.0155865 0.0172154 -0.00936208 -0.0114222 0.0309169 -0.0657239 0.0733236 -0.0511209 -0.0702465 -0.0357757 0.0501599 -0.0589516 -0.0404392 -0.00812063 -0.0284749 0.0579881 0.0112761 0.012326 -0.0188517 0.043982 -0.00040085 -0.00972107 0.0493219 0.0468179 0.0410888 0.0199096 -0.0535364 -0.0461292 -0.057015 -0.0380229 -0.0288825 0.0157457 0.0353498 -0.0441669 -0.0156449 0.0299189 0.0108116 -0.0376275 0.0118622 -0.0847039 -0.045051 -0.0297093 0.0295938 -0.0185378 0.0114473 -0.0319399 -0.00207155 -0.0222837 -0.0376428 -0.0134746 0.0273324 0.0421342 -0.0621973 0.0179266 -0.0621557 -0.0292572 0.0646413 0.00430352 -0.0164987 0.0210487 -0.0795928 -0.0219928 0.0109099 -0.0490497 -0.0100736 0.0431212 -0.0177913 0.0291897 -0.0174616 -0.0390724 0.00500303 0.0242886 -0.0221225 -0.0784257 0.019175 0.005515 -0.0203744 -0.00427023 0.0760491 -0.0437217 0.0209552 0.0142883 0.0347816 0.0172467 0.0645635 0.0330912 0.000900792 0.0182608 0.0345937 -0.0348155 0.0413645 0.0111005 0.0168253 0.0352204 0.0294587 0.0474647 0.0174801 -0.0754167 -0.0446811 0.0415372 -0.00594548 0.038088 -0.0077954 0.0145891 0.0419335 ^-0.0104707 -0.0031234 0.0086471 0.0898191 0.0654021 -0.0425346 0.0269835 0.00486216 0.0221901 -0.0127826 -0.0188923 -0.00567538 0.00722401 0.0112059 -0.0112407 0.0586053 0.0486965 0.0169411 0.0334263 0.0347388 -0.0101465 -0.0274877 0.0119669 -0.0270898 0.0767367 -0.0164291 0.00261141 0.0336983 -0.0141033 0.0524128 -0.0419375 -0.0236444 0.00410677 -0.0309261 0.0342867 -0.0455628 -0.00807907 0.098313 -0.0181316 -0.00547543 0.0330817 -0.035763 0.0227215 -0.0630421 -0.00506419 -0.00112887 0.0222 -0.0135424 0.0171158 0.0352014 0.0678004 0.000268062 0.0469423 0.00250063 0.0770542 -0.0368775 0.0025565 0.0101298 0.0241726 -0.0270224 -0.05305 0.0407932 -0.0133687 -0.0179279 -0.0122358 0.030316 0.046742 0.015826 -0.0135607 -0.0179444 -0.0402714 0.0257527 0.0328551 0.0311668 0.0640371 -0.0353456 -0.0153434 -0.0300245 -0.0188654 0.0246974 -0.0398244 0.0331147 -0.00815936 -0.0650667 0.0326511 0.0635932 -0.0199915 0.0162185 0.0185681 -0.0166943 0.0267584 -0.0266418 -0.0189972 -0.0280512 0.00220379 0.0519249 -0.0142342 -0.0117012 -0.0507268 -0.0107862 -0.0181818 0.0520651 -0.00319228 -0.0292236 -0.024769 -0.0287628 -0.0524152 0.0213803 0.0484353 -0.066972 0.0353599 0.0079046 -0.0104772 -0.0177183 0.011398 0.0105618 0.0269777 -0.0421767 -0.0552768 -0.0233591 -0.0394538 -0.0175775 0.0470943 0.0271766 0.0188513 0.01704 -0.00603534 -0.0497331 -0.0463274 0.00484931 -0.0282863 0.0196571 0.0157847 0.0481432 -0.00101721 -0.0317359 0.070094 -0.0473938 -0.0464017 0.0150274 -0.00783268 0.0490544 0.0253019 0.0160264 -0.0198555 0.0229327 -0.0507625 -0.0156205 0.0298776 -0.034288 0.00994003 -0.0340332 -0.0117252 -0.0208922 -0.0133038 0.023103 -0.0274057 -0.00262361 -0.0273975 0.0218071 -0.0358598 -0.0084336 0.00774968 -0.02185 0.0241477 0.0563072 -0.0572105 -0.0160486 0.00558143 -0.0155552 -0.00287141 0.0138478 0.029716 -0.0177954 0.0227296 0.0237338 0.057395 -0.025101 -0.0255826 0.0244845 -0.00510234 0.000430825 -0.0152409 0.035367 -0.0121492 0.0170298 0.0457172 0.0395912 -0.0537002 0.0453978 0.0483795 0.030201 0.0712538 -0.0323144 -0.0104844 -0.0395357 -0.00555392 0.0408326 0.0822397 0.0361304 -0.00153257 -0.0079406 -0.0241792 -0.0107606 -0.0213933 0.0187753 0.0197465 -0.0065272 0.0432513 0.0493038 0.0361263 -0.00482429 0.047917 -0.0145063 -0.0451443 -0.00207512 0.0272529 0.0121244 -0.0837592 0.0108935 -0.00742783 0.0679513 -0.0149168 -0.0233139 -0.0567893 -0.0338461 -0.0215912 -0.0212391 0.0295466 -0.0239366 0.0570455 0.025015 0.0320797 0.0671254 0.0389099 -0.0525868 0.043761 -0.0321235 -0.116016 -0.0705123 0.0115103 -0.0582455 -0.0519467 0.0555093 -0.00901442 -0.0283193 0.0455501 -0.0208704 0.0205643 0.0344428 0.0810184 -0.027623 -0.0229872 0.0174962 0.096165 0.0223975 0.0513598 -0.0408746 0.00633691 0.00210954 -0.0348557 0.0155276 -0.0549979 0.044416 -0.0411664 -0.0128056 0.0286926 0.0156697 -0.0227655 -0.036286 0.0604258 0.0492698 0.075547 0.0865679 -0.00444825 0.00662427 0.0247019 -0.0544881 0.0420258 -0.0463983 0.0674596 0.0586067 0.0174105 -0.052058 -0.0488307 -0.0262643 -0.00786053 -0.0604597 0.0614061 -0.0116553 -0.0259599 0.0225814 0.0653491 0.00329711 0.0384837 -0.0354146 -0.00223967 0.000740658 0.00736214 -0.0258829 0.0137971 -0.0251871 -0.00142987 0.0292542 -0.00384194 0.0397566 -0.00670786 0.000195564 0.00197212 0.0199427 -0.0375861 0.00392297 0.00129556 -0.0434676 -0.00540818 -0.0152629 -0.0254172 0.00269419 0.0130084 -0.0639209 -0.00978395 -0.0839015 -0.0482112 -0.0104449 0.0126897 0.0491402 -0.0218469 0.0198408 0.0360919 0.0338635 0.040922 -0.0326115 -0.0182982 0.0185782 0.00829933 -0.0151999 -0.0152871 0.0211256 -0.0379075 0.00729113 0.072757 -0.0132869 -0.0710329 -0.0225029 -0.00992226 -0.00562794 0.037989 0.0145701 -0.0337527 -0.0394199 0.0214253 0.031444 -0.071396 0.00349257 0.0304467 -0.00183532 -0.0463962 0.0464983 0.0789735 0.0582674 -0.00649679 -0.0352058 -0.0180239 -0.084765 0.00918986 0.0347999 -0.00404939 -0.0169694 0.0233515 0.0258279 0.0177921 0.0603291 -0.0222933 0.0245588 -0.0878941 -0.0319009 0.00199624 0.0486108 -0.0165945 -0.0319057 -0.0390576 0.0205471 -0.0252235 0.0542186 0.0450147 -0.0324267 -0.0161949 -0.00673352 -0.0474412 -0.0442805 0.00435238 -0.00555072 0.0259871 0.010178 0.00136414 -0.0144536 -0.0312416 -0.0371127 -0.0486301 -0.0173616 -0.0329107 0.0541163 -0.0460939 -0.0162739 0.00360142 -0.0209312 -0.00818305 -0.0219174 0.108696 -0.0354809 -0.030437 0.0693255 -0.0265212 0.00924349 -0.00368557 -0.0362197 -0.0163166 -0.0236897 0.0241702 -0.00962462 -0.0156284 -0.0553882 -0.0134681 0.0141782 -0.0626147 0.0231189 0.0684085 0.0128791 0.00826039 0.0153183 0.0208442 -0.0260465 -0.0497581 0.0373496 -0.0305002 0.068344 -0.0344412 -0.0337573 -0.00307392 0.0100133 -0.0087666 0.0275272 0.000214456 -0.0108292 0.0206405 0.00840096 0.0022821 0.0450419 0.0060001 -0.082974 0.0122814 0.0178323 -0.0499259 0.00418792 0.0335606 0.00165128 -0.00247543 0.0268353 0.0349081 -6.20461e-05 -0.0629289 0.0392814 0.0296178 0.00514649 0.0120627 -0.0209302 0.0303904 0.0315438 -0.0013914 -0.028203 0.05691 0.00856607 -0.0513513 -0.0495649 -0.0266239 -0.0214255 0.0248754 -0.0454278 0.0439129 -0.0972427 0.045675 0.05786 0.0370039 0.0267643 -0.0785613 0.0234211 0.0265524 -0.0799272 -0.0400893 0.0289674 -0.036628 0.0227225 -0.0403452 -0.0561612 -0.0233456 -0.0462568 -0.0365445 0.00847997 0.00351676 0.00871622 0.00602702 -0.00432644 -0.0214418 0.0156126 -0.0177438 0.000666441 -0.00319101 -0.0277297 0.00292359 -0.0746901 0.0361971 -0.0864805 -0.0147245 0.0479307 -0.0740566 0.0053144 0.0117775 -0.00544422 0.000998243 -0.0277899 -0.0536065 0.015159 0.0567207 -0.0599649 0.0140727 0.0399526 -0.01888 -0.0287533 -0.0218465 0.0640587 -0.0369903 -0.028061 0.00194879 -0.0816884 -0.0202824 -0.000563467 -0.0335096 -0.0119308 -0.0154388 -0.0704266 -0.0295899 -0.0285008 -0.0702854 0.0237329 -0.0615578 -0.0404246 0.0058833 -0.00374465 0.148682 -0.0137601 0.00757037 -0.0205773 -0.0178005 -0.0547242 -0.0500987 -0.0260616 -0.0183143 -0.0150947 0.0211385 0.00622178 0.00840591 0.0144851 -0.0627862 0.00451693 0.0646644 -0.0783229 -0.00714596 -0.00936212 0.0382289 0.00285872 0.0191401 0.0460933 0.0131891 -0.0186613 -0.0037509 -0.0384334 0.00472081 0.0159337 0.00253662 -0.037078 0.0229637 0.0440855 0.00851386 -0.0367457 -0.0392446 -0.0633508 0.0317283 -0.030158 0.00155795 0.0210433 0.0356489 -0.0469282 0.0150318 -0.0172664 -0.0153928 -0.0312236 -0.0226242 0.0131089 0.0103318 -0.0173405 -0.0233052 0.00374122 0.0573004 0.0352823 -0.0103746 0.0348515 -0.0602968 0.0253374 0.0376517 0.0140401 0.0375083 -0.0190871 0.0495707 -0.0589049 0.0628163 -0.00372495 0.0505116 0.033923 0.0206349 -0.0643172 0.0159593 -0.0264239 0.0895062 -0.00573481 0.0323087 -0.00899561 -0.0600457 0.00471605 -0.0308943 0.0412002 0.044007 0.0279388 0.044944 -0.0253589 0.0289637 0.035564 -0.0318677 -0.00876065 -0.0667082 -0.0104225 0.0163765 0.0288569 0.0396045 -0.0714361 -0.0873657 0.00115155 -0.0524859 -0.023197 -0.0531361 0.025999 0.026079 -0.00887506 0.0537546 0.0657061 -0.0391992 0.0460199 0.0279722 -0.0191265 0.0276569 -0.0216444 0.018978 0.0094329 -0.012459 0.0417823 -0.0091948 0.0185861 0.00557997 0.022575 -0.00352558 -0.0179737 0.0436912 0.0244381 -0.0188252 0.00714185 0.00627515 0.0593332 0.00284068 -0.0159546 -0.0477841 -0.010275 -0.0291318 0.041448 -0.0144629 -0.0117753 0.0448955 0.020685 0.0291881 -0.0828418 -0.0404706 0.0601888 0.0539847 -0.0336256 0.0114074 0.0109909 0.0244805 -0.0407755 -0.0265989 0.0683851 -0.0183655 -0.0232157 -0.0158159 0.0277159 0.0571967 -0.0170046 0.00761765 -0.00841871 0.0107601 0.0252605 -0.0307625 0.0351807 0.0315209 -0.020774 -0.02225 -0.0269575 0.0249888 -0.0573376 -0.019955 0.0331784 0.0174713 0.00499706 -0.0182896 -0.0242792 0.0767948 0.0114887 -0.0199175 -0.00177802 -0.00984199 -0.0336679 0.00323139 -0.0322232 0.0704164 0.0401762 -0.0518344 0.0278746 -0.0775733 -0.00176323 0.00112584 -0.00451908 -0.0480401 -0.0164976 0.0345665 0.0354894 -0.0132058 -0.0247839 0.0320898 0.0207466 0.0321708 -0.0444447 -0.0121845 0.0508573 0.0895179 0.0467465 -0.0309231 -0.0144196 -0.0197474 0.0184187 0.0172334 0.0359654 -0.00967688 -0.0165664 0.00367605 -0.00281617 0.0584719 -0.0268352 0.0184173 -0.013011 0.02599 -0.0313921 0.0159447 0.0185919 -0.00969802 0.00222308 -0.0115822 -0.0502409 0.0118544 0.00268491 -0.0153548 -0.0357853 0.0146949 -0.00689204 -0.0154594 -0.0680429 0.0384807 0.0325985 ^-0.0270639 -0.0524911 -0.0334958 0.00998142 -0.00310958 0.0531564 0.0328578 -0.034513 -0.0153214 0.0982243 0.0240219 0.0385753 0.040092 -0.00653942 0.0488824 -0.0256906 0.0179371 0.0482815 -0.00938179 0.00377852 0.0257754 0.067581 0.0599053 0.000996122 -0.0357782 -0.0428623 -0.09433 0.0810539 0.0428064 0.016364 -0.0254942 -0.0758808 0.0124774 -0.0158259 0.00297488 0.0070148 0.0111376 -0.092816 0.00813925 -0.0441868 -0.00481722 -0.0321623 0.0188854 0.0265341 0.0201792 -0.0348618 -0.0440124 0.0356486 0.016551 -0.0562297 -0.0726117 -0.0238014 -0.00370116 0.0552493 -0.0447426 -0.0523394 0.00323817 0.0313645 0.0394989 -0.0816385 0.00817726 -0.0380825 0.000232583 0.0453623 -0.0122242 0.00145466 -0.0168895 0.0121296 -0.0200028 0.0282974 0.0752008 0.0669685 0.00349112 0.0643948 0.00352402 -0.00514052 0.019483 -0.0407848 0.0168189 -0.068975 -0.00396432 0.0405191 0.0378083 -0.00119061 0.0427151 -0.0187133 0.0175318 -0.0549855 -0.0103719 0.000892533 -0.0153604 -0.0130195 0.0300538 0.0703708 -0.0166372 0.0137699 -0.0444629 0.0387724 -0.0172565 -0.0217012 -0.00372397 -0.00149643 0.00142893 -0.0165538 0.00974454 0.0175705 0.0204891 -0.00758251 0.00165455 0.0765328 0.0284773 -0.0636477 0.0273355 0.0385828 0.0186135 0.0321498 0.0319566 -0.0276064 0.0139108 -0.0285732 0.0395172 0.0350298 0.00633391 0.018412 -0.0456955 0.0173659 -0.0118939 -0.00799062 -0.0267131 0.0459332 0.0141626 0.0571871 -0.0426344 0.00194009 0.0101536 -0.00322015 0.00880979 -0.0143096 0.0208794 -0.0438404 -0.00350456 0.0140686 0.0242869 -0.0207475 0.0191646 -0.0355725 0.0211463 -0.0467552 0.0454969 -0.0329919 -0.0408519 0.0247685 -0.0414896 0.0335948 -0.0469827 -0.0418576 -0.0151481 -0.0312807 0.0310032 -0.0155007 0.00109253 -0.00484362 -0.0648202 0.0337917 0.00763257 0.0310926 -0.0129933 -0.0376269 -0.0257998 0.0480099 0.00152121 0.00832484 -0.0532442 -0.0179809 -0.0174795 0.028112 0.0103312 -0.0645985 -0.00148532 -0.0135133 -0.0329038 0.0203826 -0.033357 -0.0460706 -0.0251037 0.0215513 -0.0619557 -0.0556556 -0.0433023 -0.014563 0.0253414 -0.00858231 0.0200483 0.0284353 0.0432542 0.0517323 0.00282011 -0.0212631 0.0341455 -0.0636911 0.0280499 -0.0348048 0.0217184 0.0233386 -0.0979632 0.0170006 -0.069688 0.00129729 0.00558696 0.077931 0.0147029 -0.0419505 0.0173091 -0.0294317 -0.0192564 0.0269719 -0.00355016 -0.0108413 -0.0375984 -0.00893548 0.0109443 0.0263601 0.0224039 0.00633028 0.0071997 0.0271099 -0.065675 -0.0272617 0.00676339 -0.00489392 0.00382823 0.0550649 -0.0186657 0.0413079 -0.0456301 0.127147 0.0711393 -0.0605415 -0.0122545 -0.0401782 -0.0806701 -0.0465965 -0.00253861 0.00604434 0.0708272 0.00699511 0.0294342 0.0530204 -0.0217163 0.0146205 -0.00378001 0.0228397 0.0221609 -0.0197812 0.0462137 -0.0329446 -0.0136244 -0.0128129 -0.00815697 0.0375029 0.035846 0.00571227 -0.0295171 0.00509314 0.0250496 -0.0246977 0.00433577 -0.0277386 -0.0508321 -0.0303356 -0.0282139 -0.0236719 -0.0145792 0.00461849 -0.014844 0.0653948 0.0331008 -0.0756303 0.0179165 -0.00198791 0.0422141 -0.034576 0.00895977 -0.0359161 -0.0062799 -0.0359699 -0.0101617 -0.0316489 0.0650575 -0.0417671 0.0299424 0.0920186 -0.0349924 -0.0221783 0.0198776 -0.0207823 -0.0160579 0.0449544 0.059712 -0.0331325 -0.00118624 -0.00238764 -0.00714571 0.0250469 -0.0050433 -0.031925 -0.0293591 0.0465238 -0.0144084 0.00929495 -0.0383626 0.0448782 0.0133518 0.00652896 0.071664 0.0180417 0.0367121 -0.0764447 0.0336761 -0.0262307 0.0218702 0.0060041 -0.0374836 0.0618872 0.0221773 -0.0526577 0.0239978 -0.0149391 0.0105485 -0.0189656 -0.00493147 0.0159457 -0.0181818 -0.0460772 -0.0323445 -0.0160878 0.0198686 0.000861663 -0.0391761 -0.0317804 -0.0375915 -0.021274 -0.0117621 -0.0420407 0.00127177 0.00995433 0.021568 -0.0371602 -0.0259822 -0.0344529 0.0168007 0.02246 -0.0340048 -0.020348 -0.0240482 0.00281842 0.00273571 -0.0318965 -0.0507931 -0.0509765 -0.00363564 0.0446379 0.0388914 -0.0108882 0.0157665 -0.0306814 0.0208497 -0.0177492 0.00557894 0.0246441 0.00395811 -0.0498971 -0.0393143 -0.0462139 0.00570986 0.0154377 -0.0363455 0.0175633 0.0064351 -0.008872 -0.0479055 -0.0394577 -0.000378258 -0.0764098 -0.00106139 -0.0544499 -0.0479616 0.0502281 0.0286882 -0.0965451 0.00670929 0.0580885 -0.0400278 0.0793532 0.0243111 -0.0185255 -0.0826451 -0.0276704 0.031155 -0.00470115 0.00316693 0.0276049 0.0677342 -0.00968142 0.0200518 0.0640434 -0.00768172 -0.0217012 0.00613942 0.0557407 0.0324725 0.00631856 -8.29898e-05 0.0159036 0.0520272 -0.0118519 -0.0680686 -0.00326101 0.017549 -0.0149997 -0.0180561 0.0379468 -0.0150832 -0.0443897 0.013244 0.0451043 0.0113051 -0.00174243 -0.0236955 -0.0190401 0.0489496 -0.0663987 -0.0251144 0.0188826 -0.00934064 0.00372413 -0.0685337 -0.037575 0.0124156 8.46325e-05 0.0128912 -0.000812623 0.0335043 0.00434579 -0.0428935 -0.00581397 0.0131722 -0.0322903 -0.0504364 0.0704465 -0.0241441 0.0766785 -0.0487356 0.000887447 0.0234687 -0.0832841 0.00297389 0.0140507 0.0685254 -0.0195983 -0.00345622 0.00327161 0.0187033 0.0379523 0.049546 0.00605446 -0.0198267 -0.0454371 0.00324564 0.0492066 -0.0253439 0.0469591 0.042252 0.0118229 -0.0189759 0.0242592 0.00558399 -0.0663461 0.038286 -0.0210924 0.0281372 0.00501859 0.0316195 -0.000964715 -0.0226397 0.00496863 -0.00605508 -0.00440488 -0.000102893 0.0670036 -0.0521012 -0.00888978 0.019967 -0.0480078 0.0198165 -0.0546269 -0.0224891 -0.0509184 -0.00518329 0.0543561 -0.0448261 0.00140244 0.00785476 -0.0148605 -0.0543233 -0.0362697 0.0242242 -0.0396576 -0.00221099 -0.0373509 0.0250484 -0.0243407 -0.0149394 0.0650852 0.0240669 0.0351413 0.0348362 -0.0250057 0.0295876 -0.0137641 -0.0156429 0.0277526 -0.052008 -0.0641253 0.0369329 -0.00478798 0.0153671 -0.0420283 -0.000858312 0.00566043 -0.062444 0.0381058 0.00817832 0.00718073 -0.00309943 0.00770339 -0.0052081 0.0126251 -0.00815352 -0.0105945 -0.0307374 -0.0130872 0.000397215 -0.0621254 -0.031439 0.0220395 -0.0581567 0.0417804 0.0018606 -0.0346516 0.0133357 0.0321749 0.0517037 0.0240959 -0.0518729 0.000917844 -0.0156625 -0.00424373 0.0146589 0.00302558 0.0262422 0.0194502 0.057578 -0.0479237 -0.00673799 0.0181912 -0.0220276 0.0637288 0.0750079 0.0568751 -0.00425954 -0.000540617 0.0170433 0.0170615 0.0199052 0.0346448 -0.0129663 0.0484311 -0.0289069 -0.0481761 0.0423713 -0.0436035 -0.0257956 0.00940323 -0.0109899 -0.026489 -0.010218 -0.0560685 0.0047417 -0.0515979 0.00267366 0.0139944 4.23646e-05 0.121146 0.0107851 -0.0464397 -0.0502967 -0.0426398 -0.0330567 -0.0332406 0.077839 -5.58359e-05 0.00729744 -0.00766184 0.0457204 -0.0279262 0.0165634 0.0223429 0.00570559 -0.0404072 -0.014532 -0.0336383 -0.0354493 0.013234 -0.0640681 0.00910469 -0.0310027 -0.0151204 -0.0131351 0.012669 -0.0390875 -0.0769808 0.0322441 -0.0395643 0.0796948 0.0395758 0.0326988 -0.028479 -0.0154524 0.0114694 0.00319686 -0.0358389 0.00977757 -0.0330114 0.0114303 0.00301931 -0.0132753 -0.00534113 0.00213864 -0.0500268 0.0188725 -0.0165545 0.0152711 -0.0143194 -0.00666383 -0.00198292 -0.0442903 0.020466 0.0349397 -0.0411502 -0.000835289 0.0320452 0.00229053 -0.0533056 -0.0129146 -0.0585667 -0.00682729 -0.0201544 0.0223 0.0339338 -0.0467002 -0.0231124 -0.0245467 -0.0216788 -0.00969784 0.0221829 -0.0349917 -0.0607698 -0.00116739 0.0237456 0.00103141 -0.0113848 -0.020423 -0.0484951 0.0107751 0.011946 0.0378483 0.0481414 0.0482551 -0.0107059 -0.00697178 0.0209498 -0.0145726 0.0367557 -0.100018 -0.0136407 0.0907492 -0.0257365 -0.0184744 0.00552451 0.0381425 0.0701675 0.00239716 0.0541711 0.0340883 -0.0111762 -0.0449911 -0.00827015 -0.038176 -0.0293649 -0.067395 -0.0149254 0.0697686 0.0360023 -0.0514022 0.0499281 -0.0213669 -0.0912814 -0.0303189 0.0321698 0.069629 -0.00409666 -0.0262376 0.0836964 -0.0279725 -0.0179602 0.0837932 0.00182162 -0.0428453 0.0128494 -0.0018498 -0.00089291 0.00588594 0.0193604 0.0361437 -0.0498567 0.00585078 0.0358481 -0.0249623 0.0382563 -0.0327747 -0.00539103 -0.0744639 -0.0160395 -0.00187371 0.0448974 0.045672 0.0284085 -0.0256849 -0.0924591 0.0454885 -0.0430355 0.00346228 0.0381607 0.0616287 0.00720992 -0.00767644 0.00692331 0.0279401 -0.0329668 0.0227574 -0.000731682 -0.0262928 0.0534642 -0.0320657 -0.0106412 0.0402666 0.014812 -0.00916873 -0.023345 -0.0189517 0.00880884 0.0469698 -0.0292002 0.104023 0.00146119 -0.0205875 0.0161731 0.0488573 -0.0918431 0.0105685 -0.0489928 -0.0219888 0.0444888 -0.0112796 -0.00589343 0.0140015 -0.0713565 0.0188464 0.0101083 0.0275215 -0.0798412 0.0186505 -0.0196658 ^-0.0155453 0.01853 -0.0478286 0.0129908 -0.052479 -0.011809 -0.0449306 0.0169968 -0.0403641 0.0252374 0.0360381 0.0450986 0.00535463 0.0758373 -0.0193302 -0.00951735 0.0235482 0.0174516 0.00264453 0.00328855 0.0165776 -0.00771929 0.00229601 0.106426 -0.00623152 -0.030135 0.0357728 -0.0019341 -0.0871443 -0.0645498 -0.0188567 0.0398854 -0.0286178 -0.00158399 0.0107288 -0.00496384 0.0386776 -0.0930726 -0.0404855 0.0465843 -0.0417345 0.00143451 -0.0132465 -0.0296202 -0.0598432 -0.000829172 0.0539592 -0.0655484 0.0126076 0.0391437 0.0059605 -0.053232 -0.0403896 0.0367638 0.00793947 -0.0278443 0.00820451 0.0167682 -0.0140152 -0.0435448 0.0466695 -0.0259244 0.0262673 0.0653955 0.0737677 -0.0209417 -0.00948303 -0.0491578 0.00909443 0.0245352 -0.00577003 -0.000569646 -0.0397332 -0.00944831 -0.0275563 0.0543836 0.0160287 0.0528622 -0.0371358 -0.0050282 -0.0344617 0.0034694 0.0279181 0.00697431 0.0133868 0.0443666 0.0370087 0.0226268 -0.015223 0.0113144 -0.0143407 -0.00374639 -0.0369176 0.00112205 0.0593861 0.000205735 -0.00864135 -0.00697151 0.00156337 -0.0181801 -0.0604041 -0.00843225 -0.100558 0.0191859 0.0054315 0.0130101 -0.0992969 -0.0265498 -0.00618195 -0.0281308 -0.0490737 -0.0243026 -0.0480495 -0.00547898 0.00622263 -0.0328704 -0.00143964 -0.0239868 -0.0518014 0.0159989 -0.0440467 -0.0492088 0.0803179 -0.0155663 -0.0386434 -0.0255913 -0.00988386 0.068132 -0.0124931 -0.0380907 0.0172875 -0.0162066 0.0222397 0.00103931 -0.00750423 -0.060424 -0.010762 -0.103328 0.0242293 0.0258173 -0.00802132 0.0803307 0.0168277 -0.006651 -0.0197512 0.0422966 0.00505181 0.0194415 -0.00213366 0.040474 -0.00495138 -0.0102538 -0.0276549 0.0442372 0.0285369 -0.0471314 0.0270719 -0.0133874 0.0896963 -0.00191215 0.0588004 -0.010274 0.0202506 0.00627019 -0.0340019 0.0151279 -0.0250083 0.0535959 -0.00966276 0.0136438 0.0219483 -0.0253459 0.0586329 0.0163344 0.0167748 0.00310313 0.0436211 0.0545982 -0.0618697 0.0588458 -0.0145181 -0.0316605 0.0331788 -0.02528 0.0633355 0.0405069 -0.0101688 0.011709 0.0247557 -0.0581804 -0.0240997 -0.0139287 0.0203348 0.0362091 0.0452782 -0.0112811 -0.00184274 -0.013473 0.0856533 -0.0281507 -0.0131435 -0.0904432 0.0146909 -0.022662 -0.095138 -0.0224697 0.0392132 0.074963 0.0390502 -0.00999693 0.0449679 -0.0358363 -0.0680202 -0.0024428 0.00181436 -0.101025 -0.0661817 0.0927096 -0.0343754 -0.0378123 -0.0546904 0.0243747 -0.0463197 -0.0240371 -0.0036228 0.0507842 0.0613568 0.0194703 0.0184442 -0.0485995 -0.0159641 -0.00809911 -0.0180705 0.0190971 0.0482002 0.0352917 0.00498 0.0548139 0.0131872 -0.04444 0.0215431 -0.0153377 -0.0507941 -0.0344463 -4.85998e-05 -0.0142034 0.0574665 0.0104252 -0.0144577 0.00865633 -0.0454221 -0.0610821 0.0103687 0.00882293 -0.0395255 0.00112571 0.00384185 0.014918 -0.0202312 0.00103729 0.0392798 0.0191298 -0.00360942 0.0127288 -0.0165709 0.0064611 -0.0415582 0.0142065 -0.00820418 -0.0167452 0.0511591 -0.00352545 -0.0317866 0.0574926 -0.0183003 0.0414898 0.0210726 0.0400088 0.0543868 0.0158048 -0.0645341 0.0278584 -0.0294024 0.0396158 -0.0158492 -0.0190516 -0.0206002 0.0249726 0.0102691 -0.0548989 0.0323933 -0.0336999 0.0427255 -0.00697357 0.0547964 0.0200272 -0.0182417 -0.0159829 0.0254253 0.0140668 0.0109153 0.0371128 0.0236134 -0.029897 0.0275745 0.0128353 0.0516498 0.0272875 0.014751 0.0295327 -0.00583415 0.00328859 -0.0118421 0.0459303 -0.000592395 0.0166129 -0.0586397 0.0543659 0.000707705 0.000157884 -0.00303494 0.031249 -0.0509641 -0.0131043 0.0457948 0.0714447 0.0182411 -0.0801864 0.000903945 0.000497546 0.0234759 0.0379783 -0.0529997 -0.094735 -0.030729 -0.0224583 0.00145677 0.0138691 -0.0241846 -0.0234278 -0.0145786 0.0267265 0.0240885 -0.00582757 0.0422519 -0.0370635 0.0236489 -0.0198067 -0.072435 0.0477821 0.0112123 0.0042185 0.000623586 -0.00735281 -0.027344 -0.0471909 0.0447574 -0.0502646 -0.0106507 0.0447699 -0.0130811 -0.0322388 0.070422 -0.00114811 -0.00238799 -0.0223767 -0.0448583 0.00451961 -0.0688304 -0.0193866 -0.0377085 0.0236328 -0.0177024 0.00604043 0.0509339 -0.0790309 -0.0300881 -0.0205993 -0.0282178 0.0051785 0.0347796 0.0145563 0.00912134 0.0191833 -0.0103468 -0.0175422 -0.0226641 0.0268829 0.0212205 0.0161364 0.0151302 -0.00634438 -0.0354405 0.00446966 0.00798887 -0.0263434 0.0248582 0.0338978 -0.062598 0.0371309 0.00816385 0.0213849 -0.0358255 -0.0473426 0.0771396 0.0227786 0.063402 -0.0098814 0.0488172 -0.00955835 -0.0622543 -0.0737036 -0.056004 -0.021967 0.0391803 -0.0306289 0.0137778 -0.0181717 0.0142878 0.0117451 -0.00448527 -0.0791815 0.0291257 0.0512209 -0.0268287 0.00671537 -0.0428607 0.00666612 -0.00600942 -0.0475711 -0.0196856 0.00340499 -0.0301101 -0.0316993 -0.0346399 -0.033726 -0.0367173 0.0231259 -0.00610544 0.00686225 -0.0549975 0.0368832 -0.0600568 -0.0140776 0.0695245 0.0945588 -0.0400899 0.0233917 -0.0247743 -0.0371958 0.0765612 0.00491801 0.0301295 -0.0319592 -0.0367735 0.00613854 0.0514305 0.0117506 -0.0115098 0.00906155 0.0508109 -0.0235736 0.0300769 0.0313906 -0.0190146 0.0790313 -0.0373175 0.000723558 0.0394867 -0.00921847 0.0169486 0.0249727 0.0257359 -0.0235318 0.0191595 -0.00358507 0.0112809 0.0312508 -0.0378728 0.0126215 0.0410563 -0.0392555 0.00442747 -0.0870157 0.00205235 -0.0479702 -0.0171007 0.0462733 -0.00828735 0.0391017 0.00715927 -0.032435 -0.0422287 0.014219 0.0304258 0.0339456 0.038344 -0.0651586 -0.0180607 -0.00304819 0.0355148 -0.00018419 -0.0322337 0.0431247 -0.0426146 -0.0235018 0.054778 -0.0235619 0.00692555 0.0541428 0.00522827 0.00572668 -0.0497663 7.60328e-05 -0.0323736 -0.0200767 0.00315612 -0.0995357 0.0366025 -0.0458392 -0.00800174 0.00718969 -0.0265235 0.0215004 0.0886975 0.054163 -0.039341 0.0234316 -0.0789219 0.00573693 -0.0121632 0.0367164 0.00179798 -0.0769084 0.0034495 0.00252295 -0.0239246 0.0234558 -0.0263976 0.0381922 0.0111537 -0.0266647 -0.0241158 0.0720591 -0.0250499 -0.0113005 -0.0574404 0.0175389 0.0266665 -0.0625296 0.00196823 -0.00593544 -0.0571329 0.0339491 0.0177778 0.0628391 -0.0584653 0.0896764 -0.0249221 -0.0257752 0.0111846 0.0517802 0.0367865 0.0377724 -0.0298389 0.0273678 0.0153362 0.0403619 -0.0311517 -0.0353504 -0.0341246 -0.0450212 0.0472586 -0.00658277 0.00183108 -0.00130048 -0.0382997 -0.0480589 0.0409881 -0.0329276 -0.0511101 0.00857498 -0.0403936 0.0215646 0.0194955 -0.0428089 0.0629652 -0.0308582 0.030841 0.0735259 -0.0168641 -0.0276493 0.000491503 -0.00268802 0.0407937 0.0300571 -0.0163612 -0.0761563 0.0213168 -0.0170264 -0.0505206 0.0332362 0.0110673 -0.0273465 0.0157172 0.0465678 -0.0147396 -0.0184877 0.0173071 0.0359717 -0.0579074 -0.0230203 0.00364203 0.0353469 0.00195707 0.0312099 0.0361115 -0.0308171 0.00105036 0.0184216 0.0238522 0.0231048 -0.00221179 -0.0847899 0.00561605 -0.00798028 -0.0361353 -0.00559377 0.0313977 -0.0127478 -0.0603667 0.0560639 -0.000700911 0.017911 -0.0204433 0.00341064 0.0494852 0.0253682 -0.0457949 0.0121161 -0.0485867 0.022763 0.050464 0.0319417 0.00123343 0.0256432 0.0153591 -0.0156441 0.0804835 0.0138178 -0.0224272 -0.0555752 0.00543281 -0.0228564 -0.00890149 -0.048498 -0.00188158 -0.079321 -0.00905043 -0.0632452 0.0346384 -0.0459883 -0.0004998 -0.00119809 -0.0183104 -0.013799 0.0179404 -0.0703397 0.0137433 0.0153472 0.0206727 0.0437432 -0.0247583 0.0148834 0.0681779 -0.0728665 0.0419207 -0.0553812 -0.0155908 0.0955961 0.0284456 -0.035084 0.0306746 0.0296098 -0.0496908 -0.00355996 -0.0493935 0.00995324 0.0196841 0.0495727 0.0655103 -0.0279754 -0.0155732 -0.0726488 0.0453457 -0.0151955 0.0275422 -0.0473449 0.0464498 0.0146648 0.0439323 0.0207947 -0.0365213 0.0169347 0.0232627 -0.0586479 -0.00419191 -0.0375242 0.0101981 0.000899235 -0.0260285 0.0234272 0.00162037 0.00733056 -0.0272755 0.0221221 -0.01991 0.0257057 -0.0335784 -0.0126871 -0.0886234 -0.00164735 0.00606129 -0.0625192 0.00199954 0.0380416 -0.0100287 -0.0045134 -0.00510997 0.0189924 0.0272037 0.0101362 0.000193865 0.0108162 0.0205967 -0.021449 -0.0291901 -0.0111188 0.0183048 -0.0168526 -0.0402808 0.0404773 -0.012119 0.0177464 0.002948 0.0114228 0.021275 0.0517593 -0.0565225 -0.028855 0.0329636 -0.0122684 0.00829705 0.0446365 -0.0686264 -0.050181 -0.034006 -0.000850149 -0.00474226 -0.0367169 -0.0138356 -0.00575979 -0.034131 -0.0223945 0.0319853 -0.0325394 0.0183279 0.00255677 0.0382212 -0.0352208 -0.0215284 0.0671905 -0.00689463 -0.00581315 -0.00656482 0.0265214 0.0258602 0.0536732 -0.0197895 -0.0188453 -0.0438671 -0.0458564 0.0488838 -0.0222333 ^-0.0118462 -0.0826758 0.0187239 -0.0447366 -0.0191933 -0.0541752 -0.0149733 0.00340823 0.0615614 0.0343115 0.0785185 0.0261292 -0.00249382 0.0206731 -0.0100774 0.0398798 -0.00706338 -0.0206563 -0.0325088 0.0174438 0.016589 0.0166378 -0.0458846 -0.066398 -0.0414056 0.0412379 -0.0289807 0.0351486 -0.0174721 0.0208969 -0.0304124 -0.0182623 0.00895471 0.0597426 0.0540371 -0.0124243 -0.00157131 -0.00712517 0.0523719 -0.000604129 -0.0666705 0.0202849 0.00651338 0.0495374 0.012438 -0.0276814 0.000277803 -0.0503282 -0.032663 0.0337196 -0.00495298 0.0062745 0.0157511 0.0259014 0.0256954 -0.0413275 -0.0480227 -0.032228 0.0172307 0.0808905 -0.0155606 -0.0172249 -0.0268883 0.0200188 -0.00152165 0.00685484 -0.0728203 0.0485027 -0.000262555 0.0408951 0.0059544 -0.0440043 0.047848 -0.0128772 0.00568267 -0.00600156 -0.0411814 0.0630088 -0.0816584 0.0537481 0.0647418 -0.0702449 -0.00154439 -0.000838708 0.00391016 -0.0582445 0.0287089 -0.00523141 -0.0266822 0.0277649 0.035232 0.0242062 0.0170207 0.0578634 0.0494338 0.016945 0.0562844 -0.0224654 -0.0528356 -0.0629425 0.0600112 0.0287124 -0.0237443 -0.0182072 0.0197135 -0.0541357 -0.0221863 -0.000872762 -0.0303674 0.00597226 0.0473621 0.0109813 -0.0172905 0.0013093 -0.0388064 -0.0475919 -0.0240392 -0.0530327 -0.0527607 -0.0176772 -0.0189093 -0.00493773 0.0639388 0.0973539 0.0404289 0.0710561 0.0254679 0.0124906 0.0759023 0.0438812 -0.0212529 -0.0205017 0.0103516 -0.022956 0.0225575 -0.0163958 0.0224316 0.0249557 0.00266071 0.0196442 -0.0314405 0.010952 -0.0190307 -0.00706288 -0.0393468 0.0219643 -0.00127104 0.0433067 0.0177356 -0.00203163 0.00808546 0.0222307 -0.00974383 0.00254645 -0.0209466 -0.0100158 0.0137323 -0.0106191 -0.0406086 -0.0233219 -0.00223675 -0.0444142 0.0224924 0.0256451 -0.0135648 0.0134964 -0.0155285 -0.0230136 -0.0161017 -0.014374 -0.0920666 -0.016614 -0.0479775 -0.0610714 -0.0466389 -0.0273533 -0.0551779 -0.00308656 0.0614547 0.01486 0.0457775 -0.0283865 -0.0202485 0.0300581 0.0223444 0.0556608 -0.00112776 -0.00940763 -0.0333318 -0.00907984 -0.027603 0.0130587 0.0365084 0.0257945 -0.00551331 -0.00293288 0.00198622 0.0554099 0.0100199 0.0817647 0.0215884 -0.0233953 0.013534 0.00870404 0.0443445 -0.0173168 -0.0346854 -0.0495061 0.0160314 -0.0254511 -0.0267417 0.0139462 -0.0160943 0.0497228 0.0417602 0.044438 0.0256851 -0.0222967 0.0222326 -0.00484004 0.00242481 -0.0216104 -0.0252962 -0.00251323 0.0773325 -0.00343782 -0.0227529 0.0322838 0.000473235 -0.00283123 -0.0341158 0.00882881 -0.0110905 -0.0577056 0.0263093 0.0596712 -0.00269991 0.0150284 -0.0219162 0.0459605 0.0357 -0.0223421 0.108208 0.00256945 -0.0566167 -0.102205 -0.00255426 -0.0662018 0.0200558 0.0504414 -0.0551841 0.0108277 -0.0115872 0.0430749 -0.0425493 -0.0101539 0.0294814 -0.0152945 0.0101602 -0.0212897 -0.00825327 0.0364488 -0.0376378 -0.00550898 0.0181974 0.0235987 0.00633599 -0.0162107 -0.00873017 -0.0466052 -0.0357713 -0.0279886 -0.00128882 0.0068089 0.0154259 -0.0308029 0.0270694 -0.0984017 0.00470716 0.0139172 0.0501133 0.0138027 0.0405524 -0.0287006 -0.0449476 -0.0884225 0.00715236 -0.0242081 -0.0231315 0.0413101 -0.0338161 0.0184076 -0.0261613 -0.102613 -0.0338552 -0.0162467 -0.000877845 0.0301267 0.00193885 -0.015817 0.0443451 0.00644231 -0.0495661 0.0183947 -0.0586956 0.0199842 0.0778738 0.00210187 0.00418746 0.00674688 -0.0413556 -0.0308715 0.0800786 -0.00529517 0.00976495 0.0509896 -0.0307792 0.0557408 0.0267045 0.00770074 0.00935615 0.0524618 -0.0358404 0.0613237 -0.0384673 -0.0168521 -0.0057175 0.0211747 -0.00135837 -0.0401112 -0.00544143 -0.0327254 0.0702735 -0.00143941 -0.01754 -0.0444605 0.0441014 -0.0369674 -0.0545928 0.0342046 0.0139396 0.0303904 0.0667307 -0.0357764 0.0557251 0.0275712 -0.0780936 -0.00552837 0.0189563 -0.0602693 -0.0312378 -0.0103281 0.035619 0.0234361 -0.0231277 -0.00554101 0.0386264 -0.00925762 -0.0346552 -0.0124711 -0.0252986 -0.0423138 -0.0348208 0.041336 -0.00937208 -0.0160682 0.00241819 -0.0201438 0.00895156 -0.0339312 0.037763 0.00781597 -0.00110347 -0.0348257 -0.00165001 0.00701918 0.0308392 0.0480955 -0.0082776 0.0134906 -0.0642916 0.0226623 -0.0386358 -0.00297819 0.0494328 0.0318206 0.0124612 -0.0306389 0.000787381 0.0415954 -0.00716173 0.043725 -0.0299625 0.0193799 -0.0144793 0.0352255 -0.0322368 0.0347045 0.0210006 0.00855177 -0.0472032 -0.0256537 0.0145416 0.0642641 -0.0584736 0.0340561 0.0291103 -0.0238071 0.0134528 0.0505986 0.0215515 0.0464105 -0.0404465 -0.0421437 0.0249573 -0.00689205 -0.0450273 0.0089343 0.0134939 -0.0487113 0.0155234 0.0665038 0.00441797 -0.0106191 0.00322319 0.0178523 0.0256162 -0.047047 0.0143817 0.0128881 0.0814352 0.00476324 -0.0319542 -0.0180127 -0.0114264 0.0127602 0.0100671 -0.00644743 -0.014607 -0.0520676 -0.000783299 0.00438814 -0.0129155 -0.00431373 -0.00853807 0.0349871 -0.019398 0.0205894 -0.0237929 -0.0709365 0.0450094 0.0393768 -0.0483211 -0.0234348 -0.011767 -0.10561 -0.0657009 0.0470915 -0.00330109 -0.000278157 0.0042187 -0.0239989 0.00303651 0.0121095 -0.0502985 0.0678343 0.00835487 -0.0269755 -0.0672211 -0.0278542 -0.0468497 0.0251563 -0.00405162 0.0418899 -0.0100579 -0.0367682 -0.0118884 0.0626902 -0.0277086 0.0267222 -0.0326204 -0.0285526 0.0391319 0.00463236 -0.00137953 -0.0188609 0.00675045 0.00258799 0.00715386 -0.0391055 -0.0217163 0.0402453 0.0045695 -0.0139103 -0.0742508 -0.012718 -0.0495781 0.0019503 0.0446169 0.0292519 0.024709 -0.0273922 0.0283583 -0.0411056 0.0106055 -0.00258372 -0.00387523 -0.0675254 0.0270974 0.0092136 -0.0741978 0.00509236 0.0680389 0.0446063 -0.0247218 -0.0217688 -0.0184364 0.0211749 -0.0477249 0.00544358 0.0110469 0.0219424 -0.0296712 0.0189172 0.0843241 -0.0166299 0.00798753 -0.00287348 -0.0703583 0.0186428 0.0122521 0.0668362 0.000385776 0.0519147 0.108712 -0.00979947 -0.0281678 0.0355045 0.0184901 0.00865518 0.037119 0.00607256 0.013857 0.100092 0.0156914 0.0187948 0.032221 -0.000868143 0.0171781 -0.047978 -0.000137324 -0.0442007 -0.000704749 -0.0193489 0.05395 -0.0468175 -0.0268282 -0.000333662 0.0270377 0.0173058 0.00575505 0.0387294 -0.0671082 0.0481877 0.00142321 0.000668058 0.00779033 -0.0441826 0.0285285 0.0398288 0.0177478 0.0214518 -0.00264835 -0.000792583 0.0342924 0.0403966 -0.0310849 0.00827247 0.0445386 0.00792497 0.0311953 -0.0472661 -0.0146127 -0.0183638 -0.0484607 0.036452 -0.00812933 0.0517806 0.0134585 0.0744948 0.0253405 0.0826491 -0.0819419 0.00354744 -0.00652173 -0.0187459 0.0464193 0.00221225 -0.0207429 0.00727522 0.00652404 0.00796966 0.0366222 -0.0380722 -0.0152429 0.0154683 0.0412875 0.045913 0.031253 -0.0497622 -0.00826634 0.0101273 -0.0189664 0.0190626 0.0221238 -0.0618062 0.0011631 -0.0490454 0.0371002 0.0100989 0.0348166 0.0466277 -0.0409562 0.0396895 -0.0376876 0.013465 -0.00632123 -0.0267925 0.00736489 -0.0221014 -0.000461622 -0.0104678 -0.0527297 -0.061594 0.0167813 -0.0135852 -0.0173328 0.030845 0.00944986 0.0206698 0.0475251 -0.0332224 -0.0605058 0.00846463 -0.0145932 0.00836758 -0.0394952 -0.00784265 -0.0214175 0.00203361 -0.0212758 0.0230292 0.00592576 0.0564374 -0.0253428 -0.0198554 -0.00131395 -0.0819713 -0.00693858 0.0366937 -0.0536413 0.020076 0.042871 0.0162599 0.000774264 -0.0420435 0.0242454 -0.0450911 0.0139681 -0.0103581 0.0138597 -0.0409925 0.000377315 0.0532314 0.0108641 -0.0516855 -0.0159604 -0.0472583 0.0238807 0.00949131 -0.0291398 -0.0568668 -0.00110075 -0.00796318 0.0368843 0.00119225 0.0253737 0.00701975 -0.0179926 0.0507613 0.00591848 0.0261815 -0.0148835 0.0185764 -0.0528615 -0.027666 -0.0543593 -0.0134855 -0.0271726 -0.00158443 -0.053728 -0.000629575 0.0261595 -0.0247926 0.0135961 -0.0137288 0.0258233 -0.0291288 0.00176686 0.00338759 0.0327952 0.0135611 -0.0077224 -0.0551061 0.0266893 0.0209347 -0.0442077 0.0250037 0.0441055 -0.0462594 0.0685799 -0.053053 0.00951833 -0.0757716 0.0345921 -0.0109259 -0.014125 0.0662668 -0.0186118 0.0147602 -0.0251226 0.0151524 0.0239552 0.0213486 -0.0429691 0.0230702 0.0466156 -0.00602657 -0.0404886 -0.0431355 0.0564509 -0.0220164 -0.0551637 0.03137 -0.0133984 0.0325793 0.010826 -0.000130092 -0.000344765 -0.000829606 -0.0101864 -0.0138156 0.0301307 -0.0676429 0.016648 0.0268793 -0.0184356 -0.004064 0.0268749 -0.0559755 -0.0565352 -0.117643 -0.00993547 -0.00325179 -0.104719 -0.0402739 0.0262822 -0.00533641 0.0192495 -0.0453808 -0.0124385 -0.0347103 -0.0269631 0.0119138 0.0239835 0.0153086 0.0178773 0.000332941 -0.00672464 -0.0513717 -0.0285476 -0.033613 -0.0169001 0.0632228 ^
0.000843856 0.0514115 0.0499971 0.00160755 -0.00189297 ^0.0600653 0.012611 -0.0127452 -0.016977 -0.00119735 ^0.0579298 0.047834 0.0839627 0.0141716 0.00458443 ^0.00132999 0.0462539 -0.00892803 -0.00525237 -0.0170994 ^-0.0182647 0.0326227 -0.00940775 0.0190665 0.0240567 ^-0.0279486 -0.000544446 -0.0344145 0.0402735 0.00842803 ^-0.00940106 -0.00806174 -0.000487203 -0.0143659 0.0296624 ^-0.0258286 0.025098 0.0524924 0.015604 0.0445962 ^0.00773633 0.00878178 -0.0290417 -0.0346634 -0.0365367 ^-0.0307212 -0.00650286 0.041717 -0.0605576 -0.0194097 ^
