-0.0410588 0.00655194 -0.00169951 0.00900311 0.00717479 -0.0395982 -0.00276735 -0.0597237 0.0198847 -0.00155118 -0.00913097 -0.0113731 0.0374086 -0.0522533 0.0125714 -0.0307809 0.0432642 0.0173635 -0.00548221 -0.0586546 -0.0452219 -0.0168675 -0.0391755 -0.00804377 -0.00424064 0.0211584 -0.00697549 -0.0222191 -0.0210377 -0.0142375 -0.00830624 0.0526247 -0.0231756 -0.0731103 -0.0417111 0.0226167 0.0243436 0.0124242 0.0451685 -0.0273705 -0.025216 -0.146686 -0.000925211 0.00439764 -0.00597097 0.0619623 0.0106201 0.0231596 0.0512615 0.00482827 0.0429027 0.0377629 -0.0164062 0.0273538 0.0408269 0.105854 -0.00691521 -0.0318982 0.0359058 0.0072617 0.0591382 -0.0139353 0.0859688 0.141891 0.175712 0.239003 0.138783 0.228604 0.210155 0.188753 0.149881 0.32357 0.292115 0.411981 0.322105 0.238124 0.17407 0.0800106 0.0124718 -0.044125 0.0099576 -0.0709948 -0.00566364 0.0358477 0.0493824 -0.00522863 -0.0434781 -0.0118672 0.110935 0.16316 0.237985 0.268421 0.301866 0.479003 0.583819 0.460932 0.429174 0.155113 0.214054 0.51828 0.0162886 0.114862 0.544646 0.295287 0.209358 0.357454 0.260078 0.215375 0.103662 0.0212489 0.0221793 0.024015 -0.0590946 -0.0210357 0.0248285 -0.0210279 0.0319758 0.177605 0.192434 0.330925 0.289962 0.0883819 0.144671 -0.0109287 0.232543 -0.0629299 0.324403 0.00946152 0.223346 -0.0646629 0.200017 -0.197827 -0.124795 0.327589 -0.0164839 -0.0397053 0.267081 0.132077 0.0101667 0.0591593 0.076509 0.0468775 0.0441722 -0.0296246 0.124005 0.224367 0.294001 0.414834 0.169668 0.137307 -0.235987 -0.00682173 -0.105487 -0.528404 -0.127182 -0.179349 -0.337135 -0.383123 -0.21284 0.140452 0.321643 0.221525 -0.0907893 0.259855 0.360022 0.204617 0.0142415 0.00581583 0.0430642 0.041997 0.0399083 -0.0149413 0.110041 0.0503065 0.120578 0.252648 0.348561 0.580168 -0.231884 0.108457 0.510302 0.0086347 -0.0487958 -0.135463 0.0848939 0.0639378 -0.0049881 -0.186514 0.365764 -0.699351 -0.228726 0.413158 0.679898 0.564501 0.234837 0.0344251 -0.0191685 0.0461889 0.00252837 -0.0674101 0.0893319 0.0502104 -0.0131166 -0.254659 0.553447 -0.0893544 -0.230202 -0.101357 -0.157998 -0.302096 -0.010573 0.296677 -0.0964208 -0.190843 -0.229095 -0.333048 0.0691853 -0.0758064 0.0754839 0.0513498 0.736259 0.693477 0.193453 0.0482212 0.0686254 -0.0286983 -0.128885 -0.0794561 0.160284 -0.0387088 -0.269077 -0.54319 -0.307913 0.100015 -0.210826 0.00516723 -0.401466 0.494433 -0.308466 -0.34102 -0.458025 -0.141076 -0.343771 0.360087 -0.361451 -0.163336 0.0518808 -0.464291 0.741242 1.01688 0.221889 0.0329344 0.0347359 -0.0584837 -0.0673719 -0.1238 -0.0169156 -0.255364 -0.0974327 -0.0598425 0.111202 -0.142952 -0.41978 0.299011 0.037152 -0.361375 -0.252078 0.141675 -0.446693 -0.543591 -0.484414 -0.679898 -0.112868 -0.100939 0.18733 -0.357956 0.45598 0.799933 0.255918 0.0562176 -0.0283011 -0.0473377 -0.0135672 0.054921 0.057823 -0.126511 0.36246 0.135033 0.0808473 -0.087531 -0.0280805 -0.306359 -0.0212507 -0.203533 0.214893 0.209182 -0.19509 -0.487406 -0.505466 -0.202506 -0.408344 -0.29789 -0.454069 -0.257643 0.189099 0.646742 0.296091 -0.00879496 -0.0200832 -0.0384102 -0.0832852 -0.0157528 0.284981 -0.121731 -0.021154 0.107891 0.423248 -0.104983 -0.0784692 -0.183495 -0.162707 -0.0183855 0.79736 0.841474 0.487181 -0.190095 0.225387 0.0543964 -0.47416 -0.220741 -0.482062 -0.248444 -0.290571 0.325661 0.0980996 -0.0228276 -0.0667191 -0.0229431 -0.0544482 0.121072 0.182891 -0.101177 -0.221379 -0.173792 0.157717 0.0313263 -0.0996966 0.0874141 -0.517032 0.182636 1.05736 1.35284 0.135029 -0.201565 -0.264434 -0.0573102 -0.283757 0.0995043 -0.285357 -0.247675 -0.351266 -0.000924843 0.0175712 -0.0683048 0.0134014 0.00851217 -0.0864073 0.233948 0.201028 0.00492995 -0.21491 0.0224949 0.089991 -0.25168 -0.448278 0.128176 -0.511228 0.734575 0.997517 1.34335 0.0544388 -0.308201 0.163127 0.072396 0.174468 -0.0603001 -0.246677 0.0686742 0.0549885 0.116427 -0.0191661 0.0231413 0.00758758 -0.0565584 -0.119017 0.162918 0.202236 -0.313867 -0.169036 -0.508802 -0.0943056 0.102093 -0.0813073 0.0658014 -0.743501 0.791407 1.53118 0.624082 0.360355 -0.1314 0.631257 0.174565 0.159306 -0.206361 0.14061 -0.573851 -0.0644821 0.105012 0.031916 -0.0647992 0.0379016 0.0249597 -0.0181909 0.293777 0.0145268 -0.361169 0.121982 -0.670616 -0.0439775 -0.338374 -0.447077 0.109669 0.0821122 2.10968 1.25504 -0.0708048 0.018127 0.131452 0.0902335 -0.060295 -0.291024 0.0452058 -0.475915 -0.652274 -0.06604 0.0335487 0.0550598 -0.00796837 -0.0492489 0.0733328 0.0511766 0.352641 -0.235957 -0.349156 -0.163479 -0.274997 -0.153861 -0.199711 -0.260503 0.00709124 0.929962 1.7418 0.463948 0.0855479 0.399011 -0.367344 0.0973051 0.248767 -0.191735 0.0472922 0.13668 0.325412 0.0946723 0.185243 0.00968367 0.0639761 0.0619486 -0.0554196 0.157877 0.420947 -0.12267 -0.306317 -0.240289 -0.162072 -0.245615 -0.153759 -0.750153 0.10289 1.26186 1.03192 0.159569 0.123196 0.590327 0.13048 0.153432 0.347316 -0.00743278 0.0541517 -0.261784 0.143617 -0.0816388 -0.0302679 -0.0465608 -0.0114084 -0.0234391 0.0400593 0.0990163 0.476896 0.179317 0.0226425 -0.00508263 -0.0474443 -0.101654 0.192594 -0.00871196 0.232095 1.11982 1.02681 0.040701 -0.19378 -0.00847512 0.0937718 -0.210971 0.109046 0.288977 0.178758 -0.137161 0.157533 0.0748757 -0.0362539 0.0248047 -0.000984808 0.0615581 -0.0681779 0.0270126 0.360527 0.0548178 -0.00329113 -0.0862864 -0.20047 -0.10028 0.208846 0.082775 0.208688 -0.0466015 0.563018 0.147708 0.446096 -0.082632 0.149353 0.0146772 0.0272075 -0.0456066 0.0994071 -0.134263 0.215768 0.0230129 0.056946 0.0547638 -0.0341653 -0.00258934 -0.0547783 -0.0142428 0.428885 0.131449 -0.259642 0.233975 0.218562 0.0829406 -0.0306029 -0.343978 -0.225626 -0.289945 0.0145542 0.549871 0.601972 0.175175 0.193018 0.304521 0.0184393 0.4113 -0.0029838 0.488461 0.445122 0.155213 0.106771 -0.00867604 -0.0114372 0.0309195 -0.0653861 0.119032 0.293326 0.269424 -0.154728 0.113477 0.355648 0.403633 -0.0035176 -0.456667 -0.346225 -0.0826996 -0.28499 0.379868 0.399409 0.221582 0.492994 0.515124 0.286241 0.163742 0.00801751 0.294428 0.256335 -0.122147 -0.0377498 -0.0365267 0.0157288 0.0353524 -0.0441775 0.0384051 0.237221 0.544301 -0.00921624 0.141552 -0.177758 -0.436814 -0.0262801 0.163686 0.150081 0.194823 -0.440982 -0.231781 -0.25195 0.0480685 0.126261 0.295342 -0.0476045 0.273959 0.312289 0.301865 0.113718 0.113436 0.0101192 -0.0130618 0.0210174 -0.0795928 -0.0219928 0.0557603 0.0518425 0.325159 0.257241 -0.207936 0.074246 0.243859 0.177015 -0.137634 -0.355832 -0.0118 0.214116 -0.135015 0.363374 0.371343 -0.10111 0.42734 0.688097 0.814772 0.407791 0.26859 0.16956 0.136474 0.0411758 0.00509902 0.0182608 0.0345937 -0.0348155 0.0617054 0.0305144 -0.0280747 -0.0521568 -0.0219437 0.245931 0.228336 0.29594 0.0102338 0.416378 -0.0193278 -0.18852 -0.0425337 -0.0746588 0.100902 -0.106501 0.146861 0.388371 0.609585 0.35502 0.233663 0.292086 0.046265 0.0327113 -0.0124735 -0.0188923 -0.00567538 0.00722401 0.0148856 -0.0123878 -0.0783324 -0.0204268 0.09626 0.0411237 -0.0733966 0.00938998 0.323942 -0.0773804 0.0425542 0.219231 0.150622 0.0438882 0.152596 0.205495 0.117691 0.0424105 0.252197 0.140504 0.0232065 0.142983 -0.00665248 -0.0078568 0.0986384 -0.0181316 -0.00547543 0.0330817 -0.035763 0.0227484 -0.0252696 0.0614225 0.148567 0.103583 -0.053306 0.173594 0.323789 0.0105117 0.00343917 -0.0110718 -0.164335 0.0164298 -0.261185 -0.253888 -0.387396 -0.33069 0.0443779 -0.0382314 -0.0442242 -0.0239062 -0.0188873 -0.0122375 0.030316 0.046742 0.015826 -0.0135607 -0.0179444 -0.0402714 0.0253168 0.0317129 0.0233249 0.0173992 -0.0860357 -0.047598 -0.0862173 0.00154751 0.056433 -0.1765 -0.149065 -0.0301992 -0.114718 -0.0784407 -0.105511 -0.0701543 -0.00470459 -0.016735 -0.0357997 0.0214717 -0.0266418 -0.0189972 -0.0280512 0.00220379 ^0 0 0 0 0 0 0 0 0 0 0 0 0.000143696 0.000329372 1.63893e-05 6.82888e-07 0 0 0 0 0 0 0 0 0 0 0 0 0 0 0 0 -2.94643e-06 -9.08117e-06 -2.83787e-05 -0.000103106 -0.000936704 -0.000853837 -0.00057167 -0.000545423 -0.000708545 -0.00139586 0.0208065 0.0391367 -0.000685007 -0.00257652 -0.000479761 0.00029104 0.000986167 0.000478856 0.000240834 3.12155e-05 0 0 0 0 0 0 -1.52471e-06 -4.61468e-07 -5.35551e-05 -1.06877e-05 -6.53754e-05 -0.000456417 -0.00636487 -0.0124004 -0.0117335 -0.0121923 -0.00386707 -0.00528119 0.0272446 0.0773557 0.0463643 -0.000207414 -0.0146817 -0.00795185 -0.0049832 -0.00139665 -0.000844982 -0.000256016 -0.00048002 -0.000228041 0 0 0 0 0.000757676 0.000248775 0.000381152 0.000361621 4.22875e-05 -0.00123075 -0.0146947 -0.0313356 -0.0533582 -0.100802 -0.0694785 -0.0654614 -0.0686896 0.0143154 0.0125809 -0.0290722 -0.0284973 -0.0217194 -0.0286957 -0.00734259 0.0132949 0.00481115 0.00683627 -0.00731882 -0.00622233 0 0 -9.86712e-07 0.00259872 0.000598735 0.000394211 -0.00384113 -0.0089108 -0.0188784 -0.0513496 -0.087403 -0.0780815 -0.12241 -0.104137 -0.0163118 -0.0551803 -0.0082692 0.0191281 0.035923 0.0169531 0.0810822 0.0656708 0.0295353 0.0310895 0.0219874 -0.0130573 -0.0264695 -0.00822988 -0.00319042 0 0 0.000707102 0.00204062 0.00101339 -0.00718425 -0.025319 -0.057054 -0.17512 -0.218819 -0.197288 -0.170129 -0.161238 -0.0861748 -0.0117577 0.135615 0.0282871 0.00858617 0.0845152 0.0961065 0.0225584 0.0690165 0.0568985 0.0378027 0.0162255 -0.0361057 -0.0106616 -0.0012158 0 -2.70344e-06 -0.00242641 0.00231126 -0.0047393 -0.0339984 -0.0687275 -0.136513 -0.225933 -0.23923 -0.123673 -0.0509306 -0.0729461 -0.0939941 0.0156267 -0.071675 -0.00232871 -0.00538951 0.0607 0.0312361 0.01647 -0.00766746 -0.030817 0.00443523 -0.0245531 -0.0145645 0.00660004 0.00740503 3.32836e-06 -0.000190619 -0.0033675 -0.00103238 -0.0134377 -0.0532233 -0.115159 -0.162255 -0.239027 -0.180755 -0.0632209 -0.0372199 0.0269898 0.00631003 0.0584195 -0.0703098 -0.0322762 0.00988357 -0.012032 0.039262 0.017165 -0.049305 -0.0407093 -0.0497764 -0.0909189 -0.0479062 0.00199457 0.000240091 -0.0001303 0.000886355 -0.00121857 -0.000344701 -0.0173815 -0.0443162 -0.089747 -0.133896 -0.208105 -0.212292 -0.116598 -0.0588023 -0.0176807 0.0425845 0.0611624 0.0558723 -0.10205 0.0645504 -0.0980239 -0.0737243 -0.211766 -0.163497 -0.113026 -0.130453 -0.120851 -0.0539941 -0.00755454 -0.000989987 5.54747e-05 5.31391e-05 0.00166004 -0.0032816 -0.0309662 -0.0594672 -0.0924051 -0.121318 -0.185638 -0.203063 -0.107062 0.0180441 -0.0300177 0.0141784 0.110885 0.26441 0.114456 -0.0969464 -0.101704 -0.177744 -0.280026 -0.125212 -0.135515 -0.141169 -0.0924234 -0.0409209 -0.00360233 0.00246756 7.03728e-05 0.00180842 0.00230756 -0.0101271 -0.0327477 -0.0558847 -0.115397 -0.122761 -0.119944 -0.14267 -0.0108193 0.0378305 0.0713937 0.164112 0.19586 0.320275 0.0727542 -0.0371998 -0.117462 -0.139781 -0.217272 -0.132141 -0.14394 -0.116241 -0.0439151 -0.00888967 0.000137124 -0.00105471 2.22738e-05 0.00135239 0.00479233 -0.00409279 -0.0115051 -0.0278518 -0.081687 -0.0922361 -0.100866 -0.0851907 -0.00017882 0.0500099 0.160547 0.190046 0.187185 0.217712 0.119175 -0.0306384 -0.0796554 -0.129964 -0.12397 -0.10976 -0.136879 -0.0761036 -0.0298294 -0.015304 -0.00963716 -0.00178193 -2.34483e-05 0.0010108 0.00261958 0.00407097 0.00269276 -0.0185304 -0.0557917 -0.0644772 -0.104026 -0.0587447 0.0217807 0.100394 0.342901 0.137668 0.0888286 0.105293 0.0592862 -0.029851 -0.0769201 -0.150275 -0.0918258 -0.076062 -0.116039 -0.0746403 -0.0372387 -0.0161977 -0.00366332 -0.00186574 6.60243e-06 0.00109729 0.00143271 0.00947563 0.0112506 -0.0223557 -0.0528507 -0.0786756 -0.078809 -0.0383996 0.00595389 0.048115 0.234638 0.00139122 0.0928072 0.0842753 0.0913273 0.014353 -0.0652817 -0.0932118 -0.0433293 -0.0733806 -0.119007 -0.0798627 -0.0440427 -0.0138846 -0.00530969 0.000493892 -1.94702e-05 0.000537172 0.00205419 0.0118635 0.00165348 -0.0287782 -0.0651965 -0.083835 -0.0677902 -0.00182215 0.0151791 -0.0932664 -0.00721673 -0.0964624 0.0744282 0.0380478 0.140316 -0.0638453 -0.109768 -0.0850907 -0.0402064 -0.0754854 -0.0841873 -0.0643537 -0.0227215 -0.00327432 0.000181619 0.000215391 -6.27429e-06 -7.84503e-06 0.00405962 0.00203704 -0.00859926 -0.0374489 -0.0557297 -0.0330255 -0.000708383 0.0172473 0.0130942 -0.026613 -0.0300326 -0.000690231 0.0504045 -0.0444399 0.10569 -0.128193 -0.166619 -0.157046 -0.0929944 -0.0735402 -0.0879098 -0.0665353 -0.0314585 -0.00919869 -0.00222812 0.000305757 5.76708e-07 -1.88389e-05 0.00142196 0.000498943 -0.00684265 -0.0375694 -0.048827 0.00141879 0.0139179 0.0182353 -0.0313883 -0.0384922 -0.0953119 -0.0220662 0.0895719 -0.0296969 0.00506597 -0.202638 -0.143942 -0.143295 -0.0636409 -0.0644043 -0.0863351 -0.0734525 -0.0324299 -0.0153829 0.00142501 0.00120829 0 6.99112e-05 -0.0012221 0.00822548 -0.000247924 -0.0407739 -0.0593991 -0.032203 -0.0201612 -0.0695943 -0.0438846 -0.162664 -0.104277 0.0628839 0.124362 -0.0407089 -0.153262 -0.220258 -0.108348 -0.0642694 -0.0306322 -0.0379855 -0.055406 -0.0575829 -0.0316327 -0.0133489 0.00434671 -0.000904229 -6.11389e-05 -2.07637e-05 -0.0010043 0.00595398 0.010256 -0.0489499 -0.121101 -0.0990311 -0.0920277 -0.0862494 -0.143677 -0.12894 -0.0982713 0.0603883 0.0550923 -0.066463 -0.191613 -0.0629553 0.0207721 0.0398497 0.0328113 -0.00757739 -0.0766036 -0.0521707 -0.0298871 0.00582679 0.0114977 0.00833165 5.51965e-06 -0.000378599 -8.1173e-05 -0.00333766 0.0113894 -0.0396621 -0.0662464 -0.0709019 -0.129045 -0.0868132 -0.18215 -0.104211 -0.0329327 0.0431258 -0.0358997 0.0710962 0.0621869 0.00766912 0.0244482 0.108168 0.0480695 -0.0354342 -0.0714192 -0.0203867 0.00868312 0.0103742 0.00936556 0.00375277 0 -0.000310005 -0.00420243 -0.0164715 -0.0133352 -0.027553 0.00958443 -0.0348028 -0.0227048 -0.0612693 -0.0484417 0.032647 0.0460524 -0.104538 0.0729889 0.074792 0.182033 0.114849 0.0986193 0.0986492 -0.0140917 -0.0526031 -0.0760705 -0.0373058 -0.00737926 -0.00289897 0.00758752 2.5044e-06 1.36495e-05 -8.02201e-05 -0.00902051 -0.0189439 -0.013161 0.00410272 -0.00593454 -0.0665313 -0.0220608 0.019865 0.166008 0.0885146 0.023013 -0.0938969 0.0456138 0.0720041 0.0403623 -0.0174907 0.126493 0.0355713 -0.00469717 -0.0429 -0.0848937 -0.0412481 -0.00451285 -0.000498967 -0.00079775 -4.58035e-06 1.3223e-05 -3.86059e-06 -0.00822175 -0.0123059 -0.0043314 0.052722 -0.0235673 -0.0946461 -0.0610158 0.0214117 0.0483908 -0.0393339 -0.0184084 -0.017708 0.0144852 -0.0456153 0.0496402 0.112841 0.157701 0.0632033 -0.0169717 -0.0564868 -0.0615596 -0.0284427 -0.00429492 0.000292257 0.00141101 -8.45604e-06 0 0 -0.00136261 -0.0193865 -0.0163638 0.0403289 -0.0118329 -0.130955 -0.142133 -0.0483013 -0.00462579 -0.0162094 0.0942695 0.0103086 -0.0489607 -0.0422233 0.0518608 0.145039 0.0466428 -0.0308588 -0.0804344 -0.0691823 -0.034355 -0.0232516 -0.00828485 0.00241118 0.00638783 0 0 0 -0.00050472 -0.0119539 -0.019341 -0.0144222 -0.0538672 -0.12018 -0.134819 -0.0877385 -0.0424409 -0.107503 -0.161087 -0.137379 -0.101212 -0.115509 -0.117528 -0.00316267 0.00964023 -0.0375824 -0.0526875 -0.0335753 -0.0138619 -0.00471005 -0.00266508 -0.000150974 -5.21801e-05 0 0 0 -6.54852e-05 -0.000420997 -0.00664172 -0.0224788 -0.0483842 -0.0661992 -0.0573005 -0.0618208 -0.116617 -0.111966 -0.127966 -0.125029 -0.12828 -0.197525 -0.144993 -0.0298001 0.0097962 -0.0094546 -0.00256339 0.000883449 0.00438813 0.00172504 -0.000109108 -0.000110627 -0.00014441 0 0 0 0 -7.02702e-05 -0.00165535 -0.00270224 -0.00530299 -0.00470188 -0.00115103 0.000452034 -0.0100876 -0.017813 -0.0431178 -0.0531453 -0.0409609 -0.0303537 -0.0176533 -0.010369 -0.00607251 -0.000420413 -1.19808e-05 0.000196528 0.000496481 -2.37286e-05 5.51828e-06 -3.10812e-06 0 0 0 0 0 0 -2.72927e-05 -3.99235e-05 0.000120081 0.000309651 0.000554765 0.000615819 -0.0016866 -0.000440041 -0.000154537 0.000736429 -0.000136702 0.00144237 0.000835417 0.00163443 0.00205742 0.000884796 0.000229857 0.000385283 0.000424256 0.000121399 0 0 0 0 ^0 0 0 0 0 0 0 0 0 0 0 0 -8.49787e-05 -0.000225711 -4.41089e-05 -1.83787e-06 0 0 0 0 0 0 0 0 0 0 0 0 0 0 0 0 -3.32389e-06 -1.3698e-05 -0.000683494 -0.0012543 -0.00378383 -0.00318953 -0.00503281 -0.00865902 -0.0103229 -0.00510054 0.00247416 0.00475921 -0.00256045 -0.00264954 -0.00169356 -0.00221032 -0.00251455 -0.000902923 0.00142078 0.00223498 0 0 0 0 0 0 -5.28714e-07 -2.22528e-05 -8.55255e-05 -4.59938e-05 -0.000803854 -0.00405947 -0.00879914 -0.011708 -0.036563 -0.0561564 -0.0363993 -0.0328434 -0.0262534 -0.0246503 -0.0376007 -0.0452169 -0.0428335 -0.0266629 -0.0140254 -0.00966789 -0.00207283 0.00070637 -0.000363268 -2.05225e-05 0 0 0 0 0.000343639 3.69937e-06 -0.00133446 -0.00228154 -0.00290881 -0.00924199 -0.0113989 -0.0339882 -0.0901658 -0.169909 -0.172515 -0.14804 -0.133395 -0.0861429 -0.0606767 -0.0481054 -0.0881408 -0.0734228 -0.0593691 -0.0412246 -0.0157101 -0.00629532 -0.00212365 -0.000232566 -4.26244e-05 0 0 4.09272e-07 0.00118493 0.000911472 0.00369484 -0.0128194 -0.023156 -0.037613 -0.0695563 -0.145479 -0.200726 -0.353179 -0.331921 -0.357382 -0.373238 -0.256386 -0.152096 -0.170528 -0.139582 -0.0203217 -0.000929327 0.0241798 -0.0110033 0.0140826 -0.0114345 -0.0060613 -0.00285684 -0.000849619 0 0 -0.000149482 -0.00610917 0.0232035 0.0128579 -0.0359544 -0.0992577 0.00863794 0.0237464 -0.0660558 -0.277772 -0.356234 -0.258557 -0.237883 -0.128191 -0.124906 -0.202349 -0.246654 -0.327004 -0.298778 -0.19234 -0.0988818 -0.057922 -0.0579215 -0.0466372 -0.0273359 -0.00162459 0 -1.09164e-06 -0.0226521 0.0370858 0.0790578 0.129794 0.171648 0.090083 0.325254 0.172242 -0.00998783 -0.20868 0.119523 -0.113902 -0.236881 -0.195713 -0.0686012 -0.0127489 -0.0805502 -0.190218 -0.148491 0.0490709 -0.13489 -0.155644 -0.167914 -0.120174 -0.0242218 -0.0037294 1.40945e-05 0.0154687 -0.00918848 0.164499 0.215687 0.0772317 0.0469405 0.236516 -0.0158809 0.0132552 0.069598 -0.126462 -0.21036 -0.185708 -0.330921 -0.352223 0.0557867 0.0183795 0.232418 0.278857 0.120028 0.0736797 0.112671 0.137521 -0.0816054 -0.188524 -0.0268286 -0.00128529 -0.0212016 0.0212301 -0.000661543 0.141118 0.276377 0.121759 0.135623 0.349338 0.338196 0.314398 0.23743 -0.0645261 0.0298946 -0.205033 -0.323872 -0.131684 -0.281329 -0.0316767 0.103812 0.0295633 0.212192 -0.00937215 0.28061 0.301683 -0.103687 -0.178432 -0.0804226 -0.0115947 0.000349077 0.0109331 0.0541906 0.141388 0.342106 0.521535 0.346771 0.124223 0.0872261 0.427262 0.194508 -0.218767 0.0452834 0.247138 0.370776 0.285247 -0.128589 0.184199 -0.0691889 -0.00107754 -0.0193828 0.108201 0.114117 -0.000521067 -0.189268 -0.170663 -0.0646055 -0.00179901 0.000451647 0.0097753 0.189201 0.124489 0.234944 0.542105 0.109439 -0.180978 -0.0648456 0.248501 0.379504 0.0360944 0.0736151 0.42596 0.108191 0.171821 0.151127 0.194427 0.0460947 0.296214 0.164943 0.228935 0.123827 -0.149725 -0.205157 -0.193251 -0.100214 -0.000856398 0.000149813 0.0352544 0.208443 0.263661 0.363788 0.412957 0.149363 0.285238 -0.211838 0.157629 0.315615 0.059383 -0.366846 -0.458719 -0.276454 -0.286115 -0.0436768 0.0687422 -0.104571 0.236273 0.221805 0.0785626 -0.0745164 -0.176565 -0.191277 -0.0994948 -0.0499292 -0.000937572 4.96937e-05 0.0516122 0.131395 0.220375 0.464509 0.380765 -0.0295494 0.373219 0.287508 0.0789465 -0.0367123 -0.181171 -0.542315 -0.864496 -0.582966 -0.0478322 0.17373 0.131319 -0.0584557 -0.253966 -0.163914 -0.266341 -0.160263 -0.152625 -0.0746985 0.034291 -0.00480901 0.0010603 3.87799e-06 0.0343634 0.141312 0.147976 0.385967 0.126916 -0.0510915 0.0864191 -0.0227472 -0.252701 -0.057114 -0.00356442 -1.11754 -0.746369 -0.302292 -0.140631 -0.0772435 0.160295 -0.0752018 -0.564206 -0.327833 -0.42994 -0.15509 -0.0453833 0.0164654 0.0215118 0.0111646 0.0025875 -5.59995e-05 0.0165613 0.0882042 0.0424999 0.100571 -0.11335 -0.396167 -0.254406 -0.186018 -0.271674 -0.439832 -0.899813 -1.07115 -0.705856 -0.00525628 0.0697638 -0.174481 0.166215 -0.0160094 0.314814 -0.179264 -0.314696 -0.00432831 0.139619 0.00279183 0.0286885 0.0012318 9.65538e-05 -2.69964e-06 -4.08689e-05 0.0319366 0.0533466 -0.207002 -0.371692 -0.446905 -0.467004 -0.580948 -0.500831 -0.813306 -0.620594 -0.519889 -0.222807 0.190123 0.13728 -0.255341 0.214617 0.0804516 0.317955 0.400986 0.145674 0.202988 0.176216 0.0195308 -0.016791 0.000360545 -0.000158319 8.93513e-05 -0.000110698 0.00354271 -0.0284961 -0.214382 -0.386522 -0.263965 -0.40259 -0.403111 -0.387209 -0.696696 -0.750939 -0.34135 0.080441 0.0159863 0.0858282 0.177237 0.203527 0.0629786 0.458216 0.352754 0.290524 0.0697413 0.175158 0.11155 -0.075245 -0.012368 -0.00060723 0 0.000320741 -0.00158715 -0.10508 -0.253201 -0.345785 -0.421121 -0.490294 -0.584991 -0.397542 -0.416667 -0.347309 -0.106862 0.0794635 0.264095 0.104564 0.1742 -0.143832 0.496109 0.358984 0.366793 0.188537 0.166298 0.0590984 0.0256739 -0.0402235 -0.0168845 -0.00393719 0.000460019 5.46385e-05 0.0152432 -0.101973 -0.257512 -0.336073 -0.476725 -0.239526 -0.498804 -0.188349 -0.393639 -0.128694 0.221557 0.330415 0.105046 -0.0666899 -0.308213 0.129276 0.383548 -0.162928 -0.199752 -0.241887 -0.252103 -0.269541 -0.113935 -0.0464381 -0.006893 0.00057569 1.05525e-05 0.00443303 0.0374908 -0.0659463 -0.14216 -0.287687 -0.427238 -0.33223 -0.0755417 0.0304911 0.0904338 0.0642705 0.157665 0.357938 0.0480482 0.127726 -0.33371 -0.052634 -0.425658 -0.476105 -0.280657 -0.332675 -0.374039 -0.270812 -0.115001 -0.029538 -0.0134885 0.000567052 0 -0.00066434 -0.00744614 -0.0478986 -0.154677 -0.410225 -0.365038 -0.171897 -0.00620609 -0.0979868 0.0760387 0.283357 0.404794 -0.00515056 0.000486676 0.0690467 -0.391987 -0.331918 -0.665725 -0.432279 -0.555377 -0.412254 -0.424687 -0.243124 -0.11582 -0.0262235 -0.00747933 1.00198e-05 2.54887e-05 -0.000416946 -0.0452986 -0.119672 -0.262279 -0.369132 -0.218611 -0.0650978 0.0836923 -0.186082 0.0507224 0.0338023 -0.0191154 0.225658 0.0909068 -0.07263 -0.121372 -0.204835 -0.49695 -0.435422 -0.518891 -0.420709 -0.362847 -0.197905 -0.0518145 0.000971826 -0.00182402 -1.12657e-06 2.46921e-05 -5.76724e-05 -0.0680349 -0.20345 -0.27224 -0.0687217 0.0748441 0.358923 0.159595 -0.12102 -0.176 -0.157516 0.0173293 0.243447 0.20718 0.142794 -0.0972188 -0.0295887 -0.319118 -0.0982011 -0.379035 -0.444374 -0.270992 -0.189428 -0.0136187 0.00821948 0.000680792 -2.07983e-06 0 0 -0.06633 -0.203698 -0.181241 0.157411 0.330451 0.254309 -0.159192 -0.0761157 -0.186463 -0.11957 -0.318272 -0.0195875 0.141084 0.179452 -0.0681403 0.159343 0.14853 0.120096 -0.230624 -0.38805 -0.247517 -0.171683 -0.0579371 0.00783128 0.00066468 0 0 0 -0.057858 -0.0699678 -0.00909689 0.263532 0.295548 0.0616172 -0.021813 -0.127837 -0.0639374 0.0774266 -0.0840048 0.0520622 0.0922514 0.115922 -0.0769991 0.396277 0.0281085 -0.00813579 -0.062995 -0.176917 -0.125493 -0.141839 -0.0394643 -0.0133239 7.8367e-05 0 0 0 -0.0083664 0.012233 0.0175483 -0.156149 -0.174359 -0.0137219 0.0256578 -0.0716146 -0.329174 0.123722 0.0630922 -0.122101 -0.0350714 0.217252 0.275584 0.0786771 0.174969 0.121216 0.0576371 -0.0269241 0.00340815 -0.0433905 -0.00143791 3.12106e-05 -2.3678e-05 0 0 0 0 -0.000352835 -0.151885 -0.120673 -0.105427 -0.0362843 -0.0120539 -0.200212 -0.171949 -0.00924408 -0.318478 -0.0677587 0.0452088 -0.0290109 -0.177895 -0.114196 0.181595 0.155354 0.0853866 -0.116124 -0.091112 -0.0237751 -0.000255344 6.53162e-06 0 0 0 0 0 0 2.17855e-05 0.000254018 -7.03207e-05 -0.000317287 0.00471243 0.00508271 0.041949 -0.0468791 -0.0402019 0.115155 0.00955368 -0.107875 -0.090432 0.0279952 0.0375234 0.0510442 0.0377061 -0.000235139 -0.0697511 0.00298357 0 0 0 0 ^0 0 0 0 0 0 0 0 0 0 0 0 4.49336e-05 0.000106477 9.00004e-06 3.75002e-07 0 0 0 0 0 0 0 0 0 0 0 0 0 0 0 0 -3.49328e-06 -1.15694e-05 -9.96955e-05 -0.000270841 -0.00131716 -0.00125589 -0.00124387 -0.00141954 -0.00184952 -0.00196652 0.00870234 0.0219646 0.000311376 -0.00147627 -0.000975476 -0.000784177 -0.000581359 -8.64112e-06 0.000199856 1.65796e-05 0 0 0 0 0 0 -2.25049e-06 -7.59973e-06 -8.1316e-05 -1.97415e-05 -0.000156405 -0.00109381 -0.00269891 -0.00354353 -0.005733 -0.00717231 -0.0103344 -0.0231119 -0.0258337 -0.00486383 -0.011242 -0.0193761 -0.0181571 -0.0131013 -0.00757868 -0.00348173 -0.00226311 -0.000755435 -0.000292334 -3.06824e-05 0 0 0 0 0.000384895 7.87007e-05 0.000720715 0.000740461 -0.000248323 -0.00117789 -0.00529629 -0.0153142 -0.0223977 -0.0439987 -0.0561268 -0.108596 -0.141902 -0.105575 -0.117728 -0.0836696 -0.0538914 -0.0192423 -0.0183118 -0.0170995 0.0163644 -0.00357464 -0.00390721 -0.00467991 -0.00801717 0 0 7.40132e-07 0.0013367 0.000382566 0.00256522 0.000101823 -0.00225657 -0.00360461 -0.0234483 -0.0540773 -0.0542405 -0.0762452 -0.10352 -0.13407 -0.17056 -0.167407 -0.14427 -0.0762784 -0.0390146 0.0650864 0.0735116 0.00934766 0.0149056 0.00227674 -0.0242482 -0.0271657 -0.0084453 -0.0046563 0 0 0.000471187 0.00482078 0.00858018 0.00119759 -0.0101906 -0.0277511 -0.094143 -0.121562 -0.126224 -0.141428 -0.182475 -0.205403 -0.270021 -0.274682 -0.24101 -0.15718 -0.0167379 0.0336922 0.0372049 0.0958165 0.0831568 0.023258 0.00258662 -0.0432692 -0.0169615 -0.00601716 0 -1.87875e-06 -0.00134595 0.0131485 0.0130974 -0.0130776 -0.0363485 -0.0743295 -0.123837 -0.153163 -0.140398 -0.125318 -0.173505 -0.270244 -0.327838 -0.346027 -0.160893 -0.0935593 0.0132548 -0.040248 -0.0276738 -0.0196473 -0.0222634 0.0138723 -0.0270813 -0.0191223 0.00105517 0.000920141 8.09106e-07 2.76725e-05 -0.000207466 0.00145862 0.00523276 -0.0224337 -0.0603732 -0.0893767 -0.146965 -0.161552 -0.172376 -0.14415 -0.117973 -0.222981 -0.286772 -0.284454 -0.0688621 0.0175116 -0.0137482 -0.0357245 0.00197292 -0.00141046 -0.00744068 0.00661795 -0.0920741 -0.0703384 0.00446981 -0.000187158 -0.000149685 0.000710207 0.00231418 0.00649578 0.0106256 -0.0116009 -0.0578161 -0.0902003 -0.150592 -0.173535 -0.186562 -0.154878 -0.168044 -0.285293 -0.345628 -0.20074 -0.00164479 0.135357 0.0177843 -0.0503204 -0.0529667 -0.0269042 -0.00522859 -0.0553861 -0.0974825 -0.0726311 -0.00376321 -0.000131916 9.82575e-05 -0.00140441 0.0047617 0.0121345 0.0186529 0.00502233 -0.0284025 -0.082758 -0.142402 -0.158133 -0.172385 -0.184592 -0.231183 -0.353651 -0.365778 -0.0397265 0.236854 0.170479 0.070435 -0.0772178 -0.0540557 0.0396141 0.0397123 -0.0444732 -0.0457197 -0.0347172 0.0128423 0.0038469 0.000121959 0.00158095 0.00749616 0.0109002 0.0167839 0.0215227 -0.022534 -0.0764904 -0.117801 -0.131689 -0.131679 -0.192434 -0.203641 -0.296829 -0.165845 0.165396 0.265038 0.202347 0.143467 0.075798 0.110835 0.123359 0.0484746 0.0239787 0.051795 0.0538486 0.0206571 0.000342999 1.83547e-05 0.00177717 0.00952625 0.013426 0.0396316 0.044449 0.00655691 -0.0395236 -0.0927906 -0.130404 -0.165711 -0.138787 -0.12455 -0.0805563 0.0914355 0.323922 0.227914 0.235097 0.206346 0.108568 0.109455 0.0793592 0.0105027 0.0564919 0.0784027 0.0385735 0.00352905 -0.000647513 -4.02136e-05 0.00232915 0.00494647 0.0129952 0.0547666 0.0495912 0.0178791 -0.00896024 -0.0749062 -0.0751373 -0.119619 -0.175885 -0.0753798 0.0446155 0.236276 0.155728 0.0880454 0.131624 0.0127421 -0.00982539 -0.047096 -0.0339146 -0.0702026 -0.0332219 -0.0133147 -0.00355899 -0.00166999 -0.00219323 5.38629e-06 0.0022375 0.0034035 0.020056 0.0491425 0.0463644 0.0236675 -0.00690139 -0.0286976 -0.075558 -0.125184 -0.131448 -0.0417603 0.103174 0.145947 -0.0352835 -0.0520627 0.028623 -0.0614767 -0.0689722 -0.108172 -0.0685721 -0.0984485 -0.064254 -0.03969 -0.0168351 -0.0103695 0.00131889 -1.02024e-05 0.000953879 0.00389602 0.024217 0.0223864 0.0383481 0.0119199 0.0070015 -0.018464 -0.0591889 -0.0680388 -0.0957816 -0.0533013 0.057761 0.0537287 -0.0901296 -0.0345826 -0.153818 -0.16065 -0.12397 -0.0914458 -0.063846 -0.0638309 -0.0495701 -0.0279347 -0.00920727 -0.00408934 0.000189518 -2.19466e-06 1.56122e-05 0.00669375 0.00763855 0.00594526 0.0148631 0.0103756 0.027371 0.0350951 -0.0394714 -0.0800761 -0.096007 -0.0411688 0.10438 -0.0565517 -0.094405 -0.0660845 -0.188634 -0.15513 -0.118776 -0.0682515 -0.0394225 -0.0517776 -0.0564598 -0.0409447 -0.019365 -0.00388036 -0.000291323 6.5482e-06 -1.52745e-05 0.00324739 0.00518494 0.00438799 0.0151127 0.044291 0.00946213 -0.0218377 -0.0175491 -0.0680283 -0.0372677 0.00595096 0.0488754 -0.0263074 -0.0291607 -0.0757795 -0.178319 -0.139806 -0.0888657 -0.0673645 -0.0416531 -0.0471162 -0.053051 -0.0392395 -0.0220187 -0.00367067 4.0209e-05 0 0.000104711 -0.000719022 -0.00284351 -0.00494653 -0.0146767 -0.00209748 -0.0769461 -0.108504 -0.0407832 0.00733798 0.0881973 0.122529 -0.0161626 -0.00456706 -0.102983 -0.195471 -0.191258 -0.151219 -0.104779 -0.0783261 -0.0323704 -0.0403384 -0.0568959 -0.0396626 -0.0150739 -0.00177779 -0.000355865 2.75859e-05 1.50428e-06 -0.000304191 -0.0106954 -0.0279021 -0.0678608 -0.157821 -0.162266 -0.0857676 -0.0509933 0.0909632 0.22294 0.117152 -0.00145035 -0.162096 -0.22547 -0.263276 -0.169874 -0.146054 -0.0895726 -0.0851792 -0.0299032 -0.0458992 -0.0342579 -0.0313907 0.000853547 0.00379244 0.000410339 6.26842e-06 -1.35358e-05 1.17342e-05 -0.0144174 -0.0264044 -0.0751186 -0.140818 -0.0961848 -0.136578 -0.0493173 0.0319107 0.114074 0.0238423 -0.119312 -0.330157 -0.22046 -0.172993 -0.130011 -0.148127 -0.132291 -0.115068 -0.0763044 -0.0463995 -0.0154578 0.00787619 0.00668861 0.00232142 0.000321773 0 -0.000256561 -0.0040287 -0.0196207 -0.00366005 -0.034928 -0.00840849 -0.115201 -0.111365 -0.0930726 -0.00364403 0.0377085 -0.0521287 -0.296925 -0.316858 -0.302238 -0.158359 -0.129997 -0.162502 -0.151295 -0.120894 -0.0812445 -0.0290702 -0.00225278 0.00830714 -0.00284537 0.00206058 9.74586e-07 1.53395e-05 -8.48352e-05 -0.00698971 -0.0207667 -0.0176631 0.0512585 -0.00484984 -0.0937797 -0.0525047 -0.0514042 0.0187901 -0.103444 -0.143653 -0.242064 -0.302148 -0.260448 -0.177695 -0.148396 -0.131994 -0.133132 -0.113845 -0.0706132 -0.031308 0.00313725 0.0226601 -0.000238202 -0.00162494 -5.66747e-06 1.48601e-05 -8.8806e-06 -0.00658283 -0.0114657 -0.00289871 0.103866 0.0449841 -0.0705948 -0.0285187 0.0269797 -0.160447 -0.176911 -0.122215 -0.15131 -0.215546 -0.188156 -0.0794386 -0.0246966 -0.0528846 -0.0817621 -0.0991191 -0.0642495 -0.0240373 -0.00636956 -0.00337588 -0.000933076 0.000811187 -1.0463e-05 0 0 -0.000728548 -0.0164587 -0.0159262 0.0565699 0.0159701 -0.0501464 -0.00589222 0.036553 -0.0289786 -0.0612857 -0.0083307 -0.120976 -0.199265 -0.11397 -0.0149241 0.0508961 -0.0096136 -0.0486155 -0.0511634 -0.0365101 -0.001438 0.00187048 0.00316223 0.00303992 0.00248464 0 0 0 -0.000178979 -0.00991131 -0.0245576 -0.0177335 -0.0504469 -0.0747904 -0.0347483 0.0744484 -0.0342805 -0.066756 -0.017524 -0.0690512 -0.125767 -0.112859 -0.076047 -0.0144382 -0.00678792 -0.0198291 -0.0157291 0.00713494 0.0169686 0.00979081 0.00156978 -0.000180542 -9.38386e-05 0 0 0 -3.0483e-05 -0.000821447 -0.0139835 -0.0148348 -0.0257422 -0.0237275 0.0139834 0.0173661 -0.0625082 -0.065642 -0.000456898 -0.0198222 -0.0585883 -0.071044 -0.0388195 -0.00951071 0.001771 0.00165331 0.00580116 0.0137971 0.0136507 -0.00200594 -0.00060915 -0.000114099 -0.000151644 0 0 0 0 -3.36701e-05 0.000133588 0.00193103 0.000785582 0.00473746 0.00968444 0.0103078 -0.00463643 0.00250893 -0.00995279 -0.0125327 -0.0114213 -0.00523409 0.00976132 0.0138369 0.0136283 0.00497279 0.00652046 0.0109722 0.00824088 0.000376805 4.71677e-05 -4.68891e-06 0 0 0 0 0 0 -4.7535e-05 -6.6274e-05 0.00053028 0.00258187 0.00287459 0.00168489 -0.00123152 0.00047711 0.00221914 0.00349909 0.00525821 0.00390956 0.00464997 0.00457863 0.00462853 0.00188534 0.00105434 0.00440655 0.00764995 0.00156169 0 0 0 0 ^0 0 0 0 0 0 0 0 0 0 0 0 -0.002445 -0.00529822 6.17399e-05 2.5725e-06 0 0 0 0 0 0 0 0 0 0 0 0 0 0 0 0 -2.6502e-05 -0.000116069 -0.00696733 -0.0141398 -0.0156538 -0.0107193 -0.0158078 -0.0256895 -0.0382517 -0.0264787 -9.32534e-05 -0.0112825 -0.00116727 -0.0094081 -0.0103063 -0.011128 -0.0106601 -0.00551887 -0.00381437 -0.00313331 0 0 0 0 0 0 -8.73359e-06 6.22181e-05 -0.000478062 -0.000217674 -0.00459797 -0.0210656 -0.039544 -0.0490889 -0.0484383 -0.0787453 -0.104986 -0.104915 -0.0813112 -0.110692 -0.113737 -0.0555378 -0.0634908 -0.0835926 -0.0363461 -0.0312185 -0.0254803 -0.0140775 0.0107991 0.00848958 0 0 0 0 0.000165769 -0.00149631 -0.00633917 -0.00639017 -0.0166898 -0.0319719 -0.0688714 -0.056687 0.0101079 0.0327203 0.00764261 -0.0190246 -0.046575 -0.0866423 -0.11473 0.0107852 -0.0102967 -0.132371 -0.0641068 -0.0416127 -0.00930449 -0.00786991 -0.00569056 0.00521347 -0.000697936 0 0 4.12892e-06 0.000717186 -0.000285599 -0.00772244 -0.0416834 -0.0372089 -0.0490245 0.0279563 0.0787696 0.086513 0.0904919 -0.0243206 -0.223745 -0.0475054 0.0535396 0.182861 0.0479423 -0.0147284 -0.12115 -0.0351202 -0.102318 -0.0959578 -0.0808369 0.0243104 0.029924 0.0167072 0.00251439 0 0 0.000581581 0.00595571 -0.00208133 -0.0196756 -0.0487342 -0.0597298 -0.0492146 -0.0986827 -0.221223 0.043042 -0.0183504 -0.159294 -0.2092 -0.118853 -0.0384727 0.0546731 0.24908 0.0536402 0.0124638 -0.0120032 -0.145077 -0.192552 -0.0163279 0.0475134 0.0124284 -0.000360082 0 9.04277e-06 -0.000869362 0.0242177 0.0418161 0.0202557 0.0408773 -0.0473398 -0.0151378 -0.0542939 0.00391892 0.0400088 -0.112757 -0.339094 -0.487963 -0.0733313 0.327684 0.570425 0.533335 0.144718 0.0121846 0.0912806 -0.06987 -0.161847 -0.149458 -0.0406479 -0.00322032 0.00962903 2.34123e-06 -0.000457795 0.00534659 0.0272835 0.0987647 0.104395 0.0768985 -0.0974712 0.122512 -0.00941351 -0.154748 -0.206806 -0.131832 -0.459566 -0.897402 -0.0533828 0.262186 0.219111 0.292147 0.170777 0.133831 0.223031 0.0884136 -0.116503 -0.239845 -0.196558 -0.00546473 0.00957849 0.00177822 -0.0348318 -0.0210418 -0.00789199 0.0641127 0.132314 0.099549 0.0263183 0.153466 0.142042 0.0411783 0.0334191 -0.0950007 -0.569076 -0.826584 -0.166937 0.539587 0.272213 0.183509 0.157239 -0.0458842 0.123728 0.12594 -0.130265 -0.236039 -0.183824 0.0155682 0.0185661 1.07436e-05 -0.0446079 -0.0455201 -0.0145583 0.0266921 0.154012 0.181399 0.139193 0.196291 0.240639 0.165614 0.144155 -0.060387 -0.846302 -0.811287 0.224716 0.552285 0.309847 0.0802082 0.0174388 0.0459748 -0.0919661 0.0265624 -0.131056 -0.164213 -0.106969 0.014635 2.72679e-06 -2.28711e-06 -0.0451386 -0.0710315 -0.00958185 -0.0496102 0.101045 0.20138 0.0462946 0.219489 0.221292 0.26356 0.101392 -0.510052 -1.00572 -0.297072 0.68936 0.649531 0.383023 0.39079 0.1223 -0.0192729 -0.0949233 -0.0525067 -0.0896998 -0.0709077 -0.0216315 0.0157838 0.00102264 -9.29144e-05 -0.026389 -0.107429 -0.0681911 -0.0865361 -0.0710561 -0.029982 0.00765017 0.163037 0.117551 -0.122617 -0.298319 -0.570621 -0.373512 0.395965 0.659243 0.104178 0.155398 0.263905 0.0374795 0.355881 0.213582 0.288714 -3.97112e-05 0.0940234 0.101991 0.0519076 0.000413853 -0.000149221 -0.0091368 -0.085934 -0.102636 -0.0976834 -0.0259151 -0.107077 -0.200639 -0.389132 -0.25162 -0.544433 -0.590835 -0.565626 0.0265137 0.383248 0.278947 -0.098029 0.208631 0.0683112 0.0427467 0.189945 0.449539 0.226019 0.0780823 0.0506986 0.113156 0.0854777 0.00168343 -1.51875e-06 -0.00698882 -0.0492096 -0.0939182 -0.0786936 -0.169788 -0.21732 -0.201354 -0.253065 -0.445911 -0.416004 -0.420639 -0.170837 0.245895 0.493007 0.155167 0.0878892 0.187889 0.159337 0.0601546 0.192351 0.192852 -0.0435877 -0.247063 -0.0760439 0.0914119 0.052694 0.00766284 -0.000241418 -0.00340185 -0.027366 -0.089403 -0.0817979 -0.265983 -0.209452 -0.108009 -0.381248 -0.131479 -0.17867 0.186002 0.209554 0.534131 0.558108 0.232159 0.164671 0.321555 0.218165 0.219547 0.139351 0.183085 -0.135884 -0.35267 -0.207918 0.0345035 0.0289218 -0.00129125 -7.69433e-05 0.000239163 -0.0113807 -0.0990231 -0.0150725 -0.131084 -0.00946435 -0.0246702 0.0719695 0.0736627 0.128665 0.1213 0.150698 0.469006 0.33606 0.216659 0.352512 0.109178 0.252605 0.374237 0.136279 0.0459971 -0.084828 -0.261073 -0.145238 -0.0157158 0.0165357 -0.0054634 1.20283e-05 0.000146592 0.002511 -0.0519132 -0.0626737 -0.0882958 0.0555944 0.00791222 0.0349409 0.0330235 0.172431 0.26852 0.303313 0.335488 0.105678 0.0102443 0.370114 -0.0587988 0.138422 0.187466 -0.0803556 -0.0541969 -0.021261 -0.127284 -0.0514284 0.0019085 0.0208653 -0.0115648 0 0.000144505 -0.0084537 0.00771842 -0.0548834 -0.0251722 -0.0763091 0.0354952 0.0411301 0.0251038 -0.041574 0.139038 0.344132 0.364304 0.00758865 0.0510646 0.252853 -0.0381885 -0.264505 -0.0976044 -0.187814 -0.0939558 -0.180674 -0.028707 0.0292881 0.00541838 0.0274202 0.00134891 0.00146878 4.12735e-05 -0.0026935 0.0386265 0.0590215 0.176831 0.0121283 -0.0969772 0.0411918 0.0855807 0.250973 0.452121 0.332129 0.395925 -0.0323673 0.134209 0.00934746 -0.0687049 -0.308882 -0.212644 -0.129454 -0.210124 -0.107119 0.0451652 0.0147052 0.00226614 0.00540155 0.00270589 3.27895e-06 -0.00122521 -0.00378544 0.0454832 0.0397695 0.125229 0.0337033 0.0939134 -0.0269864 0.0875572 0.222032 0.166009 0.214949 0.0217639 -0.185373 -0.0432278 0.023446 -0.0618653 -0.0783196 -0.0952878 -0.213179 -0.0690655 0.0518321 0.0845541 0.0122467 0.0280946 0.00587142 0.00129096 0 -0.000124407 0.00487827 0.0784348 0.102306 0.050996 0.198159 0.14267 -0.0450803 -0.133497 -0.0411425 -0.152038 -0.230774 -0.0115213 -0.304157 -0.163102 0.0198934 -0.0726274 -0.0698202 -0.104976 -0.0450537 0.00858202 0.0422017 0.0152124 0.0369608 0.0334304 -0.00128805 -2.66815e-05 4.94181e-06 0.000235475 0.0101251 0.0506845 0.0295589 0.0361378 0.18174 0.127385 -0.0620578 -0.0741871 -0.256243 -0.333966 -0.148313 0.0990224 -0.0986227 -0.131862 0.0524301 -0.0997221 -0.345174 -0.122804 -0.17593 -0.124115 -0.0412222 0.0281542 0.049466 0.00279806 -0.00143894 -7.56798e-06 4.78738e-06 -3.0729e-06 0.0126542 0.0320607 0.0381193 0.0364742 0.134807 -0.0356062 -0.131767 -0.0961268 0.00148918 -0.0902422 -0.0148123 0.0237962 -0.0432454 -0.168124 -0.13154 -0.221887 -0.379486 -0.219035 -0.135064 -0.122455 0.0601296 0.0966488 0.031112 0.00385879 -0.00346792 -1.39717e-05 0 0 0.0142829 0.0270463 0.0690883 0.0499975 -0.0485662 -0.00218392 -0.161708 -0.272181 -0.261961 0.0839072 0.223395 0.253602 -0.260499 -0.136296 -0.00792679 -0.222089 -0.124378 -0.128772 -0.0290252 0.0280622 0.100174 0.124463 0.0370596 -0.00534918 -0.00215328 0 0 0 0.0172972 0.0208185 0.0555372 0.0395815 0.023109 -0.0143034 -0.0736475 -0.300667 -0.250908 -0.100956 0.08862 0.000858778 -0.0471162 0.15632 0.114155 -0.151898 -0.0695435 -0.0284691 0.0587525 0.0250809 -0.00203683 0.0825528 0.0137545 0.00131575 -9.22701e-05 0 0 0 0.00259641 -0.00244984 -0.00595658 0.0576293 0.110861 0.0789023 0.0203822 -0.10138 0.0530006 0.0421737 0.0151892 -0.14471 0.177755 0.0494875 0.0297072 0.0755898 0.0564485 0.0720169 0.113337 0.00733769 -0.0836846 -0.00485701 -0.0173257 -7.30444e-06 -8.30869e-05 0 0 0 0 0.000107712 0.0115209 0.0366282 0.0744029 0.0771361 0.0755537 0.136262 0.253619 0.132855 0.119431 0.0761622 0.208006 0.0241255 0.0707696 0.096054 -0.0065705 -0.0539089 0.036304 0.0148384 -0.0313948 0.00355444 0.00039111 -4.11025e-06 0 0 0 0 0 0 3.17383e-06 0.000105532 0.00173141 0.00803894 0.00988455 0.0072445 0.00904334 0.00878087 0.0287303 -0.0137812 0.0419049 0.0592688 0.0564483 0.0174387 0.0222989 0.0126554 -0.0221279 -0.0196081 -0.0247686 -0.00540153 0 0 0 0 ^0 0 0 0 0 0 0 0 0 0 0 0 5.99028e-06 2.61412e-05 1.44939e-05 6.03912e-07 0 0 0 0 0 0 0 0 0 0 0 0 0 0 0 0 -3.17762e-06 -9.93916e-06 -5.00776e-05 -0.000145431 -0.00100505 -0.000894199 -0.00065575 -0.00055716 -0.00105685 -0.00320561 0.0128499 0.0380336 -0.000185332 -0.00178845 -0.00107944 -0.00144269 0.000637583 0.000396297 -0.00027881 -7.49549e-05 0 0 0 0 0 0 -1.85127e-06 -3.74473e-05 -7.65995e-05 -1.51038e-05 -0.000110549 -0.000619434 -0.00744976 -0.0173543 -0.0197188 -0.0239902 -0.0144416 -0.0258232 -0.00847796 0.070726 0.0351818 -0.000610729 -0.00190167 -0.00497272 -0.0055516 -0.00124799 -0.00347216 -0.00120854 -0.00183796 -0.00103628 0 0 0 0 0.000374503 7.03457e-05 0.00158865 0.000720768 -0.000115036 -0.00182233 -0.018265 -0.0501854 -0.0668082 -0.117429 -0.0865784 -0.0796994 -0.0459394 0.0301401 -0.0607858 -0.0272835 -0.00895949 -0.0331552 -0.0136992 0.0145195 0.0245591 0.00480229 -0.0199899 0.0131729 0.00122556 0 0 4.69726e-07 0.00128141 0.000567978 0.00157566 -0.00136555 -0.00752017 -0.024106 -0.0729868 -0.16277 -0.202618 -0.218757 -0.2049 -0.0693582 -0.0273389 0.00980687 -0.0809434 -0.0541921 -0.0507251 -0.0667862 -0.00630466 -0.00769125 -0.0311644 0.0142529 0.00911454 -0.000570268 -0.0108173 -0.00384675 0 0 0.000332025 0.00370226 0.00181781 0.000468475 -0.0133912 -0.0601173 -0.196455 -0.258952 -0.325978 -0.306852 -0.195271 -0.0456388 0.0424861 0.0831614 0.0440765 0.0741936 -0.0368109 -0.032048 -0.0698337 -0.0236714 0.0109709 -0.0137717 -0.0603617 -0.0609766 -0.0112165 -0.00156544 0 -7.5502e-06 -0.0015638 0.00672776 0.00144719 -0.025239 -0.0576955 -0.141712 -0.21654 -0.24546 -0.217573 -0.124187 -0.0317017 0.0591886 0.121422 0.0852344 0.0396545 0.0384245 -0.021076 -0.00643549 -0.022902 -0.047342 -0.0264869 -0.00427819 -0.0368218 -0.0449134 0.0169962 0.005715 3.02099e-06 -0.000457795 -0.0025279 0.00291514 -0.00692065 -0.0480895 -0.112444 -0.174878 -0.241592 -0.179612 -0.0977546 -0.0811306 0.157369 0.183179 0.192777 -0.00303514 0.0113806 -0.0392912 -0.137021 0.0196251 0.0270228 -0.0279573 -0.00668702 0.0264532 -0.0185607 -0.0457733 0.0149296 0.00120624 -0.000936429 -0.000338985 -0.000557067 0.00445544 -0.00741431 -0.0493702 -0.124593 -0.170886 -0.211572 -0.162371 -0.149336 -0.0610819 0.123595 0.247167 0.186027 0.0430731 -0.171344 -0.121034 -0.0765712 0.0722808 0.013599 -0.000341909 -0.0362452 0.0170052 0.0513256 -0.0023882 0.00222224 0.00158154 5.35163e-05 -9.9937e-05 0.00138517 0.00401343 -0.011816 -0.057836 -0.107088 -0.140791 -0.199992 -0.17723 -0.172133 -0.147885 -0.00817571 0.172299 0.265673 0.131307 -0.0313657 -0.0646724 0.0808528 0.135578 -0.00676749 0.0408509 0.0487092 0.00174729 0.0780701 0.0304531 0.0155815 -0.00497432 6.90958e-05 0.00104225 0.00570249 0.00963154 -0.0129638 -0.053791 -0.121249 -0.157972 -0.163689 -0.209055 -0.160005 -0.10178 -0.0498444 0.0900086 0.206829 0.179712 -0.019381 -0.121621 -0.0248534 0.0827242 0.028182 0.128999 0.102338 0.147114 0.194201 0.126833 0.0467776 -0.00274386 2.06857e-05 0.000931019 0.00736665 0.0123544 0.00340537 -0.0325558 -0.117008 -0.161103 -0.180137 -0.214389 -0.179533 -0.127234 -0.0944894 -0.014142 0.105062 0.0644296 -0.123404 -0.245438 -0.129684 -0.102624 -0.0313883 0.0445606 0.027487 0.123851 0.148242 0.0700047 0.0237407 0.00126227 -2.82875e-05 0.00108304 0.00447136 0.0110135 0.0141346 -0.0377399 -0.100254 -0.155373 -0.20109 -0.127949 -0.108661 -0.1493 0.00483332 -0.023339 0.106931 0.0733752 -0.145598 -0.165713 -0.236385 -0.284559 -0.19311 -0.137465 -0.136426 -0.0450202 -0.00907511 -0.0033633 0.00906452 0.000289376 5.12947e-06 0.000984469 0.000164988 0.0152305 0.0130136 -0.0579277 -0.0988422 -0.117905 -0.133788 -0.0438408 -0.0787006 -0.164283 -0.0164508 -0.0440318 0.149961 0.115913 0.00158805 -0.0556458 -0.281305 -0.270995 -0.186409 -0.16354 -0.179739 -0.115307 -0.0775008 -0.0395918 -0.0236743 -0.00392401 2.78158e-06 0.000486901 0.00150922 0.0163479 -0.0169456 -0.0588017 -0.0827525 -0.123029 -0.160975 -0.0989643 -0.121652 -0.143378 -0.0148901 -0.00104212 0.246442 0.18376 0.0970965 -0.13333 -0.210048 -0.242336 -0.137964 -0.151507 -0.15319 -0.118806 -0.0553532 -0.00541306 -0.0110117 -0.000456232 1.33352e-06 0.000105651 0.00219598 0.000557351 -0.029527 -0.0392401 -0.0116553 -0.088393 -0.157301 -0.211898 -0.0962094 -0.114611 0.0555629 0.0931726 0.234222 0.136572 0.0891276 -0.0587819 -0.119693 -0.21162 -0.139014 -0.125053 -0.12903 -0.0937004 -0.0619495 -0.0247021 -0.0115485 -0.00220951 2.41561e-06 3.43881e-05 -0.00299032 -0.00664199 0.00251375 0.049713 0.0774853 -0.0919021 -0.209919 -0.230664 -0.089487 -0.0473732 -0.0347517 0.0391698 0.168251 0.112075 0.101673 -0.0121837 -0.0981779 -0.173726 -0.128535 -0.151794 -0.153435 -0.13654 -0.0821395 -0.0443624 -0.0135724 -0.00227802 0 9.73876e-05 -0.00739111 0.00822563 0.0296321 0.0881347 0.124929 -0.0121874 -0.120492 -0.0590843 -0.0292695 -0.0475882 -0.135117 -0.012264 0.14421 0.0768129 0.0576669 -0.0520871 -0.116156 -0.118165 -0.128332 -0.158644 -0.114923 -0.0857113 -0.0623594 -0.036084 -0.0053517 -0.001222 -0.000131493 -1.38344e-05 -0.00314051 -0.0104103 -0.00540984 -0.00804851 0.0282522 0.0347688 -0.0312189 -0.0125825 0.0256403 0.00427381 -0.0913642 0.0182207 0.112627 0.0171564 -0.0917741 0.00103479 -0.0641818 -0.0355556 -0.128876 -0.142631 -0.167587 -0.106231 -0.048482 -0.00369334 0.00812944 0.00267659 5.68343e-06 0.000282614 -0.000699884 -0.0442101 -0.0593161 0.00119147 -0.05058 -0.0104885 -0.00874008 0.0749672 0.0111004 -0.00660342 -0.0081563 0.118165 0.0354477 0.00247327 0.00121469 -0.0356733 -0.0610077 -0.082203 -0.105831 -0.132632 -0.126963 -0.0609375 -0.00338196 0.00451694 0.00178171 0.0012828 0 0.000306584 -0.00473113 -0.052994 -0.124385 0.00368158 0.0720312 -0.0228812 0.070134 0.0667819 0.104303 0.058076 0.0401083 -0.0151628 0.0511185 -0.048894 0.0202455 0.0260754 -0.0419385 -0.110269 -0.138556 -0.137443 -0.123394 -0.0702586 -0.0270518 -0.0134645 0.00235046 3.83761e-06 1.20841e-05 -0.000141126 -0.00935468 -0.0395203 -0.0864059 -0.00937949 0.0472902 0.0220326 0.0656773 0.0691924 0.178825 0.162685 0.0539029 0.00750671 0.0402862 -0.001883 -0.0515116 -0.113149 -0.131801 -0.196494 -0.132565 -0.138594 -0.129394 -0.0610978 -0.0135867 -0.00599172 -0.00249673 -4.83794e-06 1.17065e-05 -8.80236e-06 -0.00818723 -0.0223847 -0.0592883 0.0131533 0.105166 0.0142827 0.0173905 0.0935905 0.0377655 0.00542692 0.0476764 -0.00862881 -0.0171598 -0.0871393 -0.0887375 -0.117243 -0.181566 -0.176702 -0.172527 -0.143622 -0.0772987 -0.0298811 -0.00785935 -0.00279921 0.000884459 -8.93158e-06 0 0 -0.00308791 -0.0213095 -0.0133562 0.0428938 0.0437796 -0.012253 -0.0277127 -0.0151924 -0.0347181 -0.0591376 0.0220768 -0.0408277 -0.0917247 -0.13683 -0.125605 -0.103789 -0.197417 -0.220273 -0.157021 -0.116735 -0.0532899 -0.0222059 -0.00791785 -0.0010219 0.00372148 0 0 0 -0.00130645 -0.00715543 -0.0168996 0.029721 0.0173907 -0.00560414 -0.0232123 0.00430422 -0.0207252 -0.0737606 -0.0622984 -0.0728049 -0.139866 -0.185133 -0.172354 -0.0922062 -0.0733636 -0.0867956 -0.0817315 -0.0559652 -0.0249075 -0.00394474 -0.00401175 -0.00196447 -0.000736145 0 0 0 -0.00022384 0.000520425 -0.00579148 -0.0189091 -0.054746 -0.0614074 -0.0497985 -0.0171655 -0.0674505 -0.067185 -0.0659454 -0.0819649 -0.113842 -0.152155 -0.0927499 -0.0360676 -0.00583415 -0.00351319 -0.00344048 -0.000546931 0.00605686 0.00218669 -0.000194961 -0.000688752 -0.000837593 0 0 0 0 -6.48257e-05 0.00165118 0.0024091 -0.000593933 -0.00347046 0.000283607 0.022735 -0.00468921 -0.00524205 -0.0157748 -0.0130384 -0.0157553 -0.0191352 -0.00013607 0.00227809 0.00525654 0.00227989 0.000558616 0.000707736 0.00153527 -5.52655e-05 7.43687e-06 -2.33544e-06 0 0 0 0 0 0 -8.03441e-05 -0.000161543 0.000123454 0.000845925 0.0011266 0.00077159 -0.00151791 0.000208851 0.00166016 0.00194186 0.00275918 0.00325194 0.00302829 0.00323359 0.00467429 0.000844683 0.000112011 0.000262974 0.000551059 0.000163387 0 0 0 0 ^0 0 0 0 0 0 0 0 0 0 0 0 0.000105289 0.000273365 4.76487e-05 1.98536e-06 0 0 0 0 0 0 0 0 0 0 0 0 0 0 0 0 -8.29705e-07 -1.10626e-06 0.000272189 0.000637405 0.00244836 0.00126551 0.00128754 0.00124956 0.00259396 0.00288973 0.0031317 0.00190851 0.00156403 0.00133884 0.00108382 0.00148761 0.00104795 0.000430309 0.000121551 9.48413e-09 0 0 0 0 0 0 1.15813e-05 0.00016533 1.31223e-05 7.30348e-05 0.000968867 0.00468216 0.0147468 0.0611472 0.0298354 0.0217885 0.0297289 0.0372509 0.0444453 0.0526517 0.0789158 0.0992005 0.0286802 0.0411563 0.0390418 0.0428223 0.0298605 0.00381854 0.00115493 9.28212e-05 0 0 0 0 -0.00046007 0.00153381 0.00793455 0.00610726 0.00483844 0.00706233 0.013033 0.0572855 -0.0172578 -0.0817014 -0.174939 -0.142383 -0.0523216 -0.110865 -0.103705 -0.0533139 0.0548007 0.150504 0.110476 0.162061 0.11282 0.0449873 0.0189195 0.00530701 -0.000404443 0 0 -2.11316e-05 -0.00178147 -0.0034853 -0.0042891 -0.037193 -0.0681728 -0.0991482 -0.129737 -0.0810311 -0.120719 -0.134017 0.0437581 0.053289 0.139648 -0.0967618 0.0868584 0.178437 0.00527747 0.0894612 0.0507397 -0.083857 -0.0469357 0.00222368 -0.0827632 -0.0405782 0.00267692 0.000949666 0 0 8.59656e-05 -0.017699 -0.0307204 -0.133851 -0.246215 -0.146864 -0.054634 -0.0896877 -0.0705021 -0.0997503 -0.0388357 -0.0301614 0.112552 -0.0114969 -0.0740462 0.138143 0.00681973 -0.045842 -0.0717365 0.105137 -0.0361297 -0.0749101 -0.0496433 -0.0118813 0.0118934 -0.00445938 0 -1.19064e-05 -0.008498 -0.0643393 -0.0468714 -0.173657 -0.199393 -0.00356442 -0.0116687 -0.00640104 0.0993112 -0.0367663 0.19299 0.0478723 -0.0147738 0.000943803 -0.355405 -0.276166 -0.143431 0.202129 0.0474295 -0.0155122 0.110972 -0.0161844 -0.158403 -0.137036 -0.05737 -0.016671 -6.91081e-07 -0.00138418 -0.0179264 -0.0520727 -0.0180954 -0.0673999 -0.161382 -0.0144907 -0.00755387 -0.0719265 -0.0702193 -0.12271 -0.139057 0.066067 -0.0412297 0.299741 -0.00810201 -0.0525336 0.0447317 -0.0573216 -0.0939001 -0.0746185 0.172145 0.120699 -0.10882 -0.138446 -0.0379089 -0.00715246 0.000171409 0.00174555 -0.0119494 -0.0485169 0.024359 -0.054121 -0.00781854 0.046348 -0.0499766 0.108943 0.0458874 -0.0818019 0.0488846 0.0589255 0.143842 0.191041 0.122001 0.304633 0.00198965 0.0741068 0.0536248 -0.11649 0.0482196 0.0115796 -0.201233 -0.161904 -0.0359086 -0.00499118 -0.000157467 -0.00111015 -0.00193268 -0.0658635 -0.112155 0.00782193 -0.103814 -0.122202 -0.107909 0.19143 0.0766141 -0.0905435 -0.115219 -0.0594473 -0.171846 -0.0748117 0.130518 0.0863912 0.240021 0.389785 0.108302 0.0529907 0.0204743 0.0875674 -0.357866 -0.26495 -0.0601858 -0.00494018 -0.000204519 0.0012745 -0.0269637 -0.144355 -0.134969 -0.0752258 -0.136873 -0.199605 -0.207461 -0.0565705 -0.121945 0.0156897 -0.00571597 -0.179526 -0.251426 0.0512783 -0.0512515 0.104575 0.240612 0.273958 -0.0806717 -0.167912 0.0376844 0.0936348 -0.185062 -0.269361 -0.105615 -0.00177414 -2.93943e-05 -0.00234612 -0.049597 -0.15095 -0.171017 -0.025779 0.0952283 -0.122311 -0.0762729 0.0202352 -0.161287 0.0372599 -0.328415 -0.314005 -0.26711 -0.0179407 -0.0192887 -0.182357 -0.118909 0.0188044 -0.134716 -0.0272305 0.150673 0.127345 0.0697102 -0.0979801 -0.0884498 -0.000576005 -1.70658e-05 -0.00434761 -0.0170638 -0.0707987 -0.0995784 -0.0330924 0.21621 -0.0241037 -0.0590007 0.0117057 -0.180505 -0.0193168 -0.0924468 -0.0400675 -0.0863676 0.0598095 -0.188908 0.024975 -0.117883 0.193876 -0.052381 0.150023 0.196793 0.242866 0.298554 0.0517715 -0.048805 -0.000454929 4.48051e-06 0.000289559 -0.00912889 -0.0979682 -0.182836 -0.239463 0.141209 0.123212 0.0341568 -0.00580696 -0.0530182 -0.153657 -0.231854 -0.1688 -0.167854 0.143271 -0.214273 -0.070672 -0.0360961 0.057278 0.0119741 -0.162825 -0.00739057 0.202407 0.196447 0.111067 0.000906599 0.0115892 2.99098e-05 -0.000861585 -0.00458384 -0.124925 -0.093504 -0.0332588 0.311244 0.258325 0.193543 0.0956276 -0.0774698 -0.0698392 -0.319682 0.0174904 -0.0420175 0.0792927 0.105985 0.143577 0.0247121 0.0425533 -0.0286074 -0.122155 -0.113934 -0.0916929 0.00882244 0.12247 0.0327377 0.00658434 2.77519e-06 -0.00286057 -0.00238014 -0.0424944 0.000315945 0.207404 0.486095 0.828294 0.780066 0.371786 -0.319491 -0.173559 -0.181786 -0.299948 -0.00516669 -0.0670866 0.0831527 0.191593 -0.0275194 -0.137492 -0.128298 -0.015341 -0.0821761 -0.204796 -0.104641 0.118003 0.0132985 -0.000571514 -4.01044e-05 -0.00169416 -0.0159737 -0.00956571 -0.00903976 0.376925 0.818625 0.993789 1.20261 1.13893 0.643651 0.466345 0.196692 -0.14303 -0.063191 0.0729446 0.0349079 0.0436158 -0.0792843 -0.0521781 -0.140287 -0.0621797 -0.142013 -0.0906854 -0.121732 0.10267 0.00581337 -0.00196419 0 -0.000888403 -0.0138737 -0.0140927 -0.0261917 0.296813 0.614866 0.649249 0.971182 1.48788 1.87117 1.61016 1.19344 0.83202 0.585636 0.334134 0.13248 -0.00961863 0.0550978 0.0371277 0.0319254 0.0381466 0.121998 -0.0456986 -0.0562124 0.062252 0.00445537 5.00834e-05 -0.000320612 -0.000244202 -0.0244978 -0.0837255 -0.139598 0.110786 0.133002 0.0501692 0.190873 0.607712 0.720046 0.839082 1.17386 0.778512 0.383214 0.24559 0.0824947 0.139926 0.285343 0.035554 0.111479 -0.0850715 0.00879123 0.0673553 -0.00326795 0.0308065 0.00461704 0.00368022 1.76287e-07 -0.00500968 -0.0204595 -0.149742 -0.160437 -0.148021 -0.171611 -0.228344 -0.265126 -0.42 -0.564261 -0.52128 -0.286427 -0.0761223 0.14185 0.322554 0.208975 0.378018 0.0280923 0.0212292 0.104185 -0.020784 0.0953654 0.0181601 -0.00042836 0.018337 0.0172558 0.00390315 0 -0.000925197 -0.0211057 -0.102634 -0.222471 -0.11443 -0.254547 -0.22201 -0.45545 -0.495446 -0.59049 -0.681471 -0.482105 -0.351386 0.00730204 0.302418 0.275092 0.136853 -0.133024 0.0781666 0.134672 0.220781 -0.0937515 0.110583 0.0825298 0.0314058 0.00860858 -1.54191e-05 2.77171e-06 -0.000806 -0.0232018 -0.0848548 -0.223702 -0.177222 -0.154835 -0.279156 -0.338443 -0.160103 -0.388425 -0.172026 -0.373785 -0.443111 -0.119196 -0.0337347 0.0786421 0.105982 0.0210479 0.101973 -0.0319938 -0.0144164 0.0182577 0.177805 0.119043 0.0794382 0.00532835 -9.31401e-06 2.68509e-06 7.2311e-06 -0.0137658 -0.0424111 -0.0907403 -0.0645115 -0.0780217 0.0847892 -0.175007 -0.267361 -0.0335066 0.122633 0.0131522 0.0204083 -0.00486655 -0.184826 0.039704 -0.170201 0.0833682 -0.193838 -0.149522 -0.00560768 0.0719678 0.0797308 0.088369 0.0518556 0.000641238 -1.71951e-05 0 0 -0.00841031 -0.0779349 -0.140328 -0.15619 -0.0436236 0.00773081 0.0862677 -0.180789 -0.296725 -0.148375 -0.00448229 -0.0587509 0.0367179 -0.0104799 0.0962466 -0.163394 0.0794549 0.124929 0.0330587 0.069476 0.149059 0.0739973 0.0128359 0.0133983 -0.000719932 0 0 0 -0.0129538 -0.0703911 -0.178516 -0.25069 -0.226355 -0.260422 -0.0816298 0.00888281 -0.219858 0.0260335 0.0291285 -0.0460016 0.090565 0.0044631 -0.0972592 -0.100307 0.321496 0.394472 0.156961 0.0505271 0.0414961 0.00956421 0.0294491 0.0225195 0.000234852 0 0 0 -0.00127512 -0.00261289 -0.0817714 -0.172167 -0.157275 -0.193705 -0.222135 -0.162152 -0.121171 -0.0322427 -0.081433 0.0315806 0.0634903 -0.0642485 -0.203719 -0.0558341 0.0379691 -0.00352283 -0.046062 -0.0686129 -0.0612335 -0.0169517 -0.00374188 0.000157918 0.000260168 0 0 0 0 -0.000148792 -0.0265656 -0.0435181 -0.0595201 -0.0513033 -0.0802034 -0.194621 -0.142888 -0.118179 -0.133662 -0.166233 -0.204119 -0.18652 -0.170432 -0.158283 -0.130567 -0.0704382 -0.0602299 -0.0532046 -0.0138381 -0.00114825 -0.000100315 -2.1244e-05 0 0 0 0 0 0 -8.08108e-05 -0.000298417 -0.000638968 -0.00207392 -0.00452987 -0.00708734 -0.017151 -0.00876573 -0.00864932 -0.0128791 -0.0266771 -0.0136055 -0.0184608 -0.0157067 -0.0173805 -0.00928486 -0.00456891 -0.0043154 -0.00418917 -0.000553993 0 0 0 0 ^0 0 0 0 0 0 0 0 0 0 0 0 0.000135177 0.000393193 0.000108166 4.50692e-06 0 0 0 0 0 0 0 0 0 0 0 0 0 0 0 0 -1.86436e-05 -4.74733e-05 0.000655953 0.00103751 0.000459875 -0.00160968 -0.00202046 -0.00655152 -0.00241393 6.09707e-05 -0.0154399 -0.0347713 0.00665894 -3.24324e-05 -0.00147273 0.0023983 -0.0028088 -0.00161704 0.0033887 0.00224172 0 0 0 0 0 0 2.19186e-06 -8.23877e-06 -0.000280225 -3.62933e-05 0.000554187 0.000602484 0.0102341 0.0408914 0.033421 0.0336543 0.0292541 0.0402967 -0.0134988 -0.0807401 0.0109208 -0.0172429 -0.0391344 -0.0371503 -0.025287 -0.0310528 -0.0105423 0.00133568 0.0205884 0.0138422 0 0 0 0 0.000507038 0.000114571 -0.000938514 0.00045845 0.0040929 0.0057066 0.0124462 0.0583155 0.0900722 0.186986 0.0299323 -0.0979668 -0.158957 -0.203533 -0.0362779 -0.110953 -0.19368 -0.160143 -0.124052 -0.096677 -0.0569207 -0.03761 0.0108652 0.0109564 -0.00323318 0 0 -2.03235e-05 0.00165968 -0.00288739 -0.00969849 0.00559705 0.042208 0.0500215 -0.0222433 -0.0753435 0.0608182 -0.0268568 -0.0791906 -0.183855 -0.234546 -0.288047 -0.0918871 -0.209664 -0.105567 -0.0314362 0.0152198 -0.11213 -0.132483 -0.161649 -0.16485 -0.0559936 -0.005907 -0.00507996 0 0 0.000546768 -0.00735561 0.0333543 0.041686 0.00564126 0.0911618 0.189832 -0.0678998 0.0907306 0.243 0.121294 0.0653659 -0.289556 0.0121062 0.111985 -0.117367 0.0504547 -0.0914292 -0.141065 0.0363154 -0.0312075 -0.113269 -0.160423 -0.0757719 -0.0231488 -0.00741129 0 5.94757e-06 -0.00276905 -0.00321049 0.0449076 0.0891384 0.0965668 -0.0173381 -0.0804342 0.089634 0.25971 -0.00310523 0.0573201 -0.0542596 -0.0615529 -0.190423 0.0846323 -0.0990091 0.163133 0.0923948 -0.129064 -0.0352 -0.0401677 -0.220268 -0.29056 -0.105294 -0.0233717 -0.003117 3.98466e-07 0.000382066 0.0132366 0.0275703 0.0951743 0.0753791 0.0765199 0.0683621 0.00520934 -0.0105879 -0.0119551 0.0976869 -0.140772 0.090539 -0.0188011 -0.239331 0.0105854 -0.190434 -0.127384 0.211889 0.00852377 -0.00731758 0.0783672 -0.260423 -0.48937 -0.253351 -0.0176418 -0.0028407 -0.000790423 0.00237535 -0.00740638 0.0140798 0.0654449 0.0378068 0.00533705 0.144041 0.0961565 0.030996 0.250895 0.166063 0.253845 0.0851213 0.170282 -0.0551274 0.00367543 0.0687838 -0.15776 -0.0453699 -0.132737 -0.151817 0.120034 -0.205638 -0.538409 -0.243848 -0.0488812 -0.00542443 2.03592e-05 0.000958282 0.00207417 0.00730934 -0.0662556 0.034934 0.0408149 0.127266 0.131682 0.262526 0.426159 0.396956 0.472152 0.248916 -0.0242136 0.139875 0.224662 0.100172 0.003991 -0.0336711 -0.0798609 -0.116718 0.0815412 -0.120824 -0.393225 -0.101148 -0.024151 0.0257776 2.93781e-05 0.000867715 0.0032588 -0.10125 -0.157584 -0.0623311 0.0622265 0.164614 0.347022 0.378902 0.278894 0.161554 0.175303 -0.0823425 -0.393671 -0.0853529 0.117669 0.104463 0.226687 0.276403 -0.173695 -0.015769 -0.0889249 -0.334372 -0.25248 -0.0987189 -0.0723375 0.00144659 5.015e-06 0.00259337 -0.0195371 -0.125149 -0.259486 -0.220364 -0.0647237 0.0186467 -0.0169126 -0.0301126 -0.191692 -0.298127 -0.551994 -0.704315 -0.658736 -0.288868 -0.175065 -0.0862325 0.205896 -0.0671061 -0.0251604 0.00893146 -0.161532 -0.29957 -0.171032 -0.017218 -0.0631305 -0.00311929 -2.60805e-05 -0.00141812 -0.0167086 -0.151198 -0.323459 -0.466891 -0.473952 -0.498002 -0.662749 -0.798478 -0.936494 -1.02696 -0.831545 -0.76051 -0.659585 -0.351622 -0.154581 -0.22525 -0.28039 -0.291396 -0.198648 -0.266992 -0.390155 -0.280665 0.0493713 0.165659 0.024836 0.0169067 4.38551e-06 -0.00286603 -0.00386745 -0.153976 -0.421371 -0.666856 -0.872068 -1.06669 -1.28737 -1.18993 -1.04749 -0.7393 -0.451405 -0.0040699 -0.30374 -0.490263 -0.436342 -0.321324 -0.199562 -0.411206 -0.450254 -0.317909 -0.191475 -0.0673488 0.226578 0.307419 0.188895 0.0925401 -2.72229e-05 -0.00238161 -0.00218225 -0.145371 -0.388806 -0.774759 -0.990057 -0.921296 -0.927423 -0.604463 -0.41026 -0.258303 0.0564992 0.145625 -0.225196 -0.373824 -0.276431 -0.133258 0.145328 -0.230618 -0.504474 -0.0237674 0.0462261 0.128241 0.291408 0.349321 0.201811 0.0139495 -1.01135e-05 -0.00236937 -0.00278641 -0.0990704 -0.292778 -0.513015 -0.523403 -0.284683 0.0109308 0.077034 0.180739 0.192894 0.09401 0.150438 0.000811339 0.133249 0.096621 0.146853 -0.0485852 -0.264502 -0.225604 0.187115 0.01402 0.101201 0.384575 0.405205 0.140899 0.0169879 -6.85588e-06 -0.00121777 -0.00813782 -0.0404307 -0.212927 -0.28714 0.0882993 0.25759 0.202213 0.387593 0.407897 0.0177365 0.0311401 0.321652 0.0728733 -0.136821 0.147503 0.0299609 -0.0343737 0.160471 -0.040656 0.173406 0.129295 0.2549 0.461937 0.353957 0.143242 0.026642 0 -0.000436287 -0.00734821 -0.0044638 -0.0352634 0.0289892 0.203007 0.241914 0.201508 0.237216 0.238113 0.0885892 0.229847 0.150131 0.0307185 0.0802518 -0.0461299 -0.0225533 -0.0604976 0.00381065 -0.0438664 -0.0235662 0.0738431 0.17059 0.450755 0.287294 0.107642 0.00800322 -8.96165e-06 -0.000145935 -0.0170564 0.0463752 0.160308 0.273742 -0.0947621 0.169659 0.020872 0.0808065 0.206596 0.123845 0.104511 -0.00905963 0.152015 -0.0265113 -0.0209024 0.0316414 0.00395006 -0.14414 -0.31475 -0.210481 0.0109524 0.277557 0.415381 0.278888 0.0438889 0.0150796 -2.06152e-06 -0.000715457 -0.00723963 0.0998648 0.30655 0.138836 -0.00638944 0.153737 0.212401 0.206506 0.179362 0.191981 0.26735 0.271424 -0.0250565 -0.0101214 -0.0202858 -0.139255 -0.26298 -0.191446 -0.14738 -0.0279359 0.0263607 0.238409 0.257196 0.194295 0.0692143 0.00607379 0 -0.00167473 0.0191523 0.205237 0.537717 0.231586 0.143533 0.10663 0.314419 0.13404 -0.00555418 0.438431 0.340253 0.0199348 -0.0654916 0.121723 0.118825 -0.0658675 -0.127485 0.0722311 -0.0897583 0.0278106 0.0573174 0.264416 0.206828 0.0984562 0.028932 -1.58899e-05 7.95944e-06 -0.000556296 0.0745932 0.158545 0.282059 0.275151 -0.00913527 -0.262649 0.0651541 0.0238131 -0.0175269 0.0330444 0.110922 -0.0107584 -0.0411734 -0.0192998 0.0591226 0.0648763 0.0817182 0.215627 -0.0287456 0.073948 0.191081 0.284266 0.156583 0.0405321 0.0103386 -3.60542e-06 7.7107e-06 -6.26786e-06 0.0654522 0.108598 0.192429 0.374094 0.00387125 0.0556852 0.24161 0.180858 0.0237487 -0.0492117 0.031985 -0.0933788 0.0585556 -0.107927 -0.141437 0.179994 0.249851 0.212771 0.269157 0.161017 0.111055 0.11487 0.044595 -0.0116158 -0.00677145 -6.65615e-06 0 0 -0.0216267 -0.0569317 -0.0915324 0.174943 0.225691 0.0908429 0.0597894 0.163196 0.0283977 0.164391 -0.0133845 -0.0691918 -0.0435109 -0.0466359 0.0848421 0.161563 0.251586 0.233875 0.0819034 0.141922 0.0842542 0.0362885 0.032352 -0.00270575 0.000640179 0 0 0 -0.0426667 -0.0745362 -0.0800577 -0.0591886 -0.154153 -0.235199 -0.0585767 -0.16119 -0.341315 -0.240122 -0.243034 -0.178851 0.00656791 -0.0551772 -0.158758 0.0652422 -0.0108149 -0.0610428 0.050188 0.101729 0.0170528 -0.0164614 0.0639052 0.0526689 0.0046082 0 0 0 -0.00597023 -0.00360678 0.0191719 -0.0194495 -0.0341658 0.0278524 0.00389212 -0.145788 -0.154198 -0.129461 -0.0188518 -0.0544236 0.0372452 0.0585167 -0.0501555 -0.201671 -0.227942 -0.20235 -0.0403236 -0.0613926 -0.075055 -0.0350955 -0.00742848 0.00403733 0.00482402 0 0 0 0 -6.03468e-05 -0.00365012 -0.0417628 -0.0417619 0.00382735 0.00419175 -0.00298231 0.0249409 0.0652112 0.0217662 -0.0599806 0.0573341 0.0181262 -0.0649438 -0.0422439 -0.00512384 -0.00780557 -0.0175464 -0.0351248 -0.0189827 -0.000811278 3.57527e-06 -7.23094e-06 0 0 0 0 0 0 3.60489e-05 7.28984e-05 0.000109766 0.000108481 0.000341867 0.00105762 0.000514764 -0.000563881 0.00037226 0.000311191 -0.00145068 0.000541974 0.00105277 0.00130866 -0.00319672 -0.00207549 -0.0100663 -0.00458073 -0.0182148 0.000253123 0 0 0 0 ^0 0 0 0 0 0 0 0 0 0 0 0 0.003443 0.00758246 4.83814e-05 2.01589e-06 0 0 0 0 0 0 0 0 0 0 0 0 0 0 0 0 -1.08998e-06 8.5375e-06 0.00244343 0.00542972 0.00461971 0.00198944 0.00299482 0.00364613 0.00917293 0.00870936 -0.00751235 0.00136232 0.00324532 0.00444692 0.0024924 0.00288528 0.00220634 0.000717954 0.000840739 0.000983424 0 0 0 0 0 0 1.12898e-05 1.51384e-05 5.24204e-05 0.000207386 0.0065243 0.0177432 0.0269456 0.0801402 0.0833243 0.0790365 0.0838295 0.0818546 0.0650708 0.0783531 0.0828501 0.0829634 0.0320269 0.019439 0.0269377 0.0253667 0.0235441 0.00698566 0.00145406 -8.26087e-05 0 0 0 0 -5.64801e-05 0.00050559 0.00540981 0.0133254 0.036186 0.0345641 0.103673 0.144597 0.0712267 0.0032779 -0.00537495 0.0334486 0.110265 0.14024 0.184746 0.119288 0.183739 0.0578205 -0.0449797 0.0398302 0.0650402 0.0586813 0.0392002 0.00608715 -0.0014471 0 0 -1.82887e-05 -0.000385729 -0.00378128 -0.00789422 -0.0371433 -0.0458576 0.0171521 -0.0196169 -0.0653903 -0.0817549 -0.224047 0.0742673 0.0902291 0.190035 -0.000586507 0.116599 0.0645064 -0.203296 -0.00611463 0.0455728 0.0799958 0.024366 -0.0697451 -0.141798 -0.055015 -0.0062141 0.0001575 0 0 0.000431428 -0.0171084 -0.032462 -0.175088 -0.189638 -0.123714 -0.133137 -0.179607 -0.123539 -0.0709521 0.0677297 -0.203476 -0.024283 -0.0146513 0.0158057 0.0161341 -0.142314 0.0959091 -0.0384158 0.164647 -0.0170159 -0.125387 -0.117386 -0.0661989 -0.0104192 -0.00395321 0 -1.57733e-05 -0.0104924 -0.0623373 -0.0795908 -0.301065 -0.323547 -0.0829169 -0.220974 -0.0527526 -0.0286839 0.0138958 0.182368 -0.126151 -0.0200543 0.121078 -0.0297492 0.0165077 -0.194727 -0.0639237 -0.129778 -0.0678001 -0.111642 -0.0870339 -0.224606 -0.156926 -0.065642 -0.0136882 -2.74728e-06 -0.00110892 -0.0289362 -0.100815 -0.169696 -0.231883 -0.265509 -0.193202 -0.0526035 -0.24585 -0.0529439 0.026122 0.00959202 0.0798141 -0.102087 0.0893949 -0.10254 -0.224352 -0.0609849 -0.17818 -0.200547 -0.0199846 0.0158071 -0.0592379 -0.176746 -0.254047 -0.0687729 -0.00936414 0.000221948 -0.00859876 -0.036529 -0.132565 -0.241599 -0.173919 -0.186024 -0.121778 0.0428764 0.089909 -0.0844766 0.136283 0.0804262 0.134736 -0.0875556 -0.147123 -0.201656 0.138077 -0.0759336 0.049656 -0.0122505 0.105165 -0.0021143 -0.0413326 -0.198029 -0.241352 -0.0543424 -0.00261121 -0.000167648 -0.0137517 -0.0662269 -0.143707 -0.235213 -0.0397255 -0.156526 0.0122776 -0.091788 0.0120609 0.130523 0.122103 -0.0727538 -0.147041 -0.0706135 -0.136593 -0.200511 0.00549402 -0.059455 0.201422 0.169774 0.128655 -0.0276238 0.106633 -0.120998 -0.20283 -0.0236205 -0.00595504 -0.000214864 -0.0137198 -0.0907352 -0.193577 -0.120411 0.000137254 -0.00124272 0.0661488 -0.0336092 0.10639 0.183898 0.0613476 -0.000809954 0.109546 0.424619 0.530357 0.232126 0.128306 0.167766 0.190967 0.0526436 0.0903632 0.0754174 0.271295 -0.00680841 -0.0844031 -0.0183472 -0.00644104 -7.29267e-05 -0.012289 -0.0951168 -0.170361 -0.101956 0.159589 0.104254 0.177215 0.188262 0.348694 0.216721 0.185259 0.242144 0.185737 0.64715 0.467437 0.255692 0.0707768 -0.0836736 0.0429508 0.197916 0.310221 0.253881 0.32611 0.189765 0.0262376 -0.0110797 -0.000861356 -6.81719e-05 -0.00629421 -0.0556547 -0.111854 -0.0778167 0.131019 0.0296497 0.0843761 0.0989513 0.264458 -0.0875658 0.0464323 0.0727918 0.161947 0.345808 0.37751 0.216878 0.133185 -0.234453 -0.0521285 0.0912213 0.261731 0.0667252 0.175913 0.195508 0.0478577 -0.00186792 0.00114571 3.23961e-06 -0.00114133 -0.0240305 -0.0755467 -0.174709 -0.0973679 -0.0462337 0.0884567 0.264688 0.268826 0.0530555 -0.0579301 0.0152714 0.27862 0.16203 0.444318 0.417719 0.214745 0.0329625 -0.211309 -0.198649 -0.154372 -0.251818 -0.0250567 0.0666889 0.0435197 0.0113632 0.0154421 -9.15516e-06 -0.000177002 -0.00685811 -0.0546673 -0.0563995 -0.0274242 -0.0467163 0.0461479 0.0789128 0.350825 0.326176 0.480356 0.0800307 0.415931 0.022822 0.138543 0.562691 0.507872 -0.056139 -0.30034 -0.46209 -0.324103 -0.390323 -0.378496 -0.19633 0.00606184 0.0262489 0.00443795 -9.23619e-06 -0.0013698 0.00460449 0.0603725 -0.015262 -0.141671 -0.0070556 0.198338 0.169272 0.285236 0.124039 0.257786 0.346834 0.174782 0.202867 0.255278 0.447152 0.351174 -0.24493 -0.721507 -0.664189 -0.492743 -0.427137 -0.431289 -0.24153 0.0812231 0.0158844 -0.00167762 -3.56485e-05 -0.000908828 -0.0128146 0.0318208 -0.11051 -0.194405 0.0208187 0.0405594 0.317757 0.422296 0.177444 0.224239 0.335762 0.223888 0.270431 0.319088 0.268901 -0.271313 -0.542644 -0.784775 -0.585083 -0.533787 -0.499961 -0.242938 -0.16402 0.0858746 0.00214032 -0.00522147 0 -0.000619162 -0.0112239 -0.0689627 -0.230997 -0.298795 -0.199673 -0.118147 0.314792 0.404138 0.176859 0.141012 0.233099 0.428266 0.499795 0.1458 -0.234956 -0.706183 -0.753013 -0.644302 -0.341554 -0.358501 -0.312427 -0.172438 -0.141679 0.0239518 0.00509543 -0.000126476 -6.75407e-05 -0.000237571 -0.0121236 -0.0706484 -0.319236 -0.341597 -0.296779 0.0136372 0.236247 0.410956 0.19946 0.268437 0.611332 0.679896 0.42825 -0.263898 -0.684186 -0.627935 -0.422837 -0.262809 -0.0421357 -0.323452 -0.195972 -0.0573451 -0.116651 0.0323307 0.0143261 0.00412855 4.90933e-07 -0.00240562 -0.0121609 -0.0886166 -0.332105 -0.416902 -0.330749 -0.0528187 0.179953 0.365787 0.178784 0.182659 0.256727 0.370352 0.0343959 -0.43926 -0.568945 -0.378761 -0.37946 -0.204174 -0.0975309 -0.138531 -0.00872994 0.0219685 -0.113466 0.0142365 0.019066 0.00249309 0 -0.00143828 -0.00755841 -0.116405 -0.294149 -0.407922 -0.233177 -0.0688296 -0.0488675 0.271432 0.0726083 0.0212746 0.361744 0.109963 -0.154731 -0.255453 -0.384823 -0.270055 -0.246923 0.00515286 0.0854603 0.124965 -0.0634084 0.0199688 -0.0021949 0.0173991 0.00693431 -7.88748e-06 4.07381e-06 -0.000571315 -0.0175694 -0.0856535 -0.165175 -0.206661 -0.188536 -0.101917 -0.13609 0.263624 0.0136572 -0.117414 -0.0386203 -0.0565534 -0.233937 -0.140185 -0.354575 -0.0420422 -0.127055 -0.166167 -0.0259387 0.167377 0.0139085 0.0992016 0.0113721 0.0582056 0.00283517 -1.10038e-05 3.9465e-06 1.54183e-05 -0.00680295 -0.0236994 -0.0793891 -0.0733007 -0.056833 0.0430792 -0.0222141 0.107273 0.153488 -0.110556 -0.0997064 -0.146024 -0.188906 -0.341987 -0.215095 -0.27274 -0.068613 -0.319415 -0.0343247 0.217198 0.0766606 0.0652923 0.0293596 0.0381655 0.000155086 -2.03147e-05 0 0 -0.00158932 -0.0360925 -0.0976014 -0.144787 -0.190275 -0.151871 0.0943952 0.0426783 -0.289846 -0.28086 -0.068531 -0.103468 -0.281441 -0.364534 -0.115316 -0.255938 -0.0237139 0.0627071 0.218344 0.261509 0.145051 0.0511767 0.00146496 0.00773495 -0.00084927 0 0 0 -0.000142264 -0.0453207 -0.113977 -0.213594 -0.259399 -0.269846 -0.0683185 -0.0907569 -0.161259 0.0649848 -0.103916 -0.173008 -0.298959 -0.254105 -0.1406 -0.187733 0.0620445 0.281442 0.217788 0.14754 0.0536964 0.0374249 0.00538924 0.0235894 0.000287707 0 0 0 8.16384e-05 -0.00216924 -0.0410636 -0.0702156 -0.0754187 -0.12654 -0.246208 -0.287817 -0.157577 -0.142837 -0.199786 -0.173753 -0.0699883 -0.145201 -0.0749246 0.0179032 -0.00273451 -0.0290677 0.00936615 -0.0130563 -0.0601534 -0.0320673 -0.029231 0.000236412 0.000297242 0 0 0 0 -6.42026e-05 -0.00118439 0.00650777 0.019006 0.0114741 -0.0193227 -0.0843897 -0.0842274 -0.134805 -0.0542138 -0.180722 -0.212942 -0.14459 -0.142144 -0.0613412 -0.117907 -0.126556 -0.0585131 -0.0159752 -0.0161623 0.000393264 -0.00049143 -2.01982e-05 0 0 0 0 0 0 -4.17778e-05 -0.000189141 -0.00121502 -0.00610756 -0.0073161 -0.00479408 -0.0130974 -0.00205039 -0.0050755 -0.0255196 -0.0237231 -0.00180677 -0.00846914 -0.0177844 -0.0203393 -0.0163333 -0.0131843 -0.0111857 -0.0105673 -0.00491886 0 0 0 0 ^0 0 0 0 0 0 0 0 0 0 0 0 0.00707369 0.0155293 4.48887e-05 1.87036e-06 0 0 0 0 0 0 0 0 0 0 0 0 0 0 0 0 -1.01098e-07 3.5722e-05 0.00809185 0.0170832 0.0208306 0.00664712 0.0105444 0.0146396 0.0306604 0.0181364 -0.0355382 -0.01431 0.00602969 0.00944849 0.00738501 0.017722 0.0113656 0.0161692 0.0400391 0.0308603 0 0 0 0 0 0 1.45047e-05 0.000259435 0.000132907 0.000239778 0.00831519 0.028599 0.0473919 0.0646195 0.109091 0.121478 0.152253 0.123882 0.0940488 0.0680102 0.0819892 0.0647804 0.0569361 0.0565999 0.0116922 0.00509429 0.0395113 0.0360649 0.00189749 0.000143189 0 0 0 0 -0.00117146 0.0025026 0.00899144 0.000522423 0.0214687 0.0599993 0.138906 0.167056 0.131257 0.123455 0.0539057 0.0564958 0.0433193 0.0708073 -0.0586744 -0.240581 -0.188618 -0.104603 -0.0951077 -0.0362107 -0.0639454 -0.034574 -0.0121683 -0.00269761 -0.000501401 0 0 -2.06761e-05 -0.00422718 -0.00414193 -0.0067008 0.00495075 0.0624377 0.0727939 -0.0324251 0.0589288 0.075649 -0.0906863 -0.0107608 -0.0755964 -0.169208 -0.243801 -0.0759778 -0.0933556 -0.12236 -0.211667 -0.222009 -0.291229 -0.268291 -0.205953 -0.158288 -0.0400024 -0.00214526 0.000173298 0 0 -0.000111809 -0.0208403 0.0224059 0.0018955 0.0162758 0.0257386 0.0957869 -0.00395044 0.0410964 0.110362 -0.0759594 -0.072464 -0.149484 0.0191732 0.0383653 -0.0541316 -0.0452269 -0.16232 -0.208818 -0.198895 -0.276917 -0.260592 -0.184923 -0.0588946 -0.0075299 0.000375932 0 -2.17393e-06 0.000138396 -0.0443088 0.0572551 -0.0332711 -0.0116834 0.0725298 -0.0774097 -0.0448998 0.0890475 0.181207 -0.00572332 -0.033264 0.068271 -0.128933 -0.360429 -0.364972 -0.184009 -0.19375 -0.258191 -0.192743 -0.358584 -0.336857 -0.195149 -0.0986036 -0.030123 -0.00441905 -3.80701e-08 -7.8678e-05 0.0121562 -0.00781625 0.110763 0.0204236 0.077566 0.108572 -0.00972038 -0.0240675 0.0957096 0.418613 0.384308 0.154951 -0.00331866 0.0922565 -0.311088 -0.70766 -0.557043 -0.364979 -0.257833 -0.246768 -0.421093 -0.347589 -0.181463 -0.102212 -0.024889 -0.00442875 0.00305662 0.0022805 -0.00547005 -0.00542969 0.0612362 0.10494 -0.0475566 -0.0904752 -0.255948 -0.123196 0.149048 0.172508 0.140989 -0.160204 -0.16974 -0.0858064 -0.349714 -0.426355 -0.591541 -0.176961 -0.0574928 -0.204305 -0.350685 -0.33954 -0.256326 -0.124016 -0.0488704 -0.0133825 -9.87045e-05 -0.0014672 -0.0184377 -0.0730335 0.0254767 0.124395 -0.112486 -0.180051 -0.182348 -0.147816 -0.0923492 0.130526 0.078762 -0.015564 -0.116726 -0.194358 -0.326995 -0.165563 -0.0522323 -0.150223 -0.0438428 -0.243581 -0.267987 -0.265895 -0.2256 -0.128498 -0.0572477 -0.000993788 -0.000122702 -0.00113515 -0.0185712 -0.120689 0.0302583 0.169171 -0.0933181 -0.139785 -0.0737093 -0.182632 -0.0589322 -0.0673205 -0.081932 -0.157572 -0.427034 -0.469187 -0.154882 0.061454 -0.0300047 -0.173265 -0.102361 -0.150698 -0.188572 -0.0331619 -0.0587151 -0.129648 -0.0540588 -0.0103515 -1.78361e-05 -0.000854903 -0.0135375 -0.084286 0.0453439 0.147549 -0.146549 -0.0985054 -0.185015 -0.193614 -0.352534 -0.234993 -0.411291 -0.632837 -0.503158 -0.399605 -0.0866551 0.0729414 0.208923 0.171849 -0.046172 -0.0129745 -0.0465843 0.153381 0.0818148 -0.0438573 -0.0511376 -0.00623521 -1.96296e-05 -0.00264508 -0.0118976 -0.0346 0.0470757 0.030511 -0.195052 -0.143971 -0.222965 -0.388032 -0.392088 -0.266052 -0.458365 -0.665738 -0.276703 -0.281757 -0.177484 0.150502 0.180004 0.0478153 -0.00909895 -0.0179258 -0.0195941 0.225633 0.237524 0.0410477 -0.0221713 0.000980463 7.05595e-06 -0.00378946 -0.00466481 -0.0095468 -0.0797377 -0.13007 -0.127665 -0.122923 -0.231769 -0.153095 -0.0234029 0.132141 -0.166629 -0.105935 -0.0349573 -0.0708137 -0.134 -0.029465 -0.0880531 0.112335 0.0129325 0.164047 -0.00628864 0.301063 0.226428 0.0706895 0.0285474 0.0213164 -1.54241e-05 -0.00303095 -0.00334697 -0.0027589 -0.17391 -0.217209 -0.0483582 0.00160295 -0.107374 -0.0506671 0.156464 0.0887629 -0.266109 -0.00829053 0.0986378 0.126047 0.0638284 -0.265752 0.0979178 -0.0786522 0.0616562 0.176651 0.0579464 0.163424 0.14122 0.0554389 0.0568454 0.00522119 -8.94751e-06 -0.00347398 -0.000307829 -0.00344607 -0.0960659 -0.112186 0.121146 0.0293044 -0.174402 -0.223616 -0.167653 -0.212306 -0.410973 -0.156431 0.174438 0.188934 0.0579925 -0.168703 0.047131 -0.0746531 0.0316865 0.0833984 -0.0903427 -0.107436 0.217591 0.287663 0.0740718 0.00778188 -2.22693e-05 -0.00162877 -0.00880483 0.00801902 -0.045868 0.00299751 0.27236 -0.0694126 -0.371829 -0.246477 -0.137072 -0.267649 -0.42193 -0.174803 0.163798 0.133496 0.2676 0.16281 0.119149 0.242423 -0.000382053 -0.113917 -0.158301 0.0152689 0.274016 0.332638 0.0644093 0.00557424 0 -0.000754293 -0.0105453 0.00495621 -0.0425409 -0.0152739 0.118191 -0.0855313 -0.257884 -0.276909 -0.0661406 -0.165374 -0.0305576 0.0681026 0.278105 0.423078 0.186688 0.0963299 -0.0815561 0.00310333 -0.02609 -0.14056 -0.133685 -0.0399484 0.161147 0.281582 0.0406015 0.00373791 -4.20245e-05 -0.000206662 -0.0199877 -0.0599365 -0.12491 -0.0771244 -0.156239 -0.0757634 0.0256208 -0.287892 -0.299485 -0.0772276 0.270953 0.0785652 0.355873 0.445308 0.24213 0.0943311 0.155636 0.0650891 -0.0916293 -0.0544235 0.0210057 0.274236 0.365195 0.302583 0.026583 0.00647155 -2.79358e-06 -0.000573248 -0.00522667 -0.131693 -0.141013 -0.231714 -0.135629 0.0671164 0.0409977 -0.36233 -0.484793 0.0711195 0.229551 0.292058 0.569581 0.500272 0.234214 0.25812 0.238799 0.150886 0.150858 0.0262277 0.0661567 0.292527 0.298925 0.220207 0.0556535 0.00320078 0 -0.00112914 0.021239 0.011104 0.0619163 -0.0369555 -0.167014 0.0181436 -0.0448536 -0.189683 -0.127516 0.145265 0.0885473 0.258688 0.493694 0.186103 0.0483012 0.212191 0.249987 0.274718 0.122073 -0.00404829 0.00926214 0.297645 0.217995 0.12583 0.0323954 -1.03703e-05 3.79277e-06 -0.000575584 0.0813633 0.0487236 0.0955203 0.0535131 -0.11983 -0.160307 -0.0714295 0.0475187 0.156282 0.059427 -0.0218289 0.0759749 0.244608 0.157877 0.00561516 0.0348034 0.0190383 -0.0376059 -0.0419581 0.0323833 0.167805 0.312216 0.140002 0.0631829 0.0122554 -4.17068e-06 3.67425e-06 1.461e-05 0.0870897 0.118654 0.228999 0.163257 0.111157 0.1298 0.18553 0.207059 0.161974 -0.226348 -0.0948235 -0.0240402 0.0612764 0.0699407 -0.0211752 -0.0435605 -0.0504254 -0.165132 0.0356254 0.10932 0.101105 0.102973 0.0444797 0.0195937 -0.00500949 -7.69971e-06 0 0 0.00485994 -0.0269825 -0.0245247 0.0629467 0.092376 0.0483933 0.0299582 0.0767745 -0.134523 -0.189912 -0.0974924 -0.110639 0.0354078 -0.0613613 -0.044088 -0.0352551 -0.0235901 -0.00993337 -0.0498124 -0.0183676 0.0220469 0.06162 0.0115276 0.0151381 -0.00337498 0 0 0 -0.00484772 -0.0608106 -0.121044 -0.191482 -0.218347 -0.242426 -0.154051 -0.185877 -0.318441 -0.381643 -0.418989 -0.282056 -0.225892 -0.200897 -0.142875 -0.177164 -0.144828 -0.139241 -0.118385 -0.0935531 -0.0446684 -0.0191654 0.0474427 0.0386046 0.00783226 0 0 0 0.00122558 -0.00397884 -0.0243964 -0.0576683 -0.0705444 -0.102892 -0.179292 -0.288937 -0.245032 -0.258974 -0.237714 -0.309633 -0.237066 -0.191258 -0.178842 -0.105898 -0.179553 -0.187188 -0.100916 -0.0841669 -0.0640075 -0.0315032 -0.00568394 0.00686998 0.00824655 0 0 0 0 -7.36924e-05 -0.000719104 0.00351231 -0.000595494 -0.0121419 -0.0320066 -0.0652999 -0.0297841 -0.0564084 -0.0502347 -0.0728176 -0.0615903 -0.0521391 -0.0498258 -0.026162 -0.0212117 -0.0161301 -0.00335171 0.00026158 -0.00481631 0.00193977 2.43743e-06 -1.37004e-05 0 0 0 0 0 0 -3.0537e-05 -0.000156269 -0.000221385 -0.00032171 -0.000401372 -0.000320367 -0.00719052 -0.00377912 -0.0014569 -0.00275369 -0.00353322 -0.00252165 -0.0032977 -0.00350387 -0.00328261 -0.00098029 0.000752958 -0.000311971 0.00273246 -0.000474268 0 0 0 0 ^0 0 0 0 0 0 0 0 0 0 0 0 0.00328129 0.00714991 -3.89351e-05 -1.62229e-06 0 0 0 0 0 0 0 0 0 0 0 0 0 0 0 0 1.61732e-05 6.25553e-05 0.00434764 0.00955356 0.0182783 0.0186087 0.0192716 0.0241405 0.0373279 0.0259063 0.00486503 0.0169213 -0.00520281 0.00770605 0.0163218 0.0168655 0.0150588 0.016875 0.0151919 0.00464422 0 0 0 0 0 0 9.27421e-06 0.000482916 0.000450306 -1.30286e-07 0.00257788 0.0171296 0.0301911 0.0154688 0.0428815 0.076942 0.0537722 0.0219096 -0.0259706 0.00676049 0.00350266 -0.00513366 0.035665 0.0542911 0.00908928 0.023403 0.0273732 0.0131312 -0.00808283 -0.00616898 0 0 0 0 -0.00116338 0.00421292 0.00380823 -0.00270072 0.00573536 0.0220752 0.0626036 0.0508423 0.0247438 -0.00681202 -0.110469 -0.0471775 -0.0212713 -0.0269411 -0.0596262 0.0370278 0.0518312 0.0976671 0.142911 0.0776389 -0.00875974 -0.0190248 -0.0296375 0.0274405 0.0119778 0 0 -2.12536e-06 -0.00408519 0.00342976 -0.000253979 -0.00797615 -0.00837775 -0.00433395 -0.0770658 -0.0114436 -0.0374691 -0.106243 -0.246008 -0.128713 -0.143674 -0.138856 -0.285636 -0.0814181 -0.0494671 0.125248 0.0951083 0.0447357 -0.0845596 0.00990921 0.00872527 -0.0101632 -0.0307681 -0.00271397 0 0 -0.00111839 0.00431265 -0.000136859 0.0250164 0.0276755 -0.0426621 -0.107205 -0.0274148 -0.0496962 -0.269598 -0.307478 -0.0947641 -0.0619056 0.0137845 0.0128489 0.0219282 -0.103651 -0.132501 -0.100839 -0.180272 -0.0974153 -0.0728894 -0.139446 -0.111347 0.00260585 0.0102251 0 -1.70642e-06 -0.0033093 0.0188213 0.0249163 0.137097 0.0960294 0.0204402 -0.0959421 -0.140424 -0.295766 -0.413595 -0.398021 -0.150742 -0.227027 -0.0458767 -0.00884597 -0.132151 -0.196755 -0.188168 -0.197691 0.000240524 0.123879 0.00826095 -0.0455969 -0.0490025 0.0580724 0.00746849 1.66967e-07 0.00276297 -0.00718432 0.0298177 0.0585518 0.163867 0.142945 0.0835588 -0.157478 -0.11772 -0.175194 -0.375198 -0.416265 -0.400618 -0.0147798 -0.230363 -0.411297 -0.185118 -0.214491 -0.369552 -0.313236 -0.102811 0.0527786 0.0485569 0.0984948 0.0325185 -0.0156232 -0.0033064 -0.00550342 0.00941026 0.00770507 0.0508717 0.0901379 0.147642 0.105361 0.0203826 -0.0356838 -0.0826782 -0.186156 -0.409427 -0.301663 -0.418424 -0.154397 -0.153231 -0.308936 -0.0403815 -0.0343504 -0.129148 0.0408393 0.0436859 0.0115165 0.100936 0.0765456 0.038325 -0.0584665 -0.00887219 3.33915e-05 0.0134903 0.0324456 0.0519072 0.124414 0.17577 0.112012 0.0852015 0.149065 -0.0027875 -0.157729 -0.0495168 -0.00908129 0.00854326 0.0305792 0.06506 0.262472 0.116244 0.103926 -0.024987 -0.204846 -0.101122 0.0234159 0.0234572 0.0890956 0.000531806 0.00240009 0.0215709 5.55175e-05 0.0124468 0.0436643 0.0462559 0.0651292 0.12772 0.128161 0.0323192 0.0215711 -0.0772731 -0.0854805 0.00393563 0.130643 0.43298 0.207316 0.384397 0.30298 0.227019 0.046835 0.151797 0.0726927 -0.0494464 0.089952 0.1219 0.180445 0.201313 0.0481536 -0.00116057 5.22424e-06 0.0114624 0.0560369 0.0745327 0.065749 -0.0267866 0.0994886 0.0113607 -0.19503 -0.0219021 0.0296667 0.0983783 0.255087 0.393697 0.332639 0.52682 0.319332 0.180718 0.228341 0.32958 0.0969003 0.23487 0.0664472 0.130641 0.0718103 0.0624163 0.0265698 -0.000883064 -9.20011e-06 0.00535048 0.0293254 0.0641163 0.0232808 -0.0690188 -0.0233133 0.0561791 0.00766769 -0.0326276 -0.017791 0.0390254 0.122363 0.0524409 0.164291 0.103256 0.203554 0.177392 0.269597 0.142984 0.0160105 -0.0693752 -0.0939947 -0.0824177 -0.0508587 -0.0361355 -0.0180493 -0.00295141 6.29144e-07 0.0056562 0.0248418 0.075315 -0.000454824 0.0334598 -0.0182963 -0.113238 -0.181485 -0.194775 0.0359856 -0.0298712 -0.058138 -0.051042 -0.0912608 -0.156313 -0.0100851 0.0605366 0.0437572 -0.109911 -0.0636514 0.0291451 -0.0105923 0.0160695 0.0241527 -0.0869114 -0.084237 -0.029272 0.000109566 0.00290857 0.0184667 0.0445992 -0.0398059 0.0663471 -0.0375402 -0.295537 -0.208024 -0.0207709 0.105242 -0.0663247 -0.0849924 -0.0807044 -0.0738792 -0.13054 -0.17449 -0.109019 -0.0112255 0.0268697 0.188813 0.039934 -0.0511777 0.010603 0.0504748 -0.0567777 -0.0751735 -0.00220383 3.61091e-05 2.86828e-05 0.00295798 -0.0331607 -0.0890794 0.0236756 -0.0212925 -0.109113 -0.136793 -0.0301246 -0.128382 -0.163735 -0.0176148 -0.295178 -0.299885 -0.182903 -0.320429 -0.0643211 0.0124097 0.0978777 0.129326 -0.0725003 -0.0118748 0.0360123 -0.0133925 -0.0956118 -0.0897971 -0.00831534 1.33416e-06 -5.71614e-05 -0.00627268 -0.068529 -0.0701895 -0.00349037 0.00876557 -0.125965 -0.0870738 -0.104222 -0.192691 -0.0620299 -0.130721 -0.277493 -0.261946 -0.208328 -0.144784 0.0779726 0.0807328 0.12597 0.0754142 -0.0821914 -0.0857051 -0.103132 -0.0590722 -0.113359 -0.0569635 -0.00846607 0 2.71797e-06 -0.0122258 -0.0289645 -0.0163359 0.059272 0.0897445 -0.203677 -0.244662 -0.0291033 0.167569 0.254002 0.042916 0.023756 -0.0845377 -0.157282 0.0705427 0.0860465 0.0819115 -0.0932887 0.00994374 -0.13318 -0.15792 -0.0869791 -0.00585169 -0.0845351 -0.0259993 -0.00336123 -0.00113718 -2.36839e-05 -0.00809629 -0.0131503 -0.0525561 -0.0297554 -0.106584 -0.0718576 0.0491156 0.179291 0.171082 0.0870361 0.163887 0.111259 0.0883398 0.0721518 0.0395508 0.166717 0.103929 -0.0766839 -0.10675 -0.0451788 -0.229998 -0.129431 -0.07533 -0.0793623 -0.00114036 0.00479846 1.50831e-06 0.00615324 -0.00157853 0.0217363 0.0092656 0.0207348 -0.193593 -0.158778 0.182259 0.311711 0.090206 0.164981 0.256277 0.523941 0.328624 0.197384 0.0732267 -0.0388271 0.113933 0.112825 0.106638 -0.0205663 -0.175616 -0.121433 -0.0418977 -0.0559563 -0.0187752 0.00188114 0 0.000842972 -0.00414538 -0.0168554 0.0088082 0.0702782 -0.0788192 -0.306867 -0.0484953 0.201451 0.132876 0.11817 0.32634 0.210438 0.228024 0.0603417 0.0514657 0.0557151 0.180318 0.0134846 -0.145789 -0.233062 -0.216592 -0.109074 -0.0575192 -0.0317012 -3.86523e-05 1.69794e-05 2.50619e-06 -8.42111e-05 -0.0121492 -0.0288766 -0.0591628 0.0313109 -0.0277165 -0.157061 -0.125204 -0.0232626 -0.109533 -0.0272615 0.0511674 0.00339967 -0.101722 0.0207755 -0.044887 -0.0436483 0.0197628 -0.144423 -0.256229 -0.128776 -0.121555 -0.151931 -0.0674921 -0.0238811 0.0115987 -1.22784e-07 2.42787e-06 3.88814e-06 -0.00763724 -0.0428569 -0.0744199 -0.0445057 -0.00362357 -0.114723 -0.179947 -0.0200005 -0.161726 -0.227659 -0.0382262 -0.0757719 -0.177003 -0.0644726 -0.112043 -0.145288 -0.091046 -0.0869905 -0.186509 -0.109676 -0.116028 -0.164843 -0.0472681 -0.0089151 0.00208251 -2.26679e-07 0 0 -0.0032015 -0.0221701 0.0175509 0.0432653 -0.0276864 -0.0866041 -0.163787 -0.0143348 -0.0570006 -0.0718022 -0.0113387 -0.249742 -0.155711 -0.238768 -0.288457 -0.104466 -0.0664998 -0.137083 -0.0608088 -0.0932193 -0.141843 -0.155832 -0.0476197 0.000935068 0.0034068 0 0 0 0.000862849 0.00770543 0.00797811 0.0226435 -0.120922 -0.20677 -0.186056 -0.134957 -0.214618 -0.248149 -0.153512 -0.021608 0.0480668 -0.0681618 -0.0285979 0.0965418 -0.0837452 -0.101002 -0.0509849 0.030929 -0.0230617 -0.082708 -0.0207154 -0.0021564 -0.000246894 0 0 0 -0.000169299 0.00517931 0.0107135 -0.0019734 -0.102018 -0.195982 -0.262911 -0.163384 -0.142208 -0.0515273 0.014831 0.0762524 -0.0465048 -0.0681645 0.0390612 -0.0628834 -0.181736 -0.180333 -0.108755 0.013382 0.0611526 -0.0161396 -0.00213691 -0.000304342 -0.000275092 0 0 0 0 -0.000141046 -0.0240335 -0.0290272 -0.0896994 -0.107803 -0.075776 -0.0724558 -0.171498 -0.0558124 -0.0273728 0.0742823 -0.123716 -0.106006 -0.0531034 -0.0656866 -0.117517 0.00319264 -0.0324889 -0.0116773 0.0247823 -0.00664487 -0.000302066 3.74439e-06 0 0 0 0 0 0 9.57278e-05 0.000204463 -0.00180747 -0.0113063 -0.0106902 -0.00604156 -0.00268539 -0.0240255 -0.0605285 0.00277948 -0.0458968 -0.0549406 -0.02221 -0.00351727 -0.0261077 -0.00709321 0.0161582 0.0435243 0.0409501 0.00753845 0 0 0 0 ^0 0 0 0 0 0 0 0 0 0 0 0 0.000207014 0.000472766 2.16738e-05 9.03073e-07 0 0 0 0 0 0 0 0 0 0 0 0 0 0 0 0 -3.00844e-06 -9.05381e-06 -2.16326e-06 -5.139e-05 -0.000795887 -0.000752445 -0.00040206 -0.000337339 -0.00034515 -0.000550752 0.0191558 0.0328863 0.00133052 -0.00136178 -0.000415578 -4.69999e-05 8.17373e-06 0.000214641 0.000335099 0.000103761 0 0 0 0 0 0 -1.37447e-06 -3.03757e-07 -4.91904e-05 -8.33191e-06 -3.36817e-05 -0.000311703 -0.00449198 -0.00278725 -0.00435738 -0.00590854 -0.00127956 0.00121841 0.0347113 0.0694779 0.0413081 0.000869839 -0.0150008 -0.00815409 -0.00565052 -0.00229413 -0.000760531 -0.00030426 -0.000218265 -5.83643e-05 0 0 0 0 0.000552356 0.000189538 0.00021252 0.000473441 0.000706451 0.000239203 -0.00807853 -0.0116177 -0.0336587 -0.0770508 -0.0446585 -0.030585 -0.0259488 0.0454507 0.0419914 -0.0239992 -0.0319806 -0.0172288 -0.0261027 0.00504547 0.0239041 0.00832126 0.00934466 -0.0160744 -0.00902329 0 0 -1.55988e-06 0.00189369 0.000250087 -0.000649457 -0.00263137 -0.00581834 -0.00744793 -0.0242561 -0.0450172 -0.0274579 -0.0713152 -0.0354659 0.0253579 -0.0294484 0.0236115 0.0303231 0.014764 -0.0123129 0.0558922 0.0319026 0.0307281 0.0313804 -0.00461608 -0.0349768 -0.0350523 -0.00578534 -0.00148652 0 0 0.000613636 0.000608924 -0.000515073 -0.00779109 -0.0194494 -0.0309712 -0.108867 -0.13943 -0.0860853 -0.0749683 -0.0567173 -0.0419347 -0.0125125 0.133295 0.0479028 -0.0129999 0.029847 0.0289802 -0.0565599 0.0162707 0.0111743 -0.0088911 -0.0135547 -0.0339416 -0.00727326 -0.0010019 0 -1.44959e-06 -0.00318525 -0.00262618 -0.0105907 -0.0314412 -0.0453581 -0.0787135 -0.144354 -0.129125 -0.0136578 0.00952832 -0.0375035 -0.0806316 0.00407158 -0.0556564 0.0300336 0.0279635 0.0727232 -0.0420782 -0.105218 -0.0780177 -0.0880359 -0.0550046 -0.0591539 -0.0219156 -0.000867442 0.00279173 2.9759e-06 9.68268e-05 -0.00285149 -0.000518755 -0.0122502 -0.0392522 -0.07334 -0.0810803 -0.143067 -0.0669731 0.0497735 0.0291284 0.00935138 -0.0653127 0.00333094 -0.0551385 0.0436416 0.0957659 0.0465574 -0.0197488 -0.0868981 -0.123372 -0.102027 -0.103454 -0.108413 -0.0443589 -0.00250423 -0.000583642 -9.3521e-05 0.00270828 -0.000504988 0.000369548 -0.00755267 -0.0234464 -0.0336174 -0.0326216 -0.0906532 -0.0813021 -0.0247103 -0.0443315 -0.0645235 -0.0299597 0.0492609 0.153385 0.0147758 0.128588 -0.0837625 -0.147478 -0.254134 -0.207097 -0.153315 -0.147484 -0.123043 -0.0477241 -0.00635291 -0.00117228 5.45838e-05 0.00309387 0.00622059 0.00449198 -0.0227695 -0.0275769 -0.0377059 -0.0168093 -0.0681809 -0.0918673 -0.0804576 -0.0414123 -0.13191 -0.0611184 0.173311 0.418285 0.205531 -0.0859133 -0.147096 -0.212082 -0.289695 -0.154583 -0.145436 -0.12334 -0.0934116 -0.0364205 -0.0038074 0.0031739 6.84848e-05 0.00366058 0.00734519 -0.00891265 -0.0227236 -0.0296727 -0.0517683 -0.0188844 -0.0200009 -0.0470354 -0.0375797 -0.0880675 -0.0888852 0.0903501 0.304168 0.532165 0.129534 -0.106959 -0.183747 -0.183323 -0.217245 -0.122373 -0.123477 -0.100239 -0.0535812 -0.0187557 -0.00445095 -0.00125988 2.08761e-05 0.00253622 0.00759857 -0.000481752 -0.00451457 -0.0140444 -0.0421272 -0.0137196 -0.00358699 -0.0234361 -0.0531879 -0.0981995 0.004035 0.170282 0.36341 0.376159 0.0848598 -0.154011 -0.196841 -0.163183 -0.104367 -0.0824751 -0.101436 -0.0688905 -0.0388858 -0.0199659 -0.0105371 -0.00246441 -1.97417e-05 0.000923448 0.00534142 0.011098 0.0102921 -0.00215505 -0.0362048 -0.00929672 -0.0184726 -0.0260631 -0.043312 -0.0695127 0.184938 0.171909 0.214604 0.153552 -0.028514 -0.167891 -0.149342 -0.128178 -0.0498271 -0.0319046 -0.0700199 -0.0544203 -0.0314761 -0.0145716 -0.0038051 -0.00227901 6.19758e-06 0.000593367 0.00384072 0.0128897 0.0133474 -0.0116104 -0.0497236 -0.0617987 -0.0223129 -0.0250916 -0.01367 -0.0314095 0.221631 0.0965322 0.145283 0.040221 -0.0434636 -0.0905744 -0.0993276 -0.0795486 -0.00907957 -0.0152524 -0.0724217 -0.0482632 -0.0271165 -0.00760555 -0.000404646 0.0027823 -1.15476e-05 0.000323954 0.00189654 0.011281 0.00405465 -0.027106 -0.0771781 -0.0958583 -0.0264683 0.0461477 0.0406396 -0.069325 0.0557817 0.0202258 0.0967364 -0.0428549 -0.0050366 -0.115133 -0.127863 -0.0836404 -0.0253598 -0.0100582 -0.0310639 -0.0333522 -0.00718011 -0.000103593 0.00828169 0.000850283 -3.77073e-06 -3.19536e-05 0.00220746 0.00326872 -0.00866907 -0.0475918 -0.0869652 -0.0539499 -0.00526723 0.0517584 0.0213015 0.0114426 0.00564754 0.0125031 -0.00748942 -0.140797 -0.0242654 -0.18184 -0.199206 -0.18491 -0.0944528 -0.0217449 -0.0354798 -0.0391734 -0.0177037 0.00206316 0.00466553 0.00329489 5.91518e-08 -2.27285e-05 0.000838695 -0.00034755 -0.0177917 -0.056467 -0.0752681 -0.027776 -0.0045329 0.0393571 -0.0151612 -0.0448148 -0.0754434 -0.0378223 0.0338002 -0.111271 -0.0509932 -0.22324 -0.188683 -0.185922 -0.0743499 -0.0384974 -0.0423344 -0.0455061 -0.0170768 0.00184019 0.0123229 0.00663851 0 5.79159e-05 -0.000587025 0.000863089 -0.0232707 -0.0694519 -0.0851948 -0.0617435 -0.0381322 -0.0633469 -0.0384487 -0.175844 -0.0510154 0.0805894 0.115719 -0.0482797 -0.166608 -0.250816 -0.120531 -0.0960915 -0.0363016 -0.00139979 -0.00336065 -0.0348183 -0.0109749 0.00525056 0.00870665 -0.000164262 -0.000140891 -2.69991e-05 -0.000758717 -0.000337083 -0.0152264 -0.0802961 -0.146692 -0.137536 -0.105525 -0.0771634 -0.177919 -0.190153 -0.0572902 0.0843577 0.0631409 -0.014765 -0.182734 -0.0977992 0.0135369 0.0131088 0.0519794 0.0404163 -0.016817 -0.00972244 -0.00844234 0.0143498 0.0117233 0.0081838 4.8313e-06 -3.34821e-05 -1.83106e-05 -0.00146101 0.000504356 -0.0682263 -0.0987675 -0.101542 -0.140373 -0.0962822 -0.198602 -0.119338 0.00746165 0.0860109 0.0191408 0.124314 0.0658481 -0.0218127 0.0242692 0.100827 0.0821941 0.0152742 -0.0259158 0.00557199 0.0183104 0.0149463 0.0117393 0.00400862 0 -0.00059081 -0.00321649 -0.00961987 -0.00251168 -0.0521485 -0.0351231 -0.0711659 -0.0913138 -0.124202 -0.109145 0.0343257 0.125978 0.00297863 0.180422 0.155665 0.190896 0.087659 0.0980856 0.113417 0.0190733 0.00794533 -0.0277308 -0.011189 0.00401374 0.00122272 0.00829545 1.85481e-06 1.26542e-05 -7.33882e-05 -0.00687609 -0.0140197 -0.011512 -0.0145984 -0.0310553 -0.107251 -0.108586 -0.0716238 0.0769967 0.0474507 0.073629 0.00134747 0.127804 0.0797499 0.0454708 -0.037106 0.122542 0.0631956 0.0328978 0.00635143 -0.0403067 -0.0129143 0.00720518 0.00636893 4.11884e-05 -4.15534e-06 1.22588e-05 -2.40966e-06 -0.00617501 -0.0101129 -0.00657079 0.0380129 -0.0513177 -0.128274 -0.129068 -0.085258 -0.00795186 -0.052708 0.0118065 0.00194893 0.0165325 -0.0879396 0.0247387 0.0795923 0.163737 0.114739 0.0366705 -0.00529656 -0.0381271 -0.0242329 0.000954984 0.00275692 0.00151253 -7.67139e-06 0 0 -0.00106716 -0.0121597 -0.0125278 0.0150121 -0.0396384 -0.165387 -0.204939 -0.113991 -0.051875 0.0135483 0.113516 0.0189255 -0.0634164 -0.051536 0.0501045 0.152854 0.0959478 0.0508247 -0.0297942 -0.0382966 -0.0186801 -0.021726 -0.0100217 0.00189723 0.00683509 0 0 0 -0.000563294 -0.00756683 -0.0131582 -0.0200404 -0.0572407 -0.13846 -0.166505 -0.127575 -0.0752358 -0.0764221 -0.115857 -0.0962436 -0.0503319 -0.0900546 -0.124002 -0.000398203 0.045083 0.0376006 -0.00585424 -0.0121973 -0.00452972 -0.00713429 -0.003134 0.000153049 0.00011874 0 0 0 -7.72031e-05 -0.000335211 -0.00370789 -0.0141719 -0.0310022 -0.0502813 -0.0644838 -0.0792261 -0.124158 -0.093478 -0.112194 -0.114588 -0.120621 -0.189739 -0.17117 -0.0491188 0.0226164 0.00495953 -0.00193581 -0.00210937 0.00621609 -8.08415e-05 -0.000448501 4.87288e-05 4.70273e-05 0 0 0 0 -6.41744e-05 -0.00173996 -0.00299062 -0.00493949 -0.00493966 0.000389482 -0.0058498 -0.012986 -0.00639826 -0.049081 -0.0614981 -0.0523058 -0.0450301 -0.0443623 -0.0336864 -0.00988839 0.00649025 -0.00278343 -0.00520811 0.000447967 -0.000131975 -1.07737e-05 -2.77065e-06 0 0 0 0 0 0 -1.62714e-05 -1.9069e-05 8.2804e-05 8.61553e-05 0.000351627 0.000558545 -0.00103792 -0.00104085 -0.00378519 -0.000900639 -0.00341176 -0.00389657 -0.0050988 -0.000438326 -0.00164313 0.000398816 0.00046052 0.00068211 0.000420192 0.000165182 0 0 0 0 ^0 0 0 0 0 0 0 0 0 0 0 0 -0.00244408 -0.00528967 6.90238e-05 2.87599e-06 0 0 0 0 0 0 0 0 0 0 0 0 0 0 0 0 -1.9356e-05 -6.0789e-05 -0.00113976 -0.00240194 -0.00453099 -0.00380444 -0.00630457 -0.00950291 -0.0152213 -0.0158497 -0.00600453 -0.00586599 0.0078576 2.98108e-05 -0.00423353 -0.00850218 -0.0126864 -0.00417812 -0.00071924 -0.000178699 0 0 0 0 0 0 -7.26944e-06 -6.00998e-05 -0.000263918 -9.15763e-05 -0.00131986 -0.0077292 -0.0152204 -0.0206462 -0.000442017 -0.0329158 -0.0428379 -0.0441193 -0.0469914 -0.0717601 -0.0381284 -0.084312 -0.0979918 -0.0823254 -0.0450602 -0.0249471 -0.0117732 -0.00471252 0.00552187 0.00476093 0 0 0 0 0.00189778 -5.29171e-06 -0.00115169 0.014447 0.0173641 0.0327 0.0283944 0.0890325 0.178851 0.292768 0.420648 0.309453 0.139663 0.0684522 0.0157048 -0.0877734 -0.18725 -0.230097 -0.140114 -0.104288 -0.0540668 -0.039585 -0.0120958 0.00221082 -0.000640562 0 0 5.092e-06 0.00667317 0.00389028 0.017736 0.0691337 0.141682 0.136349 0.254078 0.148548 0.190657 0.314436 0.39784 0.370544 0.219622 0.210911 0.164032 -0.103604 -0.0286055 -0.164395 -0.207365 -0.161678 -0.112437 -0.0810551 -0.0206665 -0.00476255 0.00119702 -0.000185997 0 0 0.00160283 0.0292089 0.136559 0.213751 0.326443 0.328627 0.232965 0.175848 0.247292 0.323594 0.236069 0.0822218 0.0511582 0.102702 -0.0205743 -0.106033 -0.12006 -0.155372 -0.204164 -0.284558 -0.253135 -0.177844 -0.0419213 -0.0130197 -0.0010211 -0.00149147 0 1.09833e-05 0.0067522 0.0844857 0.159746 0.156733 0.299812 0.230329 0.174428 0.204779 0.235153 0.32554 0.0747356 -0.151433 -0.262018 -0.460214 -0.307955 -0.104783 0.0475601 -0.136785 -0.159355 -0.275429 -0.382331 -0.269452 -0.0833548 -0.0242607 -0.00190394 -0.000426062 1.19013e-06 0.00071697 0.0102587 0.0703095 0.197498 0.127986 0.17048 0.103839 0.0145904 0.0179193 0.039907 -0.0887954 -0.151679 -0.172076 -0.217235 -0.372654 -0.313229 -0.162132 -0.0639401 -0.0643146 -0.1928 -0.311227 -0.388177 -0.293934 -0.126395 -0.0212612 0.00384958 0.00235425 -0.00042239 -0.00524646 0.00907579 0.0847876 0.272644 0.14553 0.00380299 -0.00805205 -0.236102 -0.310138 -0.160756 -0.510006 -0.197805 0.102956 0.0890139 0.0436222 0.0236403 -0.0213752 -0.0127557 -0.114826 -0.239896 -0.337545 -0.386704 -0.393059 -0.14871 -0.0247624 0.00683967 0.000910814 8.94296e-05 -0.00521447 0.00313562 0.1129 0.17097 0.0512306 -0.215562 -0.369566 -0.661995 -0.678005 -0.535418 -0.525989 -0.0693763 0.241536 0.428563 0.427444 0.201613 0.130463 -0.118504 -0.204239 -0.284651 -0.421809 -0.41536 -0.397918 -0.127678 -0.0124951 -0.0036044 0.00112456 0.000110414 -0.00584306 0.00570957 0.0573788 -0.030035 -0.143651 -0.427655 -0.639385 -0.864092 -0.547236 -0.0314504 0.0802623 0.0481467 0.410993 0.428478 0.163019 0.250355 0.0956466 -0.174527 -0.288936 -0.223851 -0.217154 -0.261091 -0.237402 -0.121853 -0.0227314 -0.00119239 0.000601794 1.79685e-05 -0.00170498 0.00378836 0.0246944 -0.0881567 -0.212577 -0.442632 -0.481295 -0.218491 0.0987926 0.283713 0.606791 0.433566 0.291468 0.217649 0.0977611 -0.158261 0.00271668 -0.258407 -0.224698 -0.109982 -0.155663 -0.119961 -0.130398 -0.0381028 0.0294772 0.00359962 -1.3901e-05 -3.68741e-05 -0.0012868 0.000480347 0.0101732 -0.070906 -0.1051 -0.256887 -0.174691 0.120084 0.550463 0.425858 0.325472 0.0755152 0.12936 0.247027 -0.0629675 -0.0374833 -0.0820999 -0.225394 -0.265082 -0.235405 -0.195547 -0.174669 -0.116033 0.012748 0.0363832 0.00798794 -3.06678e-05 -2.58782e-06 -0.00406582 -0.00039649 -0.00243232 -0.013492 -0.0477485 -0.0334433 0.0929046 0.10914 0.074253 -0.117177 -0.127326 -0.0343982 0.189723 0.299175 0.0482778 0.136919 -0.119299 -0.109162 -0.160592 -0.167789 -0.168286 -0.223001 -0.0811665 0.0199504 0.0483691 0.0244402 0.00212309 -0.000501815 -0.00122458 -0.0032113 -0.00225335 -0.0115001 -0.0209462 0.0128707 0.0571482 -0.0677869 -0.182134 -0.379164 -0.291217 -0.1121 -0.073524 -0.0513224 -0.0580187 -0.131067 -0.253071 -0.169629 -0.0290092 -0.139885 -0.00979818 -0.134729 -0.0133882 0.0264079 0.0741847 0.0428552 -0.00138657 -0.000161108 0.000538999 -0.00104371 0.00275434 -0.0252773 -0.0810386 0.0321669 0.018851 -0.0115062 -0.0303186 -0.105148 -0.218966 -0.274951 -0.0358257 0.00201671 0.0258563 0.0587874 0.0454663 -0.0202137 0.165759 0.104603 0.00270737 -0.0105995 0.0509131 0.109321 0.108518 0.0573632 0.00445142 1.83054e-05 0.000392517 0.00968056 0.0144427 -0.0590198 -0.11139 -0.0189185 0.0736517 -0.00530613 0.0286392 -0.0550028 -0.130822 -0.26643 -0.204697 -0.0769084 -0.217649 0.0983461 -0.0490932 0.20469 0.243174 0.172756 0.125773 0.124018 0.0899379 0.147125 0.141241 0.0636754 0.0121126 0 0.000305416 0.0126619 0.0307655 -0.0523756 -0.136454 -0.0739249 -0.0794188 -0.0474823 -0.111474 -0.274352 -0.287548 -0.334283 -0.24273 -0.14866 -0.189897 -0.0252821 -0.0312091 -0.0230447 0.226921 0.154894 0.170226 0.0795056 0.131784 0.0819435 0.128637 0.0520346 0.0082074 0.000216178 6.54946e-05 0.0110296 0.0886825 0.0483855 0.0142495 -0.0188279 -0.193119 -0.0481367 -0.0619848 -0.136884 -0.00651012 -0.170961 -0.062075 -0.0837509 0.0192902 0.178815 0.0222198 0.0128751 0.162874 0.186464 0.214438 0.16346 0.161598 0.13665 0.108899 0.0163948 0.00646836 2.90073e-06 0.000759175 -0.0028637 0.0990824 0.00664418 0.0608024 -0.142473 -0.12184 -0.164223 -0.0283826 -0.00313064 -0.0216388 0.0163763 -0.00096088 -0.0658325 -0.0617189 0.0629211 0.00418242 0.109702 0.110896 0.0545506 0.0947189 0.0715843 0.116566 0.0826222 0.0855287 0.020952 0.00175156 0 -0.000638728 0.00307077 0.0672614 -0.00197329 -0.024488 -0.0982569 -0.0498517 -0.0314985 0.0897218 0.120821 0.0142832 -0.0918748 -0.0103503 -0.0759208 -0.0764826 0.0302115 -0.0613381 0.017744 -0.0544322 0.0128285 0.0112672 -0.00850212 -0.0334686 0.00457939 0.0234853 0.00382161 -2.29809e-05 3.95622e-06 0.000289214 0.0158123 0.00696781 -0.0181072 -0.0550925 -0.0952229 -0.107158 -0.107403 -0.0708294 -0.175048 -0.107962 -0.0348102 0.0163901 -0.0794349 2.17233e-05 0.0741675 -0.0653618 -0.145175 0.0362186 -0.183302 -0.28157 -0.140266 -0.0856194 -0.0114544 0.00759755 0.000303314 -4.93576e-06 3.83259e-06 -3.59903e-06 0.0135377 0.0198447 -0.0053316 -0.0564957 -0.0246855 -0.0779132 -0.0514407 -0.0662371 -0.0959358 -0.104527 -0.151132 -0.170335 -0.187773 -0.0657372 -0.253781 -0.137465 -0.0571698 -0.0218249 -0.0408471 -0.12315 -0.0831539 0.00429999 -0.00260698 -0.00344387 -0.000519128 -9.11217e-06 0 0 0.00498203 0.0315852 0.0507583 -0.0139691 -0.0274287 0.0251001 -0.0236779 -0.0329701 -0.0741638 0.00683161 -0.023351 0.0344896 -0.131707 -0.0485309 -0.118258 -0.043005 -0.122925 -0.162489 -0.0674831 -0.0722748 -0.115329 -0.0203402 0.00402307 -0.00198101 0.00024584 0 0 0 0.00315429 0.0133457 0.0498627 0.0658574 0.0633072 0.123889 0.014995 -0.0840852 -0.0562547 0.0419128 -0.0218461 -0.0100674 -0.0353592 -0.00901785 0.0628838 0.0239285 -0.143469 -0.132168 -0.0542631 -0.0396364 -0.0495534 -0.0163326 -0.00491096 -0.00182007 6.19108e-06 0 0 0 0.000322872 -0.00300145 0.0135849 0.0399874 0.0828779 0.119125 0.11103 0.0700117 0.12591 0.0672387 0.120606 0.0732952 0.0687203 0.149703 0.251587 0.17021 0.0596154 0.0854952 0.0727599 0.0180433 -0.0227217 -0.00587701 0.00182228 4.52019e-05 5.01676e-07 0 0 0 0 0.000114086 0.004054 0.00853372 0.0148558 0.0262924 0.0472965 0.0707235 0.0865346 0.0935171 0.152246 0.136325 0.173617 0.190013 0.161967 0.155358 0.0921755 0.0363452 0.0258722 0.00735382 -0.00365305 0.00143686 0.000188002 -4.0105e-06 0 0 0 0 0 0 1.22033e-05 0.000122653 0.00230388 0.0118668 0.0117782 0.00501889 0.00993446 0.0067948 0.0166334 0.0153758 0.0448387 0.0187476 0.011948 0.00684811 0.00826799 0.00243965 0.00100247 0.000752473 0.000961458 0.000154071 0 0 0 0 ^0 0 0 0 0 0 0 0 0 0 0 0 -0.00682327 -0.0148779 6.9795e-05 2.90812e-06 0 0 0 0 0 0 0 0 0 0 0 0 0 0 0 0 -2.13189e-05 -8.30524e-05 -0.00896513 -0.0173997 -0.017377 -0.0145494 