-0.0410588 0.00655194 -0.00169951 0.00900311 0.00717479 -0.0395982 -0.00276735 -0.0597237 0.0198847 -0.00155118 -0.00913097 -0.0113731 0.0374084 -0.0522528 0.0125724 -0.0307809 0.0432642 0.0173635 -0.00548221 -0.0586546 -0.0452219 -0.0168675 -0.0391755 -0.00804377 -0.00424064 0.0211584 -0.00697549 -0.0222191 -0.0210377 -0.0142375 -0.00830624 0.0526247 -0.0231756 -0.0731103 -0.0417112 0.0226163 0.0243414 0.0123942 0.0450158 -0.0501905 -0.0706251 -0.165004 0.00156789 0.0044676 -0.00544785 0.062419 0.0107306 0.022907 0.0510523 0.00479925 0.0428993 0.0377628 -0.0164062 0.0273538 0.0408269 0.105854 -0.00691521 -0.0318982 0.0359058 -0.0169976 0.0506352 -0.0139108 0.0938299 0.148974 0.181463 0.24768 0.146445 0.242473 0.22522 0.230731 0.224936 0.379106 0.284569 0.528623 0.433943 0.297062 0.223883 0.100965 0.016255 -0.0440039 0.00991836 -0.0709954 -0.00566364 0.0358477 0.0493824 -0.00522863 -0.0434781 -0.0803116 0.0895623 0.182851 0.267835 0.292021 0.326586 0.558271 0.635934 0.508166 0.596358 0.20063 0.0661816 0.397276 -0.259687 -0.0932079 0.389483 0.122 0.15746 0.544826 0.319131 0.217847 0.104424 0.0856822 0.0388458 0.024015 -0.0590946 -0.0210357 0.0248052 -0.0212513 0.0393595 0.208107 0.214401 0.387436 0.302845 0.0091888 0.152442 0.132937 0.39429 -0.355781 0.0653447 -0.0740279 0.196556 -0.109449 0.179045 -0.183899 -0.188088 0.291395 -0.242312 -0.00326246 0.545256 0.302721 0.0444904 0.0590653 0.076509 0.0468775 0.0448582 -0.0314637 0.151197 0.305461 0.295985 0.50064 0.234224 0.106455 -0.324544 0.285089 0.0961719 -0.394528 -0.0656259 -0.0749927 -0.258668 -0.148163 -0.245846 -0.274038 -0.0758255 0.429511 -0.0781927 0.398465 0.700225 0.409564 0.0361749 0.0356634 0.0430642 0.0419964 0.0402723 -0.0152883 0.163224 0.142274 0.185203 0.390516 0.294878 0.60366 -0.201461 0.212939 0.562259 0.0155026 0.00317524 -0.319587 -0.00312246 -0.124343 -0.0457243 -0.13887 0.519912 -0.419693 -0.202371 0.18731 0.818899 0.803751 0.402425 0.141456 -0.0191632 0.0461701 0.00133122 -0.0596408 0.170968 0.144402 0.0929379 -0.238984 0.759599 0.139581 -0.180757 -0.296831 0.0850198 -0.376049 0.177975 0.330403 -0.0748186 -0.568691 -0.785763 -0.572574 -0.0259188 0.127204 0.31495 0.0380188 0.810846 0.791284 0.341693 0.0582305 0.0624937 -0.0285066 -0.12845 -0.0581822 0.309852 0.0912141 -0.247478 -0.358293 -0.553905 0.131027 -0.104909 0.118639 -0.652831 0.653571 0.0258101 -0.288588 -0.686934 -0.0856244 -0.348505 0.400817 -0.363744 0.00374041 0.312917 -0.523377 0.916848 1.23024 0.276534 0.0332606 0.0347684 -0.0577394 -0.0619876 -0.0974796 0.112466 -0.188463 -0.087915 0.0700947 -0.0771274 0.0439324 -0.105556 0.454188 0.077513 -0.156293 0.0188682 0.249017 -0.310098 -0.281981 -0.159543 -0.560943 -0.0422904 0.114641 0.348127 -0.643325 0.488915 1.12404 0.353858 0.0558946 -0.0282642 -0.0465651 -0.00738079 0.131086 0.0977444 -0.172791 0.635457 0.144089 0.108187 0.16075 0.077947 -0.238753 0.126005 -0.0292404 0.386443 0.0535229 -0.208099 -0.183974 -0.108903 0.347392 -0.0520698 -0.218736 -0.464226 -0.445807 0.15524 0.943325 0.392628 -0.00931741 -0.0200218 -0.0384562 -0.0781375 0.0709723 0.37815 0.0145354 -0.0714312 0.0693731 0.268004 0.296907 -0.129979 0.125948 0.0797085 -0.185619 0.639587 0.500117 0.575942 0.123162 0.499797 0.206535 -0.280781 -0.13984 -0.411531 0.0906117 -0.308501 0.637101 0.201464 -0.0228349 -0.0667133 -0.0227226 -0.051139 0.182908 0.196126 0.0480031 -0.419804 -0.0870561 -0.0147668 0.373144 0.0384726 0.296326 -0.615768 -0.204802 0.56767 1.35534 0.74921 0.254484 -0.310718 -0.141585 -0.143072 0.458707 -0.109218 -0.12353 -0.595609 0.118545 0.0582308 -0.068575 0.0134014 0.00854004 -0.0847944 0.232543 0.0338567 0.347702 -0.402699 0.0945929 -0.136365 -0.290926 -0.573013 0.437957 -0.428637 0.41573 0.490633 1.46948 0.591838 -0.0130349 -0.0353975 0.0492471 0.514384 0.183883 -0.149007 -0.117393 -0.134712 0.0891753 -0.0111561 0.0206548 0.00758772 -0.0564885 -0.117946 0.202048 -0.0530868 -0.451459 -0.107632 -0.772572 -0.122974 0.0548022 0.0752911 0.307685 -0.941192 0.135703 1.42137 0.587494 0.770325 0.17088 0.699155 0.282361 0.00129713 -0.350479 0.371116 -0.510428 -0.159818 0.0725936 0.0522354 -0.0651657 0.0379017 0.0249633 -0.0173377 0.414776 -0.0973014 -0.503914 0.0961874 -0.675317 -0.0886544 -0.561477 -0.509492 0.247222 -0.422657 1.73703 1.42887 0.380579 0.106978 0.0113883 0.134201 -0.0649924 -0.238281 -0.0898071 -0.382852 -0.766402 -0.023361 0.0298399 0.0801871 -0.00721847 -0.0492486 0.0733316 0.0509015 0.384526 -0.259124 -0.438171 -0.321493 -0.0964287 -0.105857 -0.34229 -0.347599 -0.380449 0.561357 2.14614 0.862518 0.114954 0.188129 -0.430504 0.243829 0.337811 -0.281788 -0.0360221 0.385918 0.472873 0.213568 0.22086 0.0340054 0.0656658 0.0619486 -0.0554208 0.154085 0.346131 -0.20239 -0.341593 -0.464743 -0.0903165 -0.0640322 -0.3331 -0.919063 -0.14459 1.07126 0.886095 0.267479 0.256282 0.551903 0.399216 0.438576 0.101767 -0.0841459 0.0863641 -0.191785 0.0552244 -0.0339624 -0.0467062 -0.0113309 -0.00992541 -0.0231498 0.0400584 0.0950362 0.434152 0.0438496 0.251044 -0.0515699 0.110399 -0.374183 -0.541188 -0.369079 -0.0600172 0.968547 1.29414 0.108223 -0.365267 -0.258308 0.0302437 -0.277565 0.24352 0.52709 0.233043 -0.255712 0.086767 0.210483 -0.054353 0.0360988 0.00719244 0.0615581 -0.0962135 0.000281057 0.262856 -0.267163 0.365803 -0.271153 -0.390031 -0.487265 -0.242521 -0.0613397 0.0195 -0.0795275 0.819065 0.291302 0.420493 0.0924561 0.384537 -0.12845 0.167105 -0.103244 0.0800399 -0.534475 0.261986 -0.0231153 0.0694118 0.0645353 -0.0301518 -0.00258934 -0.125408 -0.0390215 0.336292 -0.235204 -0.375443 -0.14934 -0.187092 -0.309039 -0.185242 -0.570247 -0.451846 -0.403599 -0.0946052 0.803804 0.448171 0.322114 -0.0681079 0.129286 -0.00192686 0.537537 -0.105109 0.36121 0.534472 0.187903 0.0967375 -0.00856728 -0.0114373 0.0309195 -0.0653919 0.147994 0.137088 0.0723165 -0.15518 -0.19762 -0.00774768 0.436172 0.129606 -0.221448 -0.387117 -0.147625 -0.208338 0.406352 0.215659 0.12876 0.763531 0.60054 0.219724 0.146212 0.00193302 0.177985 0.410676 -0.116352 -0.0517659 -0.0367612 0.0157285 0.0353524 -0.044178 0.0182395 0.206779 0.531064 -0.116203 -0.0688907 -0.455534 -0.628822 -0.0747556 0.0449291 -0.302008 0.0854294 -0.574408 0.159608 -0.162401 0.19347 0.28862 0.279881 -0.357451 0.170321 0.207486 0.29676 0.181047 0.13116 -0.00920385 -0.0131105 0.0210168 -0.0795928 -0.0219928 0.0555533 0.0690033 0.403369 0.255601 -0.435936 -0.132646 0.00641647 -0.145396 -0.243432 -0.412628 0.00923996 0.461178 -0.144747 0.00770571 0.535015 -0.12987 0.339935 0.620075 1.02694 0.550923 0.29163 0.160936 0.141025 0.0279404 0.00510151 0.0182608 0.0345937 -0.0348155 0.0700129 0.0417826 -0.0273052 -0.03811 0.0416543 0.132099 0.162808 -0.0804437 -0.180588 0.432577 -0.177474 -0.301995 -0.30157 -0.17591 0.233756 0.0753172 0.272203 0.559082 0.886364 0.666239 0.31581 0.306044 0.0432479 0.0326456 -0.0124735 -0.0188923 -0.00567538 0.00722401 0.0148795 -0.0122555 -0.0743419 0.124262 0.343706 0.218646 0.203901 0.416759 0.932123 0.384258 0.618483 0.91588 0.92048 0.794443 0.581148 0.703456 0.545838 0.222084 0.4363 0.379976 0.121312 0.147111 -0.00667889 -0.00785683 0.0986384 -0.0181316 -0.00547543 0.0330817 -0.035763 0.0227485 -0.0247711 0.179307 0.254318 0.196981 0.072911 0.478171 0.644631 0.24217 0.159638 0.281529 0.217044 0.303249 -0.0545525 -0.0100438 -0.236527 -0.293598 0.148595 0.139492 0.0567182 -0.0182257 -0.0188694 -0.0122453 0.030316 0.046742 0.015826 -0.0135607 -0.0179444 -0.0402714 0.0253509 0.0322471 0.02482 0.0196596 -0.0831709 -0.042848 -0.081094 0.010789 0.0732087 -0.153331 -0.106915 0.0306343 -0.067008 -0.0687698 -0.0971894 -0.0662665 0.00299001 0.0196877 0.0783625 0.0477084 -0.0266418 -0.0189972 -0.0280512 0.00220379 ^0 0 0 0 0 0 0 0 0 0 0 0 -0.0178913 -0.0389543 0.000246383 1.0266e-05 0 0 0 0 0 0 0 0 0 0 0 0 0 0 0 0 -1.0128e-05 -2.08161e-05 0.000542562 -0.000174891 -0.00607511 -0.0035684 -0.00882923 -0.0191866 -0.0453887 -0.0347059 -0.00392822 0.00231523 -0.0104896 -0.0269279 -0.00431352 -0.00233773 -0.00546179 -0.010683 -0.00126667 2.93218e-05 0 0 0 0 0 0 -3.08443e-05 5.11586e-06 -0.000198443 2.35833e-05 -0.00259321 -0.00979624 -0.0229046 0.00379914 0.0547179 0.109683 0.119234 0.136624 0.0743017 0.13149 0.112472 -0.00376726 0.0194346 -0.0132997 0.00214603 -0.0499054 -0.0729969 -0.0368445 -0.00916698 0.00138985 0 0 0 0 0.01254 0.00287248 -0.00735256 -0.00631138 -0.00962451 -0.00214449 0.00815734 0.0707844 0.0841433 0.153258 0.313021 0.310174 0.223211 0.291385 0.395506 0.319174 0.0483861 -0.0139121 -0.0500373 -0.203548 -0.221362 -0.183249 -0.0890794 -0.0122931 -0.00782636 0 0 -1.24905e-05 0.0432594 0.0131803 0.006691 0.0223985 0.0467233 0.0887838 0.153265 0.0743627 0.0962772 0.164536 0.123524 0.118213 0.0174981 0.0525436 0.338786 0.0685647 0.137422 0.0701206 0.0776609 -0.129269 -0.205145 -0.264355 -0.156492 -0.0585071 -0.00759319 -0.00683615 0 0 0.00694401 0.00698301 0.00647273 0.0675483 0.0869295 0.0982834 0.0118472 -0.0433899 0.0357845 -0.106071 -0.0322174 -0.00914207 -0.10227 -0.113318 0.157669 -0.0990381 -0.0188723 0.176573 0.0435653 -0.0799894 0.0664463 -0.0700787 -0.131947 -0.121956 -0.0304648 -0.0100248 0 7.66108e-05 0.00167302 0.0144509 0.0173967 0.0568502 0.0612776 0.0917176 0.0373831 0.038056 -0.0838488 -0.133337 -0.122061 0.0403323 0.155898 0.185331 0.0187919 -0.0909491 0.026762 0.154859 0.0485289 -0.225598 -0.02602 -0.114625 -0.180504 -0.130391 -0.030414 -0.0194561 4.35064e-06 0.0200739 0.00614989 0.0234159 -0.00973842 -0.101999 0.0658052 0.21344 0.125789 0.111999 0.0187568 0.108395 0.205495 0.187987 0.437911 0.232403 0.210912 0.170474 -0.0714957 0.268636 0.0308642 0.00477823 0.117141 -0.183086 -0.322727 -0.115465 -0.0266196 -0.0128119 1.57209e-05 0.00109395 0.00140021 0.0307649 -0.04693 -0.0586097 -0.049359 0.180054 0.213183 0.21453 0.423292 0.513031 0.308281 0.0131093 0.132493 0.291187 0.0362573 0.165665 0.0101813 -0.00300778 0.0632987 0.00752244 0.050004 -0.428452 -0.466781 -0.175184 -0.00438725 7.53801e-05 1.64411e-06 0.000928264 0.0176205 0.0145576 -0.0227207 -0.164142 0.0108683 0.106659 0.318675 0.406009 0.276775 0.116495 -0.0786819 -0.842552 -0.587259 0.0633431 0.164223 0.071411 0.126172 0.13838 -0.144516 -0.023031 -0.00969525 -0.321856 -0.307099 -0.0597704 0.0154715 0.0012854 4.47997e-07 0.000723051 -0.0403115 -0.0767931 -0.107393 -0.151598 -0.238057 -0.405572 -0.346561 -0.49747 -0.889785 -1.37566 -1.64376 -1.59119 -1.0918 -0.287356 0.158443 0.194724 -0.00183114 -0.0661959 -0.168422 0.0263119 -0.089115 -0.208012 -0.134001 0.0390073 -0.00731396 0.00256393 -6.3222e-06 -0.000142008 -0.110924 -0.159674 -0.255952 -0.500951 -0.59996 -0.989896 -1.14287 -1.47094 -1.43803 -1.21976 -0.724226 -0.135837 -0.0606859 0.273961 0.170104 0.184453 -0.0837984 -0.0107082 -0.0325261 -0.0474479 -0.108355 -0.068035 0.0024636 0.00601134 -0.0312213 0.000372935 2.16667e-06 -0.0068535 -0.0928339 -0.250763 -0.453206 -0.697245 -0.784943 -0.90345 -1.01675 -0.92471 -0.230796 -0.0535685 0.350544 0.349117 0.233474 0.400389 0.40592 0.0655514 0.0391313 -0.170735 -0.0717324 -0.142324 -0.125272 -0.109092 0.0155115 0.0523636 0.0144476 0.000359851 1.80609e-05 -0.0142647 -0.0116514 -0.16823 -0.433203 -0.609016 -0.625042 -0.497235 -0.305427 -0.12829 0.222168 0.173402 0.138642 0.0626198 0.0928243 0.0838398 0.129727 -0.0177855 0.00671932 -0.315537 -0.307443 0.0265559 -0.10198 -0.0961684 0.0087453 0.0739876 0.0167614 0.000454484 -0.000271498 -0.00406289 -0.00905095 -0.0731044 -0.120771 -0.122586 0.031976 0.279405 0.306303 0.219961 0.138858 0.079525 0.0119073 -0.0212009 0.298333 0.14426 0.0362598 0.158643 0.0999422 0.000931151 0.0152335 0.282815 -0.0120973 -0.0232979 0.0491498 0.0642158 0.0471474 0.00021684 -8.90184e-05 0.00583654 0.00615805 0.0277923 0.159788 0.28344 0.283541 0.39405 0.263831 -0.0105274 -0.0542367 0.058635 -0.119339 -0.104855 -0.119191 0.05361 -0.0293827 -0.00696777 0.038837 0.0256166 -0.212731 0.19941 -0.03118 0.0495888 0.0852996 0.0467928 -0.00774712 0.00373343 -6.89519e-07 0.00341611 0.0329663 0.122771 0.189192 0.24164 0.128174 0.0746349 -0.0718644 0.0311968 -0.134461 -0.000990565 0.220391 0.0181228 0.0736258 0.0328353 -0.0895987 0.123191 0.165211 0.357239 0.0330868 0.0191984 -0.150097 0.0882494 0.0894 0.0199355 -0.0127571 0.00874091 0 0.00122145 0.0365318 0.0834144 0.170098 0.0964901 0.0351704 -0.177387 -0.286371 -0.20123 -0.18411 0.053769 -0.00681896 0.0557024 0.213269 0.0751587 -0.101166 0.0644896 0.334496 0.169839 -0.167473 -0.105131 -0.125238 -0.00365059 0.0274166 0.0289035 0.000129269 0.00243037 0.000284169 1.98314e-06 0.020448 0.122265 0.0756977 0.107116 0.0706524 -0.0350817 -0.0386047 -0.0425162 -0.0559519 -0.0297781 -0.1772 0.00834995 0.0396823 -0.0375319 0.0725616 0.325889 0.166231 0.170803 -0.0910607 0.053011 -0.0251773 0.00845469 0.0154745 0.0619951 0.0148799 0.00894248 3.29699e-06 -0.00212193 -0.0115842 0.0869894 0.030501 -0.114616 -0.104661 -0.0196551 -0.295089 0.0800649 0.095049 -0.153565 -0.303224 0.0493474 -0.143728 -0.0645508 0.180323 0.238711 -0.149232 0.00530476 0.279221 0.216626 0.0401919 0.117427 0.102584 0.0643881 0.0156665 0.00446518 0 -0.00517361 0.000875797 0.160788 0.214603 -0.116472 -0.0600207 -0.0893966 0.0135287 0.0857188 0.0378451 0.0779983 -0.213817 -0.161214 0.161507 -0.146183 -0.0770185 -0.252579 -0.181305 0.0343791 0.26955 0.227939 -0.0616773 -0.0345847 0.0856626 0.0321052 0.00606362 2.45355e-05 1.3843e-05 0.000515414 0.0406523 0.219159 0.185 0.13774 -0.0954285 -0.014739 0.128614 -0.0436334 0.360134 -0.0902132 -0.242914 0.133625 -0.0203089 -0.112185 -0.259941 -0.21456 -0.0401154 0.035373 0.13333 0.133068 -0.0624741 0.0226398 0.0505818 0.0179249 0.00146481 -1.87341e-06 1.34104e-05 1.69696e-05 0.0267474 0.0857581 0.198103 0.34021 0.126238 0.0530207 0.0403705 -0.237913 -0.198163 -0.254879 -0.297821 -0.0726365 0.174548 0.181701 0.0404821 -0.130979 -0.229708 0.117501 0.0873271 0.0181362 -0.0859632 0.0105189 0.0147907 -0.00283384 0.00135205 -3.4586e-06 0 0 0.00363478 0.00953068 0.147226 0.255424 0.163968 0.369252 -0.0438567 -0.0289954 -0.233367 0.0560876 -0.031717 0.084925 -0.0090076 0.113198 -0.0632278 -0.0456762 0.175749 0.0893592 -0.109867 -0.16869 -0.184092 -0.0504812 0.00299211 -0.00492427 0.00509202 0 0 0 0.00174813 0.0193066 0.154836 0.178778 0.194754 0.215647 0.25935 0.263711 0.11609 -0.197865 -0.190068 -0.114899 0.0431711 -0.0178013 0.0508698 0.193087 -0.202186 -0.265151 -0.189741 -0.152761 -0.0709982 -0.0443629 -0.00724914 -0.00133032 0.000272809 0 0 0 -0.000185096 -0.00184499 0.085013 0.0965256 0.100257 0.0681019 0.185851 0.196989 0.218901 0.203312 0.210273 0.0974749 -0.0201681 -0.23073 -0.0627945 -0.0941284 -0.134802 -0.0925005 -0.0879233 -0.177945 -0.0871239 -0.0104014 -0.00122854 4.38966e-05 0.000178031 0 0 0 0 -6.44929e-05 -0.00330253 -0.0433024 -0.0432951 -0.00475108 -0.017115 -0.031475 0.000656951 0.0266409 -0.0296649 -0.0318495 0.00583021 0.00280078 -0.0307001 -0.0547076 -0.0203529 -0.00237715 0.00409722 -0.0366733 -0.0112299 -0.000321841 5.0697e-05 -1.4923e-06 0 0 0 0 0 0 -2.94038e-05 -8.66366e-05 -6.99326e-05 0.000147928 0.000130938 -0.000310126 -0.00199368 -0.000916008 -0.000407056 3.29273e-06 -9.82327e-06 0.000770039 0.00170207 0.000425244 -0.001341 -0.000308743 -0.000461832 -0.0012262 -0.0137307 7.91156e-05 0 0 0 0 ^0 0 0 0 0 0 0 0 0 0 0 0 0.000561325 0.00125163 2.50556e-05 1.04398e-06 0 0 0 0 0 0 0 0 0 0 0 0 0 0 0 0 1.44398e-05 0.000155429 0.00593155 0.0117896 0.0157866 0.00822682 0.0114744 0.0283987 0.0505876 0.0278383 -0.0256669 -0.0431776 0.00616272 0.0193179 0.0115632 0.0187392 0.0116198 0.00387258 0.00368842 0.0034567 0 0 0 0 0 0 5.73687e-06 0.00303717 0.00133811 0.000438456 0.0056446 0.0210154 0.0323112 0.0481536 0.0652608 0.0732944 0.121969 0.14745 0.104597 0.0519078 0.0719327 0.0798946 0.04866 0.0787611 0.0662285 0.0689158 0.0348951 0.0271943 0.00692469 0.00313702 0 0 0 0 -0.00345551 0.00830222 0.00564615 0.0164016 0.0284062 0.0563625 0.101508 0.108137 0.190235 0.283804 0.276661 0.381858 0.411158 0.187938 0.14425 0.09534 0.0486752 0.0895313 0.14825 0.071431 0.0123038 0.0552004 0.051002 0.00977418 0.0135141 0 0 -8.93543e-06 -0.0119503 -0.0134019 -0.0262183 -0.0190408 -0.0368521 0.00192282 0.0992415 0.168306 0.0821375 0.0422006 0.140842 0.314003 0.165473 0.0627118 -0.33693 -0.186786 -0.0978246 -0.053773 -0.124042 -0.0332295 0.0245476 -0.084146 -0.117008 -0.0232604 -0.0203084 -0.0024635 0 0 -0.00175127 -0.00890387 -0.0262117 -0.120139 -0.114361 -0.0236354 0.131227 -0.0262237 0.323046 0.203422 -0.0571443 0.127959 0.0651927 -0.129548 0.118702 0.17932 0.300063 0.149673 -0.0905007 -0.127877 -0.253102 -0.0828585 -0.0871406 -0.0183295 -0.00105326 -0.004028 0 3.02141e-05 0.00460746 0.000456022 -0.0313677 -0.0899536 -0.107397 -0.119945 -0.141098 -0.168865 -0.0491947 -0.0906024 0.0738692 -0.0132646 -0.00695624 -0.0379796 0.00424576 0.0684783 0.29957 -0.0277698 -0.192933 -0.162014 -0.0658587 -0.0543781 0.188674 0.128979 0.0237931 0.00422643 -9.16571e-06 0.00129027 0.000967407 -0.034325 -0.0236507 -0.018316 -0.0983905 -0.18232 -0.314635 -0.214665 -0.263907 -0.00835076 0.0900913 0.0847055 0.189079 0.0454932 -0.269148 -0.18211 -0.0263855 -0.0649791 -0.169224 -0.189886 0.0356758 -0.0524686 0.205839 0.126615 -0.0100825 0.00531118 0.00182923 0.000902352 -0.0115342 -0.0524198 -0.084093 -0.0760884 -0.25169 -0.318185 -0.355774 -0.351381 -0.0355789 -0.000760389 0.0434535 -0.0209126 0.0417866 0.103647 0.0540885 -0.15234 -0.215433 -0.3244 0.00129377 0.0109308 0.0767442 0.0363983 0.0773479 0.171969 -0.01119 -0.018048 -0.000147413 -0.00135721 -0.00681235 -0.0909482 -0.19135 -0.0735108 -0.124417 -0.309988 -0.229911 -0.228678 0.101683 -0.104529 0.156249 -0.0718772 -0.0230958 -0.0294845 -0.11032 -0.240683 0.0628646 -0.199244 0.0275841 0.0678618 -0.12426 -0.156476 -0.00240102 0.0855944 0.00508845 0.00527711 -0.000186985 -0.00232685 0.00274058 -0.0922139 -0.237391 -0.096296 -0.157905 -0.316976 -0.0615289 -0.128434 -0.0949999 -0.0733702 -0.00392723 0.20247 0.116729 -0.0600857 0.0139366 0.124518 -0.0934157 -0.101621 -0.119588 -0.134728 -0.341179 -0.180298 0.0058309 -0.0258457 -0.000480292 0.00448533 -0.000227335 -0.00298889 -0.0190987 -0.103726 -0.214981 -0.161782 -0.173636 -0.338538 0.0223014 -0.142219 -0.182704 -0.0524766 0.226858 0.491741 -0.0310326 -0.126568 -0.287625 -0.266613 -0.0608395 -0.000892658 -0.312588 -0.080245 -0.343139 -0.293982 -0.174095 -0.183798 -0.0936449 -0.0006491 -0.000193346 -0.00237666 -0.0079341 -0.093391 -0.233029 -0.215912 -0.188225 -0.320566 0.00735129 -0.158024 -0.309445 0.00244233 -0.136178 -0.0759884 -0.280068 -0.169272 -0.141006 -0.230596 -0.00564716 -0.0560409 -0.231036 -0.160286 -0.14436 -0.164761 0.000181061 -0.101048 -0.0840006 0.000652658 -8.09762e-07 -0.000888012 -0.00488343 -0.064287 -0.206925 -0.239293 -0.207156 -0.209778 -0.209368 -0.356826 -0.140756 -0.478708 -0.455844 -0.263083 -0.0605997 -0.187348 -0.36511 -0.307121 -0.140087 -0.236582 -0.437438 0.0368591 0.0631546 0.108547 0.209654 -0.017587 -0.0166149 0.00845851 0.000328532 -0.00211681 -0.0039644 -0.0524321 -0.160394 -0.215282 -0.186158 0.0229493 -0.132843 -0.328853 -0.144437 -0.146813 -0.252875 -0.174025 -0.285691 -0.0610637 -0.443465 -0.388398 -0.0173739 -0.208976 -0.00291404 0.198627 0.0449768 0.199105 0.234576 -0.0257426 0.0101956 0.000246588 0.000102822 -0.00427433 -0.0114393 -0.0443152 -0.127328 -0.121904 -0.243283 0.0130081 -0.215774 -0.181867 -0.0577704 -0.0422782 -0.0527877 -0.180066 -0.212697 -0.0851257 -0.435918 -0.345193 0.00151092 0.197092 0.348789 0.356774 0.0489876 0.281819 0.218469 -0.000270034 0.0193274 0.00183059 -2.71434e-05 -0.00152884 -0.00883738 -0.03043 -0.0641703 -0.024833 -0.142082 -0.0423098 -0.199801 -0.218443 0.0317952 0.233597 -0.357702 -0.236424 -0.267403 -0.313735 -0.403307 -0.297041 0.159015 0.534742 0.532541 0.170175 0.0308259 0.183385 0.102564 0.0934933 0.0106108 0.00357094 0 -0.000793818 0.00723154 -0.0216391 0.043674 0.197892 0.0449426 -0.0145818 0.0691399 -0.10131 0.130017 -0.00768469 -0.350543 -0.440305 -0.245995 -0.320057 -0.117842 -0.0179156 0.0695521 0.388866 0.225031 -0.0910044 0.048954 0.0677435 0.0185758 0.184009 -0.0024364 0.00227883 -0.00067029 -0.000188624 0.00338136 0.0373344 0.193348 0.206385 0.0272549 0.11821 0.13354 0.0833833 -0.232223 -0.360314 -0.194425 -0.382132 -0.0992306 0.272065 0.494091 0.22858 0.104061 0.166971 -0.0813904 0.0512468 0.160241 0.14594 0.137763 0.129243 0.000647827 -0.000494657 -1.75396e-05 0.00559222 0.0115795 0.123613 0.35474 0.187605 0.215888 0.239449 0.276157 0.28585 0.198644 0.361083 0.422531 0.539088 0.522585 0.326986 0.300245 0.270541 0.327514 0.171736 0.0869323 0.0820102 0.084458 0.0904475 0.095919 0.0241198 -0.00680629 -0.0013657 0 0.0156344 0.02432 0.143668 0.395823 0.391426 0.339071 0.64343 0.623753 0.961403 0.711884 0.97216 1.04264 0.638664 0.418407 0.235776 0.470074 0.409667 0.48136 0.325452 0.325075 0.159591 0.197655 0.281235 0.142399 0.0339127 -0.00918514 6.62057e-06 1.13634e-05 -2.36478e-05 0.0227339 0.0964593 0.291271 0.307642 0.184459 0.482244 0.524571 0.401221 0.436285 0.421132 0.576022 0.379832 0.323794 0.285768 0.146137 0.0831845 0.236837 0.194621 -0.0212034 0.170916 0.381963 0.298443 0.147691 0.0451868 0.00690227 5.89009e-07 1.10083e-05 1.7775e-05 0.0266789 0.0509433 0.162767 0.0646756 -0.106998 -0.0217126 0.184438 0.128042 0.015693 -0.125492 0.0989406 0.263916 0.230603 0.308507 0.292935 -0.00639963 -0.0343509 0.0451794 0.0421504 0.335898 0.200976 0.217089 0.0941943 0.0320643 -0.00379837 1.0874e-06 0 0 0.0329382 0.0720037 0.120598 0.104252 -0.0755244 -0.153103 0.019441 0.00839564 -0.0810427 -0.0737393 -0.170771 0.0431606 0.285821 0.263385 0.210093 0.237341 0.194571 0.060743 0.160091 0.269089 0.230859 0.138761 0.0679381 0.0297398 -0.0171382 0 0 0 0.0291242 0.052361 0.0508306 -0.0293133 -0.184334 -0.127824 -0.0641659 0.0785542 -0.0936249 -0.0320499 0.086264 0.0778619 0.0297669 0.0607974 0.273953 0.256506 0.0110905 -0.173166 -0.0260631 0.00247191 0.0679733 0.0425299 0.0510985 0.0315668 6.24072e-05 0 0 0 0.00382055 0.00950842 -0.0124883 -0.0475357 -0.100897 -0.113023 -0.18575 -0.298142 -0.260026 -0.230977 -0.355181 -0.422132 -0.408093 -0.209142 -0.16376 -0.19436 -0.22921 -0.243353 -0.234129 -0.201044 -0.0545678 -0.0146852 -0.00106296 7.2616e-05 0.000126124 0 0 0 0 -4.17114e-05 -0.00171052 -0.0210129 -0.0267286 -0.039633 -0.0741168 -0.153568 -0.0928496 -0.101121 -0.0882981 -0.0792739 -0.0856878 -0.0752519 -0.0734305 -0.0822664 -0.0800082 -0.0522602 -0.0368664 -0.0279399 -0.00439182 -0.000618176 -2.31483e-05 -5.68774e-06 0 0 0 0 0 0 -2.20439e-05 -0.000224035 -0.000576718 -0.00125743 -0.00186901 -0.0026095 -0.00418105 -0.00422244 -0.00735508 -0.0107489 -0.0149774 -0.0107091 -0.00904122 -0.00766414 -0.00758553 -0.00346136 -0.00216712 -0.00207866 -0.00496654 -0.00117642 0 0 0 0 ^0 0 0 0 0 0 0 0 0 0 0 0 0.0015198 0.00331368 -1.5766e-05 -6.56919e-07 0 0 0 0 0 0 0 0 0 0 0 0 0 0 0 0 9.38543e-06 5.02278e-05 0.00198861 0.00442456 0.0106678 0.0050099 0.01052 0.0199175 0.0298408 0.0119586 -0.0210624 -0.0113367 0.00162859 0.00793364 0.00718311 0.00857529 0.00562464 0.0056234 0.00740221 0.00620119 0 0 0 0 0 0 1.03658e-05 0.000542699 0.000392246 0.000127826 0.00244853 0.0214533 0.0376624 0.0601786 0.108458 0.104683 0.111838 0.130368 0.105988 0.0698697 0.0697813 0.054772 0.0437556 0.0598941 0.0635992 0.0814614 0.0465446 0.0262032 0.00885208 0.0017173 0 0 0 0 -0.00599649 0.00117546 0.00612496 0.0222552 0.0443325 0.0853172 0.162524 0.184256 0.274527 0.339475 0.263808 0.308357 0.354236 0.187008 0.148665 0.110916 0.0105092 -0.00768582 0.107442 0.0259637 -0.0217632 0.0920827 0.100149 -0.00268997 0.0120533 0 0 -1.30007e-05 -0.0206677 -0.0110419 -0.0201385 0.00024681 0.0358357 0.108872 0.120028 0.238212 0.15474 0.0142161 0.0604849 0.296795 0.365131 0.422872 0.167083 0.0779138 0.028511 0.0812019 0.0208627 0.0354555 0.0696026 0.0208018 -0.00080989 -0.0231776 -0.0184478 -0.00156494 0 0 -0.00273634 -0.00925983 -0.0122747 -0.0768121 -0.0666385 -0.0979724 0.0141124 -0.0759237 -0.153667 -0.137102 -0.279473 -0.0318995 0.184621 0.379239 0.155454 -0.0332703 0.123875 0.280128 0.221396 0.00697833 -0.0103092 0.00700558 -0.0795234 -0.067868 -0.0139279 -0.00344375 0 1.55484e-05 0.0055201 0.00260297 -0.0029103 -0.163514 -0.170911 -0.213856 -0.249105 -0.238109 -0.3184 -0.167451 -0.320696 -0.468677 -0.21077 0.0672253 0.0462851 -0.136258 -0.207961 -0.212556 -0.0940774 -0.0516597 -0.0639018 -0.156605 -0.101342 -0.0602547 -0.0212127 0.00747117 -6.6881e-06 0.00378743 0.0256893 -0.0157904 -0.000797696 -0.123018 -0.167422 -0.254111 -0.126857 -0.210362 -0.215594 0.204903 -0.0752942 -0.0844484 0.0636033 -0.0863211 -0.105246 -0.167036 -0.25986 -0.393239 -0.279232 0.06705 -0.130335 -0.315044 -0.150595 -0.0992007 -0.0324516 0.00618768 0.00205138 0.00155251 0.00793157 -0.0385911 -0.0503409 -0.121078 -0.247737 -0.22998 -0.301198 -0.381356 -0.0977144 0.0566587 -0.096693 0.0494706 -0.0677544 -0.453569 -0.276635 -0.124417 -0.313945 -0.279967 -0.0802367 0.114827 -0.140429 -0.240972 -0.23703 -0.129627 -0.0705144 -0.0104697 -0.000146091 -0.0014766 -0.00948871 -0.0537399 -0.0264062 -0.0959221 -0.25451 -0.189558 -0.342119 -0.290984 0.0254031 0.00828176 -0.0188097 -0.044365 -0.177261 -0.0971254 -0.251324 -0.155867 -0.0959961 -0.144306 0.115293 0.0635653 -0.200573 -0.222219 -0.225974 -0.212275 -0.0838756 0.00347236 -0.000185183 -0.00179236 -0.00839416 -0.0145012 0.0115291 -0.0126174 -0.020615 -0.107354 -0.266471 -0.201224 0.0302492 0.183527 0.152728 0.137306 0.20117 0.107284 -0.190935 -0.0159987 -0.224704 -0.148347 0.0108424 -0.137365 -0.205513 -0.0179412 -0.0730775 -0.174657 -0.0581869 -0.0163111 -9.76068e-05 -0.00184446 -0.00974221 -0.0361149 -0.0902899 -0.112095 -0.167758 -0.223305 -0.229964 -0.231094 -0.00267991 0.0893635 0.092376 -0.00553578 0.21135 0.0635413 -0.161135 -0.122007 -0.118092 0.0205661 -0.20038 -0.0783715 -0.108389 0.0307317 -0.0573918 -0.170867 -0.102893 -0.0133936 -3.36829e-05 -0.00184834 -0.0102105 -0.0788779 -0.175546 -0.209283 -0.292313 -0.238768 -0.0834712 -0.203102 -0.156921 -0.0275299 -0.334859 -0.248114 0.0112452 0.216001 0.0895619 0.0703341 -0.102602 -0.256738 -0.248821 -0.232921 -0.0379848 0.120035 0.145396 -0.12364 -0.0762816 -0.00125025 -2.22587e-06 -0.00131247 -0.0173163 -0.0486103 -0.274442 -0.22351 -0.14389 -0.217221 -0.177265 -0.270474 0.019068 -0.261347 -0.370686 -0.121753 -0.0541433 0.176174 0.0396802 -0.0406594 -0.274593 -0.221804 -0.325107 -0.23799 -0.00994009 0.265696 0.251 -0.0527555 -0.00472119 0.0104681 0.000180526 -0.00481134 -0.00811323 -0.0192858 -0.184911 -0.166143 -0.160256 -0.0984985 -0.160529 -0.0635101 0.081827 -0.0319603 -0.207128 -0.275118 -0.255932 -0.0476445 -0.0425031 -0.186729 -0.146211 -0.135866 -0.0279639 -0.0580466 0.0782185 0.220697 0.187254 0.017344 0.0168014 0.000966691 5.67068e-05 -0.00951053 -0.00967045 0.0356898 -0.0765474 0.0626062 0.0294422 0.178727 0.0248375 0.0881904 0.0459996 -0.0984477 -0.0325658 -0.253835 -0.16996 -0.354666 -0.192228 -0.0751841 0.227847 0.257594 0.0740798 0.0665032 0.159676 0.302069 0.232316 0.207351 0.0582206 0.00551709 -1.3734e-05 -0.00438574 -0.0133066 0.0591371 -0.0280738 0.19817 0.238981 0.133727 -0.0365271 0.150554 0.270741 0.279365 -0.138488 -0.241548 -0.236236 -0.15811 0.112987 0.151031 0.475559 0.599082 0.195229 0.198733 0.191417 0.345853 0.277116 0.302923 0.0851667 0.00588336 0 -0.001713 0.00103097 0.0306976 0.0618626 0.178321 0.221762 0.0981522 0.0431518 0.203349 0.331406 0.308414 -0.0164712 -0.150008 0.00339921 0.144931 0.0568268 0.20435 0.289782 0.453234 0.399336 0.203202 0.205462 0.193771 0.201553 0.208875 0.0226629 0.00301571 -0.000682845 -0.000141854 -0.0191859 0.00376938 0.0776558 0.194232 0.170283 0.166076 0.170161 0.203132 0.125616 0.0912385 0.151524 0.050482 0.170847 0.430973 0.394984 0.312327 0.351078 0.34038 0.312888 0.313551 0.345438 0.461435 0.398887 0.154472 -0.00216806 0.000597701 -1.41095e-05 -0.00298064 -0.00876321 0.00146545 0.109107 0.185181 0.257448 0.11105 0.101416 0.0903481 0.162044 0.171029 0.100959 0.173142 0.375094 0.233944 0.150948 0.24457 0.297582 0.30813 0.290323 0.285513 0.404428 0.322559 0.120088 0.0154371 0.0169455 -0.000278 0 0.00100917 0.00532836 0.0309588 0.137532 0.152463 0.159307 0.113951 0.0615851 0.238151 0.186434 0.221688 0.179338 0.114259 0.227808 0.0446363 -0.0263166 -0.0113899 0.283302 0.25853 0.195984 0.153135 0.0874048 0.199096 -0.00337485 -0.0473689 0.00847821 -2.63955e-05 4.68693e-06 -0.000212277 0.0155295 0.0444069 0.110714 0.159341 0.0621628 0.123915 0.0013408 0.258509 0.300411 0.170472 0.314627 0.322895 0.293913 0.0843582 0.00283 -0.00600643 0.127596 0.0840599 -0.0582831 -0.180892 0.0200311 0.109048 -0.0606664 -0.0106953 0.0029524 -6.44742e-07 4.54046e-06 1.1838e-06 0.0161545 0.040577 0.116935 0.117348 0.0244901 0.147686 0.0910053 0.151303 0.25003 0.0907509 0.247293 0.0339509 -0.0636532 -0.0232041 -0.0117182 -0.196033 -0.30715 -0.309002 -0.255695 -0.158312 -0.0952395 -0.0120967 -0.0493137 -0.0343927 -0.00386203 -1.19029e-06 0 0 0.0199165 0.0515851 0.153834 0.199148 0.12881 0.0480159 0.113025 0.166986 0.0729225 -0.0688595 -0.305489 -0.39063 -0.393942 -0.501268 -0.515656 -0.38856 -0.279255 -0.366409 -0.284083 -0.179865 -0.102172 -0.0798412 -0.0333901 -0.00490964 -0.0149598 0 0 0 0.00687549 0.00951847 -0.00142174 -0.0304617 -0.0859688 -0.120765 -0.0322362 0.0755167 -0.068782 -0.119963 -0.331009 -0.426206 -0.473601 -0.558084 -0.535727 -0.419799 -0.357804 -0.37479 -0.314048 -0.212202 -0.102912 -0.0582401 0.00327724 0.0147324 0.00102064 0 0 0 0.00231627 -0.00168639 -0.0298604 -0.0444998 -0.0412785 -0.0833236 -0.207903 -0.330104 -0.259432 -0.236463 -0.29014 -0.277964 -0.266522 -0.262421 -0.275657 -0.205755 -0.188625 -0.221133 -0.214306 -0.148881 -0.0503285 -0.0137834 0.00189898 0.000919443 0.00111188 0 0 0 0 -3.1735e-05 -0.000977171 -0.01412 -0.0186876 -0.0401757 -0.0620502 -0.126392 -0.0905204 -0.0858502 -0.0738142 -0.0606304 -0.0647483 -0.0716482 -0.0728687 -0.049586 -0.049701 -0.0364078 -0.0385312 -0.0369831 -0.0103131 -0.000104507 -0.000223066 -5.50911e-06 0 0 0 0 0 0 -2.06376e-05 -0.000209921 -0.00131323 -0.00541037 -0.00550327 -0.00298597 -0.00783787 -0.00465842 -0.00662343 -0.00968922 -0.013767 -0.0089214 -0.0080605 -0.00694553 -0.00693549 -0.00287181 -0.00204248 -0.010259 -0.0104683 -0.00152031 0 0 0 0 ^0 0 0 0 0 0 0 0 0 0 0 0 0.00517283 0.0113438 1.90221e-05 7.92588e-07 0 0 0 0 0 0 0 0 0 0 0 0 0 0 0 0 6.43144e-06 7.00527e-06 0.000337724 0.0014098 0.00524341 0.00390329 0.00995246 0.0186624 0.0269225 0.0184737 -0.0148363 -0.0327595 0.00214242 0.0113949 0.00887569 0.00671525 0.00434571 0.00224028 8.07984e-05 -0.000712618 0 0 0 0 0 0 3.2606e-06 -0.00373087 -0.00119986 -4.44257e-07 0.00138928 0.0083242 0.0155792 0.0105381 0.0061236 0.0150063 0.0496944 0.0336986 -0.00469518 -0.0615942 -0.00991218 0.069682 0.0537676 0.0621325 0.0279862 0.0186698 0.00749036 0.00226278 0.000922445 -0.000160928 0 0 0 0 -0.00413887 -0.0114511 -0.00234636 0.00653715 0.013528 0.0089228 -0.0117283 0.0126002 0.0657121 0.0779027 0.0335527 0.143014 0.317619 0.218545 0.221318 0.249236 0.273536 0.173035 0.109541 0.0690132 0.025544 0.00297415 0.00387034 0.000246909 0.000234603 0 0 -1.57343e-06 -0.0142214 -0.00629694 -0.00446131 0.00972664 0.00501052 0.0428836 0.0193217 0.194597 0.180475 0.0679535 0.219602 0.286087 0.220241 0.125744 0.252696 0.201595 0.268045 0.245832 0.165686 0.100308 0.0870832 0.0316176 0.0480727 -0.0152588 -0.0159928 -0.00195347 0 0 -0.00167895 -0.0030868 0.00647785 0.0260805 0.109826 0.196731 0.215556 0.359882 0.282013 0.164195 0.277962 -0.0116078 0.0947476 -0.0888115 0.357102 0.318179 0.362854 0.394282 0.434178 0.298844 0.204069 0.130771 0.0594804 0.0131259 0.00643 0.00040935 0 3.53403e-05 0.00802293 -0.0239399 0.0288176 0.204254 0.232472 0.254907 0.379931 0.34156 0.0690096 -0.21144 0.0382492 0.216183 -0.086145 -0.575452 -0.471582 -0.167078 -0.13751 0.5294 0.453192 0.193352 0.573345 0.390935 0.271371 0.0775904 0.0357052 -0.000423848 -1.58318e-05 0.0026297 0.00203743 -0.0475332 0.00947275 0.298478 0.216994 0.31819 0.297005 0.165771 0.0347394 0.145977 0.122568 0.154871 -0.324676 -0.774442 -0.651145 -0.0175508 0.354731 0.303144 -0.075918 0.211119 0.588931 0.538276 0.463768 0.207735 0.0783612 -0.000396492 0.000827551 -0.000888192 0.0109444 -0.000754895 0.0448843 0.232179 0.120789 0.251458 -0.138873 0.24133 0.196703 0.261112 0.58583 0.041296 -0.585876 -0.462137 -0.0518462 0.14654 0.274513 0.136996 -0.0330731 0.216744 0.360287 0.271061 0.277512 0.161924 -0.0189655 -0.00634964 -0.000303415 -0.00113381 0.000222435 -0.00216963 0.0311255 0.132065 -0.0945714 -0.24422 -0.184689 0.170011 -0.0493525 0.0988913 0.0447393 -0.293586 -0.412288 -0.455506 0.207359 0.295665 0.286684 0.0755503 0.235981 0.390798 0.0048016 0.173956 0.138687 0.0959226 0.0367245 -0.00694758 -0.000373843 -0.00149833 -0.00105167 0.00406383 0.0414661 0.0463018 -0.28051 -0.344449 -0.206184 -0.218858 -0.322586 -0.0260629 0.000243657 -0.0842275 -0.39845 -0.391084 -0.491299 0.236331 0.248349 0.120734 0.0622341 0.11965 0.056617 0.161653 0.267122 0.174259 0.100789 -0.00588051 -0.000170898 -0.00842305 -0.0219403 -0.10792 -0.0924863 -0.139238 -0.495178 -0.387217 -0.411281 -0.532796 -0.338825 -0.294586 0.166154 -0.148532 -0.111314 -0.357111 -0.192247 0.119111 0.147035 0.118851 -0.0664884 -0.0721485 -0.0901381 0.117958 0.184367 0.121696 0.0623499 -0.00260531 -8.35893e-05 -0.0124642 0.00670634 -0.12062 -0.299288 -0.22317 -0.33983 -0.294571 -0.287193 -0.515125 -0.0898334 0.357973 0.452342 0.345549 -0.108396 -0.334868 -0.185213 0.0924814 -0.0713052 -0.204132 -0.0961561 -0.218811 -0.225326 -0.0663815 0.0910065 -0.000363924 0.0195915 -0.00363184 -4.26207e-06 -0.00569339 -0.02447 -0.0539067 -0.21014 -0.165506 -0.22682 -0.16293 -0.0262679 -0.0805784 -0.235018 0.265627 0.36135 0.37834 -0.0546953 -0.132402 -0.413289 -0.268875 -0.0765037 -0.469967 -0.244318 -0.142952 -0.0852689 -0.0376268 0.0475179 -0.037886 -0.0201626 -0.0077568 0.00103851 -0.00279047 -0.0127415 -0.0195757 -0.0380965 -0.076741 -0.299716 -0.0914409 -0.0301135 -0.0792658 -0.0598186 0.229321 0.165129 0.263298 0.214541 -0.177247 -0.189232 0.121481 -0.204826 -0.287768 -0.129581 -0.121995 -0.0763206 -0.050344 0.0109636 -0.053855 -0.0267207 -0.000671481 0.00032647 0.000198885 0.00986987 0.128927 0.0386187 -0.0342255 -0.187302 -0.0594479 -0.188695 0.0334909 0.137786 0.247547 0.0691038 0.165183 0.294246 -0.268375 -0.358555 -0.154907 -0.0239545 -0.0348987 -0.1143 -0.123295 -0.061172 0.00625155 0.0655886 0.0139862 0.0152892 -0.00185283 -7.75619e-05 0.000481508 0.00927167 0.159658 0.00972578 -0.0645143 -0.126033 -0.446231 -0.198597 0.24462 -0.0384 -0.0692087 -0.0638328 0.0853088 0.112581 0.0656292 -0.345617 0.0472796 0.151634 0.0696886 -0.217815 -0.0548265 -0.0128921 0.0959315 0.161926 0.0796169 0.00823696 -0.0034047 0 -5.06047e-05 0.048964 0.0923672 0.179714 0.148758 -0.0562384 -0.0683482 -0.0264316 0.21831 0.209172 0.179737 -0.0284737 -0.157074 -0.0647597 -0.223859 -0.00599505 0.00915673 0.0177924 0.0725885 0.0047449 0.0744467 0.133309 0.160379 0.143617 0.0615691 -0.00208218 -0.000796443 -0.00433512 -1.56153e-05 0.02766 0.0870608 0.218385 0.275322 0.233821 0.197017 0.2203 0.193064 0.0863156 0.16437 0.466236 0.0633807 -0.287562 -0.250294 0.0628045 0.0322278 0.0683251 0.029257 0.154765 0.0776133 0.200236 0.379465 0.18652 0.0533207 -0.0118164 -0.00609982 -7.75299e-06 -0.00353059 0.0156186 0.117333 0.222487 0.37663 0.362491 0.27724 0.133664 0.186306 0.2144 0.117866 0.0731339 0.0470206 -0.205443 0.143898 0.327975 0.145957 0.062803 -0.074525 0.105252 0.115119 0.337432 0.379597 0.177003 0.0114897 -0.0095066 -0.00114379 0 -0.00266003 0.0237081 0.0909417 0.228213 0.444325 0.485328 0.42161 0.297637 0.265592 0.0529117 0.0475994 -0.0154672 0.111043 -0.197283 0.23468 0.130507 0.00994984 0.0865163 0.156771 0.20633 0.236422 0.292516 0.340666 0.117126 0.00510053 -0.00702646 -9.44808e-06 1.05413e-05 0.000112274 0.0270642 0.0980723 0.212873 0.50334 0.605895 0.660585 0.377309 0.174981 -0.151423 0.165054 -0.128802 0.202354 -0.10297 0.0443703 -0.293286 0.128973 0.0666695 0.155573 0.185717 0.153107 0.312003 0.237449 0.0327406 0.00444889 0.0014639 1.31019e-07 1.02119e-05 1.25458e-05 0.0254973 0.0777944 0.118749 0.278279 0.427482 0.52254 0.242701 0.013222 -0.0153348 0.216728 0.111433 0.263275 -0.0198631 0.0744518 0.0791304 0.388557 0.2917 0.266261 0.210967 0.150439 0.125389 0.0580005 -0.0034213 -0.0250131 0.0049057 2.4188e-07 0 0 0.0207476 0.0566212 0.0824411 0.126047 0.168963 0.2167 0.136364 0.25133 0.112558 0.0387355 0.155042 0.219804 0.444958 0.294618 0.368968 0.212542 0.248814 0.198936 0.145689 0.07308 0.0372541 0.0140288 -0.0512124 0.0158348 -0.00848151 0 0 0 0.012203 0.0266741 -0.0224599 -0.0879949 -0.116262 0.0178646 -0.00430514 0.233555 0.237381 0.325741 0.457808 0.630901 0.693707 0.362213 0.290595 0.120879 0.250471 0.0716559 -0.141077 -0.13372 0.00251126 0.00352562 -0.0189057 0.00380948 -5.49618e-05 0 0 0 0.00152713 0.0055125 -0.0374538 -0.17407 -0.285313 -0.396904 -0.4042 -0.290942 -0.0677958 -0.146083 -0.0949025 -0.0399402 -0.284469 0.0172381 0.0823685 -0.019749 -0.00842263 -0.166667 -0.291376 -0.139061 0.0134103 0.0241641 -0.00498605 -0.000212078 9.36054e-05 0 0 0 0 -0.000305013 -0.0301935 -0.0866868 -0.164639 -0.241127 -0.252023 -0.255733 -0.267829 -0.246474 -0.152946 -0.296594 -0.50335 -0.27046 -0.107979 -0.229765 -0.276696 -0.229423 -0.203547 -0.153044 -0.0266533 -0.00240926 -0.00391166 -7.95527e-06 0 0 0 0 0 0 -3.16163e-05 -0.000315684 -0.00726643 -0.0387234 -0.0362154 -0.0101306 -0.0495389 -0.0105854 -0.0149465 -0.035144 -0.0921033 -0.0538667 -0.0388736 -0.0271785 -0.0415383 -0.0174202 -0.0114982 -0.0145996 -0.0133497 -0.0022996 0 0 0 0 ^0 0 0 0 0 0 0 0 0 0 0 0 0.000460715 0.000998803 -1.11329e-05 -4.63869e-07 0 0 0 0 0 0 0 0 0 0 0 0 0 0 0 0 -1.60471e-06 -8.85701e-06 -0.000225122 -0.000359884 -0.000413616 4.4554e-05 0.000248503 0.00138497 0.0121543 0.00189534 -0.0133482 -0.025255 0.000882703 0.0123883 0.00590861 -0.0109447 -0.00797162 -2.33112e-05 -0.000118181 -2.72174e-05 0 0 0 0 0 0 -2.63065e-06 -0.00251572 -0.000895592 3.23636e-06 0.000543292 0.00137056 0.00634464 0.0336445 0.0500707 0.0512148 0.0385731 0.0451622 0.0316893 -0.00597434 0.0454825 0.0710459 0.0131603 0.00589334 0.0204478 0.0227368 0.00809661 0.00186356 0.000608959 -0.00130078 0 0 0 0 -0.00383037 -0.00787142 0.00447599 0.00607606 -0.00106897 -0.027 -0.0204489 0.0574205 0.115814 0.150435 -0.0353341 -0.00154491 0.0806504 -0.0888556 -0.0579417 -0.038277 0.0178774 -0.0736124 -0.0593496 0.0403326 0.025541 0.0976672 0.098518 -0.0254684 -0.00752495 0 0 -5.24536e-06 -0.0130713 -0.00350657 0.0118876 0.0194072 -0.000810597 -0.00171711 0.0581424 0.0693827 0.0721658 -0.0422031 -0.128272 -0.109556 -0.0869805 -0.236075 -0.00559364 -0.0675566 -0.0893588 -0.022157 0.0130131 0.0485189 0.164099 0.163624 0.0505761 -0.0375485 0.0102826 0.00742419 0 0 -0.00149688 -0.00203122 0.0448267 0.0415801 0.0620741 0.0489229 0.0996827 0.0652791 0.117015 0.0208247 0.0180618 -0.283897 -0.330102 -0.129198 0.0165259 0.115554 0.00738688 0.0624702 0.109131 0.110154 0.0544648 0.0527065 0.130414 0.0930312 0.0027587 0.00321691 0 -1.81072e-05 -0.000178355 -0.0258151 0.0184145 0.0342613 0.0930916 0.138274 0.18603 0.194228 0.258694 0.151673 0.0247102 -0.194947 0.00451142 0.262968 0.3344 0.259018 0.148587 0.298766 0.278822 0.139257 -0.0627455 -0.0449972 -0.00967271 0.0737758 -0.0543248 0.0111108 -5.2262e-05 -0.00483987 0.0075878 -0.0434978 0.00506863 0.0638682 0.0811772 0.166774 0.30438 0.335652 0.378807 0.310786 0.299603 0.527921 0.28034 0.551679 0.379014 0.412778 0.403245 0.526887 0.215442 0.0727021 -0.100415 -0.252535 -0.230197 -0.123111 -0.00638423 0.00705498 -0.00204646 -0.00946187 -0.000646341 -0.080757 0.0087301 0.0616117 0.149038 0.237703 0.285235 0.33436 0.372297 0.511257 0.407542 0.428386 0.308526 0.346474 0.29188 0.21042 -0.122094 -0.0516521 -0.319237 -0.229018 -0.194117 -0.387402 -0.461835 -0.207274 -0.0144108 -0.000527325 -2.81476e-05 -0.0132059 -0.0170337 -0.0734018 -0.0481458 0.00304457 0.0641993 0.0754613 0.146846 0.255723 0.168243 0.00169129 -0.0638175 -0.220848 -0.339045 -0.178654 -0.114696 -0.289747 -0.39706 -0.113596 -0.149597 -0.173237 -0.168511 -0.347598 -0.482209 -0.34728 -0.0520859 -0.0057334 -5.14924e-06 -0.0135075 -0.0390646 -0.113052 -0.0757596 -0.0163238 -0.0546641 -0.0121524 0.19769 -0.0345322 -0.353175 -0.191367 -0.16823 -0.45346 -0.264581 -0.279332 -0.214029 -0.317241 -0.201135 -0.276282 -0.192096 -0.125274 -0.155397 -0.304567 -0.422156 -0.370554 -0.0768132 -0.00128896 -0.000442403 -0.0128793 -0.0971825 -0.144134 -0.091226 0.0340665 -0.0934251 0.0250891 0.213468 -0.135327 -0.187008 -0.134845 -0.0634451 -0.171394 -0.279436 -0.343569 -0.0508755 -0.227183 -0.217887 -0.290674 -0.187046 -0.0234986 -0.0190599 -0.155011 -0.242325 -0.23332 -0.031337 -0.00240233 -0.000600353 -0.00367369 -0.0607282 -0.0652334 -0.016585 0.109439 -0.00928966 0.0632704 0.00698779 -0.184993 -0.154731 0.127247 0.00114496 0.0943489 -0.218129 0.0686325 0.323241 0.214224 0.210828 0.060645 0.186418 0.458607 0.333524 0.234256 0.10394 -0.0141156 -0.0516524 8.96116e-05 -4.28741e-06 -0.00178734 -0.0299852 0.0171657 0.0774371 0.139214 0.0752602 0.134856 0.0848073 0.0592839 0.125986 0.104371 0.13236 0.118226 0.0173705 0.313852 0.26596 0.202115 0.151418 0.141704 0.295835 0.351061 0.211518 0.160697 0.157253 0.0574059 0.0121715 0.0147347 -0.000538533 -0.00217416 -0.0195599 0.0327114 0.127051 0.067655 0.0895546 0.251594 0.30639 0.128983 0.0795839 0.152909 0.231741 0.234099 0.188099 0.26736 0.337293 0.0819054 -0.0915239 -0.0769463 -0.00660344 0.186333 0.0568384 0.0145314 0.0776114 0.0631183 0.0194084 0.000654166 -0.000173806 -0.00185641 -0.010625 0.0712729 0.0407413 -0.0575824 -0.0533104 0.021236 0.193636 0.154806 0.25316 0.256092 0.196119 0.295353 0.464332 0.437354 0.42847 0.315472 -0.137715 -0.165176 0.022203 0.0822914 0.0968483 -0.0223926 0.000142455 0.0453364 0.00821751 0.00218371 1.44464e-05 -0.00147561 -0.0149972 0.0460761 -0.0594058 -0.0184097 -0.0139673 0.192997 0.257608 0.405693 0.475935 0.377948 0.276947 0.2033 0.324702 0.316042 0.383679 0.0309599 -0.0768458 0.0479367 0.0188215 0.129622 0.0384419 0.0720784 0.0230006 0.0481926 0.00133441 0.000716347 0 -0.000451435 -0.00363962 -0.0246505 -0.0594758 0.0193604 -0.133143 0.200254 0.242469 0.342751 0.363462 0.0469373 0.22267 0.198362 0.126188 0.424199 0.0482273 -0.239134 0.0898013 0.147367 0.176009 0.173256 0.0346127 -0.0539447 -0.0328285 0.0111901 -7.88912e-05 0.000400341 0.00168145 -4.59147e-05 -0.00109146 -0.121308 -0.0505827 -0.127883 -0.0748909 0.0184996 -0.105176 -0.158979 -0.134253 -0.401042 -0.203996 -0.152874 0.0272778 0.110589 0.100822 -0.175644 -0.00204098 0.18505 0.0731701 0.109712 0.0422183 0.00414992 -0.0441019 -0.0152839 0.0018453 0.00489063 -4.83532e-06 -0.0128975 -0.00870355 -0.102975 -0.142222 -0.166431 0.0305687 0.0500051 -0.36315 -0.473785 -0.215385 -0.293709 -0.460756 -0.520627 -0.0823098 -0.188103 -0.101757 0.0217057 0.126016 0.0105358 0.0208796 0.0880626 0.0852393 0.0196403 -0.0658416 -0.00959889 -0.000817612 0.00148674 0 4.41456e-05 -0.017731 -0.0246733 -0.0562715 -0.19907 -0.08896 0.154235 -0.205841 -0.230051 -0.0170184 -0.22382 -0.14607 0.0291779 0.10953 -0.0179808 -0.117841 0.110758 0.256644 0.0653136 0.112071 0.201061 -0.00142972 0.0136699 0.00407657 0.00714941 -0.00464956 -2.69e-05 -7.40233e-06 3.10886e-05 -0.0155958 0.00574613 0.0718285 0.1048 0.022339 0.143298 0.261998 0.234606 0.3067 0.0383043 -0.00210197 -6.15207e-05 0.120438 0.0571766 0.131403 0.21364 0.129464 0.125541 0.134859 0.113308 -0.00427801 0.0109705 0.0195847 0.0138818 0.00066521 -1.80507e-06 -7.17101e-06 -2.72347e-06 -0.00188122 0.0012508 0.0848307 0.141163 0.112774 0.365365 0.351787 0.00107252 0.021283 -0.0210339 -0.128322 -0.131287 0.161491 0.103334 0.0087648 0.0423094 -0.0499571 0.0522857 0.11704 0.0645122 0.0231214 0.0196473 0.0181905 0.010248 -0.000322542 -3.33243e-06 0 0 -0.00454373 -0.0183433 -0.0177068 -0.0749243 0.0722509 0.195474 0.115734 -0.0293278 0.0265728 -0.0478246 -0.108931 0.09658 0.0406144 0.0362031 0.0010383 -0.133977 -0.0672243 0.0796404 0.0729176 0.0686226 0.0885007 0.0577819 0.00588692 0.00631158 -0.00112038 0 0 0 -0.00481185 -0.0214336 -0.0342779 -0.0488784 -0.0202961 -0.0548756 -0.0417706 -0.00395893 0.0630168 0.0763453 0.0170938 -0.11199 -0.0787011 0.0469636 0.0623301 -0.132471 0.00416085 0.0771957 0.127747 0.0402604 0.020964 0.0340388 0.00613947 0.00198372 -3.12127e-06 0 0 0 -0.000323447 -0.00562978 -0.0158744 0.0209355 0.0686237 0.0724241 0.174237 0.175717 0.121089 -0.0378288 -0.286934 -0.287937 -0.210488 -0.162268 -0.121902 -0.0497302 0.0538227 0.0647581 0.113357 0.0221673 -0.00440809 0.0448377 0.00479219 4.96492e-05 6.67865e-06 0 0 0 0 0.000139129 0.0211657 0.0232973 0.0425893 0.0612379 0.0831729 0.100116 0.173003 0.0263652 -0.0791395 -0.0126365 0.105944 -0.0235732 -0.0470341 -0.00287262 0.0715493 -0.00664852 0.0622367 0.0336536 -0.0130906 -4.4588e-06 9.25265e-05 -5.1127e-06 0 0 0 0 0 0 -2.06084e-05 -0.000164191 -0.0015413 -0.00784052 -0.00767237 -0.00141367 -0.00851522 0.000109658 -0.00239743 -0.0197208 0.0164108 0.0272722 0.00785665 0.00382465 0.0247784 -0.00256995 0.0318636 0.00502513 -0.0157776 -0.00209203 0 0 0 0 ^0 0 0 0 0 0 0 0 0 0 0 0 0.00436495 0.0095068 -5.66886e-05 -2.36203e-06 0 0 0 0 0 0 0 0 0 0 0 0 0 0 0 0 1.43019e-05 8.01687e-05 0.00314543 0.00660313 0.0125467 0.00599829 0.0116495 0.0221697 0.0563342 0.0272819 -0.0428564 -0.00557256 0.00018387 0.0156655 0.0201614 0.0550942 0.0328455 0.0101596 0.00690716 0.00586661 0 0 0 0 0 0 1.15444e-05 0.000435796 0.0005147 0.000224457 0.00410644 0.0276157 0.0474908 0.0503668 0.0737831 0.100949 0.156007 0.173288 0.144793 0.109338 0.0297751 0.0637238 0.0648566 0.074959 0.0497324 0.0959756 0.0596691 0.0313313 -0.000117894 -0.00459894 0 0 0 0 -0.00697188 0.0012203 0.00461445 0.00563084 0.0268096 0.0485063 0.108236 0.127959 0.130235 0.18429 0.125829 0.176916 0.163319 0.128083 0.0625133 -0.0384776 0.0473132 0.209916 0.200849 0.171824 0.0487629 0.035657 -0.0154172 -0.0135124 -0.00138705 0 0 -8.77234e-06 -0.0239924 -0.00527941 0.0104422 0.00413454 0.0133278 0.0355952 -0.00810212 0.0753656 0.109391 -0.121966 -0.179883 -0.0264322 -0.0652142 -0.100108 -0.0471792 0.0919223 0.0140007 0.212689 0.114759 -0.00795233 -0.115683 -0.0960313 -0.107623 -0.0335601 -0.00334383 -7.88515e-05 0 0 -0.00319581 -0.0062943 0.0363267 -0.0512928 -0.0446118 -0.116613 -0.103352 0.00240539 0.00811608 -0.298347 -0.224646 0.0818351 -0.116742 -0.153944 -0.0793425 0.0116153 -0.060863 0.120102 0.0056548 -0.186899 -0.288421 -0.18178 -0.136324 -0.0591587 -0.0093108 -0.000446151 0 2.19202e-06 0.000161655 -0.0197147 0.0319747 -0.0696634 -0.170871 -0.213652 -0.182345 -0.157803 -0.202625 -0.121474 -0.167848 -0.0428597 -0.101766 -0.0996535 -0.0611226 -0.0704423 -0.18725 -0.257278 -0.325484 -0.42604 -0.402894 -0.281194 -0.132925 -0.0456732 -0.031141 -0.0117696 -6.73789e-06 1.37876e-05 -0.00169578 -0.0408462 0.00344555 -0.0859527 -0.231382 -0.184202 -0.125021 -0.0875222 -0.0127782 -0.015754 -0.0390773 -0.201712 -0.0648265 -0.0599794 -0.244066 -0.209585 -0.410848 -0.597049 -0.547646 -0.524721 -0.549059 -0.341221 -0.0724064 -0.00415411 -0.048677 -0.00938445 0.000371288 -0.000585405 -0.0107667 -0.0568312 -0.00945619 -0.0812883 -0.229619 -0.164216 -0.0449973 -0.0161856 -0.100541 -0.138771 -0.190213 -0.0492798 -0.00792889 -0.0548581 -0.181123 -0.45065 -0.654001 -0.55281 -0.368741 -0.449849 -0.469164 -0.353484 -0.199536 -0.101343 -0.103135 -0.0253434 -0.000145309 -0.00160634 -0.0110717 -0.0525508 0.0220514 -0.062356 -0.212668 -0.106732 0.0153316 -0.0269468 -0.0977099 -0.122249 -0.0807151 -0.118944 0.060855 -0.146391 -0.347801 -0.508724 -0.469064 -0.337294 -0.0877967 -0.198594 -0.216073 -0.311135 -0.276787 -0.219434 -0.109608 0.0111324 -0.000184076 -0.00170165 -0.0126318 -0.0437665 0.0101391 0.00349744 -0.138835 -0.0564498 0.0213825 -0.180097 -0.127568 -0.201332 -0.0831594 0.0705771 -0.0142 -0.313307 -0.300169 -0.087174 -0.160083 -0.200719 0.0654117 -0.161883 -0.14805 -0.087934 -0.168474 -0.190254 -0.0828061 -0.0188829 -9.69261e-05 -0.00341004 -0.0225816 -0.0449711 -0.00242931 -0.00818377 -0.211868 -0.0816035 -0.09579 -0.0416218 -0.120565 -0.123022 -0.0634489 0.0274885 -0.0216535 -0.321517 0.0190794 0.078778 -0.0221912 0.0597516 0.247087 0.166915 -0.112922 0.0177529 -0.100901 -0.16146 -0.119583 -0.0177376 -3.20793e-05 -0.00221939 -0.0205111 -0.0365174 -0.0104413 -0.00205214 -0.108401 -0.0580662 0.0111782 0.00937423 0.0566037 0.156229 -0.0301666 -0.0612028 -0.117882 -0.163763 0.191425 0.0898544 0.128496 0.0765567 0.143197 0.154336 0.0976347 0.248398 0.160326 -0.112766 -0.095436 -0.00698523 1.04091e-06 -0.00103194 -0.0163393 -0.00862735 -0.0153785 0.0142579 0.0286478 -0.0128721 -0.0546028 -0.0619675 0.105925 0.134776 -0.0299215 0.04967 -0.0956353 0.076634 0.117792 0.0128468 0.0506189 0.0903298 -0.0177292 0.164553 0.124023 0.274153 0.105026 -0.128554 -0.0425196 -0.00135042 6.37622e-05 -0.000416888 -0.0037492 -0.0245673 -0.0917513 -0.0108974 0.160116 0.0854664 0.00176988 0.0137249 0.10758 0.159033 -0.120243 0.0104652 -0.0837837 -0.0498307 0.00681811 -0.221579 -0.0326535 -0.0630159 0.191674 0.261046 0.190473 0.153425 0.0221527 -0.0438333 -0.0265888 0.000436697 1.8286e-05 -4.04722e-05 1.91414e-05 -0.0659959 -0.149315 -0.0289132 0.0692071 0.100678 0.0133681 -0.00148288 0.0276333 0.0889796 0.0487696 0.0312212 0.0655711 -0.186205 -0.297139 -0.186095 0.0692171 0.179447 0.333369 0.218651 0.216345 0.129719 0.0578942 0.0674247 -0.0264363 -0.00248235 -1.48107e-05 2.18712e-05 -0.000476425 -0.0567198 -0.136546 -0.127633 0.0722426 0.00725652 -0.00047802 0.0877552 0.0834236 0.190985 -0.0682945 0.0336695 0.0544266 -0.1785 -0.247637 -0.108053 0.160733 0.0504456 0.17477 0.156909 0.0299846 0.0103282 0.162482 0.162711 0.010159 -0.00612244 0 -8.30571e-05 -0.000840769 -0.0305175 -0.146943 -0.260712 0.00275192 0.0302206 -0.0320414 -0.0209971 0.15271 0.189654 0.0590276 0.0951493 -0.133286 -0.239496 0.00971274 0.136299 0.145439 0.0427633 0.00753165 0.0809238 0.03937 0.00820689 0.0544193 0.0921741 -0.00336773 0.000344809 -0.000247843 -7.77398e-05 -0.00253697 -0.0314855 -0.128849 -0.232358 -0.289964 0.00643291 0.00874884 -0.12666 0.0324491 0.084169 0.22721 0.154495 0.0115314 0.054379 0.16471 0.233849 0.208021 0.0673616 -0.148341 0.00227379 -0.0487478 0.0693595 0.0157746 0.022551 0.000540807 -0.00295701 -4.50557e-06 5.90936e-05 -0.000367634 -0.0332032 -0.0936397 -0.169011 -0.315952 -0.140688 -0.0916201 0.0470125 0.217163 0.511636 0.325834 0.21061 0.178582 0.0129041 -0.011367 0.0831896 0.0327162 -0.0154761 -0.0375231 -0.0801039 -0.110822 -0.00456119 -0.0609646 -0.0389225 -0.00333204 -0.000744407 0 0.00169441 0.00215235 -0.0170977 -0.0500042 -0.117447 -0.253674 -0.22711 -0.168687 0.115569 0.210619 0.203653 0.154242 0.108287 0.327956 0.00951929 -0.17122 0.0499279 0.159108 0.00326647 -0.0126651 -0.114848 -0.194742 -0.103632 -0.0793655 -0.0488059 0.00132255 -1.09781e-05 2.19553e-06 -1.61726e-05 0.000735629 -0.00551585 -0.029312 -0.0951296 -0.151146 -0.148986 -0.198407 -0.0674321 0.137024 0.0503245 0.071531 0.140483 0.205511 0.0720772 -0.101071 0.05401 0.0189104 -0.0773712 -0.14947 -0.242996 -0.205324 -0.135786 -0.116458 -0.0189015 0.00533283 1.35576e-06 2.12692e-06 6.49752e-06 0.000969514 0.00103917 -0.0126102 -0.0454583 -0.098506 -0.1082 -0.116679 -0.0391749 -0.034545 -0.292593 -0.0279194 -0.029501 -0.136173 0.0777544 -0.128075 -0.355003 -0.328738 -0.294487 -0.244056 -0.212013 -0.201128 -0.15111 -0.0805934 -0.00383468 0.000952865 2.50295e-06 0 0 0.000423511 0.000861342 -0.00862685 -0.0252827 -0.0590678 -0.139534 -0.234569 -0.248491 -0.283071 -0.353014 -0.294212 -0.296817 -0.206838 -0.251218 -0.402135 -0.456249 -0.321209 -0.300105 -0.208508 -0.117726 -0.114349 -0.0693022 -0.0248155 -0.000946559 0.000401084 0 0 0 -0.000731132 -0.00121025 -0.00924462 -0.0264396 -0.0367207 -0.0867941 -0.142697 -0.162593 -0.186725 -0.266918 -0.299777 -0.38706 -0.335008 -0.288364 -0.257127 -0.217638 -0.153395 -0.131301 -0.119274 -0.081792 -0.0490922 -0.0279521 -0.00880479 0.000412436 0.000192084 0 0 0 3.02409e-05 -0.000771408 -0.00747185 -0.0134196 -0.0152569 -0.0313115 -0.0800901 -0.101409 -0.0830797 -0.117358 -0.133389 -0.163169 -0.158114 -0.142594 -0.139082 -0.117809 -0.0884641 -0.0607264 -0.0480999 -0.0343428 -0.0166775 -0.0081692 -0.0013446 0.000179604 0.000226044 0 0 0 0 -3.64458e-05 -0.00109746 -0.00456226 -0.00959657 -0.0163162 -0.031184 -0.042669 -0.0451596 -0.0505098 -0.0633299 -0.0589531 -0.0602211 -0.051233 -0.0500844 -0.0446142 -0.0420884 -0.0182769 -0.0165065 -0.00977444 -0.000510864 -0.000148194 -8.54394e-05 -5.02571e-06 0 0 0 0 0 0 -2.05886e-05 -0.000204472 -0.00072449 -0.00207367 -0.0023881 -0.00215364 -0.00478048 -0.00401932 -0.00776183 -0.0101372 -0.0176004 -0.0105264 -0.00738002 -0.00768083 -0.00981915 -0.00216075 -0.00058295 0.00383065 0.00159474 -0.000303273 0 0 0 0 ^0 0 0 0 0 0 0 0 0 0 0 0 2.43258e-05 6.14805e-05 9.14214e-06 3.80922e-07 0 0 0 0 0 0 0 0 0 0 0 0 0 0 0 0 2.4532e-06 5.03168e-06 -7.27338e-05 -4.40318e-05 0.000981559 0.00114599 0.00185481 0.00508739 0.00742195 0.00405104 0.000427002 -0.000560814 0.00120996 0.00105033 0.00161619 0.00192107 0.00114673 0.00047606 7.26645e-05 -0.000107856 0 0 0 0 0 0 2.8001e-06 0.000155625 0.000117239 1.48697e-06 0.000432188 0.00124389 0.00390486 0.00614531 0.0120451 0.0172435 0.0232925 0.0187935 0.0195188 0.0256056 0.0299032 0.0191144 0.0196641 0.0201078 0.0127083 0.00829281 0.00440379 0.00118759 0.000619685 4.64053e-05 0 0 0 0 -0.000590795 0.000323236 0.000257939 0.000227554 6.81415e-05 0.00469729 0.0137148 0.0283552 0.0720844 0.124873 0.129349 0.0969748 0.125792 0.0961168 0.110888 0.10011 0.0808777 0.0385259 0.037444 0.0305162 0.0197006 0.00776431 0.00270043 0.000285792 0.000101511 0 0 -1.96244e-06 -0.00205784 -0.00125183 -0.00194194 0.0103639 0.00329153 0.0307047 0.0867844 0.120495 0.117961 0.121318 0.0809359 0.0705612 0.149124 0.143522 0.131786 0.031831 -0.0510167 -0.112709 -0.0880598 -0.0891364 -0.0563632 -0.00992704 0.0077194 0.00850897 0.0013313 0.000157619 0 0 -0.00042142 0.000826923 -0.0244922 -0.00841149 0.0292665 0.107416 0.116687 0.145945 0.318218 0.164117 0.0353276 0.0134698 0.0848207 0.0391018 0.106059 -0.02836 -0.0923643 -0.0892453 0.00216921 0.0268103 -0.0310895 -0.00688165 0.0248985 0.0249225 0.00693377 0.00132244 0 3.79204e-06 0.00654671 -0.0418519 -0.0743661 -0.0478248 0.0102845 0.116836 0.124881 0.405479 0.459782 0.143438 -0.196306 0.0813415 0.156148 0.352305 0.26632 0.0659403 -0.141528 -0.106454 -0.0922214 0.0125435 0.0996301 0.0610087 0.103966 0.0538115 0.0220802 0.00540269 5.50038e-06 -0.00418767 0.0126709 -0.0846334 -0.129709 0.04881 -0.0899986 -0.208222 0.0541443 0.20662 0.0849823 0.0378842 -0.158235 0.0812642 0.305448 0.536728 0.173658 0.0351145 0.0510982 0.0679264 0.113294 0.243515 0.245551 0.00263559 0.0596779 0.0858912 0.0155501 0.00296072 -0.00128011 -0.0126556 -0.00274195 -0.0918528 -0.184447 0.00873493 -0.0350749 -0.211864 -0.261832 -0.0863618 -0.114661 -0.0459525 -0.238538 0.158305 0.308006 0.0885492 0.248266 -0.0533595 -0.191413 0.0797317 -0.0539082 0.0918196 -0.0109834 -0.184398 -0.00908955 0.0824842 0.0313804 0.0150522 -0.000361263 -0.0141786 -0.0168352 -0.107165 -0.17309 -0.207803 -0.123979 -0.18731 0.0724476 -0.300853 -0.0928449 -0.339673 -0.385711 0.0171921 0.174045 0.139837 0.0831765 -0.0961851 -0.202559 0.02954 -0.0402941 -0.2038 -0.16144 -0.228276 -0.0500653 0.0431556 0.0294622 0.00110385 -0.000475457 -0.014264 -0.0531019 -0.138382 -0.174627 -0.337114 -0.0332268 0.0510524 0.20432 -0.193718 -0.188876 -0.275974 -0.326808 -0.253846 0.142221 0.673741 0.345643 -0.15958 0.063069 -0.0166974 -0.159896 -0.293 -0.274819 -0.184594 0.00565476 0.029115 0.0205025 0.000213882 -0.000148334 -0.0257832 -0.156569 -0.242267 -0.279187 -0.307084 -0.196952 -0.198837 0.269749 -0.249424 -0.261765 -0.484264 -0.40844 0.215608 0.547623 0.682148 0.200897 -0.205793 -0.161517 -0.185504 -0.104325 -0.0335782 -0.0528107 -0.0556847 0.0246874 0.00786426 0.00487971 0.000150389 -3.57777e-05 -0.0199267 -0.143231 -0.168812 -0.205815 -0.195916 -0.111224 -0.306393 -0.383489 -0.347032 -0.464538 -0.377354 -0.0810704 0.644415 0.673711 0.466268 -0.245662 -0.376407 -0.252483 0.0636962 -0.061691 0.136858 -0.110564 -0.0584884 0.041334 -0.0433569 -0.00920126 -0.000746487 -8.61917e-06 -0.00901732 -0.124792 -0.0447958 -0.0452213 -0.0864225 -0.127881 -0.0222081 -0.0814509 -0.0931575 -0.205367 -0.0812349 0.559065 0.845811 0.644078 0.456926 -0.0974504 -0.162231 0.0808809 0.300466 -0.00654377 0.11772 0.0745311 0.0884147 0.0609797 -0.0345988 -0.00399601 -0.00042408 6.29281e-05 -0.00356619 -0.0582549 -0.0336668 0.132523 0.010306 0.0356517 0.147419 -0.0046642 0.0553974 -0.397615 0.0766019 0.618986 0.754119 0.307013 0.296516 0.0815835 -0.0611159 0.043043 -0.0123857 0.0627027 0.128227 0.113452 0.0144309 0.051743 -0.0461491 -0.000670135 -3.13458e-05 1.09218e-05 0.00200363 -0.0123146 -0.0285587 0.0056371 -0.0233076 -0.121491 -0.196025 -0.0568998 -0.0403115 -0.0922711 0.460016 1.08121 0.611637 0.121119 0.435865 0.61968 -0.000896791 -0.0427772 0.0286247 -0.0660205 0.0460943 0.0364773 -0.0615849 -0.0498695 -0.0370532 -0.00538297 -0.000422364 -5.53315e-05 0.0011703 0.0081549 0.0134502 -0.0496889 0.107891 0.0311023 -0.15973 -0.0947704 0.05664 0.347126 1.1555 1.03759 0.190674 -0.0936481 0.308333 0.63545 -0.0590616 0.0783371 -0.101903 -0.197701 -0.136026 -0.0451389 -0.0509551 0.0332191 0.00684045 -0.0097835 -0.00057668 0 0.000241267 0.011722 0.0493578 0.00677102 0.133414 0.280006 0.240183 0.186926 0.322756 0.546248 0.731179 0.341232 -0.0544647 -0.0391389 0.263806 0.2986 0.06083 -0.0181986 0.0555856 -0.0917316 0.0735327 0.133746 0.139814 0.114374 0.01436 -0.00127091 -0.00041593 -0.00193472 -1.65309e-05 0.00182483 0.113998 0.129788 0.136754 0.306241 0.334468 0.502698 0.483683 0.65918 0.251007 -0.0632024 -0.0635411 -0.0896893 0.317188 0.241783 0.293701 -0.000324881 0.177256 0.243275 0.162466 0.254791 0.281183 0.130512 0.0195762 -0.00115756 -0.00214993 -5.58352e-06 -0.0181615 -0.00449813 0.0704091 0.0443027 0.120329 0.256946 0.41993 0.446228 0.40423 0.29943 0.147141 0.0935101 0.0250278 0.0102067 0.159552 0.264147 0.178444 0.308383 0.139982 0.165388 0.209063 0.346116 0.260011 0.120642 0.0140545 0.000112191 -0.000277443 0 9.07027e-05 0.00302554 0.045549 0.0923826 0.185677 0.207259 0.341727 0.37706 0.269574 -0.065554 -0.23253 -0.067421 0.210076 0.299183 0.158387 0.278324 0.172527 0.121168 0.0809357 0.252349 0.22692 0.30592 0.235283 0.129248 0.0181353 -0.000669528 -1.6621e-05 -3.55939e-06 8.51597e-05 0.00792162 0.0458889 0.0854076 0.111014 0.0477378 0.19973 0.102845 -0.00719295 -0.23206 -0.117282 0.212258 0.025443 0.273663 0.0889447 -0.00358451 -0.175495 -0.0776001 0.00414886 0.12184 0.127974 0.167564 0.0946597 0.040796 0.003883 0.000382662 2.60899e-07 -3.44816e-06 9.07312e-06 0.0133307 0.0436012 0.022414 0.00699528 -0.0685427 -0.201316 -0.120458 -0.199378 -0.0598008 0.0578629 0.0130052 -0.180315 -0.115557 -0.283342 -0.137934 -0.21632 -0.0284538 -0.0812384 -0.102803 0.00398179 0.0920811 0.0315097 -7.91788e-05 0.00246852 -0.000987408 4.8166e-07 0 0 0.0285927 0.0669608 0.111796 0.0213741 -0.132876 -0.202086 -0.017678 -0.125622 -0.0422128 0.0028838 -0.0291707 -0.116061 -0.040283 -0.0893405 -0.109007 -0.247494 -0.204727 -0.226974 -0.187985 -0.0667427 0.0932392 0.118964 0.00441272 0.00258861 -0.000654042 0 0 0 0.0325495 0.0601619 0.134253 -0.0401969 -0.105519 0.0682919 -0.0502372 -0.0784348 0.0849392 0.0376789 -0.206839 -0.0295322 0.0953793 0.0546956 0.0279166 -0.211016 -0.191368 -0.0415214 0.0307431 -0.0890129 -0.0136146 0.0964587 -0.00782105 -0.00652716 -0.000186551 0 0 0 0.00544732 0.00615892 -0.0335796 0.0138144 0.0315829 0.0383287 -0.1835 -0.190002 0.0729682 -0.102634 -0.356178 -0.0598706 -0.0722646 -0.275827 -0.277163 0.0485076 -0.0469865 -0.0693828 0.00153954 -0.0844528 -0.0679376 0.0409907 -0.00191528 -1.99385e-05 -6.2417e-06 0 0 0 0 6.2623e-05 0.0412449 0.0171234 0.0130458 -0.0521562 -0.028866 0.203636 0.257769 0.0236675 0.109491 0.111623 -0.0888103 -0.280599 -0.0896552 0.0589585 -0.0894308 -0.150897 -0.0273298 -0.00415144 -0.046432 0.00309561 0.000103166 -1.23534e-05 0 0 0 0 0 0 -4.23845e-05 -0.00035721 -0.000181057 0.00165223 0.00046934 -0.000209255 -0.0285273 0.0205799 0.00583974 -0.0519921 0.0244204 0.0426502 0.0182861 -0.00136296 0.0340924 -0.0144267 0.0150588 -0.0365501 -0.0583809 -0.0141946 0 0 0 0 ^0 0 0 0 0 0 0 0 0 0 0 0 0.00930195 0.0203783 1.13395e-05 4.72479e-07 0 0 0 0 0 0 0 0 0 0 0 0 0 0 0 0 3.70173e-06 -5.40202e-05 -0.00148918 -0.00167857 0.00199015 0.00224524 0.00967389 0.0121961 0.0229919 0.0198497 -0.00658911 -0.0134732 0.0011983 0.0121713 0.00501422 0.00292726 0.00309699 0.00168586 -0.000447391 -0.00102127 0 0 0 0 0 0 3.20899e-06 -8.92184e-05 4.80894e-05 -0.000208075 -0.00135061 0.00161535 0.0083057 0.0020402 -0.00288904 0.0180704 0.0671421 0.0846433 0.0368518 0.0108472 0.0304391 0.0570413 0.0259288 0.0449276 0.0198498 0.0137827 0.00555 0.00052713 -0.00128929 -0.00132033 0 0 0 0 -0.00384217 -0.00114854 9.20712e-05 0.000268083 -0.00591988 -0.0015247 0.016121 -0.0019168 0.0398801 0.120012 0.147147 0.114902 0.138328 0.0822777 0.206659 0.156457 0.0878586 0.0948727 0.0863952 0.0624434 0.0244718 0.00506564 0.000760205 -0.00128094 0.000115211 0 0 -1.52724e-06 -0.0132081 -0.00435882 -0.00361608 -0.00382066 -0.030131 0.042493 0.0972564 0.16677 0.0661949 0.0232199 0.113061 0.235851 0.288769 0.271037 0.302788 0.147576 -0.0389935 -0.0382313 -0.0191931 -0.0354201 -0.00749518 -0.00242429 0.0167309 -0.00139643 -0.00437199 -0.000591491 0 0 -0.00179061 -0.00298129 -0.00453395 0.00203363 0.080022 0.189402 0.220929 0.322446 0.222795 0.0218367 0.326202 0.797956 1.06868 0.910883 0.871875 0.521673 0.208967 0.023463 0.181568 0.0844608 0.0600149 0.0707391 0.0472558 0.0218604 0.00722483 0.000272221 0 1.4552e-05 0.003575 -0.0254838 -0.0142877 0.114512 0.182696 0.204118 0.21258 0.168465 0.0770748 -0.0302571 0.319232 0.109444 0.121129 0.420454 0.400446 0.213675 0.320748 0.455357 0.429512 0.179225 0.314986 0.270727 0.201604 0.0969726 0.0212137 -0.00142924 -8.57802e-06 -0.000292713 -0.00310703 -0.0576105 -0.0634325 0.199133 0.184096 0.299229 0.188786 0.0873173 -0.11323 0.0902366 0.029464 -0.44634 -0.404428 -0.0473812 0.202523 0.309501 0.519581 0.508657 0.441509 0.382527 0.44006 0.441497 0.349985 0.189827 0.0295119 -0.00040132 0.000769732 -0.00080328 -0.00855417 -0.0474702 -0.0793174 0.128587 0.134568 0.154961 0.0804048 0.162994 -0.189697 -0.273754 -0.359118 -0.542939 -0.239362 0.14705 0.224757 -0.111625 0.215824 0.278865 0.418763 0.580735 0.56441 0.466542 0.378499 0.182838 0.00836906 -0.000105028 -0.000287822 -0.00162321 -0.015071 -0.0546616 -0.121778 0.0036194 -0.186207 -0.147393 0.0773957 -0.170025 -0.419803 -0.341655 -0.154995 -0.467957 -0.150784 0.0409927 0.0811572 -0.217759 0.100504 0.183034 0.426182 0.553765 0.364008 0.522323 0.360584 0.169536 0.0253826 -0.0067892 -0.000364088 -0.00206126 0.00093805 -0.0206126 -0.0542704 -0.0868613 -0.361657 -0.21931 -0.260112 -0.233258 -0.127215 -0.275326 -0.119805 -0.467378 -0.179055 -0.232388 -0.46047 -0.0519343 0.266964 0.110141 0.237206 0.525751 0.464766 0.373394 0.331301 0.237252 0.0741397 -0.0151231 -0.00011723 -0.0092393 -0.0134668 -0.128214 -0.129841 -0.171642 -0.384916 -0.233325 -0.185598 -0.0122274 -0.0512049 -0.323433 -0.166538 -0.321032 -0.45948 -0.694602 -0.349527 0.000938619 0.056152 -0.171534 -0.0439479 0.0748095 0.0896005 0.166771 0.111838 0.126298 0.0360424 -0.0104852 -2.47881e-05 -0.013678 -0.0111392 -0.131201 -0.187705 -0.243655 -0.135496 -0.145443 -0.144278 -0.00208651 0.426149 0.347164 0.336374 -0.0572232 -0.25234 0.0266249 0.0907116 -0.0594684 -0.122508 -0.117411 0.119241 -0.199146 -0.201519 -0.199951 -0.00979123 -0.00886326 0.0162899 -0.00664766 -7.21877e-06 -0.00877725 -0.0412114 -0.0288006 -0.0798871 0.00852982 -0.080387 -0.0601927 0.0330475 0.125143 0.214346 0.249419 0.117731 0.0131379 -0.0355079 0.241505 0.157516 0.100164 0.0144492 0.142898 -0.0448189 -0.114635 -0.14325 -0.0244516 0.0104226 -0.0306131 -0.0160472 -0.00986088 0.0009411 -0.00439174 -0.0157297 0.00997586 0.0636377 0.260223 0.19445 0.176559 0.00441389 0.17313 0.281634 0.193152 0.0687511 0.0776146 0.330346 0.104631 0.255208 0.0729325 -0.202689 0.0768236 -0.024388 0.0219748 0.220372 0.0185729 -0.0295118 -0.0557753 -0.047652 -0.000996754 0.000295921 0.000117019 0.013247 0.0955018 0.162026 0.135844 0.197568 0.339613 0.141862 0.139036 0.227398 0.0938704 0.246713 -0.0131667 0.0628368 0.184905 0.341577 -0.144148 -0.147154 0.0244735 -0.179344 -0.0280249 0.0276112 -0.0599636 -0.100032 -0.0260583 -0.0208384 -0.00329161 -6.98635e-05 0.000369938 0.00599629 0.0842627 0.0437561 0.088409 0.220232 -0.00274525 0.0955009 0.366795 0.0168541 -0.373409 -0.0377108 -0.0568123 -0.0149296 0.443831 0.176063 0.0857081 0.00451515 -0.0428671 0.0901603 0.054104 -0.118699 -0.124381 -0.00171011 0.0101453 -0.0543579 -0.00658183 0 -6.65002e-05 0.0185267 0.0213121 0.126292 0.0986119 0.159472 -0.090338 -0.0309855 0.0378754 -0.0517212 -0.226567 -0.448855 -0.0953989 0.203221 0.202539 0.369879 0.0142075 0.0586374 -0.0562346 0.0960794 -0.00661737 -0.0438788 -0.00316775 0.0436626 0.0146231 -0.0235853 -0.000358686 -0.00207187 -1.44608e-05 0.0101477 0.0272963 0.183986 0.252296 0.129717 0.113317 0.175429 0.0660511 -0.218284 -0.259528 0.0729271 0.204463 0.110591 -0.000732269 0.271353 0.0123937 0.0664074 0.084709 0.192914 0.0331627 0.0657113 0.126782 0.122924 0.0408722 -0.00647821 -0.00510821 -6.1813e-06 -0.0142874 0.00263287 0.0581568 0.14472 0.317043 0.339352 0.326392 0.373721 0.366777 0.189657 0.0966934 0.177959 0.265151 0.0497955 -0.0602827 -0.146006 -0.0796443 -0.139918 -0.0365653 0.0153588 0.0696093 0.0882721 0.145334 0.0632666 0.00503088 -0.0067384 -0.000887407 0 -0.00257374 0.0113025 0.0558136 0.150365 0.310913 0.371723 0.31745 0.299906 0.410911 0.174473 0.253224 0.160308 0.0765157 -0.0709269 -0.163522 -0.209752 0.0151869 0.183478 0.170156 0.111285 0.0798139 0.0663174 0.0874452 0.0164415 -0.00656996 -0.00359958 -1.16053e-05 4.57697e-06 0.000238439 0.0188318 0.0628625 0.140764 0.235773 0.296121 0.317136 0.21263 0.237603 0.0558304 0.182596 0.0667411 0.088202 -0.0659644 -0.42479 -0.136455 0.260169 0.344507 0.147143 0.11819 0.103411 0.159735 0.0437245 -0.0398531 -0.0116562 -0.00105389 1.40444e-07 4.43394e-06 1.77156e-05 0.0183756 0.0417171 0.0797136 0.114739 0.189577 0.229096 0.170347 0.115985 0.196807 0.315115 0.243776 0.107479 -0.083777 0.0118012 0.263477 0.142595 0.180147 0.262125 0.202244 0.136947 0.0464318 -0.0511008 -0.0534072 -0.0458057 -0.00116767 2.59281e-07 0 0 0.015528 0.0337131 0.0184453 0.000689783 0.0396753 0.152727 0.184447 0.285282 0.315041 0.322006 0.321605 0.101369 0.105515 0.0654815 0.208225 -0.0252764 0.377415 0.252431 0.192667 0.12114 -0.0262055 -0.0835878 -0.0678755 -0.0117795 -0.00377747 0 0 0 0.0130932 0.0244063 -0.0122113 -0.0816858 -0.055402 0.0898441 0.153721 0.396149 0.411516 0.520271 0.570235 0.447298 0.232622 0.45517 0.375779 0.269944 0.349188 0.0743099 -0.085144 -0.0172067 0.028701 -0.0559598 -0.0310639 -0.00544294 -0.000176441 0 0 0 0.00126154 0.00550656 -0.0177414 -0.0835336 -0.0889447 -0.105319 -0.118856 -0.000935291 0.13882 0.188475 0.0617908 0.00712317 -0.188368 0.0713526 -0.359581 -0.0730719 0.0146501 -0.249338 -0.202321 -0.135018 0.00378054 0.0178955 -0.00903978 -0.000235155 -3.3668e-05 0 0 0 0 -0.000149168 -0.0111915 -0.0303991 -0.0577234 -0.105725 -0.163486 -0.171738 -0.180389 -0.182536 -0.237357 -0.165016 -0.35561 -0.111338 -0.124319 -0.0563484 -0.106298 -0.0418579 -0.140647 -0.192521 -0.0443792 -0.00551489 -0.00318296 -8.70866e-06 0 0 0 0 0 0 -2.68062e-05 -0.000297509 -0.0126534 -0.0696023 -0.0644118 -0.0168969 -0.0310336 -0.00541402 -0.0293516 -0.0513644 -0.112319 -0.0407075 -0.0295487 -0.0322194 -0.0563176 -0.0161296 -0.0113948 -0.0281331 -0.0257628 -0.00332818 0 0 0 0 ^0 0 0 0 0 0 0 0 0 0 0 0 2.21744e-05 5.69231e-05 9.31286e-06 3.88036e-07 0 0 0 0 0 0 0 0 0 0 0 0 0 0 0 0 2.58853e-06 -1.72627e-06 -0.000445797 -0.000743592 0.000193541 0.00139097 0.00327143 0.00609584 0.00703386 0.00801905 -0.0102997 -0.0141872 -0.000899325 0.000365636 0.000536252 0.0035026 0.00275957 0.000545284 -0.000117703 -0.000360422 0 0 0 0 0 0 2.8497e-06 0.000578364 0.00030055 -1.15812e-06 -0.000270272 -0.000920041 0.000823567 0.00292411 0.0088525 0.00995999 0.0128912 -0.0152595 -0.0670399 -0.106679 -0.05178 -0.00109255 0.0288181 0.0308843 0.0163358 0.0109433 0.0069589 0.00150227 0.000597292 4.61213e-05 0 0 0 0 -0.00104013 0.00126534 -0.00152116 -0.00149257 -0.00283395 -0.00468567 -0.00583673 -0.0389213 0.0698116 0.199372 0.170441 0.0959099 0.0887533 -0.0690136 -0.0108385 0.129486 0.147308 0.0548636 0.0652067 -0.00130698 0.00209024 -0.00574538 -0.00637979 -0.0010047 0.000184343 0 0 -1.78321e-06 -0.00359881 -0.00122782 -0.00511115 0.0227863 0.0260335 0.0330862 0.0506339 -0.00528372 0.0177389 0.125138 0.164896 0.184123 0.165808 -0.0699802 0.00536147 0.215945 0.0871906 -0.0649447 -0.0152356 -0.00761472 0.0250349 0.0272413 0.0333093 0.0107005 0.00900153 8.15135e-05 0 0 -0.000723534 0.00491103 -0.0238404 1.82368e-07 -0.00252757 0.0171799 -0.0201765 -0.0691878 -0.00255904 0.101572 0.153811 -0.194853 -0.264129 -0.321093 0.0156859 0.128658 0.0987466 0.0085492 0.162692 0.0499595 0.0519023 0.0410144 0.0419471 0.0278904 0.00554358 0.00122613 0 3.51864e-06 0.0107003 0.00297839 -0.0214019 -0.0108999 -0.035721 0.0474464 0.0655028 0.194495 0.0267055 -0.14 -0.245181 -0.0699597 0.125095 0.192207 0.0941489 0.122729 0.112645 0.00983885 0.148057 0.128038 0.141451 0.0596555 0.0809202 0.0553146 0.0200391 0.00290285 -1.16059e-05 -0.00093641 0.0190309 -0.0421239 -0.139619 -0.0338123 -0.0315042 -0.127884 0.152493 0.172279 0.164297 0.0623864 0.0278537 0.333552 0.232696 0.242348 0.0523355 0.246883 -0.0488423 -0.0583515 -0.0353578 0.132214 0.154156 0.0663513 0.151768 0.117987 0.0208259 0.00112628 0.000150225 -0.00308703 -0.00285233 -0.0300799 -0.186903 -0.0331036 0.0603592 -0.145782 -0.127012 0.0361296 -0.046459 -0.0435935 -0.103366 0.13975 -0.0555942 -0.0876497 0.209082 0.177553 -0.133194 0.014087 -0.0614352 0.162151 0.045673 -0.0206215 0.161175 0.0916367 0.0239409 0.00405723 -0.000375004 -0.00447541 -0.029312 -0.0506731 -0.118812 -0.14583 -0.0596992 -0.201576 -0.0149264 -0.0678682 -0.017672 -0.128857 -0.0303015 -0.13479 -0.344708 -0.0910208 0.380463 0.249103 0.00744329 0.063464 0.0407303 0.00185277 -0.179673 -0.124374 0.156091 0.0810556 0.0118462 0.000649919 -0.000480504 -0.00476638 -0.0608924 -0.0233308 -0.129267 -0.27572 -0.0993004 -0.0561094 0.0241243 -0.00700929 -0.131334 -0.160242 -0.228977 -0.479345 -0.291486 0.225928 0.305363 0.079583 -0.00618202 0.0385405 -0.0366624 -0.0695601 -0.148874 -0.102087 0.132756 0.0662739 0.0168421 3.6218e-05 -0.000182418 -0.0153214 -0.0668575 -0.100216 -0.176814 -0.199595 0.0484843 -0.171095 0.105426 -0.0628981 -0.0595218 -0.123018 0.0997689 0.0057902 0.166161 0.417587 0.165087 0.240398 -0.0238451 -0.0663299 -0.013926 0.0731546 0.141889 0.102324 0.123335 -0.00617263 0.00575784 -1.94959e-05 -6.29798e-05 -0.0194026 -0.0565393 -0.0243084 -0.118535 -0.0619628 0.215691 -0.218586 -0.202965 0.100394 0.119708 -0.061702 0.134186 0.495576 0.37281 0.303591 -0.0100872 0.139761 0.113087 0.237893 0.171476 0.233175 0.0535051 0.0713373 0.0569124 -0.0381022 -0.00179319 -0.00128133 -1.57646e-05 -0.00924739 -0.0711588 0.0557542 0.0492467 0.038019 0.0182837 0.0596741 0.0566518 -0.0476044 0.0623731 0.132135 0.441683 0.808571 0.506261 0.361349 0.106825 0.347738 0.24054 0.373371 0.19498 0.0499657 0.087195 0.0910724 0.00286785 -0.0211288 -0.008679 -0.00330218 6.88915e-05 -0.00174157 -0.0355995 0.0479379 0.175536 0.175289 -0.0131137 0.0192695 -0.108217 -0.181659 -0.242233 0.194637 0.461256 0.663943 0.306486 0.152969 0.218 0.257467 0.0863738 0.084609 0.0585138 -0.0363947 0.0319859 -0.0128465 0.0061944 -0.0253548 -0.00545864 -0.00010842 1.28987e-05 0.00517387 -0.0131777 0.003664 0.0882734 0.125582 -0.118347 -0.171686 -0.0370976 -0.196286 0.138193 0.452378 0.67604 0.753635 -0.0470128 0.12349 0.266486 0.244973 -0.0989354 0.031709 -0.184489 -0.022085 -0.114993 -0.00729085 -0.0434435 -0.0207843 0.00609 -0.000936486 -5.51926e-05 0.00271704 0.00965183 0.0364481 0.0222309 0.121948 -0.017552 -0.213114 -0.0994005 -0.0534663 0.271102 0.972723 0.9584 0.564419 -0.344015 -0.301773 0.0130314 -0.00162985 -0.0677722 -0.165041 -0.230392 -0.152344 -0.065803 0.00204683 -0.0188919 0.0232374 -0.013494 -0.00172873 0 0.000767721 0.0130197 0.0795566 0.0445562 0.0569295 0.0938501 0.0699607 0.168072 0.233938 0.553267 0.905585 0.804877 0.153059 -0.520699 -0.606613 -0.0825505 -0.0680422 -0.15804 -0.0299437 -0.0877809 0.0990206 0.0826141 0.0762968 0.0465647 0.00511227 -0.00728753 -0.000878715 -0.00285762 -1.67856e-05 0.00254041 0.138884 0.125605 0.047205 0.124981 0.0567083 0.26605 0.338422 0.670062 0.812559 0.613543 -0.0601974 -0.727265 -0.388741 0.125551 0.0784445 -0.200728 0.0201314 0.169876 0.134717 0.261985 0.253461 0.121794 0.0115908 -0.00318891 -0.00442324 -6.08082e-06 -0.0222475 -0.00965648 0.127058 0.0720953 0.0876509 0.080919 0.21737 0.322379 0.393527 0.576272 0.616163 0.367782 -0.305096 -0.688902 -0.373591 -0.15619 -0.199681 0.12698 0.0160519 0.021689 0.139679 0.413827 0.25275 0.117881 -0.00395514 -0.00204867 -0.000871566 0 0.000106895 -0.00302602 0.0712179 0.15434 0.200446 0.0737954 0.0554261 0.31044 0.340237 0.28894 0.252926 -0.122122 -0.282259 -0.536177 -0.446182 -0.322687 -0.26571 -0.0934566 -0.0863861 0.00822055 0.0601964 0.343662 0.229699 0.122915 0.00432364 -0.00128638 -1.88598e-05 -4.28148e-06 7.70797e-05 0.00531382 0.0594233 0.144326 0.159753 0.120401 0.179461 0.251391 0.180478 -0.0651173 -0.0936926 -0.00122389 -0.302615 -0.220157 -0.583886 -0.261226 -0.392764 -0.181968 -0.204869 0.0150287 0.0379428 0.27905 0.165612 0.0787992 -0.0268694 0.000279503 1.44265e-07 -4.14768e-06 8.99979e-06 0.0138567 0.0432841 0.0166659 0.0418996 0.0842407 0.12938 0.15728 0.0706404 0.246083 0.200559 0.004183 0.0452867 -0.204705 -0.196902 -0.0501456 -0.214437 -0.287313 -0.246361 -0.16006 0.0705423 0.179473 0.0844879 -0.00799983 -0.0262546 -0.00110062 2.66335e-07 0 0 0.0290539 0.0527187 0.0569576 0.0741602 0.0449343 0.0598221 0.24225 0.0894283 0.340922 0.353967 0.20209 0.153789 0.105953 0.00871445 0.150363 -0.196184 -0.237712 -0.287994 -0.142041 0.0191182 0.0932768 0.0871869 0.0367106 -0.017941 -0.000855732 0 0 0 0.0333985 0.0548689 0.09789 0.0678548 0.0420337 0.160715 0.0758151 0.101508 0.168464 0.19231 0.223914 0.0878517 -0.0545821 -0.0486215 0.264232 -0.0774327 -0.0822013 -0.0959467 -0.0168577 -0.0147344 0.0322673 0.0391672 -0.027598 -0.0315493 -0.000202796 0 0 0 0.00542685 0.00971941 0.0139885 0.0382134 0.0336444 0.0445536 -0.0297799 -0.0332444 0.257404 0.175633 0.0680082 0.204465 -0.0430203 -0.0287839 0.129647 0.128952 0.0171532 -0.00450118 0.0694644 -0.0207591 -0.0243905 0.0183714 -0.00123667 -1.6353e-05 -6.26516e-06 0 0 0 0 5.16754e-05 -0.00103973 -0.000911278 0.0188689 0.00975857 -0.0589081 0.0483406 0.117388 0.0498425 0.125287 0.18621 0.0707791 -0.0434671 0.066453 0.00560672 -0.142661 -0.121261 -0.0332428 -0.00437081 -0.0226385 0.00412377 9.48155e-05 -7.16492e-06 0 0 0 0 0 0 -3.40213e-05 -0.000325084 0.000196079 0.00118335 -0.00043013 -0.000300507 -0.021261 0.0187744 0.0125289 -0.0505736 0.0483101 0.0496983 0.009648 -0.0211675 -0.0303851 -0.0135471 0.003971 -0.0153685 -0.0311401 -0.0113326 0 0 0 0 ^0 0 0 0 0 0 0 0 0 0 0 0 0.00251868 0.0055574 4.71438e-05 1.96433e-06 0 0 0 0 0 0 0 0 0 0 0 0 0 0 0 0 -5.09704e-06 -8.62831e-07 0.000996838 0.00237198 0.00398784 0.00182133 0.00488007 0.00730929 0.0138254 0.002606 -0.00858682 0.0176837 0.00401685 0.0198527 0.00682052 0.00382253 0.00188444 0.000859297 0.00123135 0.00155901 0 0 0 0 0 0 -1.13004e-05 6.83745e-05 -6.66708e-05 0.000142175 0.00298768 0.0123216 0.0203736 0.0451612 0.0732068 0.0678545 0.0944531 0.121098 0.159245 0.191362 0.156277 0.117652 0.0845073 0.0292247 0.0417943 0.0645215 0.0284228 0.00733466 0.00355193 0.000551428 0 0 0 0 -0.000152159 0.00166025 0.00195287 -0.00655441 0.0051786 0.00146789 0.00310467 0.0293907 0.0125912 -0.0477913 -0.0895206 0.0486352 0.192219 0.199201 0.292106 0.199071 0.158701 0.0879665 0.0919744 0.147702 0.115642 0.100408 0.0544985 -0.00764589 -0.000611913 0 0 -2.54746e-05 -0.000487374 -0.00173717 -0.0105477 -0.0175797 -0.00678961 -0.00542599 -0.0540364 -0.020487 -0.0520905 -0.285847 -0.107485 -0.0576939 0.0665152 -0.0997659 0.0719888 0.0246082 -0.204646 -0.0752002 0.0982589 0.101081 0.0162234 -0.0230991 -0.102304 -0.0989127 -0.0358513 0.00107072 0 0 0.000882398 -0.00172652 -0.0142424 -0.0369554 0.0351805 0.0204911 -0.025073 -0.145448 -0.291676 -0.199152 -0.0172774 0.0758253 0.169529 0.107213 -0.103211 -0.0418444 -0.219795 -0.0652218 0.0192982 0.0800672 -0.13627 -0.148971 -0.136205 -0.120078 -0.0103946 -0.00254818 0 2.3468e-06 -0.00843931 -0.0194454 -0.054813 -0.120448 -0.0153327 0.0553459 -0.0559692 -0.175396 -0.341704 -0.219251 -0.122614 0.0416643 0.132622 0.163362 -0.0738108 -0.0578095 -0.194097 -0.0981571 -0.00576568 0.0639954 -0.116452 -0.180541 -0.158114 -0.120355 -0.0691013 -0.00962698 2.03858e-07 2.67845e-06 -0.01475 -0.0471423 -0.100077 -0.0901195 -0.111541 -0.0574397 -0.140378 -0.234953 -0.140411 -0.193451 -0.15273 -0.0210529 0.14141 0.209149 -0.0437868 0.128201 0.0122702 -0.091833 -0.114595 0.013395 -0.00327627 -0.160378 -0.176499 -0.22016 -0.0310004 -0.00313074 0.000180361 0.000337898 -0.0206575 -0.0390132 -0.0667788 -0.0604668 -0.0797742 -0.0294847 -0.18993 -0.248792 0.0360181 0.0227428 0.0736943 0.173009 -0.0112424 -0.113056 -0.288336 0.00431169 -0.316594 -0.112744 -0.0431588 -0.116315 -0.0873133 -0.12386 -0.116292 -0.140371 -0.00124643 -0.000207659 -3.63077e-05 -0.000951228 -0.0123605 -0.017725 -0.0582953 -0.105097 -0.162472 -0.106004 -0.261616 -0.07092 0.0308251 -0.0980489 -0.019246 0.123059 0.097882 0.0372712 -0.2143 -0.186031 -0.310249 -0.105991 0.0144476 -0.0220532 -0.105984 0.0188288 -0.160437 -0.155625 -0.00681929 -0.00571571 -4.49964e-05 -6.20706e-07 -0.0114341 -0.0636449 -0.0884775 -0.121276 -0.156864 -0.037572 -0.0628627 0.0810029 0.215001 -0.0494317 -0.0226237 0.109438 0.259441 0.0486744 -0.0808781 -0.0624942 0.0424766 -0.0674429 0.0292111 0.0159774 -0.0442411 0.00568672 -0.2063 -0.197782 -0.0545355 -0.00715237 -3.17171e-05 0.00104608 -0.0029329 -0.0450557 -0.0706402 -0.00870941 -0.0611801 0.169594 0.0788 0.370175 0.123387 -0.0202598 -0.0517277 0.0873916 0.490581 0.177562 -0.00118799 -0.295986 -0.242532 -0.137483 0.152124 0.0907874 0.0733374 0.0945923 -0.0109275 -0.132386 -0.051699 -0.000530762 -1.03496e-05 1.19591e-05 -0.00215945 -0.00715638 -0.0247849 -0.0381099 -0.0481808 0.0734422 0.126121 0.411434 -0.129023 0.0799562 -0.117635 0.092599 0.376441 0.29577 0.0639909 0.0522653 -0.138861 -0.170461 0.144606 0.153495 0.253906 0.308153 0.224645 0.0037903 -0.0445074 0.000835627 3.781e-06 -0.000246443 0.000567204 -0.00132888 -0.0746992 -0.118319 -0.216747 -0.176079 0.00624225 0.0274901 -0.198394 -0.0599669 -0.141115 0.0726902 0.399094 0.368532 0.0128734 0.0261828 -0.0963545 -0.237297 -0.0659605 -0.137753 -0.130534 0.094112 0.105165 0.0378804 0.0216369 0.0156546 -5.09466e-05 -0.00103417 0.00106319 0.0105287 -0.124721 -0.153386 -0.152514 -0.15556 -0.114995 -0.100605 -0.0174411 0.162132 -0.0501962 0.144962 0.327602 0.0513146 -0.13981 -0.1909 -0.380623 -0.263268 -0.155501 -0.232637 -0.175493 -0.213094 -0.0708723 0.0442925 0.0421007 0.00256606 -1.72657e-05 -0.00194906 0.00648441 -0.0147329 -0.115036 -0.162112 -0.0770773 0.0721137 0.002946 0.241934 0.0217317 0.0708267 0.187078 0.383698 0.381885 -0.290672 -0.322263 -0.262051 -0.212621 -0.281969 -0.235167 -0.182828 -0.11694 -0.108802 -0.165421 0.0430224 0.0222451 0.00247986 -3.3374e-06 -0.00105021 -0.001691 -0.0243606 -0.114271 -0.150385 -0.232007 0.0867621 0.169193 0.457995 0.329124 0.357512 0.411347 0.293379 -0.174867 -0.431515 -0.22451 -0.181413 -0.193812 -0.401335 -0.23194 -0.219353 -0.144095 0.000439635 -0.0872987 0.0587962 0.0225103 0.00243701 0 -0.000607292 -0.00929582 -0.0388108 -0.0935763 -0.191919 -0.351298 -0.109509 0.00842744 0.192286 0.265885 0.460877 0.777634 0.147215 -0.417205 -0.645166 -0.241125 -0.277317 -0.228034 -0.256109 -0.0969759 -0.0771092 0.0499986 -0.108896 -0.0780849 0.0414213 0.00561227 0.00185242 8.96482e-06 -0.000381617 -0.0104188 -0.0493976 -0.120959 -0.190622 -0.326211 0.0605019 0.31548 0.435476 0.214226 0.562082 0.609975 0.0397158 -0.55909 -0.579931 -0.558514 -0.181274 -0.107338 -0.129421 -0.0554596 0.0558365 0.0419064 0.0745771 0.0537117 0.046747 0.00437698 0.00953882 -4.97993e-07 -0.00157345 -0.0112484 -0.0512751 -0.160908 -0.253655 -0.224601 0.179979 0.394734 0.550407 0.355416 0.464043 0.11774 -0.211455 -0.605715 -0.370605 -0.230072 -0.0947103 -0.172053 -0.0557165 0.121977 0.0948921 0.108295 0.185783 -0.010867 0.0214974 0.0133637 0.00422924 0 -0.00474207 -0.0161361 -0.0544444 -0.140941 -0.122419 0.0863312 0.171049 0.0751523 0.113204 0.163005 0.362443 0.220077 -0.22974 0.0399292 -0.0895001 -0.279917 -0.142326 -0.0401744 0.0590423 0.219374 0.197956 0.190058 0.154868 -0.0474425 -0.0263698 0.00534187 3.76712e-06 2.32457e-05 -0.000112471 -0.0155769 -0.0478327 -0.112696 0.0605413 0.164804 0.0921018 0.0182139 0.183795 0.230157 0.319908 0.141139 0.00546257 0.0614733 -0.113176 -0.30303 -0.108556 -0.0941311 0.0541102 0.0693215 0.157682 0.185457 0.141722 -0.0693699 -0.0295806 0.00525005 -7.73654e-06 2.25193e-05 6.54993e-06 -0.0080523 -0.0130877 -0.0409374 0.245209 0.272946 0.159608 -0.0753177 0.0776849 0.367389 0.163816 -0.0238678 0.000662517 0.0284262 -0.10848 -0.221157 -0.228637 -0.153656 0.0364885 0.0772716 0.140674 0.0594136 0.0369746 -0.0321733 -0.0262692 -0.00440697 -1.42828e-05 0 0 -0.0008432 -0.0268582 -0.0544139 -0.0807379 0.029886 -0.0272023 -0.0380631 0.0706285 0.0936699 0.0168771 0.187893 0.220338 0.0757067 0.0593547 0.156666 0.0117421 0.0100612 0.0296516 -0.027723 -0.059651 0.0178308 -0.0493057 -0.0553663 -0.0254187 -0.00256095 0 0 0 -0.000294275 -0.0393768 -0.128101 -0.219232 -0.23403 -0.349822 -0.077471 0.183157 0.241091 0.26903 0.250394 0.16562 0.227833 0.241088 0.116725 -0.254883 -0.150909 -0.0867226 -0.184343 -0.124962 -0.066032 -0.0420779 -0.0116292 0.00268874 0.000835184 0 0 0 -5.99204e-05 -0.00696963 -0.0678991 -0.150268 -0.110088 -0.190699 -0.199512 -0.0842176 0.0352436 -0.0941361 -0.189153 -0.0980609 0.0495469 0.0164067 -0.176212 -0.126395 -0.138488 -0.167562 -0.133598 -0.0933035 -0.0472477 -0.00651931 0.00146335 0.000674514 0.00082701 0 0 0 0 -0.000517429 -0.0206914 -0.0581436 -0.0774327 -0.0433096 -0.0353682 -0.0332947 -0.0364278 -0.0452985 -0.0961108 -0.115717 -0.150348 -0.16656 -0.116182 -0.0848343 -0.0636756 -0.0510409 -0.0559104 -0.0384148 -0.0219163 -0.000155667 9.49216e-07 -4.27116e-06 0 0 0 0 0 0 -6.32185e-05 -0.000192959 -0.000909787 -0.00395144 -0.00373442 -0.00312075 0.000574574 -0.00257845 -0.0130405 -0.009996 -0.0149202 -0.0103624 -0.00694115 -0.00660227 -0.0156682 9.36358e-05 -0.00190301 0.00519349 0.00504921 0.000567472 0 0 0 0 ^0 0 0 0 0 0 0 0 0 0 0 0 -0.00339646 -0.00715059 0.000318813 1.32839e-05 0 0 0 0 0 0 0 0 0 0 0 0 0 0 0 0 -1.00051e-05 0.000131027 0.00716467 0.0133572 0.00471744 0.00199162 1.69023e-06 -0.00675969 -0.00842028 -0.0116726 -0.00200738 0.0121731 0.0191497 0.000341556 -0.00656536 -0.00011906 -0.00150768 -0.00332426 0.00238125 0.00409409 0 0 0 0 0 0 -2.64989e-05 8.87347e-06 -0.000261184 0.00056038 0.00794972 0.0133648 0.00658199 0.0182731 0.0377597 0.0249058 0.00344509 0.0066208 0.0322339 0.0698458 0.09207 0.0666707 0.0234403 -0.0394903 -0.0233489 -0.0290777 -0.0288254 -0.00928303 0.000792321 0.00270773 0 0 0 0 0.0014015 0.000801221 -0.00697361 0.00205029 0.00563697 0.029243 0.0721819 0.0979807 0.0823904 0.0645101 0.201067 0.292715 0.240501 0.353034 0.284392 0.137424 0.0378783 -0.05718 -0.0660156 -0.060492 -0.0215213 -0.0201817 -0.00375332 0.00860868 -0.000559942 0 0 -1.1519e-05 0.00498574 0.00632596 -0.00368849 -0.0275984 0.0150347 -0.0110505 0.0493562 0.116231 0.268105 0.307758 0.266677 0.233388 0.563993 0.620761 0.531356 0.27459 0.379794 0.199907 0.200333 0.0534945 -0.0934033 -0.142257 -0.0899613 0.022265 0.0232048 0.00234119 0 0 0.00170232 0.0110568 -0.00885171 0.029172 0.0878244 0.0665603 0.0242521 0.035744 0.331894 0.378396 0.334832 0.357071 0.242294 0.432735 0.677007 0.81373 0.854315 0.609824 0.594751 0.458813 0.0312816 -0.171871 -0.0634267 0.0677972 0.0479832 -0.00252335 0 4.20114e-05 -0.00441843 0.0567716 0.0183093 -0.011405 0.148959 0.205385 0.296285 0.368756 0.359438 0.32336 0.321153 0.604283 0.713463 0.794101 0.912064 0.435914 0.464865 0.269233 0.259761 0.141789 -0.0683893 -0.0493114 0.159401 0.137764 0.0221717 0.00204923 1.3671e-05 0.00245044 -0.000890374 0.0573131 0.0836433 -0.0142082 0.0975478 0.12748 0.304648 0.232991 0.261036 0.217363 0.436899 0.401537 0.271428 0.313307 -0.0169314 -0.513828 -0.500492 -0.0358533 -0.109439 -0.360233 -0.396296 -0.175739 0.133946 0.066833 0.00246356 0.00326924 6.42033e-05 0.000625106 -0.00330091 0.088586 0.167833 0.116875 0.143571 0.00859969 0.375181 0.25862 0.494394 0.501505 0.206727 0.0576859 -0.0849742 -0.483944 -0.679219 -0.405196 -0.0961609 0.0168321 -0.164321 -0.386031 -0.195716 -0.34623 -0.0783287 0.00100249 0.12771 0.0531428 2.0931e-05 0.000481369 0.00783236 0.125783 0.211775 0.164348 0.163256 0.124036 0.295172 0.446697 0.176749 -0.174296 -0.314076 -0.405291 -0.30555 -0.67645 -0.651957 -0.167337 -0.363869 -0.313776 -0.159099 -0.180347 -0.0995171 -0.0555726 -0.143116 -0.000768963 0.0448413 -0.00970579 2.14455e-05 0.000586202 0.0148753 0.0484122 0.0546819 0.0796519 0.136506 -0.159968 -0.220251 -0.337368 -0.398059 -0.423626 -0.518187 -0.459588 -0.425057 -0.668617 -0.168923 -0.466972 -0.363102 -0.227175 -0.13357 -0.0481007 -0.156349 -0.1025 -0.220358 -0.0873695 -0.0406388 -0.004718 9.53238e-05 0.00210916 0.00590929 0.0278148 -0.0251277 -0.0291853 0.0981025 -0.243275 -0.423434 -0.385098 -0.296601 -0.367045 -0.364206 -0.14619 -0.0853187 0.0446232 0.179234 0.211813 0.117375 -0.237002 -0.273094 -0.232667 -0.137497 -0.138887 -0.0661469 0.015839 -0.00399408 0.00283906 0.000105268 -0.00126222 -0.00438562 -0.00468171 -0.0426486 -0.179415 -0.0600629 -0.201195 -0.436426 -0.255479 -0.388833 -0.476619 -0.407272 -0.213069 0.13142 0.0522865 0.326777 0.13172 0.0704339 -0.15751 -0.26709 -0.130256 -0.0178808 0.0251845 0.0958906 0.084033 -0.000164717 0.00171992 5.5029e-06 -0.00492322 -0.00423807 0.0229732 -0.146806 -0.331971 -0.178195 -0.084948 -0.254056 -0.0749015 -0.383153 -0.268274 -0.635863 -0.269385 0.170747 0.234279 0.122363 0.00356159 -0.0797752 -0.224172 -0.254934 -0.170469 0.0152818 0.0730515 0.0559001 0.0517649 0.00290625 0.00165981 -0.00107747 -0.00228668 -0.000694218 0.0446973 -0.11623 -0.330242 -0.163581 -0.186402 -0.0179936 -0.129155 0.0395035 -0.138524 -0.506782 -0.0989446 0.245833 0.00824603 -0.24058 -0.379763 0.166086 -0.0702638 -0.173879 -0.0333079 -0.11671 -0.0177137 0.0417418 0.0608136 0.0384943 0.000178246 -0.000352719 -0.000109645 0.0126107 -0.0057847 -0.0318186 -0.11948 -0.220133 -0.379628 -0.230808 -0.0765141 -0.233126 -0.167469 -0.252365 0.388366 0.25184 0.017582 -0.304185 -0.385585 0.155902 0.176837 0.0304895 0.0916738 0.00940514 0.023663 0.0662745 0.0700175 -0.00199736 0.00420803 4.65716e-07 0.000507093 0.023849 0.0167976 0.0656943 6.99482e-05 -0.183401 -0.247105 -0.314891 -0.10571 -0.185214 -0.222262 0.0525393 0.192817 0.0705327 -0.0565719 -0.0796407 -0.301868 0.0226118 0.0831902 0.219517 0.0672283 0.124686 0.197922 0.0236353 0.0731061 0.0107685 0.0109281 0 0.000162176 0.00941858 0.0560769 0.0808649 -0.0375662 -0.0695364 -0.173247 -0.139399 -0.363912 -0.158644 0.184422 0.384403 -0.0216435 -0.20177 -0.167967 -0.116158 0.0329294 -0.0717582 -0.225442 -0.0483397 0.0895597 0.180163 0.157689 0.0908956 0.0868332 0.0256667 0.00469927 -4.80353e-06 3.44799e-05 0.00366545 0.133482 0.106218 0.00143424 -0.00213083 0.0216033 -0.20468 -0.369935 -0.154739 0.154782 0.0440712 -0.088181 -0.126482 -0.200347 -0.00658575 -0.0183296 0.00569806 -0.177768 -0.00300602 0.169318 0.3056 0.202487 0.22744 0.0819037 0.0154052 0.00579981 3.30456e-06 0.000188077 0.0148668 0.180501 0.118132 -0.00598099 -0.032396 0.0331725 0.192716 0.21744 0.0748403 0.280367 0.385679 0.283632 -0.0521811 -0.212477 0.10048 -0.042559 -0.021082 0.109006 0.0857814 0.112906 0.314695 0.26606 0.232801 0.0819715 0.0123432 0.00119512 0 0.000618343 0.0203077 0.210113 0.296945 0.222314 0.347288 0.450743 0.53289 0.248958 0.0408827 0.421609 0.491175 0.377629 0.221619 0.148458 0.309003 0.00462411 0.154526 0.268075 0.257908 0.258802 0.29232 0.216213 0.138269 0.0497882 0.00453035 2.25906e-05 1.4956e-05 0.000705948 0.0155032 0.0930518 0.234046 0.389522 0.416362 0.499356 0.53443 0.15187 0.0239269 0.188777 0.316475 0.202538 0.203841 0.304393 0.441511 0.302973 0.241763 0.301941 0.246592 0.246481 0.0670081 0.150847 0.0929937 0.0405849 0.00228759 -1.45241e-06 1.44886e-05 2.71631e-05 0.0104131 0.0448895 0.225716 0.378099 0.30645 0.271613 0.368031 0.178878 0.00571927 0.1084 -0.168061 0.103912 0.295233 0.278257 0.308156 0.402335 0.273163 0.0887836 0.280825 -0.0240874 -0.0542551 0.0796654 0.018829 0.0159095 0.00057365 -2.68138e-06 0 0 0.00262161 0.0193599 0.12609 0.222933 0.141495 0.0903715 0.259362 0.147733 0.0101461 0.124397 -0.0499133 0.147202 0.221516 0.303214 0.260042 0.317027 0.367301 0.174053 0.16989 -0.0580021 -0.0488615 0.0126127 0.0167857 -0.00364582 0.00615915 0 0 0 0.000281982 0.00443861 0.0138084 -0.0213065 -0.0875119 -0.0871343 0.0462737 0.198176 0.000536089 0.106053 0.295784 0.312527 0.424933 0.350554 0.0792326 -0.123791 0.0121022 0.104718 0.212397 0.00053282 -0.0569895 0.0214227 0.0131919 0.00133872 0.000557568 0 0 0 -1.50329e-05 -0.00574872 -0.0119582 -0.012676 -0.0456177 -0.0524002 0.015372 0.0651614 0.0324076 -0.0209831 0.0769319 0.140007 0.097549 -0.0450838 0.118455 0.149633 0.205295 0.24769 0.0661237 -0.0461882 -0.0974903 -0.0501486 -0.00472267 0.00023312 0.000480591 0 0 0 0 -0.000225082 -0.00432557 -0.00969226 -0.0124622 -0.0158722 -0.0238559 -0.0194972 0.00658553 0.0112368 -0.0330697 -0.000105282 -0.00291666 0.013532 0.0170949 0.035015 0.103933 0.0779366 0.00946135 0.0122728 0.000895383 0.00135139 0.000488273 3.46149e-06 0 0 0 0 0 0 -4.44782e-05 -0.00010724 -6.94467e-05 0.000191923 0.000236219 0.000145879 0.00710487 0.000588703 -0.000268485 -0.000109726 0.000445457 -0.000249381 0.00297908 0.00162374 0.0040566 0.00205024 -0.000749068 0.00272975 0.00114329 0.000179079 0 0 0 0 ^0 0 0 0 0 0 0 0 0 0 0 0 0.00037341 0.0008614 4.86966e-05 2.02903e-06 0 0 0 0 0 0 0 0 0 0 0 0 0 0 0 0 -4.73316e-06 -1.28439e-06 0.000906945 0.00215768 0.00353956 0.00158391 0.00373574 0.00552257 0.00778679 0.00241388 0.00558493 0.00840956 0.00173829 0.00629752 0.00285569 0.00231354 0.00105342 0.000397048 0.000635142 0.000649265 0 0 0 0 0 0 -1.13915e-05 7.16293e-05 -6.88628e-05 0.000128463 0.00277345 0.00860978 0.0151005 0.0288093 0.0399291 0.0376111 0.0660866 0.094092 0.130406 0.141556 0.109007 0.0667519 0.0365933 0.0250477 0.015643 0.022003 0.0142276 0.0101324 0.00489117 0.000826994 0 0 0 0 -0.00170678 0.000888866 0.00164628 -0.00328884 0.00187802 -0.0229116 -0.0390093 0.027328 -0.000714041 -0.0165005 -0.025628 0.0408425 0.121572 0.196946 0.205853 0.134827 0.0711421 0.0187227 -0.0105563 0.106016 0.094173 0.0645998 0.0247095 -0.0543882 -0.00323225 0 0 -2.55104e-05 -0.00582114 -0.00407138 -0.0135666 -0.0253267 -0.0208925 -0.0252923 -0.104185 -0.0565744 -0.0798141 -0.212589 -0.0531189 -0.0777619 -0.0647737 -0.0436276 0.0438194 -0.035794 -0.194693 -0.0842018 0.0337242 0.00342629 0.0227841 -0.07416 -0.118446 -0.0933703 -0.0305102 0.00417951 0 0 7.04677e-05 0.000107443 -0.013856 -0.0602226 -0.024542 -0.0686971 -0.160932 -0.247254 -0.286931 -0.196729 -0.0143435 0.0799164 0.23088 0.215629 0.0808896 0.0310029 -0.0314681 -0.03642 -0.0178916 0.143666 -0.0986111 -0.145102 -0.0218053 -0.0519402 -0.00216079 -0.000448328 0 9.29516e-07 -0.00629215 -0.0115567 -0.0580536 -0.131134 -0.0988065 0.00106466 -0.056381 -0.250601 -0.337866 -0.20172 -0.0576658 -0.0313857 0.0762224 0.057268 -0.108814 -0.116544 -0.142068 -0.166529 -0.0746556 -0.098683 -0.134069 -0.148809 -0.0523691 0.00664125 -0.0127292 -0.00011366 9.08035e-08 -0.00018565 -0.00870269 -0.0395776 -0.104431 -0.163381 -0.153257 -0.0382968 -0.0725725 -0.353202 -0.231932 -0.342035 -0.155836 -0.109824 -0.00918341 -0.193219 -0.345204 -0.22421 -0.166381 -0.150095 0.000743373 -0.1002 0.0289658 -0.145182 -0.183238 -0.095128 0.0198787 0.00413626 8.29837e-05 0.000109247 -0.0162634 -0.0354413 -0.0760948 -0.123936 -0.101033 -0.0164263 -0.13898 -0.259419 -0.208535 -0.294229 -0.00907627 0.152095 -0.018834 -0.19243 -0.171448 -0.0298074 -0.285286 0.0998739 0.0152229 -0.109753 -0.0327104 -0.182631 -0.195839 -0.125254 0.0180923 -0.00147522 -5.35318e-05 -0.00123073 -0.0070034 -0.0229771 -0.0709786 -0.151346 -0.160797 -0.0616818 -0.259855 -0.172221 -0.044882 0.0422688 0.0738239 0.242819 0.180877 0.321649 0.112221 -0.266377 -0.270483 -0.0831194 -0.104553 -0.0646654 -0.0510305 -0.0742771 -0.207165 -0.122121 -0.0652352 -0.00808594 -6.49877e-05 0.00014991 -0.00779186 -0.0690823 -0.101988 -0.152369 -0.12757 -0.0350145 -0.165987 -0.0476404 0.0467969 0.123052 0.11406 0.18115 0.357384 0.322805 -0.13194 -0.129231 0.058192 -0.0956712 -0.0714153 -0.0842595 -0.198181 -0.25265 -0.340924 -0.264527 -0.0875475 -0.00938332 -3.55207e-05 0.000737111 -0.00236336 -0.0434581 -0.0928873 -0.0591647 -0.0661336 -0.0303433 -0.174825 -0.083667 -0.0549831 0.058427 -0.126752 0.100999 0.427485 0.189692 -0.00324431 -0.314537 -0.145402 -0.158506 -0.0480396 -0.11882 -0.264485 -0.30095 -0.214815 -0.138129 -0.0576062 -0.0040454 -1.22856e-05 -2.97168e-06 -0.00122301 -0.00793594 -0.0424169 -0.086819 -0.0906023 -0.0647065 -0.12114 -0.0529478 -0.10218 0.203017 0.0733291 0.0970232 0.300249 0.281979 -0.00266973 0.0280452 -0.0820063 -0.198251 -0.121673 -0.174684 -0.0992259 -0.0180564 0.0156802 -0.0160132 -0.0309369 -0.00400262 4.51342e-06 -0.000225216 7.85518e-06 -0.0032795 -0.0712804 -0.146102 -0.223148 -0.21556 -0.10999 -0.167977 -0.157094 -0.0824455 -0.0921445 0.00470515 0.321612 0.238693 0.146445 -0.0560245 -0.0839001 -0.300635 -0.344187 -0.382555 -0.176912 -0.0291207 0.032967 0.0167655 0.0140407 0.0053778 -4.83254e-05 -0.000817837 0.000143078 0.0015766 -0.0918121 -0.169975 -0.20459 -0.267338 -0.182625 -0.0387196 -0.189814 -0.127869 -0.115195 0.188715 0.225104 0.0408552 0.168113 -0.282309 -0.5211 -0.453996 -0.477848 -0.581227 -0.24655 -0.142327 -0.0135447 0.0315241 0.0295347 0.0021968 -1.64194e-05 -0.00147662 0.00143521 -0.00445025 -0.0686129 -0.142067 -0.207595 -0.17679 -0.106676 0.229144 -0.051677 0.170174 0.238738 0.14852 0.211026 0.0567822 0.0840038 -0.441011 -0.568951 -0.489998 -0.502873 -0.560853 -0.290917 -0.0929053 -0.0407499 0.0459179 0.0225922 0.00408518 -3.40569e-06 -0.00081503 -0.00397177 -0.00828292 -0.0557789 -0.140398 -0.288813 -0.153246 -0.0485649 0.408945 0.366742 0.362602 0.132156 -0.212119 -0.32344 -0.243468 -0.0861346 -0.49158 -0.331511 -0.346744 -0.285381 -0.450657 -0.226369 -0.07367 -0.0283935 0.0572076 0.0268257 0.00597152 0 -0.000522675 -0.00820384 -0.0211341 -0.0619103 -0.210131 -0.356024 -0.226357 -0.161734 0.0798048 0.505616 0.313482 0.0310888 -0.404528 -0.3409 -0.386829 -0.293704 -0.575024 -0.274034 -0.180706 -0.107271 -0.192414 -0.0788745 -0.154877 -0.0530957 0.0411826 0.0103056 0.0013029 0.000146835 -0.000381602 -0.00981452 -0.0231912 -0.0739307 -0.249031 -0.410091 -0.173413 -0.13796 0.385012 0.371501 0.160991 -0.261916 -0.410788 -0.398199 -0.126011 -0.259492 -0.280077 -0.152177 0.102784 -0.0138811 0.0650885 -0.00429554 -0.0591811 -0.0121524 0.0204448 0.00354707 0.00749521 -5.14915e-06 -0.000633507 -0.0115889 -0.00668397 -0.0567868 -0.272218 -0.264322 -0.0208373 0.00942446 0.475729 0.497171 0.0752662 -0.395271 -0.300574 -0.353137 -0.125668 -0.0917508 -0.122758 -0.0131757 0.184034 0.284799 0.197872 0.0963905 0.00849533 -0.0319866 0.0199181 0.011767 0.0042232 0 -0.00125382 -0.0114658 0.00227202 -0.0209639 -0.172179 -0.0572241 -0.0122104 -0.0331831 0.0983433 0.189356 0.154445 0.160764 -0.157941 0.0433027 -0.0628078 -0.0983711 0.0231324 0.105985 0.146549 0.274411 0.22329 0.120084 0.0309431 -0.0282412 0.0199315 0.00431302 3.0246e-06 2.50379e-05 -0.000115904 -0.0101876 -0.0156535 -0.047465 -0.045436 -0.057599 -0.116203 -0.0732381 0.0703223 0.103911 0.133409 0.288039 0.0510898 -0.0364614 -0.107153 -0.0452653 0.00271425 0.0592323 0.199816 0.187509 0.210379 0.116916 0.069681 0.00245471 0.0266224 0.00766042 -4.72288e-06 2.42554e-05 7.30688e-06 -0.00465421 0.00194383 -0.0203693 0.066033 -0.0599356 -0.104796 -0.145818 0.0708995 0.0935842 0.0784728 0.165699 0.111566 0.104529 0.241494 0.26304 -0.0117973 0.170429 0.183357 0.170282 0.122409 0.0554162 -0.00339972 -0.00718149 0.00803634 0.00093543 -8.71917e-06 0 0 -0.000462977 -0.00241191 -0.0507994 -0.0821625 -0.0671726 -0.116731 -0.0829306 0.126 0.00454003 -0.0374207 0.141622 0.203699 0.119538 0.234603 0.36563 0.127554 0.163358 0.125393 0.0277921 -0.019687 0.0341859 -0.0383019 -0.0135213 0.000940475 0.00198392 0 0 0 -0.000162764 -0.027864 -0.0910986 -0.121656 -0.172625 -0.27363 -0.178367 -0.0200982 0.0527435 0.200754 0.15379 0.0525969 0.169351 0.210028 0.10883 -0.216 -0.107775 -0.0206483 -0.0651901 -0.0433223 -0.0478261 -0.0456574 0.000328313 0.00284757 0.000883274 0 0 0 -4.90435e-05 -0.0127611 -0.0549223 -0.0984688 -0.0892216 -0.159158 -0.219525 -0.135105 -0.0938324 -0.156262 -0.174445 -0.161328 -0.102686 -0.278646 -0.313646 -0.186117 -0.100243 -0.109871 -0.058276 -0.0373492 -0.0467204 -0.0283317 -0.00286476 0.000714468 0.000874458 0 0 0 0 -0.000420307 -0.00846413 -0.0195034 -0.0270573 -0.0265943 -0.00778827 -0.00722186 0.0078965 -0.0580778 -0.0977701 -0.107506 -0.118363 -0.0971795 -0.0819842 -0.057562 -0.0528934 -0.0478591 -0.0329416 -0.0124981 -0.00409757 4.43034e-05 4.79522e-06 -3.65252e-06 0 0 0 0 0 0 -5.78928e-05 -0.000179044 -0.000256143 -0.000364572 -0.000401535 -0.000491968 -0.000907285 -0.0010271 -0.0185075 -0.0169325 -0.00775881 -0.00425524 -0.00277269 -0.00925872 -0.0273482 -0.000139702 -0.000793677 0.00132588 0.0013077 0.000138952 0 0 0 0 ^0 0 0 0 0 0 0 0 0 0 0 0 -0.00468871 -0.0101614 0.000117142 4.8809e-06 0 0 0 0 0 0 0 0 0 0 0 0 0 0 0 0 -9.81201e-06 -1.72648e-05 0.000401373 -0.000295151 -0.00590609 -0.0055845 -0.0129573 -0.0180372 -0.0268245 -0.0231516 0.0113811 0.0124029 -0.000847544 -0.0196248 -0.0230952 -0.020839 -0.012371 -0.0151329 -0.00754095 -0.00199059 0 0 0 0 0 0 -3.07631e-05 -2.01976e-05 -0.000249557 1.11694e-05 -0.00215701 -0.00813247 -0.016346 -0.0112637 -0.0142572 0.00889339 -0.0248322 -0.0382383 -0.0257475 0.0257955 0.0286387 -0.0318514 -0.0103005 -0.0111444 0.00205322 -0.0454785 -0.0711481 -0.0343577 0.00491994 0.0101364 0 0 0 0 0.0103469 0.0021651 -0.00516847 -0.00447016 -0.00961569 -0.00623564 -0.0052543 0.0351229 0.029596 0.0706875 0.111382 0.0562484 -0.0459261 0.0585024 0.101987 0.0215986 -0.0349722 -0.0156219 -0.0490699 -0.0946727 -0.128781 -0.130872 -0.0664297 -0.0046393 -0.0122646 0 0 -1.31416e-05 0.0356759 0.00747316 -0.006911 -0.017246 0.00412876 -0.00179958 -0.0104095 -0.112343 -0.107174 -0.131721 -0.0484238 -0.0754355 -0.0392601 0.0992566 -0.00796142 -0.0861647 0.0116674 0.0227084 0.149208 -0.0501444 -0.159586 -0.0717558 -0.0327263 -0.00610685 -0.00491643 -0.00564233 0 0 0.00530163 0.00166461 0.000930726 -0.00067652 0.0208276 0.0426367 -0.0485553 -0.121557 -0.0746432 -0.259886 -0.11816 -0.0827629 -0.0708937 0.0389599 0.250406 0.116704 0.24715 0.0575088 0.0924983 0.141927 0.0577244 -0.00292955 -0.00824583 -0.0517965 -0.0201313 -0.00811078 0 3.39084e-05 -0.0135928 -0.000767323 -0.0390108 0.0016002 0.0915989 0.0519367 -0.0543725 0.14129 0.152985 -0.210018 -0.294165 -0.207977 -0.112361 0.00626271 0.115948 -0.0431149 0.10705 0.0105666 -0.0395541 -0.0955453 -0.0141629 -0.0416553 -0.0450088 -0.0828034 -0.02648 -0.0226556 8.72445e-06 0.00197073 -0.0132869 -0.0063993 -0.0473487 -0.0690153 0.109828 0.172432 0.117247 0.286458 0.304067 0.042271 0.00576225 -0.0533479 -0.0633356 -0.179491 0.216798 0.0287483 -0.149347 0.123151 -0.0093425 -0.0818204 0.0967579 -0.0497374 -0.193099 -0.0961447 -0.0372453 -0.0153781 1.09482e-05 0.00051339 -0.0135818 -0.00898048 -0.0033827 -0.00232725 -0.00915227 0.195606 0.08747 0.0519147 0.250436 0.16622 0.112856 0.123684 0.190552 0.225819 -0.215117 -0.00829486 -0.185432 -0.188869 -0.0460395 -0.131869 0.160295 0.00394866 -0.222336 -0.0785055 0.00329009 0.00409559 