-0.0282754 -0.0329399 -0.0374035 -0.0157844 0.0341204 -0.00115686 0.000367157 0.0328485 -0.0715755 0.00644375 -0.000145267 0.0117366 -0.0150601 -0.00860538 -0.0863716 0.000527133 0.0156318 -0.00842063 -0.0844832 0.0706852 0.0273975 0.0265164 -0.00356106 0.00311604 0.0117928 0.0335227 0.0321896 0.0337337 -0.0270787 -0.0373028 0.00696347 -0.0781582 0.0399611 0.0105237 0.0408732 -0.0105225 -0.020731 -0.0565246 -0.0709209 0.082463 -0.0303529 -0.0200786 0.00851868 -0.0411675 -0.00514833 0.116692 0.0344323 0.00481 0.0377868 0.0137927 -0.0156882 -0.0185819 -0.0244604 0.0142107 -0.00900718 -0.0163435 -0.0196658 -0.0343934 0.0112179 0.0285497 0.016061 -0.0309681 -0.0534371 -0.0543465 -0.0422366 -3.10342e-05 0.0402976 0.0101668 0.0190883 0.00377687 -0.0410588 0.00655194 -0.00169951 0.00900311 0.00717479 -0.0395982 -0.00276735 -0.0597237 0.0198847 -0.00155118 -0.00913097 -0.0113731 0.0374181 -0.0523198 0.0124739 -0.030785 0.0432642 0.0173635 -0.00548221 -0.0586546 -0.0452219 -0.0168675 -0.0391755 -0.00804377 -0.00424064 0.0211584 -0.00697549 -0.0222191 -0.0210377 -0.0142375 -0.00830624 0.0526247 -0.0231756 -0.0731108 -0.0417317 0.0222245 0.0219743 0.00965077 0.0211957 -0.0146768 0.0244084 -0.117773 0.0434124 0.0137244 -0.00846693 0.0573754 0.00497129 0.0169045 0.0452076 -0.00844704 0.0401327 0.0375078 -0.0164062 0.0273538 0.0408269 0.105854 -0.00691521 -0.0318982 0.0359062 0.00731507 0.0596414 -0.0155657 0.0142442 0.0243916 0.0227039 0.0330574 0.00233717 0.0361071 -0.026264 -0.00221545 -0.00340714 0.0657655 0.0440568 0.0405791 -0.0400411 0.00487725 0.00909601 -0.000922916 -0.00984191 -0.051869 0.00565063 -0.0710277 -0.00566364 0.0358477 0.0493824 -0.00522863 -0.0434646 -0.0203162 0.0487295 0.0546507 0.0266707 0.0320694 -0.0284209 -0.0624619 0.0410175 0.0414564 0.017936 -0.0157137 0.0301287 0.0191492 0.0229268 0.0467137 -0.0232125 -0.0231877 -0.00692475 -0.026094 -0.0527856 -0.0251929 -0.0394982 0.0351461 0.0246221 0.024015 -0.0590946 -0.0210343 0.0249092 -0.0199402 -0.0102137 -0.0364547 -0.0425734 0.0133088 -0.0118394 0.0113581 -0.0122298 -0.00817857 0.0212848 -0.0443319 0.0349535 0.0232423 0.0376827 0.029236 0.0405037 0.0514593 0.00478071 -0.0215903 -0.0256814 -0.0386863 -0.0242808 0.0126832 0.00565354 0.0568249 0.076509 0.0468775 0.0435996 -0.0365855 -0.00631663 -0.0066647 0.0408148 -0.00166271 0.00856665 0.0472174 -0.0309782 0.040239 0.00311672 -0.0398122 0.0281758 -0.0605155 -0.0963814 0.0252041 -0.0262622 -0.0488029 -0.0380175 -0.076546 -0.0847282 -0.0182071 -0.014037 -0.00734594 -0.0483036 -0.0255689 0.0430642 0.0419761 0.0629971 0.00384042 0.00533812 0.00264975 0.0250016 -0.00223242 -0.0155115 -0.0699562 0.0753502 0.00800657 0.0583443 -0.0542172 -0.0424606 0.0462439 0.0525682 0.0961354 0.0302448 -0.0477622 0.0295669 0.00326463 0.022824 -0.0168052 -0.015244 0.0668432 0.0178274 -0.0292243 -0.0190169 0.0623757 0.0541103 0.0177181 0.0339688 -0.0295031 -0.0298025 -0.000305694 0.0251257 0.0288244 -0.00477347 -0.000614737 0.0201282 0.0923573 0.00268673 -0.0264354 -0.0468459 -0.0181777 0.0550261 -0.0495475 0.0455997 0.0346493 -0.0631975 0.0111205 -0.0166088 0.0409654 -0.0405402 0.0397437 0.0547893 0.00416264 -0.0340638 0.0375521 -0.00114438 -0.0231704 0.0463856 -0.0994108 -0.0415316 -0.0063553 0.0289635 -0.0185801 0.0245417 0.0617321 -0.0408198 0.0438033 -0.00712559 -0.0843159 0.0565274 0.0180193 0.0141962 0.0701975 0.0430812 -0.0561257 -0.0343508 0.00988203 0.0212512 0.00247425 0.0365602 -0.0154712 -0.0168394 -0.0552987 0.0286301 -0.0280585 -0.0163697 0.0662475 0.0303744 -0.0433822 -0.00848639 -0.0112035 0.00431601 -0.0354951 -0.0481734 0.0702946 0.00870461 -0.0193908 0.0386142 -0.014321 0.0561413 -0.00119922 0.0447476 -0.0233357 0.0595967 -1.06816e-05 0.0431817 0.0408612 -0.025927 -0.0250975 0.0695905 0.0285444 -0.0544182 0.0493699 -0.0256515 -0.0265078 -0.0360425 0.0165082 -0.02444 0.0175343 0.00480407 -0.0134152 0.0841007 -0.0109912 0.0562617 0.0237211 -0.0240713 -0.000184349 0.0322803 -0.0982596 0.0141091 -0.00169156 -0.0721207 -0.0136098 0.0581839 -0.012932 -0.01878 -0.0168392 0.0203635 -0.00590357 -0.044068 0.00341453 -0.0346052 0.00155202 -0.0143283 0.037236 -0.0645103 -0.028418 0.0214789 0.0597422 0.0128355 0.0184836 0.018039 0.0303912 0.0226657 -0.00577731 -0.0583137 0.0446508 -0.0781611 0.0687267 -0.0512475 -0.0194099 -0.00535284 -0.0284575 -0.065593 -0.00861747 -0.00694394 -0.00967185 0.00456996 0.0503009 0.0304464 0.0141347 0.0290681 -0.0352077 -0.0253724 -0.0511736 -0.00283312 -0.0295016 0.0252707 -0.0228562 -0.0056806 -9.89922e-05 0.0307321 -0.0436439 -0.046089 -0.0110094 0.0133226 -0.0413303 -0.00661978 -0.0189335 0.00311187 -0.0668666 0.0133974 0.0130567 -0.032372 0.0429771 0.0184371 0.0422694 0.0159119 -0.0206557 0.00113673 -0.0258087 0.0382256 0.0369721 -0.0614774 -0.00138559 -0.0301507 0.0524446 -0.0223024 -0.0249683 -0.043016 -0.0901228 -0.0179292 -0.00213572 -0.0180585 0.000916561 0.0191181 0.0528475 -0.0186953 0.0354214 0.00756531 -0.0554888 -0.0695079 -0.0500168 -0.0299241 -0.0160335 0.0269991 -0.00199566 0.033746 0.0204112 0.082913 0.0473002 -0.0127322 0.011873 -0.0040428 -0.0118638 -0.0151529 0.000595628 0.0399806 0.00688798 0.0727775 0.00705075 0.0317724 0.0379704 -0.0421187 0.0467268 0.0460009 -0.0641142 0.0379485 0.0276468 -0.0148394 0.00750245 0.0261073 0.00551038 -0.00424901 0.0262499 0.0458158 0.000825649 0.00646599 0.026671 0.00549852 0.0636496 -0.0445609 -0.00120858 0.00211722 0.0135562 0.00866758 -0.0625368 0.0372422 0.0442669 0.00392905 -0.0324544 0.0568997 0.0375133 0.0992955 -0.00676184 -0.0489392 0.0741242 0.00027956 -0.0428644 0.00115234 -0.0234184 -0.0038476 -0.00148427 -0.0153478 -0.0099575 0.0337632 -0.0762377 0.0593906 0.0519383 -0.0921337 0.0909553 0.0476157 0.0362873 -0.0130278 -0.0915994 0.065966 -0.0063371 -0.062925 0.00963475 -0.0545583 0.026185 0.00998234 0.0665835 0.0619486 -0.0549766 0.0342907 0.019377 -0.0555947 0.00565015 0.0273412 -0.0448566 0.0247056 -0.0154698 -0.0379294 0.000686055 0.0599911 -0.0247479 -0.0337967 -0.00547183 -0.0118371 0.00787421 -0.0701324 -0.0265031 0.0364393 -0.0287043 -0.0450392 -0.0429764 0.00375231 -0.0227854 -0.0513416 -0.00253914 -0.000897649 0.0401129 0.041838 -0.0181952 -0.0103547 -0.0102749 -0.081585 -0.0217975 -0.00686557 0.0347235 0.0633252 -0.0367291 -0.0132958 -0.00579379 -0.0221351 0.0181575 -0.0162599 0.00251367 0.00367993 0.0502373 -0.0151322 0.0245605 0.00858096 0.0365017 0.0432272 -0.0153602 0.0253543 0.00147964 0.0615542 -0.0616308 0.0183453 0.0120032 -0.0378027 -0.0197159 0.0311279 0.0345698 0.0236203 0.0130928 -0.0255083 -0.00874564 -0.0102085 -0.0415893 0.0101668 -0.0234872 0.0469143 0.0093832 0.0112765 0.0158327 0.0284331 0.00969503 -0.00134559 0.037636 -0.00984769 -0.0311011 0.0546697 -0.0342106 -0.00258934 -0.0413079 -0.0353788 0.0281685 0.0107544 -0.00246403 0.0524216 0.0372527 -0.00876699 0.0260392 0.0123087 0.0150247 -0.0268568 -0.00447898 -0.131823 -0.0111938 -0.000756294 -0.108732 0.00606886 0.00337566 -0.0283201 -0.0159991 -0.00265926 0.0136833 -0.0155865 0.0172154 -0.00936208 -0.0114222 0.0309169 -0.0657239 0.0733236 -0.0511209 -0.0702465 -0.0357757 0.0501599 -0.0589516 -0.0404392 -0.00812063 -0.0284749 0.0579881 0.0112761 0.012326 -0.0188517 0.043982 -0.00040085 -0.00972107 0.0493219 0.0468179 0.0410888 0.0199096 -0.0535364 -0.0461292 -0.057015 -0.0380229 -0.0288825 0.0157457 0.0353498 -0.0441669 -0.0156449 0.0299189 0.0108116 -0.0376275 0.0118622 -0.0847039 -0.045051 -0.0297093 0.0295938 -0.0185378 0.0114473 -0.0319399 -0.00207155 -0.0222837 -0.0376428 -0.0134746 0.0273324 0.0421342 -0.0621973 0.0179266 -0.0621557 -0.0292572 0.0646413 0.00430352 -0.0164987 0.0210487 -0.0795928 -0.0219928 0.0109099 -0.0490497 -0.0100736 0.0431212 -0.0177913 0.0291897 -0.0174616 -0.0390724 0.00500303 0.0242886 -0.0221225 -0.0784257 0.019175 0.005515 -0.0203744 -0.00427023 0.0760491 -0.0437217 0.0209552 0.0142883 0.0347816 0.0172467 0.0645635 0.0330912 0.000900792 0.0182608 0.0345937 -0.0348155 0.0413645 0.0111005 0.0168253 0.0352204 0.0294587 0.0474647 0.0174801 -0.0754167 -0.0446811 0.0415372 -0.00594548 0.038088 -0.0077954 0.0145891 0.0419335 -0.0104707 -0.0031234 0.0086471 0.0898191 0.0654021 -0.0425346 0.0269835 0.00486216 0.0221901 -0.0127826 -0.0188923 -0.00567538 0.00722401 0.0112059 -0.0112407 0.0586053 0.0486965 0.0169411 0.0334263 0.0347388 -0.0101465 -0.0274877 0.0119669 -0.0270898 0.0767367 ^-0.0164291 0.00261141 0.0336983 -0.0141033 0.0524128 -0.0419375 -0.0236444 0.00410677 -0.0309261 0.0342867 -0.0455628 -0.00807907 0.098313 -0.0181316 -0.00547543 0.0330817 -0.035763 0.0227215 -0.0630421 -0.00506419 -0.00112887 0.0222 -0.0135424 0.0171158 0.0352014 0.0678004 0.000268062 0.0469423 0.00250063 0.0770542 -0.0368775 0.0025565 0.0101298 0.0241726 -0.0270224 -0.05305 0.0407932 -0.0133687 -0.0179279 -0.0122358 0.030316 0.046742 0.015826 -0.0135607 -0.0179444 -0.0402714 0.0257527 0.0328551 0.0311668 0.0640371 -0.0353456 -0.0153434 -0.0300245 -0.0188654 0.0246974 -0.0398244 0.0331147 -0.00815936 -0.0650667 0.0326511 0.0635932 -0.0199915 0.0162185 0.0185681 -0.0166943 0.0267584 -0.0266418 -0.0189972 -0.0280512 0.00220379 0.0519249 -0.0142342 -0.0117012 -0.0507268 -0.0107862 -0.0181818 0.0520651 -0.00319228 -0.0292236 -0.024769 -0.0287628 -0.0524152 0.0213803 0.0484353 -0.066972 0.0353599 0.0079046 -0.0104772 -0.0177183 0.011398 0.0105618 0.0269777 -0.0421767 -0.0552768 -0.0233591 -0.0394538 -0.0175775 0.0470943 0.0271766 0.0188513 0.01704 -0.00603534 -0.0497331 -0.0463274 0.00484931 -0.0282863 0.0196571 0.0157847 0.0481432 -0.00101721 -0.0317359 0.070094 -0.0473938 -0.0464017 0.0150274 -0.00783268 0.0490544 0.0253019 0.0160264 -0.0198555 0.0229327 -0.0507625 -0.0156205 0.0298776 -0.034288 0.00994003 -0.0340332 -0.0117252 -0.0208922 -0.0133038 0.023103 -0.0274057 -0.00262361 -0.0273975 0.0218071 -0.0358598 -0.0084336 0.00774968 -0.02185 0.0241477 0.0563072 -0.0572105 -0.0160486 0.00558143 -0.0155552 -0.00287141 0.0138478 0.029716 -0.0177954 0.0227296 0.0237338 0.057395 -0.025101 -0.0255826 0.0244845 -0.00510234 0.000430825 -0.0152409 0.035367 -0.0121492 0.0170298 0.0457172 0.0395912 -0.0537002 0.0453978 0.0483795 0.030201 0.0712538 -0.0323144 -0.0104844 -0.0395357 -0.00555392 0.0408326 0.0822397 0.0361304 -0.00153257 -0.0079406 -0.0241792 -0.0107606 -0.0213933 0.0187753 0.0197465 -0.0065272 0.0432513 0.0493038 0.0361263 -0.00482429 0.047917 -0.0145063 -0.0451443 -0.00207512 0.0272529 0.0121244 -0.0837592 0.0108935 -0.00742783 0.0679513 -0.0149168 -0.0233139 -0.0567893 -0.0338461 -0.0215912 -0.0212391 0.0295466 -0.0239366 0.0570455 0.025015 0.0320797 0.0671254 0.0389099 -0.0525868 0.043761 -0.0321235 -0.116016 -0.0705123 0.0115103 -0.0582455 -0.0519467 0.0555093 -0.00901442 -0.0283193 0.0455501 -0.0208704 0.0205643 0.0344428 0.0810184 -0.027623 -0.0229872 0.0174962 0.096165 0.0223975 0.0513598 -0.0408746 0.00633691 0.00210954 -0.0348557 0.0155276 -0.0549979 0.044416 -0.0411664 -0.0128056 0.0286926 0.0156697 -0.0227655 -0.036286 0.0604258 0.0492698 0.075547 0.0865679 -0.00444825 0.00662427 0.0247019 -0.0544881 0.0420258 -0.0463983 0.0674596 0.0586067 0.0174105 -0.052058 -0.0488307 -0.0262643 -0.00786053 -0.0604597 0.0614061 -0.0116553 -0.0259599 0.0225814 0.0653491 0.00329711 0.0384837 -0.0354146 -0.00223967 0.000740658 0.00736214 -0.0258829 0.0137971 -0.0251871 -0.00142987 0.0292542 -0.00384194 0.0397566 -0.00670786 0.000195564 0.00197212 0.0199427 -0.0375861 0.00392297 0.00129556 -0.0434676 -0.00540818 -0.0152629 -0.0254172 0.00269419 0.0130084 -0.0639209 -0.00978395 -0.0839015 -0.0482112 -0.0104449 0.0126897 0.0491402 -0.0218469 0.0198408 0.0360919 0.0338635 0.040922 -0.0326115 -0.0182982 0.0185782 0.00829933 -0.0151999 -0.0152871 0.0211256 -0.0379075 0.00729113 0.072757 -0.0132869 -0.0710329 -0.0225029 -0.00992226 -0.00562794 0.037989 0.0145701 -0.0337527 -0.0394199 0.0214253 0.031444 -0.071396 0.00349257 0.0304467 -0.00183532 -0.0463962 0.0464983 0.0789735 0.0582674 -0.00649679 -0.0352058 -0.0180239 -0.084765 0.00918986 0.0347999 -0.00404939 -0.0169694 0.0233515 0.0258279 0.0177921 0.0603291 -0.0222933 0.0245588 -0.0878941 -0.0319009 0.00199624 0.0486108 -0.0165945 -0.0319057 -0.0390576 0.0205471 -0.0252235 0.0542186 0.0450147 -0.0324267 -0.0161949 -0.00673352 -0.0474412 -0.0442805 0.00435238 -0.00555072 0.0259871 0.010178 0.00136414 -0.0144536 -0.0312416 -0.0371127 -0.0486301 -0.0173616 -0.0329107 0.0541163 -0.0460939 -0.0162739 0.00360142 -0.0209312 -0.00818305 -0.0219174 0.108696 -0.0354809 -0.030437 0.0693255 -0.0265212 0.00924349 -0.00368557 -0.0362197 -0.0163166 -0.0236897 0.0241702 -0.00962462 -0.0156284 -0.0553882 -0.0134681 0.0141782 -0.0626147 0.0231189 0.0684085 0.0128791 0.00826039 0.0153183 0.0208442 -0.0260465 -0.0497581 0.0373496 -0.0305002 0.068344 -0.0344412 -0.0337573 -0.00307392 0.0100133 -0.0087666 0.0275272 0.000214456 -0.0108292 0.0206405 0.00840096 0.0022821 0.0450419 0.0060001 -0.082974 0.0122814 0.0178323 -0.0499259 0.00418792 0.0335606 0.00165128 -0.00247543 0.0268353 0.0349081 -6.20461e-05 -0.0629289 0.0392814 0.0296178 0.00514649 0.0120627 -0.0209302 0.0303904 0.0315438 -0.0013914 -0.028203 0.05691 0.00856607 -0.0513513 -0.0495649 -0.0266239 -0.0214255 0.0248754 -0.0454278 0.0439129 -0.0972427 0.045675 0.05786 0.0370039 0.0267643 -0.0785613 0.0234211 0.0265524 -0.0799272 -0.0400893 0.0289674 -0.036628 0.0227225 -0.0403452 -0.0561612 -0.0233456 -0.0462568 -0.0365445 0.00847997 0.00351676 0.00871622 0.00602702 -0.00432644 -0.0214418 0.0156126 -0.0177438 0.000666441 -0.00319101 -0.0277297 0.00292359 -0.0746901 0.0361971 -0.0864805 -0.0147245 0.0479307 -0.0740566 0.0053144 0.0117775 -0.00544422 0.000998243 -0.0277899 -0.0536065 0.015159 0.0567207 -0.0599649 0.0140727 0.0399526 -0.01888 -0.0287533 -0.0218465 0.0640587 -0.0369903 -0.028061 0.00194879 -0.0816884 -0.0202824 -0.000563467 -0.0335096 -0.0119308 -0.0154388 -0.0704266 -0.0295899 -0.0285008 -0.0702854 0.0237329 -0.0615578 -0.0404246 0.0058833 -0.00374465 0.148682 -0.0137601 0.00757037 -0.0205773 -0.0178005 -0.0547242 -0.0500987 -0.0260616 -0.0183143 -0.0150947 0.0211385 0.00622178 0.00840591 0.0144851 -0.0627862 0.00451693 0.0646644 -0.0783229 -0.00714596 -0.00936212 0.0382289 0.00285872 0.0191401 0.0460933 0.0131891 -0.0186613 -0.0037509 -0.0384334 0.00472081 0.0159337 0.00253662 -0.037078 0.0229637 0.0440855 0.00851386 -0.0367457 -0.0392446 -0.0633508 0.0317283 -0.030158 0.00155795 0.0210433 0.0356489 -0.0469282 0.0150318 -0.0172664 -0.0153928 -0.0312236 -0.0226242 0.0131089 0.0103318 -0.0173405 -0.0233052 0.00374122 0.0573004 0.0352823 -0.0103746 0.0348515 -0.0602968 0.0253374 0.0376517 0.0140401 0.0375083 -0.0190871 0.0495707 -0.0589049 0.0628163 -0.00372495 0.0505116 0.033923 0.0206349 -0.0643172 0.0159593 -0.0264239 0.0895062 -0.00573481 0.0323087 -0.00899561 -0.0600457 0.00471605 -0.0308943 0.0412002 0.044007 0.0279388 0.044944 -0.0253589 0.0289637 0.035564 -0.0318677 -0.00876065 -0.0667082 -0.0104225 0.0163765 0.0288569 0.0396045 -0.0714361 -0.0873657 0.00115155 -0.0524859 -0.023197 -0.0531361 0.025999 0.026079 -0.00887506 0.0537546 0.0657061 -0.0391992 0.0460199 0.0279722 -0.0191265 0.0276569 -0.0216444 0.018978 0.0094329 -0.012459 0.0417823 -0.0091948 0.0185861 0.00557997 0.022575 -0.00352558 -0.0179737 0.0436912 0.0244381 -0.0188252 0.00714185 0.00627515 0.0593332 0.00284068 -0.0159546 -0.0477841 -0.010275 -0.0291318 0.041448 -0.0144629 -0.0117753 0.0448955 0.020685 0.0291881 -0.0828418 -0.0404706 0.0601888 0.0539847 -0.0336256 0.0114074 0.0109909 0.0244805 -0.0407755 -0.0265989 0.0683851 -0.0183655 -0.0232157 -0.0158159 0.0277159 0.0571967 -0.0170046 0.00761765 -0.00841871 0.0107601 0.0252605 -0.0307625 0.0351807 0.0315209 -0.020774 -0.02225 -0.0269575 0.0249888 -0.0573376 -0.019955 0.0331784 0.0174713 0.00499706 -0.0182896 -0.0242792 0.0767948 0.0114887 -0.0199175 -0.00177802 -0.00984199 -0.0336679 0.00323139 -0.0322232 0.0704164 0.0401762 -0.0518344 0.0278746 -0.0775733 -0.00176323 0.00112584 -0.00451908 -0.0480401 -0.0164976 0.0345665 0.0354894 -0.0132058 -0.0247839 0.0320898 0.0207466 0.0321708 -0.0444447 -0.0121845 0.0508573 0.0895179 0.0467465 -0.0309231 -0.0144196 -0.0197474 0.0184187 0.0172334 0.0359654 -0.00967688 -0.0165664 0.00367605 -0.00281617 0.0584719 -0.0268352 0.0184173 -0.013011 0.02599 -0.0313921 0.0159447 0.0185919 -0.00969802 0.00222308 -0.0115822 -0.0502409 0.0118544 0.00268491 -0.0153548 -0.0357853 0.0146949 -0.00689204 -0.0154594 -0.0680429 0.0384807 0.0325985 -0.0270639 -0.0524911 -0.0334958 0.00998142 -0.00310958 0.0531564 0.0328578 -0.034513 -0.0153214 0.0982243 0.0240219 0.0385753 0.040092 -0.00653942 0.0488824 -0.0256906 0.0179371 0.0482815 -0.00938179 0.00377852 0.0257754 0.067581 0.0599053 0.000996122 -0.0357782 ^-0.0428623 -0.09433 0.0810539 0.0428064 0.016364 -0.0254942 -0.0758808 0.0124774 -0.0158259 0.00297488 0.0070148 0.0111376 -0.092816 0.00813925 -0.0441868 -0.00481722 -0.0321623 0.0188854 0.0265341 0.0201792 -0.0348618 -0.0440124 0.0356486 0.016551 -0.0562297 -0.0726117 -0.0238014 -0.00370116 0.0552493 -0.0447426 -0.0523394 0.00323817 0.0313645 0.0394989 -0.0816385 0.00817726 -0.0380825 0.000232583 0.0453623 -0.0122242 0.00145466 -0.0168895 0.0121296 -0.0200028 0.0282974 0.0752008 0.0669685 0.00349112 0.0643948 0.00352402 -0.00514052 0.019483 -0.0407848 0.0168189 -0.068975 -0.00396432 0.0405191 0.0378083 -0.00119061 0.0427151 -0.0187133 0.0175318 -0.0549855 -0.0103719 0.000892533 -0.0153604 -0.0130195 0.0300538 0.0703708 -0.0166372 0.0137699 -0.0444629 0.0387724 -0.0172565 -0.0217012 -0.00372397 -0.00149643 0.00142893 -0.0165538 0.00974454 0.0175705 0.0204891 -0.00758251 0.00165455 0.0765328 0.0284773 -0.0636477 0.0273355 0.0385828 0.0186135 0.0321498 0.0319566 -0.0276064 0.0139108 -0.0285732 0.0395172 0.0350298 0.00633391 0.018412 -0.0456955 0.0173659 -0.0118939 -0.00799062 -0.0267131 0.0459332 0.0141626 0.0571871 -0.0426344 0.00194009 0.0101536 -0.00322015 0.00880979 -0.0143096 0.0208794 -0.0438404 -0.00350456 0.0140686 0.0242869 -0.0207475 0.0191646 -0.0355725 0.0211463 -0.0467552 0.0454969 -0.0329919 -0.0408519 0.0247685 -0.0414896 0.0335948 -0.0469827 -0.0418576 -0.0151481 -0.0312807 0.0310032 -0.0155007 0.00109253 -0.00484362 -0.0648202 0.0337917 0.00763257 0.0310926 -0.0129933 -0.0376269 -0.0257998 0.0480099 0.00152121 0.00832484 -0.0532442 -0.0179809 -0.0174795 0.028112 0.0103312 -0.0645985 -0.00148532 -0.0135133 -0.0329038 0.0203826 -0.033357 -0.0460706 -0.0251037 0.0215513 -0.0619557 -0.0556556 -0.0433023 -0.014563 0.0253414 -0.00858231 0.0200483 0.0284353 0.0432542 0.0517323 0.00282011 -0.0212631 0.0341455 -0.0636911 0.0280499 -0.0348048 0.0217184 0.0233386 -0.0979632 0.0170006 -0.069688 0.00129729 0.00558696 0.077931 0.0147029 -0.0419505 0.0173091 -0.0294317 -0.0192564 0.0269719 -0.00355016 -0.0108413 -0.0375984 -0.00893548 0.0109443 0.0263601 0.0224039 0.00633028 0.0071997 0.0271099 -0.065675 -0.0272617 0.00676339 -0.00489392 0.00382823 0.0550649 -0.0186657 0.0413079 -0.0456301 0.127147 0.0711393 -0.0605415 -0.0122545 -0.0401782 -0.0806701 -0.0465965 -0.00253861 0.00604434 0.0708272 0.00699511 0.0294342 0.0530204 -0.0217163 0.0146205 -0.00378001 0.0228397 0.0221609 -0.0197812 0.0462137 -0.0329446 -0.0136244 -0.0128129 -0.00815697 0.0375029 0.035846 0.00571227 -0.0295171 0.00509314 0.0250496 -0.0246977 0.00433577 -0.0277386 -0.0508321 -0.0303356 -0.0282139 -0.0236719 -0.0145792 0.00461849 -0.014844 0.0653948 0.0331008 -0.0756303 0.0179165 -0.00198791 0.0422141 -0.034576 0.00895977 -0.0359161 -0.0062799 -0.0359699 -0.0101617 -0.0316489 0.0650575 -0.0417671 0.0299424 0.0920186 -0.0349924 -0.0221783 0.0198776 -0.0207823 -0.0160579 0.0449544 0.059712 -0.0331325 -0.00118624 -0.00238764 -0.00714571 0.0250469 -0.0050433 -0.031925 -0.0293591 0.0465238 -0.0144084 0.00929495 -0.0383626 0.0448782 0.0133518 0.00652896 0.071664 0.0180417 0.0367121 -0.0764447 0.0336761 -0.0262307 0.0218702 0.0060041 -0.0374836 0.0618872 0.0221773 -0.0526577 0.0239978 -0.0149391 0.0105485 -0.0189656 -0.00493147 0.0159457 -0.0181818 -0.0460772 -0.0323445 -0.0160878 0.0198686 0.000861663 -0.0391761 -0.0317804 -0.0375915 -0.021274 -0.0117621 -0.0420407 0.00127177 0.00995433 0.021568 -0.0371602 -0.0259822 -0.0344529 0.0168007 0.02246 -0.0340048 -0.020348 -0.0240482 0.00281842 0.00273571 -0.0318965 -0.0507931 -0.0509765 -0.00363564 0.0446379 0.0388914 -0.0108882 0.0157665 -0.0306814 0.0208497 -0.0177492 0.00557894 0.0246441 0.00395811 -0.0498971 -0.0393143 -0.0462139 0.00570986 0.0154377 -0.0363455 0.0175633 0.0064351 -0.008872 -0.0479055 -0.0394577 -0.000378258 -0.0764098 -0.00106139 -0.0544499 -0.0479616 0.0502281 0.0286882 -0.0965451 0.00670929 0.0580885 -0.0400278 0.0793532 0.0243111 -0.0185255 -0.0826451 -0.0276704 0.031155 -0.00470115 0.00316693 0.0276049 0.0677342 -0.00968142 0.0200518 0.0640434 -0.00768172 -0.0217012 0.00613942 0.0557407 0.0324725 0.00631856 -8.29898e-05 0.0159036 0.0520272 -0.0118519 -0.0680686 -0.00326101 0.017549 -0.0149997 -0.0180561 0.0379468 -0.0150832 -0.0443897 0.013244 0.0451043 0.0113051 -0.00174243 -0.0236955 -0.0190401 0.0489496 -0.0663987 -0.0251144 0.0188826 -0.00934064 0.00372413 -0.0685337 -0.037575 0.0124156 8.46325e-05 0.0128912 -0.000812623 0.0335043 0.00434579 -0.0428935 -0.00581397 0.0131722 -0.0322903 -0.0504364 0.0704465 -0.0241441 0.0766785 -0.0487356 0.000887447 0.0234687 -0.0832841 0.00297389 0.0140507 0.0685254 -0.0195983 -0.00345622 0.00327161 0.0187033 0.0379523 0.049546 0.00605446 -0.0198267 -0.0454371 0.00324564 0.0492066 -0.0253439 0.0469591 0.042252 0.0118229 -0.0189759 0.0242592 0.00558399 -0.0663461 0.038286 -0.0210924 0.0281372 0.00501859 0.0316195 -0.000964715 -0.0226397 0.00496863 -0.00605508 -0.00440488 -0.000102893 0.0670036 -0.0521012 -0.00888978 0.019967 -0.0480078 0.0198165 -0.0546269 -0.0224891 -0.0509184 -0.00518329 0.0543561 -0.0448261 0.00140244 0.00785476 -0.0148605 -0.0543233 -0.0362697 0.0242242 -0.0396576 -0.00221099 -0.0373509 0.0250484 -0.0243407 -0.0149394 0.0650852 0.0240669 0.0351413 0.0348362 -0.0250057 0.0295876 -0.0137641 -0.0156429 0.0277526 -0.052008 -0.0641253 0.0369329 -0.00478798 0.0153671 -0.0420283 -0.000858312 0.00566043 -0.062444 0.0381058 0.00817832 0.00718073 -0.00309943 0.00770339 -0.0052081 0.0126251 -0.00815352 -0.0105945 -0.0307374 -0.0130872 0.000397215 -0.0621254 -0.031439 0.0220395 -0.0581567 0.0417804 0.0018606 -0.0346516 0.0133357 0.0321749 0.0517037 0.0240959 -0.0518729 0.000917844 -0.0156625 -0.00424373 0.0146589 0.00302558 0.0262422 0.0194502 0.057578 -0.0479237 -0.00673799 0.0181912 -0.0220276 0.0637288 0.0750079 0.0568751 -0.00425954 -0.000540617 0.0170433 0.0170615 0.0199052 0.0346448 -0.0129663 0.0484311 -0.0289069 -0.0481761 0.0423713 -0.0436035 -0.0257956 0.00940323 -0.0109899 -0.026489 -0.010218 -0.0560685 0.0047417 -0.0515979 0.00267366 0.0139944 4.23646e-05 0.121146 0.0107851 -0.0464397 -0.0502967 -0.0426398 -0.0330567 -0.0332406 0.077839 -5.58359e-05 0.00729744 -0.00766184 0.0457204 -0.0279262 0.0165634 0.0223429 0.00570559 -0.0404072 -0.014532 -0.0336383 -0.0354493 0.013234 -0.0640681 0.00910469 -0.0310027 -0.0151204 -0.0131351 0.012669 -0.0390875 -0.0769808 0.0322441 -0.0395643 0.0796948 0.0395758 0.0326988 -0.028479 -0.0154524 0.0114694 0.00319686 -0.0358389 0.00977757 -0.0330114 0.0114303 0.00301931 -0.0132753 -0.00534113 0.00213864 -0.0500268 0.0188725 -0.0165545 0.0152711 -0.0143194 -0.00666383 -0.00198292 -0.0442903 0.020466 0.0349397 -0.0411502 -0.000835289 0.0320452 0.00229053 -0.0533056 -0.0129146 -0.0585667 -0.00682729 -0.0201544 0.0223 0.0339338 -0.0467002 -0.0231124 -0.0245467 -0.0216788 -0.00969784 0.0221829 -0.0349917 -0.0607698 -0.00116739 0.0237456 0.00103141 -0.0113848 -0.020423 -0.0484951 0.0107751 0.011946 0.0378483 0.0481414 0.0482551 -0.0107059 -0.00697178 0.0209498 -0.0145726 0.0367557 -0.100018 -0.0136407 0.0907492 -0.0257365 -0.0184744 0.00552451 0.0381425 0.0701675 0.00239716 0.0541711 0.0340883 -0.0111762 -0.0449911 -0.00827015 -0.038176 -0.0293649 -0.067395 -0.0149254 0.0697686 0.0360023 -0.0514022 0.0499281 -0.0213669 -0.0912814 -0.0303189 0.0321698 0.069629 -0.00409666 -0.0262376 0.0836964 -0.0279725 -0.0179602 0.0837932 0.00182162 -0.0428453 0.0128494 -0.0018498 -0.00089291 0.00588594 0.0193604 0.0361437 -0.0498567 0.00585078 0.0358481 -0.0249623 0.0382563 -0.0327747 -0.00539103 -0.0744639 -0.0160395 -0.00187371 0.0448974 0.045672 0.0284085 -0.0256849 -0.0924591 0.0454885 -0.0430355 0.00346228 0.0381607 0.0616287 0.00720992 -0.00767644 0.00692331 0.0279401 -0.0329668 0.0227574 -0.000731682 -0.0262928 0.0534642 -0.0320657 -0.0106412 0.0402666 0.014812 -0.00916873 -0.023345 -0.0189517 0.00880884 0.0469698 -0.0292002 0.104023 0.00146119 -0.0205875 0.0161731 0.0488573 -0.0918431 0.0105685 -0.0489928 -0.0219888 0.0444888 -0.0112796 -0.00589343 0.0140015 -0.0713565 0.0188464 0.0101083 0.0275215 -0.0798412 0.0186505 -0.0196658 -0.0155453 0.01853 -0.0478286 0.0129908 -0.052479 -0.011809 -0.0449306 0.0169968 -0.0403641 0.0252374 0.0360381 0.0450986 0.00535463 0.0758373 -0.0193302 -0.00951735 0.0235482 0.0174516 0.00264453 0.00328855 0.0165776 -0.00771929 0.00229601 0.106426 -0.00623152 ^-0.030135 0.0357728 -0.0019341 -0.0871443 -0.0645498 -0.0188567 0.0398854 -0.0286178 -0.00158399 0.0107288 -0.00496384 0.0386776 -0.0930726 -0.0404855 0.0465843 -0.0417345 0.00143451 -0.0132465 -0.0296202 -0.0598432 -0.000829172 0.0539592 -0.0655484 0.0126076 0.0391437 0.0059605 -0.053232 -0.0403896 0.0367638 0.00793947 -0.0278443 0.00820451 0.0167682 -0.0140152 -0.0435448 0.0466695 -0.0259244 0.0262673 0.0653955 0.0737677 -0.0209417 -0.00948303 -0.0491578 0.00909443 0.0245352 -0.00577003 -0.000569646 -0.0397332 -0.00944831 -0.0275563 0.0543836 0.0160287 0.0528622 -0.0371358 -0.0050282 -0.0344617 0.0034694 0.0279181 0.00697431 0.0133868 0.0443666 0.0370087 0.0226268 -0.015223 0.0113144 -0.0143407 -0.00374639 -0.0369176 0.00112205 0.0593861 0.000205735 -0.00864135 -0.00697151 0.00156337 -0.0181801 -0.0604041 -0.00843225 -0.100558 0.0191859 0.0054315 0.0130101 -0.0992969 -0.0265498 -0.00618195 -0.0281308 -0.0490737 -0.0243026 -0.0480495 -0.00547898 0.00622263 -0.0328704 -0.00143964 -0.0239868 -0.0518014 0.0159989 -0.0440467 -0.0492088 0.0803179 -0.0155663 -0.0386434 -0.0255913 -0.00988386 0.068132 -0.0124931 -0.0380907 0.0172875 -0.0162066 0.0222397 0.00103931 -0.00750423 -0.060424 -0.010762 -0.103328 0.0242293 0.0258173 -0.00802132 0.0803307 0.0168277 -0.006651 -0.0197512 0.0422966 0.00505181 0.0194415 -0.00213366 0.040474 -0.00495138 -0.0102538 -0.0276549 0.0442372 0.0285369 -0.0471314 0.0270719 -0.0133874 0.0896963 -0.00191215 0.0588004 -0.010274 0.0202506 0.00627019 -0.0340019 0.0151279 -0.0250083 0.0535959 -0.00966276 0.0136438 0.0219483 -0.0253459 0.0586329 0.0163344 0.0167748 0.00310313 0.0436211 0.0545982 -0.0618697 0.0588458 -0.0145181 -0.0316605 0.0331788 -0.02528 0.0633355 0.0405069 -0.0101688 0.011709 0.0247557 -0.0581804 -0.0240997 -0.0139287 0.0203348 0.0362091 0.0452782 -0.0112811 -0.00184274 -0.013473 0.0856533 -0.0281507 -0.0131435 -0.0904432 0.0146909 -0.022662 -0.095138 -0.0224697 0.0392132 0.074963 0.0390502 -0.00999693 0.0449679 -0.0358363 -0.0680202 -0.0024428 0.00181436 -0.101025 -0.0661817 0.0927096 -0.0343754 -0.0378123 -0.0546904 0.0243747 -0.0463197 -0.0240371 -0.0036228 0.0507842 0.0613568 0.0194703 0.0184442 -0.0485995 -0.0159641 -0.00809911 -0.0180705 0.0190971 0.0482002 0.0352917 0.00498 0.0548139 0.0131872 -0.04444 0.0215431 -0.0153377 -0.0507941 -0.0344463 -4.85998e-05 -0.0142034 0.0574665 0.0104252 -0.0144577 0.00865633 -0.0454221 -0.0610821 0.0103687 0.00882293 -0.0395255 0.00112571 0.00384185 0.014918 -0.0202312 0.00103729 0.0392798 0.0191298 -0.00360942 0.0127288 -0.0165709 0.0064611 -0.0415582 0.0142065 -0.00820418 -0.0167452 0.0511591 -0.00352545 -0.0317866 0.0574926 -0.0183003 0.0414898 0.0210726 0.0400088 0.0543868 0.0158048 -0.0645341 0.0278584 -0.0294024 0.0396158 -0.0158492 -0.0190516 -0.0206002 0.0249726 0.0102691 -0.0548989 0.0323933 -0.0336999 0.0427255 -0.00697357 0.0547964 0.0200272 -0.0182417 -0.0159829 0.0254253 0.0140668 0.0109153 0.0371128 0.0236134 -0.029897 0.0275745 0.0128353 0.0516498 0.0272875 0.014751 0.0295327 -0.00583415 0.00328859 -0.0118421 0.0459303 -0.000592395 0.0166129 -0.0586397 0.0543659 0.000707705 0.000157884 -0.00303494 0.031249 -0.0509641 -0.0131043 0.0457948 0.0714447 0.0182411 -0.0801864 0.000903945 0.000497546 0.0234759 0.0379783 -0.0529997 -0.094735 -0.030729 -0.0224583 0.00145677 0.0138691 -0.0241846 -0.0234278 -0.0145786 0.0267265 0.0240885 -0.00582757 0.0422519 -0.0370635 0.0236489 -0.0198067 -0.072435 0.0477821 0.0112123 0.0042185 0.000623586 -0.00735281 -0.027344 -0.0471909 0.0447574 -0.0502646 -0.0106507 0.0447699 -0.0130811 -0.0322388 0.070422 -0.00114811 -0.00238799 -0.0223767 -0.0448583 0.00451961 -0.0688304 -0.0193866 -0.0377085 0.0236328 -0.0177024 0.00604043 0.0509339 -0.0790309 -0.0300881 -0.0205993 -0.0282178 0.0051785 0.0347796 0.0145563 0.00912134 0.0191833 -0.0103468 -0.0175422 -0.0226641 0.0268829 0.0212205 0.0161364 0.0151302 -0.00634438 -0.0354405 0.00446966 0.00798887 -0.0263434 0.0248582 0.0338978 -0.062598 0.0371309 0.00816385 0.0213849 -0.0358255 -0.0473426 0.0771396 0.0227786 0.063402 -0.0098814 0.0488172 -0.00955835 -0.0622543 -0.0737036 -0.056004 -0.021967 0.0391803 -0.0306289 0.0137778 -0.0181717 0.0142878 0.0117451 -0.00448527 -0.0791815 0.0291257 0.0512209 -0.0268287 0.00671537 -0.0428607 0.00666612 -0.00600942 -0.0475711 -0.0196856 0.00340499 -0.0301101 -0.0316993 -0.0346399 -0.033726 -0.0367173 0.0231259 -0.00610544 0.00686225 -0.0549975 0.0368832 -0.0600568 -0.0140776 0.0695245 0.0945588 -0.0400899 0.0233917 -0.0247743 -0.0371958 0.0765612 0.00491801 0.0301295 -0.0319592 -0.0367735 0.00613854 0.0514305 0.0117506 -0.0115098 0.00906155 0.0508109 -0.0235736 0.0300769 0.0313906 -0.0190146 0.0790313 -0.0373175 0.000723558 0.0394867 -0.00921847 0.0169486 0.0249727 0.0257359 -0.0235318 0.0191595 -0.00358507 0.0112809 0.0312508 -0.0378728 0.0126215 0.0410563 -0.0392555 0.00442747 -0.0870157 0.00205235 -0.0479702 -0.0171007 0.0462733 -0.00828735 0.0391017 0.00715927 -0.032435 -0.0422287 0.014219 0.0304258 0.0339456 0.038344 -0.0651586 -0.0180607 -0.00304819 0.0355148 -0.00018419 -0.0322337 0.0431247 -0.0426146 -0.0235018 0.054778 -0.0235619 0.00692555 0.0541428 0.00522827 0.00572668 -0.0497663 7.60328e-05 -0.0323736 -0.0200767 0.00315612 -0.0995357 0.0366025 -0.0458392 -0.00800174 0.00718969 -0.0265235 0.0215004 0.0886975 0.054163 -0.039341 0.0234316 -0.0789219 0.00573693 -0.0121632 0.0367164 0.00179798 -0.0769084 0.0034495 0.00252295 -0.0239246 0.0234558 -0.0263976 0.0381922 0.0111537 -0.0266647 -0.0241158 0.0720591 -0.0250499 -0.0113005 -0.0574404 0.0175389 0.0266665 -0.0625296 0.00196823 -0.00593544 -0.0571329 0.0339491 0.0177778 0.0628391 -0.0584653 0.0896764 -0.0249221 -0.0257752 0.0111846 0.0517802 0.0367865 0.0377724 -0.0298389 0.0273678 0.0153362 0.0403619 -0.0311517 -0.0353504 -0.0341246 -0.0450212 0.0472586 -0.00658277 0.00183108 -0.00130048 -0.0382997 -0.0480589 0.0409881 -0.0329276 -0.0511101 0.00857498 -0.0403936 0.0215646 0.0194955 -0.0428089 0.0629652 -0.0308582 0.030841 0.0735259 -0.0168641 -0.0276493 0.000491503 -0.00268802 0.0407937 0.0300571 -0.0163612 -0.0761563 0.0213168 -0.0170264 -0.0505206 0.0332362 0.0110673 -0.0273465 0.0157172 0.0465678 -0.0147396 -0.0184877 0.0173071 0.0359717 -0.0579074 -0.0230203 0.00364203 0.0353469 0.00195707 0.0312099 0.0361115 -0.0308171 0.00105036 0.0184216 0.0238522 0.0231048 -0.00221179 -0.0847899 0.00561605 -0.00798028 -0.0361353 -0.00559377 0.0313977 -0.0127478 -0.0603667 0.0560639 -0.000700911 0.017911 -0.0204433 0.00341064 0.0494852 0.0253682 -0.0457949 0.0121161 -0.0485867 0.022763 0.050464 0.0319417 0.00123343 0.0256432 0.0153591 -0.0156441 0.0804835 0.0138178 -0.0224272 -0.0555752 0.00543281 -0.0228564 -0.00890149 -0.048498 -0.00188158 -0.079321 -0.00905043 -0.0632452 0.0346384 -0.0459883 -0.0004998 -0.00119809 -0.0183104 -0.013799 0.0179404 -0.0703397 0.0137433 0.0153472 0.0206727 0.0437432 -0.0247583 0.0148834 0.0681779 -0.0728665 0.0419207 -0.0553812 -0.0155908 0.0955961 0.0284456 -0.035084 0.0306746 0.0296098 -0.0496908 -0.00355996 -0.0493935 0.00995324 0.0196841 0.0495727 0.0655103 -0.0279754 -0.0155732 -0.0726488 0.0453457 -0.0151955 0.0275422 -0.0473449 0.0464498 0.0146648 0.0439323 0.0207947 -0.0365213 0.0169347 0.0232627 -0.0586479 -0.00419191 -0.0375242 0.0101981 0.000899235 -0.0260285 0.0234272 0.00162037 0.00733056 -0.0272755 0.0221221 -0.01991 0.0257057 -0.0335784 -0.0126871 -0.0886234 -0.00164735 0.00606129 -0.0625192 0.00199954 0.0380416 -0.0100287 -0.0045134 -0.00510997 0.0189924 0.0272037 0.0101362 0.000193865 0.0108162 0.0205967 -0.021449 -0.0291901 -0.0111188 0.0183048 -0.0168526 -0.0402808 0.0404773 -0.012119 0.0177464 0.002948 0.0114228 0.021275 0.0517593 -0.0565225 -0.028855 0.0329636 -0.0122684 0.00829705 0.0446365 -0.0686264 -0.050181 -0.034006 -0.000850149 -0.00474226 -0.0367169 -0.0138356 -0.00575979 -0.034131 -0.0223945 0.0319853 -0.0325394 0.0183279 0.00255677 0.0382212 -0.0352208 -0.0215284 0.0671905 -0.00689463 -0.00581315 -0.00656482 0.0265214 0.0258602 0.0536732 -0.0197895 -0.0188453 -0.0438671 -0.0458564 0.0488838 -0.0222333 -0.0118462 -0.0826758 0.0187239 -0.0447366 -0.0191933 -0.0541752 -0.0149733 0.00340823 0.0615614 0.0343115 0.0785185 0.0261292 -0.00249382 0.0206731 -0.0100774 0.0398798 -0.00706338 -0.0206563 -0.0325088 0.0174438 0.016589 0.0166378 -0.0458846 -0.066398 -0.0414056 ^0.0412379 -0.0289807 0.0351486 -0.0174721 0.0208969 -0.0304124 -0.0182623 0.00895471 0.0597426 0.0540371 -0.0124243 -0.00157131 -0.00712517 0.0523719 -0.000604129 -0.0666705 0.0202849 0.00651338 0.0495374 0.012438 -0.0276814 0.000277803 -0.0503282 -0.032663 0.0337196 -0.00495298 0.0062745 0.0157511 0.0259014 0.0256954 -0.0413275 -0.0480227 -0.032228 0.0172307 0.0808905 -0.0155606 -0.0172249 -0.0268883 0.0200188 -0.00152165 0.00685484 -0.0728203 0.0485027 -0.000262555 0.0408951 0.0059544 -0.0440043 0.047848 -0.0128772 0.00568267 -0.00600156 -0.0411814 0.0630088 -0.0816584 0.0537481 0.0647418 -0.0702449 -0.00154439 -0.000838708 0.00391016 -0.0582445 0.0287089 -0.00523141 -0.0266822 0.0277649 0.035232 0.0242062 0.0170207 0.0578634 0.0494338 0.016945 0.0562844 -0.0224654 -0.0528356 -0.0629425 0.0600112 0.0287124 -0.0237443 -0.0182072 0.0197135 -0.0541357 -0.0221863 -0.000872762 -0.0303674 0.00597226 0.0473621 0.0109813 -0.0172905 0.0013093 -0.0388064 -0.0475919 -0.0240392 -0.0530327 -0.0527607 -0.0176772 -0.0189093 -0.00493773 0.0639388 0.0973539 0.0404289 0.0710561 0.0254679 0.0124906 0.0759023 0.0438812 -0.0212529 -0.0205017 0.0103516 -0.022956 0.0225575 -0.0163958 0.0224316 0.0249557 0.00266071 0.0196442 -0.0314405 0.010952 -0.0190307 -0.00706288 -0.0393468 0.0219643 -0.00127104 0.0433067 0.0177356 -0.00203163 0.00808546 0.0222307 -0.00974383 0.00254645 -0.0209466 -0.0100158 0.0137323 -0.0106191 -0.0406086 -0.0233219 -0.00223675 -0.0444142 0.0224924 0.0256451 -0.0135648 0.0134964 -0.0155285 -0.0230136 -0.0161017 -0.014374 -0.0920666 -0.016614 -0.0479775 -0.0610714 -0.0466389 -0.0273533 -0.0551779 -0.00308656 0.0614547 0.01486 0.0457775 -0.0283865 -0.0202485 0.0300581 0.0223444 0.0556608 -0.00112776 -0.00940763 -0.0333318 -0.00907984 -0.027603 0.0130587 0.0365084 0.0257945 -0.00551331 -0.00293288 0.00198622 0.0554099 0.0100199 0.0817647 0.0215884 -0.0233953 0.013534 0.00870404 0.0443445 -0.0173168 -0.0346854 -0.0495061 0.0160314 -0.0254511 -0.0267417 0.0139462 -0.0160943 0.0497228 0.0417602 0.044438 0.0256851 -0.0222967 0.0222326 -0.00484004 0.00242481 -0.0216104 -0.0252962 -0.00251323 0.0773325 -0.00343782 -0.0227529 0.0322838 0.000473235 -0.00283123 -0.0341158 0.00882881 -0.0110905 -0.0577056 0.0263093 0.0596712 -0.00269991 0.0150284 -0.0219162 0.0459605 0.0357 -0.0223421 0.108208 0.00256945 -0.0566167 -0.102205 -0.00255426 -0.0662018 0.0200558 0.0504414 -0.0551841 0.0108277 -0.0115872 0.0430749 -0.0425493 -0.0101539 0.0294814 -0.0152945 0.0101602 -0.0212897 -0.00825327 0.0364488 -0.0376378 -0.00550898 0.0181974 0.0235987 0.00633599 -0.0162107 -0.00873017 -0.0466052 -0.0357713 -0.0279886 -0.00128882 0.0068089 0.0154259 -0.0308029 0.0270694 -0.0984017 0.00470716 0.0139172 0.0501133 0.0138027 0.0405524 -0.0287006 -0.0449476 -0.0884225 0.00715236 -0.0242081 -0.0231315 0.0413101 -0.0338161 0.0184076 -0.0261613 -0.102613 -0.0338552 -0.0162467 -0.000877845 0.0301267 0.00193885 -0.015817 0.0443451 0.00644231 -0.0495661 0.0183947 -0.0586956 0.0199842 0.0778738 0.00210187 0.00418746 0.00674688 -0.0413556 -0.0308715 0.0800786 -0.00529517 0.00976495 0.0509896 -0.0307792 0.0557408 0.0267045 0.00770074 0.00935615 0.0524618 -0.0358404 0.0613237 -0.0384673 -0.0168521 -0.0057175 0.0211747 -0.00135837 -0.0401112 -0.00544143 -0.0327254 0.0702735 -0.00143941 -0.01754 -0.0444605 0.0441014 -0.0369674 -0.0545928 0.0342046 0.0139396 0.0303904 0.0667307 -0.0357764 0.0557251 0.0275712 -0.0780936 -0.00552837 0.0189563 -0.0602693 -0.0312378 -0.0103281 0.035619 0.0234361 -0.0231277 -0.00554101 0.0386264 -0.00925762 -0.0346552 -0.0124711 -0.0252986 -0.0423138 -0.0348208 0.041336 -0.00937208 -0.0160682 0.00241819 -0.0201438 0.00895156 -0.0339312 0.037763 0.00781597 -0.00110347 -0.0348257 -0.00165001 0.00701918 0.0308392 0.0480955 -0.0082776 0.0134906 -0.0642916 0.0226623 -0.0386358 -0.00297819 0.0494328 0.0318206 0.0124612 -0.0306389 0.000787381 0.0415954 -0.00716173 0.043725 -0.0299625 0.0193799 -0.0144793 0.0352255 -0.0322368 0.0347045 0.0210006 0.00855177 -0.0472032 -0.0256537 0.0145416 0.0642641 -0.0584736 0.0340561 0.0291103 -0.0238071 0.0134528 0.0505986 0.0215515 0.0464105 -0.0404465 -0.0421437 0.0249573 -0.00689205 -0.0450273 0.0089343 0.0134939 -0.0487113 0.0155234 0.0665038 0.00441797 -0.0106191 0.00322319 0.0178523 0.0256162 -0.047047 0.0143817 0.0128881 0.0814352 0.00476324 -0.0319542 -0.0180127 -0.0114264 0.0127602 0.0100671 -0.00644743 -0.014607 -0.0520676 -0.000783299 0.00438814 -0.0129155 -0.00431373 -0.00853807 0.0349871 -0.019398 0.0205894 -0.0237929 -0.0709365 0.0450094 0.0393768 -0.0483211 -0.0234348 -0.011767 -0.10561 -0.0657009 0.0470915 -0.00330109 -0.000278157 0.0042187 -0.0239989 0.00303651 0.0121095 -0.0502985 0.0678343 0.00835487 -0.0269755 -0.0672211 -0.0278542 -0.0468497 0.0251563 -0.00405162 0.0418899 -0.0100579 -0.0367682 -0.0118884 0.0626902 -0.0277086 0.0267222 -0.0326204 -0.0285526 0.0391319 0.00463236 -0.00137953 -0.0188609 0.00675045 0.00258799 0.00715386 -0.0391055 -0.0217163 0.0402453 0.0045695 -0.0139103 -0.0742508 -0.012718 -0.0495781 0.0019503 0.0446169 0.0292519 0.024709 -0.0273922 0.0283583 -0.0411056 0.0106055 -0.00258372 -0.00387523 -0.0675254 0.0270974 0.0092136 -0.0741978 0.00509236 0.0680389 0.0446063 -0.0247218 -0.0217688 -0.0184364 0.0211749 -0.0477249 0.00544358 0.0110469 0.0219424 -0.0296712 0.0189172 0.0843241 -0.0166299 0.00798753 -0.00287348 -0.0703583 0.0186428 0.0122521 0.0668362 0.000385776 0.0519147 0.108712 -0.00979947 -0.0281678 0.0355045 0.0184901 0.00865518 0.037119 0.00607256 0.013857 0.100092 0.0156914 0.0187948 0.032221 -0.000868143 0.0171781 -0.047978 -0.000137324 -0.0442007 -0.000704749 -0.0193489 0.05395 -0.0468175 -0.0268282 -0.000333662 0.0270377 0.0173058 0.00575505 0.0387294 -0.0671082 0.0481877 0.00142321 0.000668058 0.00779033 -0.0441826 0.0285285 0.0398288 0.0177478 0.0214518 -0.00264835 -0.000792583 0.0342924 0.0403966 -0.0310849 0.00827247 0.0445386 0.00792497 0.0311953 -0.0472661 -0.0146127 -0.0183638 -0.0484607 0.036452 -0.00812933 0.0517806 0.0134585 0.0744948 0.0253405 0.0826491 -0.0819419 0.00354744 -0.00652173 -0.0187459 0.0464193 0.00221225 -0.0207429 0.00727522 0.00652404 0.00796966 0.0366222 -0.0380722 -0.0152429 0.0154683 0.0412875 0.045913 0.031253 -0.0497622 -0.00826634 0.0101273 -0.0189664 0.0190626 0.0221238 -0.0618062 0.0011631 -0.0490454 0.0371002 0.0100989 0.0348166 0.0466277 -0.0409562 0.0396895 -0.0376876 0.013465 -0.00632123 -0.0267925 0.00736489 -0.0221014 -0.000461622 -0.0104678 -0.0527297 -0.061594 0.0167813 -0.0135852 -0.0173328 0.030845 0.00944986 0.0206698 0.0475251 -0.0332224 -0.0605058 0.00846463 -0.0145932 0.00836758 -0.0394952 -0.00784265 -0.0214175 0.00203361 -0.0212758 0.0230292 0.00592576 0.0564374 -0.0253428 -0.0198554 -0.00131395 -0.0819713 -0.00693858 0.0366937 -0.0536413 0.020076 0.042871 0.0162599 0.000774264 -0.0420435 0.0242454 -0.0450911 0.0139681 -0.0103581 0.0138597 -0.0409925 0.000377315 0.0532314 0.0108641 -0.0516855 -0.0159604 -0.0472583 0.0238807 0.00949131 -0.0291398 -0.0568668 -0.00110075 -0.00796318 0.0368843 0.00119225 0.0253737 0.00701975 -0.0179926 0.0507613 0.00591848 0.0261815 -0.0148835 0.0185764 -0.0528615 -0.027666 -0.0543593 -0.0134855 -0.0271726 -0.00158443 -0.053728 -0.000629575 0.0261595 -0.0247926 0.0135961 -0.0137288 0.0258233 -0.0291288 0.00176686 0.00338759 0.0327952 0.0135611 -0.0077224 -0.0551061 0.0266893 0.0209347 -0.0442077 0.0250037 0.0441055 -0.0462594 0.0685799 -0.053053 0.00951833 -0.0757716 0.0345921 -0.0109259 -0.014125 0.0662668 -0.0186118 0.0147602 -0.0251226 0.0151524 0.0239552 0.0213486 -0.0429691 0.0230702 0.0466156 -0.00602657 -0.0404886 -0.0431355 0.0564509 -0.0220164 -0.0551637 0.03137 -0.0133984 0.0325793 0.010826 -0.000130092 -0.000344765 -0.000829606 -0.0101864 -0.0138156 0.0301307 -0.0676429 0.016648 0.0268793 -0.0184356 -0.004064 0.0268749 -0.0559755 -0.0565352 -0.117643 -0.00993547 -0.00325179 -0.104719 -0.0402739 0.0262822 -0.00533641 0.0192495 -0.0453808 -0.0124385 -0.0347103 -0.0269631 0.0119138 0.0239835 0.0153086 0.0178773 0.000332941 -0.00672464 -0.0513717 -0.0285476 -0.033613 -0.0169001 0.0632228 0.000843856 0.0514115 0.0499971 0.00160755 -0.00189297 0.0600653 0.012611 -0.0127452 -0.016977 -0.00119735 0.0579298 0.047834 0.0839627 0.0141716 0.00458443 0.00132999 0.0462539 -0.00892803 -0.00525237 -0.0170994 -0.0182647 0.0326227 -0.00940775 0.0190665 0.0240567 ^-0.0279486 -0.000544446 -0.0344145 0.0402735 0.00842803 -0.00940106 -0.00806174 -0.000487203 -0.0143659 0.0296624 -0.0258286 0.025098 0.0524924 0.015604 0.0445962 0.00773633 0.00878178 -0.0290417 -0.0346634 -0.0365367 -0.0307212 -0.00650286 0.041717 -0.0605576 -0.0194097 -0.0795592 0.0538552 -0.00460381 0.0169886 -0.0418546 0.0195986 -0.0466878 -0.0157163 -0.00419456 0.0806477 0.0340806 0.0560278 -0.00663718 -0.0296985 -0.0297921 -0.0357309 -0.00291632 -0.0082164 0.016551 -0.0935983 0.00670644 -0.0107544 -0.0880547 0.038541 0.0124849 0.00755226 0.0319312 -0.0324016 0.0334359 -0.023956 0.0240603 0.0136278 -0.00359102 -0.0145843 -0.00456395 0.0376207 -0.0190885 0.0295206 0.0587966 0.0246179 0.0162414 -0.141495 0.0302085 0.0167794 0.00800804 -0.0287182 0.0478418 0.0070667 -0.0334071 -0.00472373 -0.0106749 -0.0518304 0.0116842 -0.0412352 -0.0254234 0.0295637 0.00576961 -0.0320181 0.0172254 -0.00984043 -0.0340649 0.040394 0.0299899 -0.00559363 0.0107464 0.0751041 0.0189817 -0.0622625 0.0636581 -0.0338258 -0.00743665 -0.00477563 0.000445196 0.0105647 0.00134702 0.0275901 -0.0287104 -0.0261954 -0.0033376 0.0124296 -0.00574928 0.0433816 -0.0358896 -0.0012822 -0.00753338 0.0362595 0.00234328 0.0242081 0.00122481 -0.0384847 -0.0648835 -0.0292579 -0.020354 -0.0810214 0.0445785 -0.00490337 0.0037177 -0.0401915 0.063508 -0.0241896 -0.0200601 0.0275928 -0.027811 0.0239919 0.00457854 -0.0123043 -0.0157205 0.0176973 -0.0386669 0.0405721 0.00304293 0.0504979 0.0167105 0.0652611 0.032093 0.0135751 0.0255432 0.00538038 0.00255819 0.0230508 -0.0374215 -0.0190582 0.00794262 0.064649 -0.0150152 -0.027746 -0.0189465 -0.0838213 -0.0134912 0.0394246 0.00202986 0.0075556 -0.0209474 -0.0266439 0.0144595 0.054324 -0.044354 0.00396421 0.00940467 0.0502736 0.0230729 -0.0191832 -0.0527743 0.0124406 0.0374515 -0.0132178 0.0549136 -0.012049 0.0650752 -0.026528 0.00572154 0.00460358 -0.0120862 0.00969401 -0.00607139 0.0141764 -0.014838 0.0299563 0.03817 0.0658533 0.0192504 -0.0249979 0.00124448 0.0559184 -0.0235415 0.00490071 0.0433638 -0.0248039 -0.0606725 0.0814654 0.0807308 -0.033716 0.0101425 0.0155202 -0.0113614 0.0453152 -0.000295701 -0.0508842 -0.0348577 0.0372239 -0.0164177 -0.00848737 -0.0070487 -0.0129855 -0.0169249 0.0468141 0.0236174 -0.0418029 0.0463964 0.077429 -0.0430388 0.0451117 -0.0448923 -0.0696376 -0.0585215 -0.0814855 0.0456853 0.0499068 -0.0173521 0.0162371 -0.0584402 -0.024145 -0.00908881 -0.0193028 0.0761088 0.0163323 -0.00170898 0.0127566 -0.0104081 -0.0149862 0.0388131 0.0775761 -0.000836349 -0.0599023 -0.0311785 0.000800634 -0.0332332 0.0737852 -0.00966986 -0.0112144 0.0382149 0.048605 -0.00114648 0.030519 0.00411486 0.0607665 0.0540849 -0.0300895 -0.041019 -0.0482964 -0.00254244 -0.050692 0.0206243 0.0159192 0.0404388 -0.0416727 -0.0319953 0.0576733 0.0543991 -0.00620387 -0.0445548 0.00178224 -0.0126654 -0.0322238 0.00284779 0.0224757 0.0258357 -0.0619591 0.00589901 0.0244972 -0.0247217 0.0918417 -0.0697457 -0.000226955 -0.0618118 0.00665775 0.0293077 -0.0147791 -0.00688476 -0.0331386 0.0241333 -0.0271409 -0.02774 0.00519331 0.0492565 0.0285024 -0.00941751 0.0549332 0.0430742 -0.0545957 0.0123976 -0.0122931 -0.00188316 -0.006907 0.0202091 -0.00299172 -0.0423781 0.0374674 0.00998981 -0.00365049 0.0590157 -0.00130906 -0.0186821 0.01123 -0.0150621 -0.0272008 0.027615 -0.0466044 0.0344968 0.0174726 0.0201842 0.0164779 0.000189183 -0.00904298 0.0134914 0.0288596 -0.00652762 -0.0434879 0.00421502 -0.0188497 -0.0242342 -0.0726749 -0.0383604 -0.0567962 -0.0348096 -0.0263594 -0.00926572 -0.0333117 -0.0128609 0.0140251 0.00130608 0.0111178 0.00372455 0.00984971 0.0249219 -0.0256973 0.0171322 -0.0285888 0.0215143 -0.0412725 -0.013899 -0.000286226 0.00723998 0.00527546 0.0242966 0.00767997 -0.0364133 -0.070608 -0.00944729 0.0116935 0.026722 -0.0155694 -0.0541833 0.0336957 0.0200733 0.0270799 0.0290933 0.0362806 -0.0078071 -0.0441791 -0.0154667 0.00486149 -0.0305348 0.0021432 -0.0140501 0.0237149 0.0012988 0.0188141 -0.0262724 0.0412235 0.0311928 -0.0550263 -0.00164066 0.0452443 -0.0385713 0.000627311 -0.0278624 -0.0192563 0.00776001 0.0565678 0.00518165 0.0577487 0.022506 0.0373581 -0.0333967 -0.0551222 -0.030467 0.0165768 -0.00118689 -0.0658424 0.00864249 -0.000386204 0.013782 -0.0147659 0.0628859 0.0473329 0.0244116 -0.0257866 -0.0029086 0.0664662 -0.00363959 -0.0173601 -0.0545215 0.0142592 -0.00351787 0.0245984 0.0783332 0.0238071 -0.0324215 0.0481666 0.0487444 -0.0354768 -0.00824867 0.0669048 -0.0160911 0.0686918 0.0385879 -0.0342791 0.0427433 0.0789084 -0.0493353 0.102657 0.0207642 -0.0034753 0.0320127 -0.0443415 -0.048432 0.0169486 -0.0156118 0.0409651 0.000822282 0.0775536 0.00703062 -0.00321649 -0.067706 -0.0442167 -0.00598773 -0.030451 0.00864901 0.0285267 -0.040867 0.0659648 0.0230053 -0.0151473 0.0145524 -0.00316227 0.104277 -0.0178604 -0.00721678 -0.0349089 0.00759201 0.0359476 -0.0389384 0.0208837 0.0345503 -0.0183853 0.031671 -0.0265342 0.0532578 0.0166734 0.0417566 0.00661657 -0.0626505 0.0212371 -0.0410447 0.0663857 -0.0224089 0.0458848 -0.0124475 -0.0441521 0.0139458 -0.0902629 -0.0278577 0.0326409 0.0397804 -0.0200487 0.0341329 -0.00866371 0.0224478 0.0121004 0.0264474 0.0167187 0.00401874 -0.0184882 0.0349245 -0.0618934 -0.0170542 0.0452707 0.0305657 0.0347949 -0.0538644 0.0190144 -0.0269287 -0.0545641 -0.028081 0.0324301 0.0166361 0.0481837 0.00406113 0.0103368 0.0395564 -0.0386872 0.0855136 0.0328188 -0.0628491 -0.0289247 0.0108911 0.0141681 0.0288574 -0.037575 -0.0153355 0.0135746 -0.00520714 0.00550375 -0.00663579 0.0308649 0.0170316 0.0638127 0.0372655 0.0634554 0.0459248 -0.0493825 0.0232382 -0.0657474 -0.0395028 -0.0267331 0.0194599 -0.00562846 0.0216851 0.00566828 -0.0304573 -0.0468141 -0.0203643 0.0125599 -0.0524972 -0.00297908 -0.0612555 0.0158499 -0.0149944 0.0364844 -0.0389173 0.0098211 0.0142359 0.0131412 -0.0917595 -0.0496343 0.0589592 0.0349591 0.0211176 -0.0822445 0.0332874 -0.0256606 -0.00208775 -0.00113095 -0.0321086 -0.0130697 0.019182 0.00811333 0.0320422 -0.0547291 0.0401386 -0.0323614 -0.0313844 0.000238227 0.0189956 -0.0279447 0.0617424 -0.00281968 -0.020276 0.030447 -0.0207698 0.0128049 0.0177216 -0.00372939 0.0344704 0.0165412 -0.00616922 -0.0489407 0.0598521 0.00402356 -0.035043 0.00716254 0.0819243 -0.00228513 0.0244552 0.0234786 -0.0213346 0.0842007 -0.0375481 -0.0261735 -0.0181257 0.00763722 0.0771457 -0.0428851 -0.0103675 0.0169194 -0.0333672 -0.0164705 -0.0390507 0.0102394 0.0151036 0.00406063 -0.0497266 0.049457 -0.0635413 0.0223186 0.0103775 0.020163 -0.00378745 0.0644199 0.0252592 -0.0176018 -0.00441193 -0.0475902 0.025268 -0.00592288 -0.0177041 0.0347308 -0.00783592 0.03488 0.00454162 0.0138033 -0.0523822 -0.0266549 -0.046003 -0.0512785 0.0235452 -0.00954109 0.0470762 -0.0804364 0.00241447 -0.00816056 0.0089886 -0.0290014 0.0136355 0.00533221 -0.0499165 -0.0161516 -0.0156396 -0.047964 0.0778122 -0.00874006 -0.0312454 -0.00824332 0.054789 0.099152 -0.0327403 0.0325827 -0.0391889 -0.0372973 0.0774696 0.0364811 0.00146342 0.0508079 0.0216573 -0.00271412 -0.0154797 0.00823657 0.00632344 -0.00544878 0.0568409 0.00372728 -0.0644243 0.0180705 0.0665389 -0.0290989 0.0240473 0.0106921 0.0171302 -0.00757023 -0.0671839 0.0507981 -0.0529493 -0.0552492 0.0382009 -0.0229807 0.0386485 0.0014008 0.0505876 -0.0369141 -0.047653 -0.0164335 0.0403801 -0.0188792 0.0248192 0.0257589 0.016545 -0.0362928 0.00555734 0.0429652 0.082999 -0.0130132 0.0456426 0.0226435 0.0334001 0.0338019 0.0149017 -0.0459969 -0.0396522 -0.019132 -0.0370763 0.0127947 0.0292173 -0.00432585 -0.0236816 -0.0238126 0.0917485 0.0180395 0.00692301 -0.028502 -0.0015278 0.0658933 -0.00253543 -0.0149708 -0.00136404 0.00497085 -0.0602662 -0.0165897 0.0236201 0.0203629 -0.0448673 -0.0755254 -0.00470725 0.0375884 -0.0546565 -0.0288743 0.008992 0.0224721 0.0209354 0.0152679 -0.00773414 -0.0281892 0.0280534 0.0304126 0.0200205 -0.0546806 -0.0105023 -0.00370331 -0.011176 0.0479178 0.0192622 0.0187771 -0.0115577 0.0208576 0.00136967 -0.00956877 0.00523534 -0.000408185 0.0491957 0.012265 -0.0226796 0.029605 0.0067369 0.0123513 0.0987896 -0.0118097 0.00113274 -0.00389726 -0.0246577 0.0674478 -0.0455618 0.00104498 -0.0356865 0.0285485 0.0230734 0.0316833 -0.0144234 -0.0277045 0.0428857 -0.00616456 -0.00465828 0.00603392 0.0203067 -0.0702894 0.0155909 -0.0355026 -0.0376482 0.0570026 -0.0138973 ^0.0366747 0.0124953 -0.0201898 -0.10027 0.0123785 -0.0081258 0.00762239 -0.0312598 0.0438871 0.0361519 0.00766132 -0.0744558 0.0501636 -0.0261052 -0.130085 0.0272166 0.021038 -0.00119966 -0.00119267 -0.00213186 0.03532 -0.0121365 0.0389348 -0.0590232 0.0107906 -0.036943 0.00713949 0.0176722 -0.0018682 0.0174565 0.0277648 0.0137781 -0.00769974 -0.0313668 -0.0300209 0.00617145 0.0134898 0.00346832 0.00238262 0.0816703 0.019312 0.0109753 0.0209856 0.0237349 0.0305258 0.0325973 -0.000621627 0.0181835 -0.0636513 -0.0292509 -0.0392562 0.00123078 -0.0512258 0.00284006 -0.00280556 0.085593 0.0885114 -0.0151513 0.0315394 0.0249309 -0.0397526 0.0356996 -0.0582319 -0.0252876 -0.00928381 -0.0447934 0.00115234 0.0415523 -0.0413527 0.00404077 0.014989 0.0507514 0.00211949 0.0158033 -0.011574 -0.0570484 -0.054806 -0.00442918 0.0158985 -0.0586645 -0.0224995 0.057058 0.021839 0.0156645 -0.0466068 0.0196557 0.0017898 0.0189264 -0.0647722 0.0166522 0.00120165 -0.0762089 -0.0293025 0.0157275 -0.0123186 -0.0365963 0.0231056 0.00929141 -0.0199715 0.0190892 0.0242745 0.0507616 -0.00101017 0.0644362 0.012854 -0.0326672 0.0110513 -0.00744749 0.00474406 -0.0220088 -0.015664 0.0104686 -0.0488644 0.0178958 0.0128275 -0.00256185 0.00624669 -0.000362036 0.0126604 0.0496092 0.023994 0.00597905 -0.0345333 0.0540092 0.0318814 0.00226006 -0.00108121 0.0173098 -0.0185942 0.0046249 -0.0418082 0.0373881 -0.0192714 -0.0157 0.0544152 -0.00416482 0.0359538 -0.0395663 -0.017349 -0.0400375 0.0462721 -0.107723 -0.0205336 0.0596043 -0.0515889 -0.00312797 -0.00855295 -0.0682353 -0.00245467 0.0410492 0.0432001 -0.0141999 -0.0325859 0.0035662 -0.0383507 -0.0206683 -0.00655475 0.0180903 -0.0297257 0.000886268 -0.0711469 0.0511829 0.00774638 0.0387811 -0.0182136 0.0133974 0.0193598 0.0016142 -0.00250104 0.0469201 0.0159372 -0.0678905 -0.0120608 0.0215997 -0.0406036 0.0313734 0.0807618 -0.0149566 0.0109669 0.030597 -0.0434498 0.0158509 -0.00586633 0.0870642 0.0791442 -0.00511128 0.0250007 0.046114 -0.0133754 -0.0387826 0.0297695 0.000216719 -0.0217698 0.0360953 0.0281595 0.0303337 -0.0229824 -0.0239222 -0.0140568 0.0276873 0.0175049 -0.00690131 -0.0244732 -0.0467252 0.0333229 -0.0121241 -0.025485 0.0921515 -0.00992659 -0.0408873 -0.0169272 -0.0315369 0.0220725 0.0279426 0.029008 -0.0465925 -0.0581762 0.00219076 -0.0121137 0.0114592 -0.0691814 0.000605937 0.0068498 0.00802029 -0.0185035 -0.0746726 0.0256696 0.00741835 0.0286965 -0.0073591 -0.00239232 0.0223182 -0.0819327 0.0552478 -0.0110743 0.014126 0.0134119 0.0559405 -0.0305248 -0.0525354 -0.0938625 -0.0521146 0.0137075 -0.0150829 -0.0302009 -0.0954624 0.022424 -0.0415231 0.0269657 -0.0204054 -0.0105448 -0.0301793 -0.0264107 0.0451307 0.00163804 0.00846311 0.0190474 -0.010406 -0.0241092 0.0213773 0.103628 0.02859 -0.0365968 0.00995352 0.0360745 0.0242671 -0.0131921 -0.0026624 -0.053502 -0.0455212 -0.047521 -0.0130147 0.010915 -0.02738 0.00542893 0.0144727 -0.00486682 0.0241166 -0.00824231 -0.0104854 -0.0102156 -0.0170453 -0.0375501 -0.0405043 -0.0213572 0.00017938 0.0208901 -0.0242772 -0.0463796 -0.0175198 -0.0423054 0.0217613 0.0025235 -0.0238641 0.0015721 0.0379634 0.0493864 0.00134043 0.017021 -0.0184266 0.0065299 0.018432 -0.0179509 -0.0146719 0.0455178 -0.0071284 -0.0115702 -0.0190067 0.0152494 0.0324597 -0.0530027 0.00685411 0.018651 -0.0308766 0.040889 -0.0212067 0.0494725 -0.0773333 0.0216337 0.00390977 0.00184287 -0.00761031 -0.0430643 0.0252058 0.0413481 0.00872268 0.0220328 0.0437222 -0.048541 -0.00157198 0.0467469 -0.00123589 0.0300377 0.0463544 -0.0557115 0.00984254 -0.0336043 -0.0574723 0.0205723 -0.0332171 -0.00127386 0.0198079 0.0221196 -0.0147475 0.0224451 0.0858533 -0.0310943 0.00971037 -0.0343015 -0.0560435 -0.0531327 -0.0446662 0.0288019 0.0575837 0.0399737 0.0161259 0.0107204 -0.0152261 0.0204509 0.000331456 -0.050187 -0.014037 0.00854175 0.0106353 0.0020416 -0.0595998 -0.00419977 0.0525866 -0.0267844 0.040708 -0.039102 -0.0279758 0.00676008 -0.016199 0.0193051 -0.0138182 0.00540186 -0.048387 0.0242724 -0.00717301 0.0635019 0.0868337 -0.0102861 0.0176004 -0.0032064 -0.0456063 0.00768744 -0.0577693 -0.0178133 -0.0360185 -0.0234945 0.0235417 0.0381402 -0.0118858 -0.0534748 -0.0173246 -0.0201473 -0.00852471 0.00119354 -0.0542853 0.0659814 0.0561208 0.0049956 -0.000928283 0.0122248 0.0334077 0.00660625 0.0128771 -0.00580916 -0.0215495 -0.0412561 0.0426694 -2.27264e-06 0.00795164 -0.00633011 -0.0373024 0.0465017 0.00367612 0.0111529 -0.0599961 0.0288311 0.0190821 -0.0236255 -0.00130859 0.011598 0.0215451 -0.024255 0.0593296 -0.00311229 -0.0281954 0.00763372 -0.0275288 -0.00960444 -0.0144081 -0.057316 -0.0175615 0.00620171 0.0542827 -0.00514324 0.0378158 0.0200308 -0.0149959 0.0210692 0.0462993 0.0232562 0.00490822 -0.104367 0.0436778 -0.0168762 0.0122794 0.0329037 -0.00366086 0.0530712 0.011805 0.0276366 -0.0148167 -0.0832862 -0.0192627 -0.0394516 0.0298268 0.00961275 -0.052612 0.0168967 0.00807678 -0.0400585 0.0169664 -0.030261 0.004956 0.0357736 -0.0286066 -0.00178468 -0.0743899 -0.0641934 -0.0432118 0.0163973 0.0119748 -0.0255779 -0.0608922 -0.0414078 -0.0135118 0.0260964 -0.00298268 -0.0421138 0.0205815 0.0314237 -0.0336392 -0.0354066 -0.0384104 0.0404442 -0.0256826 -0.0275732 -0.0804699 -0.00657733 0.00813016 0.00351682 -0.00833937 0.00456429 0.0375166 -0.0505226 0.0135306 0.0983483 0.024734 -0.0266414 -0.0181995 -0.00801643 -0.0546638 -0.00974659 -0.00982953 0.0203778 0.00750036 0.0373725 0.0129772 0.0141213 0.0227691 0.0243611 -0.0673165 0.0228217 0.0416947 -0.0218589 0.0505023 0.0396593 0.0360937 0.0295979 0.0487689 0.0526731 -0.0519324 0.0122812 -0.0117778 0.006059 -0.0201066 -0.0472587 -0.0203076 -0.0162484 0.0555513 -0.000253097 -0.0154129 0.0135303 0.0465625 -0.0529966 0.0678872 0.00865652 -0.0293141 -0.0392292 -0.0291185 -0.00476572 0.0313117 0.0238184 0.054981 0.0200254 -0.0144173 -0.0202308 -0.0381964 0.00128927 -0.0577341 -0.0501074 0.0232072 -0.00317756 0.0433941 0.0348466 -0.00553926 0.0142241 0.00299548 0.000823748 -0.0189492 0.0425653 0.0163561 0.0128496 -0.0377944 0.0267824 -0.0195168 -0.0180453 0.0468226 -0.0424783 0.0225598 -0.0304715 -0.0155979 0.0607749 0.0346746 0.0350639 -0.0112202 0.0404714 0.0241335 -0.0343288 -0.0148429 0.0363854 0.036821 -0.0464578 0.0162368 0.0470317 0.0357796 -0.0274932 0.0181672 0.0185176 0.116246 0.00854849 -0.00933778 -0.0260867 -0.00285003 -0.0408269 -0.00385645 -0.0702303 -0.00725829 -0.00194442 -0.0249819 0.00682317 0.0105189 0.00939079 0.0272281 0.0305025 -0.0245887 -0.00935067 -0.0157096 0.0326982 -0.0175559 0.0316714 0.0739618 0.0302951 0.00784845 -0.0185381 0.00371263 -0.00806403 0.0653558 -0.00542925 0.0825722 -0.0344926 -0.00542639 -0.0407477 0.0111936 -0.00824562 -0.0403004 -0.0629378 -0.00525965 0.0182653 0.00428008 0.0476463 -0.00149374 0.00948516 0.0336233 -0.0205435 0.00809353 -0.0472875 -0.00942378 -0.0190788 -0.00847586 0.0760357 0.0275332 0.0333284 0.0056273 0.0197977 -0.00800438 0.0129101 -0.0107916 -0.00263649 -0.0111071 0.0394241 0.0170481 -0.018859 -0.0143106 -0.0279663 0.00432015 0.0157981 0.0220627 -0.0521458 -0.0122389 0.0171448 -0.0298988 -0.0741916 0.00353994 -0.0198152 0.00972259 -0.0312597 -0.0405577 -0.0156852 -0.0046951 -0.0180996 0.0126612 -0.0722229 0.0302955 -0.0349807 0.0454835 0.0711894 -0.0529731 0.0132567 -0.0356186 0.0199799 -0.00548619 -0.00968002 -0.0300356 -0.0120504 0.0437413 -0.0433675 0.00725053 -0.0230078 -0.0552139 0.0350782 -0.0814149 -0.0124854 -0.0205756 -0.0160485 0.0203211 0.0603269 0.0363309 -0.0388241 0.00987653 -0.0327544 -0.012458 -0.0219246 -0.0216674 0.0077519 -0.0373919 0.0147325 -0.00636927 -0.0108802 -0.048898 -0.0223139 -0.00571624 -0.0161761 0.11975 -0.0226912 -0.0259975 -0.0307694 -0.00277669 0.00549078 -0.0127075 0.00311639 0.0437925 -0.0498486 0.0380235 -0.00665959 -0.00920451 0.0563859 0.0309505 0.0456036 0.0540778 -0.0169362 -0.0315359 -0.0505294 0.00965304 -0.0239337 0.0236418 -0.0478543 -0.0260924 0.0245006 -0.0267659 -0.00426857 0.00900981 0.0639164 -0.0242203 0.0384099 0.0611629 0.0767552 -0.060046 0.0706537 -0.0476383 -0.0271637 -0.0219203 -0.000372253 -0.0107837 -0.070648 0.0492893 -0.0107945 0.0157726 0.0140117 -0.00675317 -0.0194528 0.000352924 -0.0192694 0.0249862 -0.00456383 -0.079155 0.0492551 -0.0150331 -0.00983638 0.0137935 -0.0182101 -0.0585419 -0.0171686 0.0662538 -0.023386 -0.0267303 0.0112809 -0.00863756 0.00929434 0.018959 ^-0.00154032 -0.028801 0.017767 -0.0131192 0.0536963 -0.0384314 0.0186604 0.0285148 -0.0473277 -0.0375663 -0.0466953 0.020331 0.00707535 0.0195392 -0.0421381 -0.00313477 -0.0275702 0.0114188 -0.0202276 -0.0401855 -0.0392312 -0.000861126 -0.024854 0.0432517 0.0293757 0.0132469 0.0533731 -0.0543012 -0.0325441 0.000603507 0.00886009 -0.0718484 0.0151189 0.008009 -0.0149353 -0.00462912 -0.0315549 -0.0219388 -0.005785 -0.036841 -0.0370793 -0.0130998 0.0183428 0.0385818 0.0461034 0.0380013 -0.00831821 0.00625939 -0.00770837 0.056971 0.0235137 0.0434208 -0.00526222 -0.00789492 -0.028181 -0.0376915 -0.0719183 -0.00231931 0.00448374 -0.0239961 -0.0619559 0.00252032 -0.103056 -0.0873237 0.0207646 0.0200112 -0.0372715 -0.0198529 -0.0225751 -0.00489988 -0.0249679 0.0255637 -0.0158808 0.0261405 0.0270231 -0.0153629 0.0652263 0.00321287 -0.0111526 0.0149145 0.0223375 0.0524494 -0.0130107 0.0186177 0.0128081 0.0575633 0.0320978 0.0176111 0.022998 -0.0178479 0.00474875 -0.0739209 -0.0369107 -0.034807 0.0046801 0.00547961 0.00891556 -0.0566314 -0.0284745 0.0219927 -0.00952491 -0.0353148 -0.00400683 0.0292411 0.0216128 0.0601239 -0.0249135 0.0160449 0.100029 0.000936811 0.0465652 0.0126862 0.0358169 0.0333563 -0.00515507 -0.0830784 -0.030567 0.0671919 -0.082025 0.0437284 0.00132178 0.0212853 0.00622661 0.0264781 -0.0473678 0.00279761 0.0172464 0.0131791 0.012235 0.00441155 0.00817261 0.0472638 0.0380352 0.0670412 0.0148213 0.0766972 0.031141 0.0681859 -0.0021549 -0.00834885 -0.0135843 0.0656529 -0.000208254 -0.0171893 0.00906457 -0.0013975 0.0261303 0.0167994 -0.051677 -0.0238698 -0.0100308 -0.00851339 -0.0127823 -0.00895319 -0.0251144 -0.0095177 -0.0535169 -0.0523916 0.0396533 -0.049247 -0.00190711 0.0318981 -0.036189 -0.0479066 0.071093 0.00162299 0.0413572 0.0484905 0.0171933 -0.00498471 -0.0301112 -0.026827 0.0433326 0.0396166 0.0340551 -0.02 -0.0114029 0.0119872 0.00814906 -0.0359431 -0.0259447 -0.0151237 0.0333775 0.0304989 -0.0106841 -0.0396046 0.0140717 0.00431343 0.00794772 0.0366613 0.0288504 0.0285295 0.00907783 -0.0264277 0.000929244 -0.03296 0.00870675 0.0107765 -0.0303828 0.0195291 0.0351046 -0.0247119 -0.0255281 0.0295869 0.0237823 0.0310312 0.00193795 0.00554258 -0.0353839 -0.00669342 0.0121059 0.0052973 0.00713355 -0.0263372 0.0523409 0.0325299 -0.0400065 0.0271809 0.0166166 -0.00514773 0.0462661 -0.0216336 0.00435377 0.0363522 0.00386874 0.0272921 -0.0131011 0.00742306 -0.00485737 0.0382208 0.0190925 3.57641e-06 0.00371289 0.000319493 -0.0129906 -0.00590721 -0.00987783 -0.021862 0.0492009 -0.00428163 -0.000520381 0.022934 -0.0122963 0.0510276 -0.028768 -0.0284875 0.0831874 0.00637626 0.0039454 0.0286117 -0.0336632 -0.0451779 0.0323815 -0.0298209 -0.0424258 0.0121785 9.68707e-05 -0.0115046 0.0719401 -0.0278425 0.0274073 0.0348729 0.0184687 0.0400512 -0.0332062 -0.0354845 -0.0136794 -0.0582445 -0.033054 -3.60752e-05 -0.00810056 0.0204702 0.0120044 0.00106457 0.0129385 -0.0518009 -0.0197533 -0.0330945 -0.0725969 -0.0301573 -0.000983422 -0.0480963 0.0485926 -0.0404888 -0.0153547 0.0225337 0.0462449 -0.0453931 -0.0166288 0.0309157 -0.052869 0.0138887 -0.0521314 -0.0919602 0.0247731 -0.02235 0.0157008 0.0303807 0.032578 -0.0149425 -0.0068501 0.0755769 0.0133794 -0.016331 0.0496304 0.0379613 0.0205591 0.0357919 -0.0312475 0.000836046 -0.0143373 -0.0275602 -0.0431205 0.0293399 0.0046325 0.0242615 -0.0271904 0.00992257 0.0361048 0.0186812 -0.0103577 -0.0260486 -0.0320169 0.0211727 0.0181753 -0.0370617 -0.00919432 -0.0250256 0.0511785 -0.0362422 -0.0315148 -0.0238427 0.0410422 -0.0687467 0.0286379 -0.00528097 -0.0209749 0.0271342 0.0197358 -0.016444 -0.00370496 -0.0776725 -0.0662906 0.0158175 -0.0592238 -0.0525025 -0.0417797 -0.0384058 0.0490656 0.00767918 -0.0571756 -0.0382368 -0.0221406 -0.0293154 -0.0795585 0.0264741 0.054412 -0.0725586 0.00381687 0.0123515 -0.034642 0.0678087 0.0137715 -0.0026602 -0.0338295 -0.0112329 -0.0198109 -0.0717299 -0.00407056 0.0442974 0.00355251 0.0606642 -0.0266096 0.0173382 0.0333563 0.0332914 0.0212574 -0.0426219 0.0278243 0.000934909 0.0710493 0.0461505 0.0439922 -0.00621729 -0.020792 0.00835122 0.0353268 -0.0259682 -0.00714262 0.0402311 -0.0289579 -0.000997573 0.0184337 -0.0113428 -0.0224616 -0.03185 0.0513892 -0.0292144 0.0816039 0.0648088 -0.00374446 0.0596839 -0.0397616 -0.00585057 0.040107 0.0177035 0.0297373 -0.0273934 0.020345 -0.00959669 0.00646803 -0.0618355 -0.0266591 -0.064418 0.0432317 -0.0145786 0.0168507 0.0446383 -0.0139139 -0.0219726 -0.00706417 0.0354565 0.0610072 0.0406542 0.0120478 -0.0367416 0.0236769 0.0330311 -0.0245933 -0.00656705 -0.0205755 0.0193908 0.0248406 0.016847 0.0409142 0.0230825 -0.000822798 0.0908421 0.0588544 -0.0319063 0.0421221 0.00956027 0.0412171 0.0276635 0.0408788 -0.0544481 0.000596354 -0.0659012 -0.0191692 0.025741 0.0293905 0.0167376 0.0140972 -0.0337289 -0.0363417 -0.0131327 -0.0381218 0.00582029 -0.0097865 -0.00674887 0.0586445 -0.0045054 0.0499505 0.0187181 -0.0274013 0.0249338 -0.0582355 0.0274397 0.0343875 -0.00428721 0.0205093 0.0974788 -0.00673214 0.0220848 -0.0290592 -0.0408829 -0.00330571 -0.00362007 0.0254087 0.000348129 0.0203435 -0.0624952 0.0122279 -0.00121171 0.0456747 0.0345996 -0.0132481 -0.0330274 0.061592 0.0524917 -0.0596522 -0.0548584 0.0029132 -0.0500196 0.0223677 -0.0422046 -0.0140657 0.0245935 0.0035111 0.0520126 -0.00355914 0.0260672 -0.0432878 0.0130956 0.0107473 0.102793 -0.0171242 0.00434602 -0.0598392 0.0526038 0.0196073 0.0667682 0.00621506 -0.0171013 0.0160901 0.000492715 0.00183183 -0.0331201 -0.0697324 0.0214629 -0.00603713 -0.0226925 0.0358886 -0.0452633 -0.0245412 -0.0317479 -0.0191587 0.000413006 0.0277341 -0.0054337 0.0342827 -0.0717974 -0.0448488 0.0169197 0.0183059 0.0243604 -0.00336016 0.0402038 0.0218403 0.0483641 -0.00287758 -0.010067 -0.00832499 -0.0162979 0.0376739 0.038607 -0.0126079 0.000329048 0.0167248 0.0596927 -0.0343605 0.0199075 0.00371528 8.22535e-05 -0.0265426 -0.0267584 0.0408516 0.0569068 -0.00569618 7.84715e-06 0.0162146 -0.061387 -0.037037 -0.0661649 -0.00969738 -0.00107944 0.000317153 0.00990658 0.0289345 -0.000903607 -0.0520798 0.0350163 -0.0123627 0.0102513 -0.0443452 0.00995328 -0.0152458 0.0454628 -0.000184807 -0.0106337 0.0281616 0.0638525 -0.00118795 -0.0121746 -0.0258751 0.0249826 -9.72562e-05 0.0215851 0.043242 -0.00549255 -0.00773877 -0.0330783 0.0152876 0.0655441 0.000372481 0.00149086 0.0845891 0.000209634 0.0360787 0.0275707 0.0065879 0.0333011 0.0209695 0.0784542 -0.0317466 -0.0489266 -0.0165248 -0.0394712 0.00518502 0.0422454 -0.000718348 -0.0618783 -0.0504821 -0.0906834 0.047905 0.0148212 -0.0214051 0.0101626 0.0245748 -0.0329944 -0.00417375 -0.0601202 0.0114578 0.0256498 0.0211102 0.0133176 0.00701136 0.0327156 -0.000218353 2.28734e-05 -0.0209991 0.0249231 0.0704028 -0.0542114 0.0234519 -0.0471879 0.00106172 0.0522809 -0.0356899 -0.0598766 0.0317243 -0.00641597 0.0380586 -0.021144 0.0128932 0.0197151 -0.0632907 0.00942536 0.0200542 -0.0199534 -0.0203181 0.0182053 0.0483242 -0.0422189 0.0559423 -0.000119606 0.0254559 -0.0552865 -0.0768531 -0.00398045 0.0329967 0.0685861 0.00509872 -0.0155296 -0.0117057 -0.0375524 -0.0127009 0.0152432 -0.00169308 0.0151427 -0.0240711 -0.0150079 0.00703867 -0.0318512 -0.0122681 -0.000761589 -0.00495587 0.0367228 -0.00587335 0.00440012 0.0485867 0.0261811 -0.07706 0.0429276 -0.0237029 0.0697158 -0.0261198 0.033831 0.0390815 0.00564079 0.0159425 0.00775814 0.0224455 -0.0560272 -0.00245711 0.0473055 -0.0349085 0.0259036 0.0265897 0.0329339 0.0725051 0.00249901 0.00251718 -0.0230714 0.0530739 0.0401268 0.043182 -0.0307755 -0.0340744 0.0194896 0.0153615 -0.00185746 -0.0255171 0.0397214 0.00853043 -0.0332272 0.0318312 0.0255391 0.0471712 0.0136193 0.0257935 -0.00306427 0.0450502 0.0511094 -0.0229727 0.0140444 -0.071872 -0.0272666 -0.0232383 0.0368873 -0.045708 -0.0400677 0.0299205 -0.0620393 0.00386388 -0.0116395 0.0177299 -0.0347506 -0.026222 0.00574889 0.00767686 -0.0542272 -0.0132352 0.0126274 0.0118805 -0.00455883 0.00768179 -0.0327789 0.00625816 0.0259559 -0.0325173 -0.0128168 0.0131313 -0.0257235 0.00070736 -0.010549 -0.0352798 0.0158079 -0.0412038 -0.0538044 -0.0861573 0.0565747 -0.00454666 0.0294036 0.00400403 0.0357533 0.0216254 -0.0387404 0.00887474 -0.00324601 0.0326874 0.0357976 -0.00483312 0.000493394 0.0167374 0.0644114 -0.0464874 0.0501409 0.0211718 -0.0161794 0.0043245 -0.00641164 -0.000286614 0.0573644 ^0.085921 -0.0246399 0.0108757 0.0170521 -0.00472702 -0.00983367 -0.0271351 0.0171659 -0.00787872 -0.0105506 -0.0546788 -0.0255259 -0.0209566 0.0740609 0.000187884 -0.0224012 0.0244697 -0.00711385 -0.0578699 0.00651668 0.0254477 0.0560631 -0.0148054 0.0113542 -0.0549663 -0.0567063 0.0636952 0.0273626 -0.0170619 0.0477622 -0.0408209 0.0549915 0.000618457 -0.0152685 -0.0578287 -0.0376574 -0.0826925 -0.0288109 0.0492446 -0.0152387 -0.040736 -0.0218546 0.0722154 -0.0254788 -0.0394519 0.0136501 0.00696396 0.00779278 -0.0118596 -3.84244e-05 -0.023766 0.00230532 0.0582791 0.0338129 0.00596864 -0.021776 0.00858832 0.0745181 -0.0149022 0.0247455 0.0224405 -0.0127622 -0.0159961 0.0168412 -0.005785 0.0277799 -0.0467562 -0.0703094 0.010488 0.0540498 0.00925476 -0.00816384 0.0428305 0.0228488 -0.00945241 -0.0728603 0.0200008 -0.0266481 0.0523215 0.0103561 0.0461243 -0.0184712 -0.021748 -0.0276936 -0.0797638 0.035903 0.000910643 -0.024924 0.0249953 0.0202978 -0.0309837 -0.0108948 -0.0608864 0.060119 0.0500092 0.0463072 -0.0145153 -0.0639937 0.00675997 -0.0436454 -0.00470397 -0.024228 -0.0069801 -0.0123435 -0.0306963 -0.00363483 0.0715645 0.00805664 0.0233367 -0.0320993 0.0412238 0.073887 0.0387364 0.012942 0.0173227 -0.0534233 0.0490858 -0.0406212 0.0537084 -0.0519469 -0.0118164 0.00345532 0.0119947 0.0363802 0.0164726 -0.0269152 0.0755294 -0.0420626 -0.0103025 -0.0489669 0.0468885 -0.032977 -0.0342052 -0.0421997 -0.00613586 0.0295759 -0.0155244 0.0351044 0.00325006 -0.0471927 0.0145241 0.0242442 0.0377286 -0.0186613 0.0106207 -0.0388432 -0.0603943 -0.0463171 0.0595993 -0.000224105 0.0106138 -0.0767178 -0.00870136 0.0238751 0.000553502 -0.0241266 -0.0433018 -0.00686937 -0.0245218 -0.0335605 0.0207844 0.0531432 -0.0455454 -0.0267042 -0.0353548 0.0262923 -0.0356945 -0.0436962 0.0221994 -0.068588 0.0610897 -0.0283757 0.0775445 0.0324529 -0.00281116 0.0203989 -0.0297386 0.0297128 -0.000887523 -0.0353043 -0.00498075 -0.0343067 -0.0126999 -0.000158308 0.0188163 -0.0242777 -0.0165236 0.0216588 -0.0494251 -0.0142291 0.00145202 0.0454745 0.0176122 -0.0537958 0.0213245 0.0255667 -0.0323361 0.0344329 -0.0458115 0.0163169 -0.051646 0.0359922 -0.0613216 0.0423968 -0.00684 0.0195177 0.0322319 0.0514845 0.0248761 -0.0115638 -0.0243041 0.0456071 0.0409844 0.0102841 0.0248015 0.00212196 0.011536 0.0586431 -0.0148492 0.0243971 0.00124585 -0.0366358 0.0045985 -0.01904 -0.0765509 -0.0232312 -0.0583107 0.0461907 0.0202334 0.0217158 0.0101965 0.00331665 0.0172014 0.0418551 -0.01505 0.0192994 -0.0290549 -0.0338328 -0.0558111 -0.0484742 0.0623953 0.0306124 0.0190996 0.0142019 0.0377322 -0.0693243 0.0228168 -0.00680989 -0.00323007 -0.0265868 -0.00717164 0.0241882 0.0136983 0.0238935 -0.0242986 0.0601251 -0.0288853 0.00749974 0.0726634 7.73393e-05 -0.0658255 0.00664276 -0.0232878 -0.018546 0.0111779 -0.0302321 0.0131191 0.014893 -0.0548159 0.0036823 0.0042551 -0.00983339 0.0595275 0.0134108 0.00592909 -0.011651 0.0333572 -0.0281466 0.00855482 0.032296 0.0532693 -0.0094091 -0.00989225 0.0339412 -0.0101058 0.00297281 -0.00268789 -0.00929978 0.0277951 0.0764968 0.00447369 0.00613123 0.0217159 -0.0271762 -0.0759907 -0.0101066 0.0029264 0.0658562 -0.0217307 0.0089412 -0.00229948 -0.0617619 -0.02597 0.00722994 0.0348783 0.0745981 -0.0131912 0.0794927 0.00907166 -0.0466451 -0.0159946 0.0345934 -0.0625183 0.0145169 0.0691291 -0.0153521 0.0269064 0.0116874 -0.0201966 -0.00398048 -0.0287239 0.017976 0.050838 0.00255965 0.0152239 -0.0101252 -0.00334541 -0.0538157 0.0364303 0.00912303 0.0877394 -0.0265567 -0.0367836 0.0308691 -0.0157723 0.0711763 -0.0105407 -0.0643371 -0.00479248 0.0384524 0.0169006 -0.0252599 0.04507 0.038083 0.0544911 0.0510619 0.0434133 0.0669773 0.0103458 0.0190596 -0.0633581 -0.00953283 0.0308052 0.0337658 0.0284371 -0.0172486 0.00109526 -0.0308552 0.0184509 0.0414854 0.0517712 -0.0570724 0.0129015 -0.0128159 0.00203275 -0.0590279 -0.032435 -0.00169866 -0.0311107 -0.00111274 0.0212732 -0.0442178 0.0178526 -0.0266755 -0.0229157 0.018467 -0.0113806 0.0281016 -0.00331799 -0.0463159 -0.0123239 0.0201604 0.0150418 0.0261733 0.00175589 0.042249 -0.014339 0.0713076 0.0104618 -0.0353886 0.00988954 0.00937359 0.0192767 0.0683345 0.0110546 0.0203849 0.0192977 0.0461145 -0.0377087 -0.0348901 -0.0580864 -0.0163669 -0.00262468 0.0217497 0.0240815 0.049936 0.00521337 -0.0502357 -0.0419767 0.0226937 -0.0803702 -0.0253347 -0.0224634 0.0747132 -0.0523565 0.0651781 0.00995567 -0.0244293 -0.0736918 0.0414995 0.041852 -0.0279477 -0.0457401 0.00687876 0.0245836 0.0303132 0.0651211 -0.00292196 0.00696211 0.0685036 0.0095806 -0.000659198 -0.0222333 -0.00667583 -0.0309116 0.0253116 -0.0279175 -0.0121227 0.0195417 -0.0320359 0.0137567 -0.0124196 0.00630331 0.0271588 0.0118076 0.0256467 0.0396656 0.000754316 -0.0146144 -0.0506047 -0.00610416 0.00831274 0.0347164 0.00947974 0.000677111 -0.0239676 0.0781932 0.0887688 0.00813327 -0.00117272 -0.00959089 0.00257786 -0.0628151 -0.0351309 0.0214014 -0.0401836 0.0673006 0.03518 -0.0228548 -0.00217334 -0.0107555 -0.00206751 -0.0117854 0.0129449 0.0202506 -0.0451205 0.0297863 0.0674244 -0.0141905 -0.05279 -0.0641064 0.0298823 0.0387551 -0.0218459 0.023916 -0.0440238 -0.0366127 -0.0276486 -0.0114467 -0.00297312 0.0169313 0.0185111 -0.0242298 0.0120945 0.0335271 -0.0572199 0.0103537 0.0014418 0.016432 -0.00715327 -0.0393221 -0.00248756 0.00249485 0.0050781 0.00822913 0.0358072 0.0043618 -0.0042422 -0.00539362 -0.0392767 -0.0336579 -0.0145002 0.0278 -0.0334146 -0.0288697 0.0232239 -0.0118407 -0.00325314 -0.0290895 -0.0354251 -0.0320399 0.0493316 0.00658342 -0.0904663 0.0081836 -0.0122141 -0.0151686 -0.0150916 0.0169145 0.00132326 -0.0366248 0.0264259 0.0573819 -0.0717477 0.0146202 -0.0394352 0.0169611 0.0279597 -0.00844448 0.00849516 0.0599343 -0.061077 -0.037796 0.0332483 0.023017 0.0130087 -0.00924806 0.0647925 0.0425705 0.0271414 0.00592247 -0.025392 -0.0161467 -0.0156326 0.00137296 -0.0239189 -0.0186819 0.0249622 -0.00804298 0.00604476 -0.0320069 0.0543009 -0.0131772 0.0200813 -0.00602986 -0.0205547 -0.0650683 -0.0605438 0.0879556 -0.0321151 -0.0236086 -0.0274758 0.0217554 -0.0198826 0.0259369 0.00619952 -0.00117437 0.037812 -0.0596653 -0.0166594 -0.0367408 -0.00954006 -0.00273451 0.00730457 -0.0232585 -0.0291137 0.000933041 -0.0313128 0.0127616 0.0519653 0.0397209 -0.0390887 0.0191432 -0.0275172 -0.038939 0.0199457 -0.00712109 0.0465464 0.0600671 0.0232759 -0.0565218 0.0243299 -0.0154678 0.0134151 0.0222535 0.0886715 -0.0431821 -0.062287 -0.0209993 -0.000186522 0.0180948 -0.0346323 0.0689198 0.0222038 0.0105354 0.0150851 0.0303415 -0.037813 -0.0391005 -0.0426302 -0.0606354 -0.0124785 0.00151275 0.0356467 -0.0173489 -0.0316607 0.0258344 0.00734212 0.0253625 0.0243062 0.0343128 0.00160924 -0.0460745 0.0077856 0.00899879 -0.0172742 0.00166295 0.0563956 -0.00107194 -0.054749 -0.00143759 -0.0344381 0.0360271 -0.0388034 0.0262995 0.0321366 -0.0318908 -0.0430799 0.0344684 -0.0530907 -0.0294346 0.0206797 0.0245478 0.0335609 -0.0300979 0.0537348 -0.000796249 0.0096335 -0.012051 0.0124427 -0.0576825 -0.0134468 -0.0479962 0.0459 -0.0256607 0.029879 0.0348037 -0.043381 0.0367351 0.00154189 0.0174119 -0.0124484 0.0816786 0.0138992 -0.00738815 0.0157485 0.0100358 0.0263467 -0.0312167 -0.0188797 0.00474549 0.0349644 0.0394914 -0.0197936 0.0872205 -0.0230003 0.0341936 0.0472967 0.00909039 0.0407276 0.0213108 0.0171229 -0.0169805 0.0479938 -0.0284363 0.00950958 0.0113586 -0.00167905 -0.0132126 0.00289372 0.0281408 0.0166892 0.0467815 0.00371755 -0.0153959 0.032408 0.0448382 0.0266558 0.0115441 0.0457812 -0.0618636 0.0800278 0.0407097 0.0486988 -0.0752183 -0.0522758 -0.0647018 -0.0228548 0.0107712 0.0241859 0.00600364 -0.00100134 0.0557331 0.00571398 -0.0146107 -0.0278492 0.0548417 -0.0485148 -0.00803312 -0.0608963 -0.00220636 0.0387601 0.00157081 0.0203264 0.0434987 -0.0413671 -0.0377034 0.0083042 -0.0626943 0.0370317 0.101193 0.0184002 0.0182075 -0.0551119 -0.0595408 -0.0460997 0.0102207 0.0657672 0.00276054 -0.0332627 0.0228007 -0.033578 0.0186906 0.0381108 0.0175432 0.0273229 -0.0135126 -0.0135047 -0.0298344 0.0742485 -0.0250719 -0.0552085 -0.0201125 -0.0318551 0.0534223 0.0160842 0.0450104 -0.028018 0.0244184 0.0616238 0.00415348 -0.0409536 0.0260819 -0.0221563 0.0461757 -0.0931193 -0.0212781 0.0148309 0.0013895 0.00965865 0.0568372 -0.00655334 -0.022887 -0.00269765 ^-0.0194102 0.0284706 0.0562558 0.0193175 -0.0215324 -0.00588205 0.0230319 -0.0181505 0.0438817 -0.0242374 -0.0209881 -0.00126731 0.0576509 0.00857464 -0.0300563 0.0057424 0.0130774 -0.0614042 -0.00259358 0.0624319 0.0199028 -0.0497581 0.00184191 -0.00766221 -0.0196319 -0.0433655 0.0472856 0.0495898 -0.00458164 -0.0173023 -0.0289696 -0.0144958 0.0294796 -0.0891963 0.0168029 -0.0270096 -0.00600851 0.0223189 0.0399675 0.0268572 -0.0098697 -0.0348097 0.00281144 0.00998415 0.0247226 0.0523404 -0.0390211 0.0839873 0.014681 -0.0759434 -0.0173162 -0.0133674 -0.0372449 -0.0253668 -0.0762913 -0.0235803 -0.0221811 0.0615454 -0.0014904 -0.0179634 0.0332682 0.00221714 -0.0248317 0.0188678 0.00566644 0.0410765 0.0329957 0.000989251 -0.0622772 0.0430081 -0.0259979 -0.105158 -0.0253487 -0.0174623 -0.0129518 -0.0157464 -0.00799705 0.0163889 0.0304292 0.029924 0.0123789 -0.00343173 -0.0151784 -0.017834 -0.00145367 0.0441965 0.0054497 0.0258565 -0.0093777 0.0026046 -0.0755334 -0.0286357 0.0553643 -0.00575939 0.0106603 0.00746371 -0.0258769 0.0150326 -0.00372007 0.0127369 0.0652092 -0.0214825 -0.0170735 -0.02193 0.0446479 -0.0246551 -0.0525845 0.0299089 0.0286159 -0.0120998 -0.045612 -0.0388444 -0.0684806 0.0493361 0.00867502 0.0530938 0.00607445 0.0125359 0.0224473 -0.0435215 -0.00151535 -0.0251065 0.0221952 -0.0516618 0.0478187 0.00738219 0.0098234 -0.00292126 0.00736446 -0.0602038 -0.0392672 0.0615771 -0.0463833 0.101721 0.0560421 0.012965 -0.00245758 0.0272285 0.00216793 -0.0167242 -0.0224032 -0.0201583 0.0110191 -0.0670356 0.0116633 -0.0362307 -0.00287579 -0.0240751 -0.0175977 -0.010927 -0.0178353 -0.0360988 -0.0513849 -0.0109344 0.0347372 -0.127084 -0.0261472 -0.0140835 -0.0533822 0.00791818 0.0593734 -0.0322251 0.0199969 -0.0268685 0.039364 -0.00322636 0.0564633 0.0519842 0.00166257 -0.0516048 -0.042974 -0.0013256 0.0114659 0.0205292 -0.00568402 -0.00200324 -0.0615647 -0.013333 -0.000882542 0.00641063 0.0140869 0.0508097 0.0150097 -0.000808692 -0.0299015 -0.0143743 -0.0112874 -0.0015471 -0.0060092 -0.0360007 0.0230128 0.0441869 0.0020049 0.0329939 0.00352926 0.0226093 -0.015417 -0.0334904 0.0322336 -0.012843 0.0244003 -0.0360655 0.0707109 0.0207152 -0.0127153 0.00115693 0.0061185 0.0601478 0.00335407 0.0230489 -0.0576749 0.0139979 0.00347273 0.00994756 0.03051 0.0120764 -0.0150042 0.00308335 -0.0287419 -0.0316909 -0.00404 0.0350828 -0.0245168 0.00662388 -0.0222466 0.020854 -0.0451116 -0.0164052 -0.051297 0.0681835 -0.0210592 0.043043 -0.0118903 0.0559376 -0.0106365 -0.0162263 0.0154071 -0.0146122 0.0151682 -0.0328923 -0.0312388 0.067758 -0.0315022 0.00974964 0.017957 0.00709501 0.0130582 -0.0792728 0.00476283 0.0127699 -0.0148311 -0.0153937 0.00406132 -0.000638348 -0.0164569 0.00453255 0.0510285 -0.0213347 0.0331068 -0.054349 0.0202823 0.0193348 -0.0410096 -0.0112307 -0.023451 0.0180206 -0.00556103 0.0230467 0.00063449 -0.0324564 0.00576513 0.0134457 0.00379295 -0.0243124 -0.00827409 0.0127628 0.0226897 0.0412805 0.0275768 0.0229555 -0.0605978 0.0299163 0.000787406 0.00748969 -0.0304775 -0.0908326 -0.0309926 -0.0361071 0.0204494 0.0231952 0.00200923 -0.0323096 0.0269236 -0.0384446 -0.0217207 0.0346277 -0.0215729 -0.0169696 0.0167938 -0.0560742 -0.0362026 -0.0375739 -0.00987002 0.00911001 -0.0128961 0.0274651 -0.034715 0.00149098 0.00162187 0.0245369 0.00559315 0.0486464 -0.0671508 -0.0195951 0.0209801 0.0400385 0.0255438 0.0438127 -0.00542979 -0.0408255 0.00234498 0.0218316 -0.00432141 -0.0211837 0.0158326 0.022715 0.0427657 -0.0312858 0.0496721 -0.0373259 -0.0178415 0.023195 -0.000802696 0.0944001 -0.00337155 -0.0192371 -0.0321922 -0.0226112 0.00230066 -0.00574469 0.053172 -0.0325814 0.00168837 -0.0319532 0.0358381 -0.030841 0.00820845 -0.0695539 -0.0079833 -0.0143198 0.0557298 -0.115377 -0.0585676 0.013499 -0.0639096 0.0261833 -0.0515151 -0.0806337 -0.0460519 0.00173515 0.0321597 -0.0355861 -0.0133365 0.030799 0.00705206 0.0522361 -0.0220861 0.011659 0.0085007 -0.0151358 0.0115884 0.00112325 0.0630196 -0.000175921 -0.0205036 0.0242129 -0.032505 -0.053359 -0.00560599 -0.0874306 -0.00157676 -0.0216796 -0.00130229 0.00390184 -0.0362124 0.0178625 0.0283847 -0.0021463 0.0523192 0.00941408 -0.0513259 -0.0571418 0.0203247 0.00486415 -0.0246246 0.0135864 -0.00185852 -0.00968777 -0.0137014 -0.0333424 0.0600577 0.0253018 -0.081342 -0.0214403 -0.0278941 -0.0138387 0.049771 -0.0760729 0.0198688 -0.0364177 -0.00350075 -0.0378394 -0.0171848 -0.0398593 -0.016518 0.0519146 -0.0371114 -0.0140829 -0.0652386 0.0119187 0.0673351 -0.0113667 0.0458406 0.0248259 0.0482317 -0.0251748 0.0051477 -0.0139642 -0.0347297 0.0137229 0.00622284 -0.013174 0.0534291 -0.0145521 0.0023981 0.0511197 0.0433318 0.0166669 0.0282703 -0.0410849 0.00869686 -0.0424034 0.0452646 -0.0540574 0.0168033 0.0238916 0.0528884 -0.0112245 0.0226451 -0.0742979 0.0622621 -0.0039605 -0.0413832 -0.0367394 0.0421402 -0.0180047 0.0133908 0.0136461 -0.0509443 -0.0326403 -0.0107685 0.0610454 -0.0272253 -0.0411981 0.032101 0.0233424 0.0613967 0.0541131 -0.00333402 -0.00106663 0.0128258 0.0120462 0.0739574 0.029533 -0.0087209 -0.0379541 0.0572422 0.00680566 0.0447245 -0.0712985 0.101281 0.0573495 -0.0280516 -0.00194737 0.00664971 0.00314224 -0.0329059 -0.0515082 -0.0116213 -0.0347583 0.0576366 0.0250127 0.0428666 0.00127592 -0.000435376 -0.0169584 -0.0137425 0.00467422 0.0414991 -0.00247572 0.0566688 0.0139169 0.0229351 -0.000810116 0.00686949 -0.0160584 -0.0212383 0.0296848 -0.0903468 -0.0262942 0.0347356 0.0483019 0.0638578 -0.0170049 -0.00708318 0.00579126 0.0608316 0.0328142 0.00589593 -0.0498278 0.0482051 -0.0262762 -0.0407818 -0.00713762 -0.00823596 0.0366141 -0.019225 -0.0283947 -0.00877955 -0.0373759 0.000296147 -0.0146404 -0.0316633 -0.00331516 0.0165107 -8.81392e-05 0.030344 0.0665586 -0.0102509 0.0365169 -0.0298209 -0.0160984 0.022662 -0.0331337 -0.00336143 0.0491422 -0.00113164 0.056078 -0.0368175 -0.0699696 -0.0307195 -0.0291571 -0.0270419 0.0360587 0.0422703 0.0296645 -0.0403737 -0.026671 -0.0392481 -0.0332712 -0.0213517 -0.0127343 -0.0122117 0.00169823 -0.038317 -0.00762711 0.0195599 0.0122692 -0.0419065 -0.0234976 0.0550602 0.0292474 0.0210407 0.026885 -0.00202771 0.0189816 -0.0166472 -0.00338069 0.0007546 -0.0236398 0.0190249 0.0141192 0.0232404 0.0725618 0.0307781 -0.053061 -0.0198724 -0.0560764 -0.0189237 0.0308791 -0.00840807 0.018588 -0.0570959 -0.0155095 -0.000546101 0.00809469 -0.00658276 -0.0317909 0.0157861 0.0885044 0.020581 -0.0239437 0.00601428 -0.0121135 0.00549384 0.0231015 -0.0338155 -0.0557989 -0.0491111 0.0325359 -0.0330405 0.0251402 0.0788795 0.0105914 -0.0150801 0.0155218 0.0157345 -0.0661792 0.0324872 -0.0170847 0.00436462 -0.0214437 0.0599896 -0.0288362 0.00237317 0.0350929 -0.049155 -0.015906 -0.00914766 -0.0123109 -0.00536347 -0.0644414 0.0529872 -0.0314879 0.0349462 -0.0630749 0.042492 -0.034274 -0.031567 0.0116991 -0.0392534 -0.0593522 0.0207772 -0.0414415 -0.0516247 -0.0443271 -0.0467745 0.0434491 -0.0154606 0.00991971 -0.0284885 -0.0168494 0.000547114 -0.026696 0.0182613 -0.0135644 0.0732015 -0.0423593 -0.0501619 0.0407609 0.0226294 0.0597862 -0.0205719 0.0222783 0.0348767 0.0547902 0.0559744 0.00397682 0.0296524 -0.00588941 -0.0203614 0.0277878 0.0375331 -0.0685601 -0.00845425 -0.0216044 -0.0152354 0.0554869 -0.00510863 0.0697082 0.00379536 0.00209049 -0.0269027 -0.0214418 -0.0609786 -0.0391569 -0.0409212 -0.0226156 -0.0401143 0.0701607 -0.0293828 0.00660827 0.00747912 -0.00959655 -0.0499327 0.00605071 0.0882397 0.0350544 -0.0133499 0.0132194 -0.0434011 -0.0246577 -0.0258268 -0.0103382 -0.0145209 0.0379015 -0.0488937 0.0400791 0.0195067 -0.00426368 0.00614343 -0.0138096 0.0471294 0.0560858 -0.00735807 0.0551677 0.00983425 -0.0146355 0.00517398 -0.0672949 0.029839 -0.0537826 0.0201692 0.0308671 0.051439 -0.025999 -0.0686005 0.00915627 0.012805 0.0144781 -0.0338625 0.0421156 -0.0276223 0.0179416 0.0059049 -0.0111458 -0.014848 0.0119275 -0.0401875 0.0177379 -0.0397965 0.0143278 -0.0460453 -0.0159415 0.015885 -0.058147 -0.0401236 0.0142889 0.0268495 0.0306469 0.00617232 -0.0133457 -0.0380744 0.0327611 0.0643421 0.0477273 -0.0327506 0.026583 0.0192782 0.042098 0.020401 -0.0217036 -0.0470928 -0.0194024 0.0298744 0.00221617 0.0378171 -0.0393289 -0.0547505 -0.0342694 0.00130958 -0.0185011 -0.013543 -0.0146139 -0.0021239 -0.00423624 -0.0319443 0.0576736 0.0568773 0.0221492 -0.0193809 -0.00674544 -0.0318901 0.0294871 ^0.073429 0.0160238 -0.00324833 -0.0275117 0.0287196 0.0244392 0.0211722 0.0152215 0.0434708 -0.0397338 -0.0367118 0.000168504 -0.0293494 0.00276425 -0.0238627 -0.066906 0.0860075 -0.0650418 0.0309833 0.0308978 0.00306497 -0.0119749 0.0272613 0.0180162 -0.0261704 -0.00274521 0.0693389 0.00656715 -0.0284855 -0.0056095 -0.00618266 0.0261489 0.00220248 -0.0153609 -0.0146239 -0.0516784 -0.00431282 -0.000251536 -0.0116292 0.0197166 0.00586539 0.0110934 -0.0491922 -0.0465206 -0.0425706 -0.0423643 0.00143151 -0.0323808 0.0434611 0.00999396 -0.0607581 0.0668214 0.0349175 0.0115089 -0.0327278 0.0125416 -0.0510654 0.00153823 -0.0666271 -0.05288 0.045965 0.00267581 0.0380337 -0.0026885 0.0418011 0.0360038 0.0127181 -0.00384926 0.0230103 -0.0158901 -0.00533522 0.0451452 -0.00806948 0.0641463 -0.00605884 -0.00474925 0.00838203 -0.0255466 0.000386452 -0.0584661 0.00258998 0.0288449 0.00817259 -0.0771321 0.0151038 0.0132141 0.00240663 -0.0302464 -0.0516784 0.0172001 -0.0449403 0.0884303 -0.000683294 -0.0311472 0.000895539 -0.0376948 -0.063475 0.0152351 0.0152023 0.0135683 0.0227147 -0.026941 0.0260776 0.00829007 0.00716834 -0.0198719 0.00558051 -0.0492001 -0.0257114 -0.0338479 0.00752121 0.0495721 0.0422125 0.0227332 -0.0421813 0.0149679 0.0321733 0.00813683 -0.0215453 0.0135301 0.0165835 0.0381998 0.0220974 0.00503281 -0.0583422 -0.0055126 0.0397007 0.0349778 0.016712 0.042719 -0.0325895 -0.00838073 0.00173849 -0.022324 0.0187881 0.0350814 -0.0138336 -0.0111348 -0.0327912 0.00321881 0.0135267 -0.0130999 -0.00354994 0.0387667 0.00135018 -0.0354691 0.0190426 -0.0458563 -0.0287188 -0.0127762 0.0431552 -0.0318635 0.0308626 0.00927086 0.0384479 0.00739538 0.0112581 -0.016431 0.00149458 -0.00590972 -0.0364168 0.0149933 0.0138018 0.0505014 -0.0124608 -0.0202195 -0.0115473 0.00130711 -0.0644209 -0.0152113 0.0392923 -0.0566093 -0.0173362 0.0113671 -0.043242 0.0218858 0.0179057 0.025797 0.0240941 0.0222884 -0.00888937 -0.0318895 -0.0200555 -0.0202894 0.00510946 0.0129878 0.0282904 0.0205599 -0.0372026 -0.0920904 0.0208651 -0.020399 -0.0207056 0.0340771 -0.0100782 -0.0484816 -0.00787188 0.0479541 0.0280974 0.00839418 0.0506672 -0.00805559 0.00673339 0.0148093 0.0127409 0.0216222 0.0307421 -0.0400081 -0.0352809 -0.0450914 0.0166216 0.0588107 -0.0444286 0.0357053 0.0461412 -0.0372837 -0.00628667 0.0461674 -0.0470572 0.0159492 0.0244404 0.0372657 -0.00930862 -0.0603285 0.0155109 -0.0227584 0.0615089 -0.0336422 -0.00135258 0.00812072 -0.00562718 -0.0127559 -0.0459073 0.00189101 -0.0190952 -0.0397496 0.00469997 0.0318623 0.0219274 -0.0404291 0.0179799 -0.0317909 -0.0302965 0.0137567 0.0297851 -0.0039324 0.0181735 0.0354472 -0.045189 0.0183652 -0.0314744 0.0113889 -0.0331497 -0.0194166 -0.0195771 0.0502256 -0.00787122 0.00613788 0.0175518 0.0144718 -0.0145008 0.0212967 0.0191805 0.00713017 0.0266624 0.015049 0.0776803 0.00406533 -0.00779269 0.0110087 -0.00117628 -0.0754922 -0.0279688 0.0122011 0.00725036 0.0334475 0.0381661 0.00839547 -0.0292635 0.0424574 -0.0466182 0.00160425 -0.00892911 0.00788702 0.00768719 -0.0273398 0.0252419 0.00123191 -0.0473256 -0.0129785 -0.0452349 -0.0814566 -0.0171835 -0.00626931 0.0125126 -0.0277699 0.0328651 0.0360599 0.0348359 -0.00458885 -0.0452246 -0.031889 0.00548708 -0.015796 0.0258743 -0.0266237 -0.0197263 0.0481104 0.0061238 0.0370586 -0.053732 0.0163725 -0.0141034 -0.0709672 -0.044781 -0.00805344 -0.0266714 -0.0422087 0.0443943 0.015559 -0.01455 -0.0171024 -0.035922 0.0046982 0.00562739 0.0141336 0.0205981 -0.0453358 -0.0553862 0.0221329 0.0121942 0.047718 -0.00766674 0.0349849 -0.0569624 -0.000118623 0.034065 -1.32394e-05 -0.00616097 -0.0444009 0.0137498 0.000204598 -0.0455509 -0.043849 0.0136172 -0.0419404 -0.0244231 -0.0314703 0.0770679 0.0156327 -0.0582562 -0.0350714 0.0328335 0.0159688 0.0172091 0.0360845 0.00199853 -0.0216903 0.0108571 0.0256858 0.0272408 0.0255828 -0.0269599 -0.0688021 -0.00159058 -0.0423059 0.0268816 -0.0147853 0.00197942 -0.0676697 0.00940063 0.00131932 -0.0237124 0.0176565 -0.0156709 -0.000835812 0.0464237 -0.023181 0.0157618 0.0252495 -0.00932704 -0.0164123 -0.0693026 0.0508932 0.0114267 -0.0337859 0.0312649 0.0201199 0.00233772 -0.0192414 -0.0331151 0.0234167 -0.00909253 -0.0108286 -0.0403645 -0.0447532 0.0382583 0.0140787 -0.00671066 8.98402e-05 0.0565195 0.0308876 0.0176176 0.0465804 0.0116793 0.037944 0.0202327 0.0748765 0.0376703 0.029258 -0.0418491 0.0224878 -0.0363397 -0.0118843 0.00917882 -0.0214731 -0.0311332 0.0603967 -0.023847 0.0213763 0.00686476 0.000540487 0.0467944 0.0114902 0.00378158 0.0129784 -0.0376885 0.0755845 -0.034323 -0.00375458 -0.0906228 0.00296753 -0.00163123 0.0232985 0.00969951 -0.0478066 -0.0544144 0.0369384 0.0294115 -0.0171493 0.0384013 0.00751409 -0.0405024 -0.00104664 -0.0618504 -0.0265554 0.0102593 -0.0103053 -0.0407943 0.0465452 -0.00180376 -0.0520426 0.0667697 -0.0447001 -0.0762507 0.0314777 -0.0584144 0.00320989 0.0300852 -0.0699631 -0.0356683 0.0122507 0.0123483 0.0324526 0.0102721 0.0402364 -0.0534068 0.0200499 0.0137046 -0.0284833 -0.00150479 -0.0127883 -0.0468925 -0.0291309 -0.0651032 -0.0433654 -0.0616353 0.0077611 -0.017839 -0.0280189 -0.00717391 0.0224247 0.0196286 0.00348633 -0.0376653 -0.00557055 -0.0455371 0.0779972 -0.00519551 -0.0184407 -4.34658e-05 0.0518554 0.0239515 -0.00927108 -0.010246 -0.0355589 -0.0411108 -0.00110687 -0.0187358 -0.0558812 0.0372771 -0.0355545 0.0323224 -0.0156074 -0.0299854 -0.0423439 0.0143127 -0.0107274 0.0209214 -0.0377067 -0.0241488 -0.00922384 -0.0321591 -0.0307718 0.0517893 0.053111 -0.0353282 0.0486041 0.0321934 0.0114644 0.0447513 -0.0206144 -0.0178547 -0.0114999 -0.017795 -0.00593196 0.0774281 0.0754048 0.0629185 -0.00662843 -0.0248742 -0.0369839 0.0171577 -0.0255021 -0.016603 0.000485141 -0.0216295 0.0152401 -0.0235387 0.020512 0.0372243 -0.0598559 -0.048441 -0.00686226 -0.00402191 0.0343298 -0.0211014 0.0306162 -0.0501353 0.0577438 -0.0463055 -0.0530951 0.0692194 0.0109674 -0.0288056 -0.0265125 -9.30423e-05 0.0604694 0.00571888 -0.0479115 -0.0434989 0.00900938 0.00675324 -0.0253827 -0.000581051 -0.0255204 -0.0502935 -0.0463894 0.00186346 0.0523269 -0.0137423 -0.0114841 0.0521348 -0.0623941 -0.00749485 -0.0521671 -0.0371104 -0.0562537 -0.143201 -0.0627589 -0.0131107 0.00284018 -0.00670807 -0.00726888 -0.0170812 0.00299114 0.0218825 0.0545595 0.00599722 0.00126102 -0.0138365 0.018192 0.0318257 -0.0648464 -0.0441354 -0.0240069 0.103479 -0.0529185 0.0350106 -0.0134073 -0.0227088 0.00400015 0.0580415 -0.00879509 -0.0189869 -0.0132039 0.0295708 -0.0540086 -0.00269417 -0.0204838 -0.0373776 0.0102014 -0.00667429 0.0252475 -0.093506 -0.00409836 -0.00697329 0.00197027 -0.0222371 -0.0050045 0.0358659 -0.0647104 -0.0144296 0.0370699 0.00917883 -0.047578 -0.015935 -0.0503961 -0.0255716 -0.0388063 0.0761581 -0.00910322 -0.0204501 -6.4611e-05 0.0569389 -0.0370214 0.0100876 -0.053876 0.0523211 -0.0415106 0.0197583 0.027796 -0.00224041 0.0450605 -0.0450685 -0.00307396 0.0356288 -0.025071 -0.0101528 -0.0285825 0.0246057 0.0306844 -0.025233 0.00989533 0.0119291 -0.0468253 0.0167495 -0.0548179 0.0157226 -0.0444032 0.0599616 -0.00236846 0.00850999 -0.006644 0.022129 0.0576433 0.0147896 0.00924451 0.00348032 0.0151114 -0.0339591 0.0447666 0.000475443 0.0137636 0.0540159 0.0584584 -0.0243994 -0.0372746 -0.020867 -0.0114886 0.0227244 0.0233729 -0.0019334 -0.00457856 -0.0245401 -0.0448798 -0.0411428 -0.042499 0.050393 -0.0280288 -0.017489 0.0382233 -0.0765938 0.00950068 -0.019 0.0400274 0.0327627 0.0130797 0.0250093 0.0234664 0.0207409 0.0302835 -0.00118996 0.000886594 -0.0163248 0.0736407 -0.0210462 -0.0285807 -0.00431376 0.0601451 0.0678302 0.019516 -0.0366509 -0.038805 0.00982084 -0.0728495 0.0151238 0.0397013 0.0414988 0.0520694 0.00998034 -0.0298036 0.00333593 0.00453875 0.00825677 -0.000680982 -0.0321297 0.0681579 -0.0590733 0.0107274 -0.0768079 -0.0607219 -0.0341841 0.0994686 0.000169626 -0.0361555 -0.0132052 -0.0319549 0.0505534 -0.00735786 0.0481035 0.0115061 -0.0268285 -0.00593079 -0.0138931 0.0682875 0.0315351 0.0375954 0.0200071 -0.0102392 -0.0331593 0.0272316 0.0739048 0.00533229 -0.00436535 0.047292 -0.0140575 0.0319505 0.00454855 -0.0037051 -0.0167693 -0.0186309 -0.0140207 0.0382545 -0.0160597 0.0132614 -0.032261 0.0142134 -0.00902581 0.04506 -0.0637497 -0.0175372 0.00544327 0.0233285 -0.0367336 -0.0370483 0.000268268 -0.0138224 -0.0281592 0.00469736 0.0229975 -0.0131254 0.0125461 0.00770654 ^-0.0450184 -0.00541179 0.0366341 -0.0381782 0.0476741 0.0250146 -0.0140663 0.00705141 0.0560194 0.0251377 0.0413958 -0.010383 -0.0473413 -0.0244048 -0.0404585 0.020808 -0.062482 0.0293844 -0.0440143 -0.0409064 -0.0132983 -0.0193306 -0.0202081 0.0502975 -0.0191453 -0.0236906 -0.0211198 0.0137732 0.02012 -0.0265161 -0.0474273 0.0355633 0.00908832 -0.0243759 -0.0652588 0.017993 0.0149653 0.00865692 0.0249557 0.0145949 0.0212045 -0.00355625 -0.00932216 -0.00317793 -0.0342098 -0.0374481 0.00922964 -0.00341399 -0.00830718 0.0133156 -0.008499 -0.0196147 0.0397116 0.0278659 -0.062626 -0.0195513 0.00248464 -0.00747175 0.00806838 -0.00683167 -0.01212 0.0140623 -0.0614511 0.0188775 -0.0021367 -0.0364609 0.00084745 0.0118604 -0.0669525 -0.00304325 0.0363782 0.026815 0.0572106 -0.0396257 0.011367 0.0149213 0.0566767 0.0204334 0.0556217 0.0182124 0.0867168 -0.0612965 0.00496523 -0.0235004 0.00494274 0.025708 -0.0158489 0.0683774 -0.00127211 -0.0185772 -0.0418576 -0.0395172 -0.0157526 0.0285448 0.0088111 0.00804506 0.0264817 0.00318711 -0.010834 0.0166277 -0.028441 0.02845 0.0124141 -0.0259448 0.0330572 0.0197746 -0.0195473 -0.0586028 -0.00697675 0.0215225 -0.0418568 0.00504405 0.0316791 0.0123369 0.0148256 0.0345252 -0.00817833 0.0361841 0.0101174 0.0376209 0.0453771 -0.0199811 -0.00950833 0.050965 0.0336317 -0.0050021 0.0245139 -0.00675064 -0.0155375 -0.037823 0.0615944 0.0528938 -0.0319114 0.0106884 0.0554887 -0.0390953 -0.0602376 -0.0175816 -0.00366614 0.0110218 -0.0339006 -0.0723049 0.047366 -0.0253194 -0.00711701 -0.01938 0.0828976 -0.042649 0.0025571 -0.0431438 0.030765 -0.0251082 -0.108546 -0.0179827 0.0553394 0.0616476 0.0117623 0.0264622 -0.0239031 -0.109032 0.00147651 0.00399846 -0.0199674 -0.0313717 0.0659647 0.0234533 -0.0138644 -0.0131806 0.0458057 0.0141989 -0.0387731 0.0397783 0.0269236 0.0462647 0.0838889 -0.0110557 -0.000390235 -0.0661846 -0.112048 0.0107459 0.0420509 -0.041765 -0.033303 0.018246 -0.036266 -0.0160381 0.0293134 -0.00491893 -0.0468354 -0.0775943 -0.0551573 0.000294617 -0.0628246 0.041958 -0.00276468 -0.0663992 -0.0323157 -0.0810175 0.0196065 0.0074727 -0.0167367 0.0162728 0.0221737 0.0489672 -0.0227557 0.0440967 0.00142038 0.036259 -0.0533685 0.029301 -0.0209757 -0.0526044 -0.0733357 -0.00507517 0.0678586 0.0561532 -0.0176312 0.00857139 -0.0165095 -0.0378188 0.0823041 -0.018651 -0.0114364 0.0303257 0.0023144 0.019545 0.0497552 -0.0105815 0.0292779 -0.00549464 0.0147092 -0.0602078 0.0064963 0.0412172 0.0660611 0.0297902 -0.0361236 -0.0514885 0.0204789 0.0176858 0.035334 -0.0230274 -0.0699905 0.0133431 -0.0544601 0.0620003 -0.0374579 0.0417144 0.0174835 -0.0540356 0.023157 -0.0152326 0.00589238 0.0535425 -0.0301754 0.0346556 0.0299423 -0.010613 -5.10104e-05 0.0708816 0.00532743 -0.0575275 0.0519682 0.0165329 -0.0067855 -0.040845 0.0471363 -0.0342784 -0.0025519 0.00891151 0.0188623 0.00857257 -0.0574681 0.0239641 0.0349193 0.0423115 -0.00242398 0.0037059 0.0079167 -0.0425065 -0.00319114 -0.00370889 -0.0267887 -0.0178589 -0.0334696 0.0423378 -0.0107204 0.0603825 0.0535724 0.0352672 0.0207798 0.00324653 0.0288112 0.0321557 -0.0434383 -0.00135051 -0.0121301 0.0482753 0.0150745 -0.00309919 -0.0549777 -0.00815822 -0.0532555 -0.0443 -0.0228666 -0.0305249 0.00422379 -0.0222411 0.0769883 0.0226453 -0.0176702 -0.0413784 0.0388467 -0.0421239 -0.0574344 0.0285358 0.0424483 0.0304926 0.0130562 -0.0237866 -0.0444706 0.0314101 0.00453854 0.00732914 -0.00333791 0.056201 -0.0836542 -0.0285646 0.0364005 0.0314288 0.0133277 0.0185792 0.0371235 0.0488768 -0.0544651 0.020758 0.0305477 0.0193612 0.0324803 -0.0408891 0.00317292 0.0105126 -0.00357016 0.0187112 0.0299744 0.00921953 0.0181776 -0.00192184 -0.00983791 0.0702859 0.0326542 -0.00350323 0.00304933 0.0311669 0.0326216 0.0185436 -0.0217295 -0.0137015 -0.0711217 0.028645 0.0124523 0.0160083 0.0417967 -0.00525727 0.0107008 0.0369031 -0.0196243 0.0242958 0.0010721 -0.00747066 0.00065072 0.00782284 -0.0185431 0.0535088 0.00602016 0.0101374 0.000733653 -0.0226177 -0.0906502 -0.0295073 0.0437992 0.049537 -0.00583204 0.0112055 -0.0203102 -0.0591309 0.028175 0.0120133 0.014331 -0.00752611 -0.0418983 -0.00546032 -0.0158543 0.0433254 0.0254561 0.0119302 -0.0196437 0.027405 0.0356691 0.0188022 0.0659507 -0.00973967 -0.0625614 0.0235994 0.0147314 -0.00951466 -0.0383745 0.0320244 0.068189 -0.0327958 0.0122663 -0.0311334 -0.0293003 0.0889219 0.0462532 0.0422644 0.063113 0.00571985 -0.00951366 0.00537592 -0.0356769 0.00191442 -0.0275045 0.00177593 -0.0437661 0.00835355 -0.0443286 0.00832185 -0.0152977 -0.0294253 0.0104304 0.0205117 -0.00294295 -0.0210545 0.0112113 0.00923787 0.0185795 -0.0163147 -0.0159743 0.00146665 -0.0166463 0.0145651 0.0499453 -0.015415 -0.0084891 0.0167142 -0.0293669 -0.0741804 0.00225626 -0.036057 -0.0515688 -0.00929509 0.0151893 -0.0420744 -0.0313363 -0.0386403 0.0129649 0.0373173 0.0433683 0.0820843 -0.0272721 -0.00630507 -0.0868181 0.0383478 0.0407244 -0.0357395 -0.011667 -0.0124582 0.0098839 -0.0223222 0.0221148 0.0139233 -0.0805036 0.00525514 -0.0158974 0.0161985 -0.0551986 0.0311265 0.0207134 0.0619286 -0.0922897 -0.0303866 0.0149109 0.0326294 0.0309304 0.00503323 0.0454478 0.0408261 -0.0659652 0.0453421 -0.0076707 0.0143132 -0.0391463 -0.0414287 0.0366839 -0.0422716 0.0324205 -0.0217252 0.0269601 -0.0273643 0.0660325 0.0153782 0.0159799 0.0348204 0.0334717 -0.0286958 0.0152673 -0.0316513 0.00510289 0.091461 0.00615996 0.0348483 -0.0106513 0.0165212 0.0113606 -0.035206 0.135748 -0.0299284 0.0217705 -0.00400002 -0.0145941 0.0324299 0.00163656 0.0075853 -0.00983107 -0.0389562 0.00427914 0.0192539 -0.00874911 0.0308357 0.000678978 -0.00495172 -0.013818 0.000766894 0.0129248 -0.116127 -0.125394 -0.0217358 -0.0290337 -0.0343629 0.018471 0.00633074 -0.0186424 0.00665837 0.0221308 0.0242743 -0.0393667 -0.0146614 -0.0103184 -0.0313931 0.016225 0.0308284 0.0145592 0.0533364 0.00350367 -0.022706 -0.002353 -0.0286998 -0.0250258 -0.112583 0.0248997 0.048709 -0.0072349 0.00650792 -0.0334627 0.0112758 0.0444895 0.0163053 0.00228356 0.0433327 0.0287977 -0.0241792 -0.0574169 0.00750813 0.0238087 0.0515817 -0.0185121 -0.00840719 0.0463597 0.0100968 -0.021386 -0.0311197 0.0564734 -0.0445582 0.00761367 0.00387614 -0.02589 0.00108883 -0.00180612 0.0506515 0.00396509 1.06486e-05 0.0115487 -0.0184366 0.0390316 -0.0360866 0.0022298 -0.0255512 -0.0361224 0.0268803 0.0747685 -0.00676344 0.0688067 -0.0361229 -0.0535971 -0.0317237 0.0539682 -0.00539608 -0.0421688 -0.023245 -0.0403872 0.050122 0.00523088 0.0460365 0.0250775 -0.00627927 -0.041403 0.00161976 -0.0278832 0.042783 -0.0042623 -0.0727202 -0.0339339 0.0264403 -0.0324957 -0.0338013 -0.0372266 -0.0177588 -0.0221358 -0.00534054 0.0459676 0.0539648 -0.00562467 0.000816428 -0.0421134 0.0200161 0.0148953 -0.0337336 0.0402984 0.0063738 -0.01854 -0.0278724 0.0288845 0.0239329 0.0352179 0.0300738 -0.0126919 0.046181 -0.00400058 0.02646 -0.0198965 0.054921 -0.0417256 -0.0122263 -0.00212989 -0.0382293 -0.02027 0.0450677 -0.028938 0.00787785 0.0456922 0.02793 0.100763 0.0143006 0.0260209 0.0156042 0.0222292 0.00821143 -0.0206915 0.04822 -0.0339734 0.0267753 0.0404899 -0.0271352 -0.0552293 0.0130906 0.0166445 0.0145369 0.0119278 -0.0242667 0.0786753 0.0389283 -0.000688543 -0.00380654 -0.00418909 -0.0312798 0.0122354 0.0368622 -0.0142059 -0.0409986 0.0076585 -0.00643848 0.0461092 0.0242956 -0.00287964 -0.0132537 -0.081754 -0.0198446 0.0232194 0.0507499 -0.0221869 -0.0129512 0.0390938 0.0139712 0.0386031 -0.0217939 0.00422162 -0.0206013 0.0267577 -0.00467886 0.0332258 0.0430824 -0.0503248 -0.0165737 -0.0426147 -0.0055626 -0.0722329 0.0129429 -0.0308481 0.0223212 0.0355575 -0.00742094 0.0153728 -0.0109578 0.00382346 0.0498948 -0.0290414 0.00273786 0.0321246 -0.0301796 -0.0311223 0.0110911 0.0271232 -0.0097168 0.0233482 0.024804 0.0342365 0.0576395 -0.00765013 -0.0294451 0.0100547 -0.0739128 -0.0101494 -0.0330849 0.069305 0.0488374 -0.0301052 -0.00492451 -0.0135785 0.0492306 0.0324283 -0.0647055 0.00178886 -0.030879 0.0327537 -0.0859254 0.0586675 0.0342782 -0.000471279 -0.0215375 0.0182088 0.00306192 0.00123392 0.0161517 -0.0862822 0.0341445 -0.0171985 -0.0329615 0.0352241 0.0192048 0.0602948 -0.0219278 -0.0237003 0.0329291 0.0164422 -0.0323604 -0.124081 0.0063911 0.0076943 -0.00445582 -0.0417226 -0.015297 -0.0196441 0.0330495 ^-0.00914919 0.0519407 0.0306191 -0.0117273 