-0.0410588 0.00655194 -0.00169951 0.00900311 0.00717479 -0.0395982 -0.00276735 -0.0597237 0.0198847 -0.00155118 -0.00913097 -0.0113731 0.0374071 -0.0522871 0.0125373 -0.0307823 0.0432642 0.0173635 -0.00548221 -0.0586546 -0.0452219 -0.0168675 -0.0391755 -0.00804377 -0.00424064 0.0211584 -0.00697549 -0.0222191 -0.0210377 -0.0142375 -0.00830624 0.0526247 -0.0231756 -0.0731103 -0.0417109 0.0226354 0.0244709 0.0124967 0.0451515 -0.01528 -0.000711996 -0.136627 -0.00168345 0.00320498 -0.00912612 0.0607656 0.0105967 0.0233352 0.051347 0.00482172 0.0429039 0.0377648 -0.0164062 0.0273538 0.0408269 0.105854 -0.00691521 -0.0318982 0.0359058 0.00689573 0.0594228 -0.0142039 0.0641356 0.0937158 0.133122 0.207961 0.118479 0.153498 0.0815637 0.0710426 0.0690582 0.210199 0.170173 0.24724 0.170861 0.105251 0.0969033 0.0536657 0.00789572 -0.0442091 0.0099966 -0.0709947 -0.00566364 0.0358477 0.0493824 -0.00522863 -0.0434781 -0.0188021 0.0746094 0.11853 0.160716 0.1847 0.243593 0.393272 0.462662 0.375059 0.266809 -0.0503879 0.0287393 0.231509 0.00660186 0.115529 0.38033 0.18505 0.103293 0.165231 0.0937125 0.148819 0.0969212 0.0171991 0.0208508 0.024015 -0.0590946 -0.0210357 0.0248302 -0.0197597 -0.00965054 0.0665126 0.113706 0.270663 0.269223 0.277427 0.240646 0.0402918 0.153046 0.0502252 0.206781 -0.0436151 0.0906955 -0.109933 0.140807 0.0760584 0.0842879 0.128296 -0.143588 -0.0613254 0.143464 0.0436933 0.00838603 0.0593765 0.076509 0.0468775 0.0440772 -0.0271953 0.0701646 0.154841 0.249703 0.366092 0.232095 0.283495 -0.156265 -0.195315 -0.0981027 -0.237177 0.0803371 -0.330739 -0.34081 0.00284062 0.0842933 0.442262 0.540543 0.267321 -0.0358333 0.207904 0.214926 0.0886046 -0.0223858 -0.020007 0.0430642 0.0419986 0.0427995 -0.0143882 0.0797481 0.0590776 0.1711 0.378431 0.469549 0.529181 -0.121236 0.0914124 0.667107 0.14505 -0.122589 -0.196062 -0.0444335 -0.117712 -0.191354 -0.273292 0.158552 -0.551284 -0.0649419 0.301871 0.33583 0.231583 0.0544591 -0.030146 -0.0190308 0.0485443 0.000489078 -0.0590585 0.074726 -0.00232677 0.0892608 0.157938 0.655806 0.110332 0.0215267 0.133906 0.0263238 -0.0614713 -0.0792482 -0.043924 -0.191506 -0.467721 -0.43437 -0.491877 -0.309677 -0.453837 -0.229364 -0.299205 0.176632 0.297449 0.0366049 0.0379783 0.0542756 -0.0116341 -0.0980076 -0.0635883 0.108509 -0.0116945 -0.0670885 -0.207501 0.0286941 0.0506822 -0.0980647 -0.146319 -0.433502 0.411974 -0.333267 -0.216027 -0.661678 -0.59583 -0.525824 -0.0798399 -0.52835 -0.408605 -0.256133 -0.555078 0.111522 0.474953 0.0828742 0.0185433 0.0360467 -0.0449999 -0.0504848 -0.100123 0.119666 -0.0121224 -0.0499631 0.124387 0.0859238 -0.149453 -0.346133 0.145081 0.144365 -0.159993 -0.0716168 0.0913892 -0.338439 -0.715016 -0.480482 -0.55304 -0.352418 -0.290714 -0.159965 -0.467139 0.00379659 0.231777 0.0701084 0.051947 -0.0266085 -0.0323735 0.0294194 0.0378067 0.221095 0.144997 0.173748 0.0980367 -0.0748981 -0.181336 -0.379187 -0.0161523 0.226969 0.300109 0.0833128 -0.120868 -0.0614937 -0.674791 -0.493334 0.114552 -0.0850338 -0.200668 -0.533537 -0.314177 -0.166815 0.149411 0.0907389 -0.0113567 -0.0194276 -0.0247148 -0.0298552 -0.019538 0.217778 0.010201 -0.014232 -0.179397 0.0491994 0.176165 -0.135223 -0.203457 0.192578 0.0228774 0.476694 0.567857 0.459875 -0.409319 0.0396189 0.119746 -0.408413 -0.341186 -0.450321 -0.271745 -0.352832 -0.0109577 -0.00503762 -0.0256275 -0.0660595 -0.0135739 -0.0251135 0.0525836 0.0291939 -0.0775591 -0.196304 -0.147804 0.390875 0.0111151 -0.086201 0.0770414 -0.28635 0.094527 0.895592 1.01533 0.472111 0.0872739 -0.336152 -0.251339 -0.396946 -0.279632 -0.065747 -0.128561 -0.0534013 -0.0344905 -0.0162837 -0.0683321 0.0134014 0.0123555 -0.0509232 0.117948 -0.0349454 -0.100286 -0.160005 -0.201016 0.0272293 -0.106268 -0.107225 0.208938 -0.183599 0.594867 0.549841 1.01697 0.374672 0.136563 0.0161592 -0.247035 -0.119825 -0.210477 -0.078569 0.180814 0.232302 0.165479 -0.0242031 0.0234714 0.00757536 -0.0565455 -0.0794846 0.0791547 0.0369686 -0.161661 -0.0943509 -0.387683 -0.165829 0.111224 0.0731198 0.174945 -0.525529 0.0262652 0.638891 0.64432 0.483752 0.215909 0.197222 -0.135262 -0.119071 -0.211908 0.19685 -0.198732 -0.0695906 0.190426 0.0361531 -0.0647324 0.0379461 0.0249443 0.00563332 0.203775 0.0935051 -0.106153 0.10974 -0.069508 0.0782596 -0.106159 -0.276861 0.0585163 -0.196125 0.666973 0.457932 -0.00478212 0.288186 0.314736 -0.109583 -0.0555102 -0.463677 0.099072 -0.034561 -0.226724 -0.255782 0.133159 0.0789797 -0.00754262 -0.0489715 0.0733304 0.0567657 0.224678 -0.0659422 -0.0712529 0.091437 0.113264 0.0247404 -0.107154 -0.193624 -0.18366 0.0413504 0.392271 0.224013 0.499503 0.53766 -0.068161 0.335318 0.474285 -0.045523 0.252554 0.204686 0.219003 -0.133388 0.164765 0.0192727 0.0653588 0.0619486 -0.0553953 0.155626 0.279343 0.00673547 0.0818125 -0.148997 -0.182422 0.0145004 0.0768326 -0.34696 -0.199048 0.135507 0.247227 0.460841 0.364132 0.424141 0.412276 0.526211 0.336495 0.0925662 -0.0153872 -0.202781 -0.120615 -0.14645 -0.0168125 -0.0456702 -0.00916851 -0.0229454 0.0400962 0.09198 0.264897 0.199959 0.245998 0.0558245 -0.0498468 -0.159767 0.0420944 -0.245454 -0.520056 -0.0877285 0.411532 0.353726 -0.091284 0.186302 0.264984 -0.150395 0.0908389 -0.0197401 0.224421 -0.209144 -0.0233668 0.048644 -0.0217319 0.0247629 -0.000272914 0.0615574 -0.0669923 0.0129688 0.190218 0.11396 0.0662051 0.20526 0.196655 -0.141205 0.150627 -0.05761 -0.316618 -0.887482 0.109304 0.255752 0.454704 0.197816 0.214334 0.126591 0.0195402 -0.0392023 0.0911285 -0.17066 0.241084 0.0755098 0.0553905 0.0562261 -0.0337128 -0.00258934 -0.0539615 -0.0210557 0.270758 0.0677223 -0.161872 0.316276 0.371808 -0.0772023 -0.128683 0.0592672 -0.230586 -0.425003 -0.0816532 0.386983 0.522154 0.190147 0.0449471 0.414744 0.191354 0.418017 -0.0422317 0.357234 0.360133 0.127765 0.111593 -0.00888686 -0.0114376 0.0309195 -0.065414 0.10992 0.1763 0.196784 -0.0699163 0.104978 0.114 0.162264 -0.206378 -0.15264 -0.128695 0.0935694 -0.102543 0.110917 0.35782 0.259813 0.644605 0.586019 0.410306 0.330528 -0.0319001 0.137923 0.0506154 -0.118952 -0.0354474 -0.0298896 0.01573 0.0353524 -0.0441797 0.0216873 0.17087 0.356509 0.0441335 0.0783442 -0.220673 -0.250751 -0.0875587 -0.079051 -0.0349603 -0.0952411 -0.506575 -0.462037 -0.16441 0.133385 0.0748601 0.288218 0.208907 0.379868 0.254532 0.0472017 -0.0344905 0.106913 0.0136672 -0.0124889 0.0210196 -0.0795928 -0.0219928 0.0374241 0.0180033 0.235304 0.30686 -0.0328078 0.233761 0.306974 -0.0349584 -0.343717 -0.148407 0.0917018 -0.0286031 -0.0133734 0.336321 0.172746 -0.0510371 0.479925 0.632884 0.645484 0.271264 0.0836674 0.0651276 0.14504 0.0452458 0.00463486 0.0182608 0.0345937 -0.0348155 0.0505767 0.0206134 -0.0292245 0.00261911 0.0222157 0.149772 0.216183 0.238812 -0.115719 0.36482 0.0881781 0.0200898 0.0675961 -0.216545 -0.127332 -0.161414 0.128777 0.333575 0.472363 0.221758 0.0845505 0.16778 0.0574762 0.0272773 -0.0124735 -0.0188923 -0.00567538 0.00722401 0.0124788 -0.0139857 -0.0529098 0.0151285 0.0202091 -0.0922527 -0.0679846 -0.137551 0.0336061 -0.175862 -0.112217 0.0494978 -0.0975068 -0.182554 -0.109722 0.0686596 0.147435 0.150449 0.194072 0.0756458 -0.00919133 0.0984707 0.00141536 -0.00785646 0.0986384 -0.0181316 -0.00547543 0.0330817 -0.035763 0.0227715 -0.0251406 0.0223268 -0.0165164 -0.0592334 -0.131071 -0.0679475 0.0596668 0.0126097 0.0497083 -0.0297656 -0.291759 -0.153024 -0.304863 -0.168878 -0.180711 -0.0643107 -0.0138428 -0.103212 -0.00516654 -0.0166125 -0.0189801 -0.0122358 0.030316 0.046742 0.015826 -0.0135607 -0.0179444 -0.0402714 0.0256888 0.0327063 0.0238234 0.0206641 -0.0778798 -0.0345933 -0.0674349 -0.0255273 0.0247766 -0.0897253 -0.045832 -0.0330855 -0.104614 -0.0256656 -0.0188798 -0.0357006 0.0361537 0.0148625 -0.0130349 0.0240252 -0.0266418 -0.0189972 -0.0280512 0.00220379 ^0 0 0 0 0 0 0 0 0 0 0 0 -5.9912e-05 -0.000119339 1.31846e-05 5.49359e-07 0 0 0 0 0 0 0 0 0 0 0 0 0 0 0 0 -4.73887e-07 -1.79308e-06 -0.000126043 -0.000354982 -0.00174799 -0.0012329 -0.00181497 -0.00255989 -0.00318263 -0.00241094 0.0173874 0.0292742 0.000700366 -0.00203866 -0.00225384 -0.00380332 -0.00283345 -0.00232709 -0.000795568 -0.000177708 0 0 0 0 0 0 -5.46688e-07 -0.000111035 -3.27047e-05 2.13028e-05 -0.000501604 -0.00226357 -0.00684766 -0.00448065 0.00112485 0.00377172 0.0214133 0.0482295 0.0514475 0.0657356 0.0213226 -0.0223236 -0.0291927 -0.0334839 -0.01832 -0.0131376 -0.00552708 -0.00369922 -0.00237141 -0.00101468 0 0 0 0 0.00182318 -0.000398902 -0.00067386 -0.000408617 -0.00114834 -0.00424775 -0.0214231 -0.0184229 -0.0588209 -0.0900576 0.0114394 0.0459186 -0.00741655 0.052492 0.041656 -0.047822 -0.10493 -0.0912164 -0.0469403 -0.0290283 -0.00667441 -0.00880503 -0.00436203 -0.00837445 -0.00617875 0 0 -6.50296e-07 0.00625438 0.00140098 -4.41751e-05 -0.000263068 -0.000961888 -0.0223988 -0.0149949 -0.0395729 -0.0490592 -0.0729484 -0.11182 -0.0646902 -0.113129 0.0129409 -0.0553764 -0.0498126 -0.0528892 -0.0506364 -0.0869066 -0.0720011 -0.0613519 -0.0397662 -0.0481781 -0.0360932 -0.00912761 -0.00237111 0 0 0.00101678 0.00065897 0.00624749 0.00402541 -0.0188816 -0.0766871 -0.188515 -0.257953 -0.227611 -0.207544 -0.149395 -0.0477929 0.0362519 0.179695 0.0591061 -0.144912 -0.17886 -0.232551 -0.27252 -0.149058 -0.0805395 -0.0478097 -0.0277148 -0.0411279 -0.00874997 -0.00175459 0 1.86069e-06 -0.00981483 -0.00276644 -0.0163908 -0.0506605 -0.09368 -0.184561 -0.291337 -0.32397 -0.175386 -0.00643717 -0.102359 -0.0435431 0.0144158 0.0609266 0.267137 -0.0145541 -0.0781341 -0.317553 -0.320748 -0.21733 -0.146561 -0.0816617 -0.066176 -0.0322441 -0.0004733 0.00161502 1.50315e-06 0.000224675 -0.00820892 0.000683215 -0.0152335 -0.0440962 -0.0868898 -0.134625 -0.272754 -0.190073 -0.0369731 0.0332759 -0.0749105 -0.0973125 0.0786945 0.0583772 0.275508 0.116302 -0.181758 -0.165008 -0.263036 -0.277153 -0.167408 -0.139729 -0.142993 -0.0579587 -0.00250517 -0.000351546 -1.4001e-05 0.000569584 -0.00288651 -0.00422956 -0.0028901 -0.00590702 5.68785e-05 -0.00589479 -0.170063 -0.15527 0.0200994 -0.102157 -0.188057 -0.0711901 0.0385055 0.244371 0.0399596 0.0762778 -0.291823 -0.296138 -0.2871 -0.268525 -0.209432 -0.208825 -0.164694 -0.0616866 -0.00975939 -0.000539676 -1.34211e-05 0.000363452 0.00237627 0.00288196 -0.0448844 -0.0338516 0.0109935 0.00137601 -0.120802 -0.154928 -0.0926083 -0.000618363 -0.148784 0.00935356 0.248115 0.536299 0.260315 -0.196865 -0.349303 -0.412685 -0.384797 -0.266798 -0.227823 -0.181966 -0.145559 -0.0512121 -0.0042753 0.00560028 -2.01502e-06 0.00119285 0.00354023 -0.0206832 -0.0456291 -0.0526848 -0.0513593 -0.0091865 -0.0970218 -0.167466 -0.0400787 -0.00850589 -0.000840238 0.156903 0.365225 0.646451 0.17431 -0.282955 -0.388681 -0.364327 -0.326527 -0.197799 -0.186653 -0.166386 -0.101934 -0.00772345 -0.00166393 0.00149416 -4.84879e-06 0.00163331 0.00542016 -0.0247491 -0.00804596 -0.0408161 -0.0777851 -0.0196326 -0.0547217 -0.0563859 -0.0819827 -0.00809796 -0.0162114 0.0938715 0.441428 0.442882 0.0943919 -0.278248 -0.37838 -0.307072 -0.13975 -0.086496 -0.0955771 -0.0908482 -0.0789226 -0.0203303 -0.00595078 -0.00160706 8.26071e-06 0.00107061 0.00470979 -0.0236207 -0.0110337 -0.0276068 -0.065534 -0.00462478 0.064768 -0.00497478 -0.0799095 -0.103395 0.0736959 0.0824467 0.23226 0.127068 0.0821772 -0.214035 -0.223255 -0.110026 0.0139611 0.0159135 -0.0536593 -0.060272 -0.0264416 -0.00443078 -0.00743388 -0.00236755 1.01254e-05 0.000262977 0.00387703 -0.0134434 -0.00457487 -0.0255337 -0.0795898 -0.0793111 0.00678127 -0.0898381 -0.0819185 -0.137423 0.0765353 -0.00113048 0.0522371 -0.0295312 0.0637296 -0.118851 -0.13099 0.0404691 0.152261 0.101374 -0.0332562 -0.0193037 0.00676501 0.031864 0.020546 0.00997896 -7.83806e-05 7.36031e-05 0.00129631 0.00568206 0.0152937 -0.0403168 -0.093903 -0.0931208 0.0446479 -0.00864655 -0.0818674 -0.138866 0.162548 0.0213917 0.0967206 -0.0690085 -0.00240401 -0.246321 -0.1384 -0.000427353 0.105664 0.131994 0.0738663 0.0655491 0.0240129 0.0242622 0.0174902 0.000259892 -2.26714e-05 -7.50999e-05 0.00138266 0.00550033 -0.00752407 -0.0661549 -0.102246 -0.0551454 0.0219462 -0.0186092 -0.107255 0.0629412 0.227994 0.11751 -0.0936094 -0.12587 0.110278 -0.207672 -0.261606 -0.210328 -0.044769 0.154696 0.0968231 0.0519897 0.0038964 0.0220655 0.0251253 0.00730243 1.71032e-05 -2.96667e-05 0.000790506 0.00212744 -0.0192825 -0.0695756 -0.0678393 0.00949474 0.0452504 0.0630436 0.0301215 0.176537 0.0589871 -0.00475511 -0.102596 -0.109416 0.0895724 -0.172518 -0.1423 -0.12706 0.0121112 0.0940948 0.0162056 0.0227802 0.0093699 0.0180273 0.01092 0.00677211 0 0.000102555 0.000176503 -0.00851432 -0.0338202 -0.0887754 -0.0938585 -0.0319878 0.0529751 0.0721789 0.0907489 -0.0872927 0.00126202 0.113881 0.126604 0.0492877 -0.0496034 -0.16444 -0.0171365 -0.0752853 -0.0469652 -0.0191815 -0.0476439 -0.0171828 -0.022484 -0.00212399 0.00544879 0.00218472 -0.000528472 2.71384e-05 -8.35624e-05 -0.00532238 -0.0382932 -0.127451 -0.182294 -0.119633 -0.0673072 0.00927722 -0.0921093 -0.257411 -0.144626 -0.0257152 0.0105003 -0.0265028 -0.226557 -0.0356478 0.0149482 -0.0515781 0.00630371 0.0208196 -0.0637919 -0.0155896 -0.00387615 0.0225823 0.00894201 0.0167461 7.81905e-06 -0.00270419 -0.00588883 -0.00743074 -0.0129499 -0.115586 -0.169924 -0.160158 -0.229114 -0.125886 -0.209874 -0.115947 -0.0153073 0.0797574 -0.0422799 0.0593956 0.193674 0.102226 0.0508898 -0.0351101 -0.0370952 -0.0639115 -0.097131 -0.0194484 0.0066579 0.0269525 0.00585653 0.00622909 0 -0.00701882 -0.00878271 -0.0130306 -0.00502694 -0.108687 -0.114647 -0.126309 -0.116833 -0.144705 -0.194476 -0.0595261 0.140812 -0.00430975 0.173796 0.0966924 0.310038 0.157007 0.0194867 0.0400608 -0.0396751 -0.0372181 -0.0576706 -0.0413517 0.00549579 0.0128489 0.00493573 1.20234e-05 1.31103e-05 -6.52969e-05 -0.00297851 -0.00984356 -0.0114121 -0.0423141 -0.0586685 -0.104439 -0.061663 -0.0805799 0.0236253 -0.0886228 -0.0115076 0.00792857 0.060559 0.044476 -0.00454552 -0.140081 0.0501768 -0.00922593 -0.0259605 0.00549659 -0.0751863 -0.0638202 0.000300873 0.00646949 0.00664121 -4.7005e-07 1.27006e-05 -9.40791e-06 -0.00255011 -0.00723386 -0.00668365 0.03956 -0.0499158 -0.123082 -0.0894259 -0.116745 -0.0419752 -0.273814 -0.170807 -0.037991 -0.0749978 -0.115672 0.0239591 -0.0402649 0.0732829 0.0554614 0.0554883 -0.0070653 -0.0596373 -0.0394342 -0.00605958 -0.000331909 0.00249237 -8.67784e-07 0 0 -0.00032686 -0.0067529 -0.00581785 0.0275898 -0.00592194 -0.120141 -0.138895 -0.107106 -0.146057 -0.0953053 0.107067 0.0123247 -0.120131 -0.0731403 -0.0399106 0.0618082 -0.10998 -0.0169048 -0.0602406 -0.11907 -0.0706992 -0.0133218 -0.00157022 0.00132924 0.0122073 0 0 0 -7.87718e-05 -0.00498044 -0.00504635 -0.00507659 -0.0167188 -0.0835579 -0.107251 -0.0547655 -0.106248 -0.0907662 -0.123112 -0.00883823 -0.0255335 -0.143063 -0.253522 -0.0336899 -0.0318476 0.0211192 -0.0400933 -0.060669 -0.0454549 -0.0070513 -9.69621e-05 0.00252811 0.000917908 0 0 0 -1.09093e-05 -0.000133732 0.0010119 -0.00242573 -0.0122814 -0.0309321 -0.0233355 -0.0160445 -0.137184 -0.0969117 -0.139707 -0.145944 -0.151367 -0.228034 -0.266778 -0.129524 -0.0443147 -0.06203 -0.0267858 -0.0054734 -0.00182982 -0.00276306 -0.00161773 0.000716425 0.000852449 0 0 0 0 -4.41945e-05 -0.000939884 -0.00123036 -0.0015769 -0.00196903 -0.000371584 -0.00297611 -0.0300817 -0.0349292 -0.0893073 -0.0887623 -0.0664804 -0.0649642 -0.0507039 -0.0507504 -0.0280695 -0.0183651 -0.00935455 -0.00181258 -0.000264521 -0.000448563 -8.56996e-06 1.49747e-07 0 0 0 0 0 0 -4.32462e-05 -4.22253e-05 -3.92196e-05 -0.000281351 3.47943e-05 0.000648911 -0.00126716 -0.00235889 -0.0148296 -0.00857882 -0.00750492 -0.00150274 -0.00505726 -0.00226381 -0.0103799 0.000329948 0.000238146 0.00232767 0.00204696 0.000267767 0 0 0 0 ^0 0 0 0 0 0 0 0 0 0 0 0 -1.08907e-05 -1.92341e-05 5.13311e-06 2.13879e-07 0 0 0 0 0 0 0 0 0 0 0 0 0 0 0 0 -1.39915e-07 -9.61159e-07 -1.03562e-05 -3.00704e-05 0.00042429 0.000111247 0.00015914 -0.000282719 -0.000165324 0.00026819 0.00469921 0.00566269 0.00177497 0.000368815 8.80245e-05 9.1107e-05 0.000140803 0.000189865 2.60584e-05 -7.30769e-06 0 0 0 0 0 0 -1.87821e-06 2.34453e-05 -1.61492e-05 0.000113199 0.00149774 0.00315981 0.0088587 0.0386401 0.0195684 0.028533 0.0607544 0.0660501 -0.0347804 -0.0867303 -0.0261481 -0.0271133 -0.0151129 -0.00383277 0.000890765 -0.0050825 -0.0112799 -0.00125603 0.000541113 -6.20675e-05 0 0 0 0 -0.000793449 0.000807367 0.00226041 0.00254696 0.00611206 0.0191688 0.033134 0.121869 0.0781084 0.0559482 -0.165686 -0.183166 -0.123964 -0.217967 -0.27159 -0.287311 -0.0505173 0.106985 0.0274534 0.118717 0.154471 0.0992754 0.0290775 0.00683579 0.000439952 0 0 -7.03777e-05 -0.00285401 -0.00531485 -0.0288601 -0.0773852 -0.0455084 -0.0284424 -0.0934012 -0.020549 0.0371176 -0.0881289 -0.185792 -0.498815 -0.0636096 -0.322108 0.158641 0.420957 0.161943 0.229107 0.334059 -0.130371 -0.090372 0.0581652 -0.0235939 -0.0504782 -0.00606767 -9.44985e-05 0 0 0.000750302 -0.0263751 -0.0314204 -0.151142 -0.0567238 0.0657445 -0.0361338 0.102 -0.0733786 0.13334 0.314701 -0.0543896 0.055719 -0.097716 -0.0635492 -0.0120611 0.0997723 0.131251 0.0500849 0.240531 0.134795 -0.0544248 -0.0594213 -0.117516 -0.0285779 0.000809678 0 -0.000177318 -0.0366014 -0.0592873 -0.146155 -0.145023 -0.0414351 0.0214686 0.0626688 -0.18222 -0.0972751 -0.158698 0.166333 -0.265208 0.0813019 0.0515546 -0.268049 -0.179438 -0.131875 0.0861635 -0.0108681 -0.2236 -0.0263511 0.0207298 -0.234257 -0.17582 -0.0731859 -0.00886256 -8.61245e-06 -0.00680587 -0.0663085 -0.0739593 -0.137589 -0.0611684 -0.0209873 -0.112386 -0.0684856 0.00499643 0.023222 -0.183185 -0.208665 -0.173888 -0.356884 -0.0459284 -0.122376 -0.0987852 -0.0531774 -0.213381 -0.230244 0.106039 0.0952309 -0.0704909 -0.0124326 -0.162212 -0.0637843 -0.00758317 -3.64788e-05 0.000852789 -0.0399096 -0.074658 -0.0420142 0.000566063 0.148681 -0.0341346 0.0226095 0.0406244 0.0722549 -0.0710803 -0.196451 -0.281555 0.256076 -0.181178 0.0391291 0.0386929 0.048989 -0.246559 0.123576 0.0113913 -0.047982 -0.0723079 -0.191207 -0.270369 -0.0843526 -0.00465534 -0.000330397 0.0015697 0.00429342 -0.0694886 -0.197294 0.0832079 -0.169853 -0.11489 -0.0209903 -0.0409692 -0.0503957 0.0318762 -0.10066 0.316662 0.235903 -0.318772 0.437276 0.101198 0.189654 0.353254 0.176706 0.092221 -0.197846 0.097834 -0.264694 -0.269713 -0.0373376 -0.0126685 -0.000383472 0.00253256 -0.0178044 -0.192369 -0.147231 0.257626 0.0118294 -0.00868563 0.00440701 0.152932 0.143929 0.00559411 -0.217006 0.0484703 -0.287087 0.0530127 0.0516723 0.234192 0.34815 0.331147 0.0247038 0.0428118 0.160241 0.350032 -0.0385832 -0.211509 -0.0505873 -0.00756041 -3.11657e-05 -0.000790898 -0.0385125 -0.147274 -0.266092 0.259105 0.303757 0.0185001 -0.0140566 0.29987 -0.0841073 0.128575 -0.116556 -0.294119 -0.203204 0.247564 -0.0726289 -0.0599019 -0.0470244 -0.0172978 -0.0954942 0.327087 0.300212 0.35274 0.183522 -0.0934094 -0.0504265 -0.00193798 -4.83434e-05 -0.00463422 -0.0137022 -0.0201046 -0.112449 0.0392822 0.0741366 -0.0109768 -0.0340587 -0.154053 -0.0151413 -0.0564894 -0.0402714 -0.180337 -0.28682 -0.0633021 -0.344603 0.0775448 -0.276846 0.438397 0.13543 0.173428 0.204507 0.364731 0.211217 -0.00957031 -0.0431102 -0.0017245 1.09468e-05 -0.00681002 -0.00588568 -0.00925341 -0.0895486 -0.20961 -0.148191 -0.142259 0.196226 0.0084583 0.0146292 -0.128065 -0.317737 -0.330631 -0.40091 -0.0203375 -0.353169 0.138514 -0.114767 0.370998 0.0606348 0.0418894 0.043035 0.171589 0.125143 0.023905 -0.00404995 0.0063015 -5.99126e-05 -0.0172019 -0.0182239 0.00814449 0.0339037 0.0442204 0.0914487 0.0699139 -0.0986507 -0.0835366 -0.0526764 0.335714 -0.460659 0.109555 -0.163014 -0.130039 0.122402 0.287521 0.0688147 0.145318 0.0897752 -0.196123 -0.0433393 -0.0803683 -0.000450974 0.0896854 0.0323579 0.00485869 -1.7985e-05 -0.0317381 -0.0301871 0.0974386 0.298377 0.303461 0.397874 0.482502 0.0118266 -0.189063 -0.434537 -0.494386 -0.262559 -0.0312653 0.129062 -0.20687 -0.226822 -0.0196893 0.159115 -0.00289412 0.0153577 -0.145958 -0.0557796 -0.236903 0.0165236 0.165749 0.0203497 0.0080504 9.32821e-06 -0.0152441 -0.0312824 0.0835528 0.390374 0.544934 0.986839 0.988216 0.851743 0.0275015 -0.155579 -0.369349 -0.593528 -0.453046 -0.378078 -0.101928 -0.152393 0.0346205 -0.13779 0.024599 0.0829196 -0.023158 0.0209444 -0.151397 0.0734609 0.200341 0.0886811 0.0170613 0 -0.00610427 -0.0135597 -0.0323166 0.450039 0.621773 1.0163 1.11406 1.72958 1.73162 1.15874 0.431494 0.110955 0.00738376 0.0314392 -0.0534175 0.504828 0.262902 0.0564202 -0.0251091 0.00128418 -0.0936904 0.274324 -0.155777 -0.019752 0.0893946 0.0315399 0.00221465 -0.00680842 -0.000285759 -0.0288873 -0.139907 0.0783462 0.475124 0.493979 0.447135 1.29253 2.0079 2.14199 1.91426 1.96089 1.21494 0.532182 0.439746 0.108601 0.237218 0.233609 0.00248706 -0.175716 -0.247576 -0.17918 -0.0103267 0.129926 0.0883568 0.01496 -0.000946381 2.36193e-06 -0.00494782 -0.0357034 -0.304531 -0.198275 -0.0308651 -0.0198346 -0.00286822 0.0781401 0.133461 0.454198 0.553643 0.208368 0.235774 0.0196351 0.224218 -0.00165757 0.149049 -0.086647 0.0324622 -0.0439637 -0.0543634 -0.190009 -0.0515885 0.120618 0.0529849 0.0144558 0.000296035 0 -0.00153624 -0.00596116 -0.311734 -0.30477 -0.293383 -0.436526 -0.282988 -0.711951 -0.565675 -0.620648 -0.204996 -0.0380895 0.0503546 -0.0460365 0.0276992 0.141285 -0.0509703 -0.156213 0.116591 -0.0363849 0.227559 -0.00765066 0.0453277 0.122192 0.0810928 0.0149078 -2.26309e-05 2.18409e-06 -0.00116026 0.0308101 -0.272568 -0.428303 -0.448492 -0.490175 -0.323629 -0.268404 0.00141287 -0.330392 -0.0994411 -0.12114 -0.342877 0.0454477 -0.174672 0.0924442 0.44213 -0.115091 0.0250042 -0.120452 0.0807172 0.192433 0.0328028 0.100956 0.0893636 0.0145656 -6.67587e-06 2.11583e-06 -3.25087e-05 0.0286723 -0.106025 -0.319138 -0.310879 -0.162929 0.21786 -0.0402775 0.027818 -0.560111 -0.28531 -0.201536 0.0169264 0.079469 -0.110491 0.189854 0.10542 0.311086 -0.121251 -0.133915 0.225373 0.129372 0.0348414 0.0801261 0.0643285 0.00149601 -1.23247e-05 0 0 -0.0194659 -0.190528 -0.309154 -0.356633 0.0952704 0.249834 0.0145839 0.0920559 -0.255814 -0.0382739 0.0269702 -0.132825 -0.168458 -0.252711 -0.139267 -0.0176661 0.215374 0.104183 0.0853997 0.193947 0.157504 0.102295 -0.0343204 0.0164863 -0.000767201 0 0 0 -0.0029025 -0.138188 -0.272024 -0.336584 -0.167847 -0.434208 -0.419026 -0.399209 -0.423015 -0.28688 0.0452282 0.0654245 0.102086 0.183812 0.0854489 -0.119183 0.124016 0.405229 0.192906 0.0562944 -0.0177796 -0.0283401 0.0316822 0.0112857 -6.7892e-05 0 0 0 -0.000357825 -0.0033735 -0.0779855 -0.12383 -0.0385937 -0.19503 -0.440551 -0.224025 -0.155987 -0.124295 0.0393966 -0.221118 0.0196578 0.116102 -0.284002 0.0816227 0.0155752 -0.0643566 0.0349808 -0.037893 -0.127031 -0.0449652 -0.000906384 -0.000330507 -8.3099e-05 0 0 0 0 -2.41142e-05 -9.3105e-05 -0.000114808 -0.0281985 -0.0148156 0.00535683 -0.0855353 -0.208269 -0.146352 -0.180907 -0.206679 -0.225842 -0.178296 -0.20431 -0.241354 -0.169504 -0.111076 -0.09381 -0.0630693 -0.0382573 -0.00876531 -6.16787e-05 4.07523e-06 0 0 0 0 0 0 -5.15271e-05 -0.000216321 -0.000574489 -0.00301656 -0.00418922 -0.00428678 -0.0349721 -0.0411713 -0.0437352 -0.025754 -0.0827988 -0.011454 -0.0179303 -0.0171997 -0.0238387 -0.00850236 -0.00151651 -0.00113446 -0.00241503 -0.000375697 0 0 0 0 ^0 0 0 0 0 0 0 0 0 0 0 0 -0.000351437 -0.000429824 0.000378025 1.5751e-05 0 0 0 0 0 0 0 0 0 0 0 0 0 0 0 0 -3.85169e-06 6.59139e-06 0.00250098 0.00348036 -0.00849162 -0.00948308 -0.0124937 -0.00262046 0.00613009 -0.0136116 -0.0171372 -0.0081695 -0.00236023 -0.00338981 -0.00194571 0.00311092 0.000311281 -0.00119773 0.00282156 0.00265912 0 0 0 0 0 0 1.36887e-05 -0.000136897 -0.000109285 1.83255e-05 -0.00517165 -0.0169505 -0.0403654 -0.0540555 -0.0519266 -0.0239593 -0.0594964 -0.130343 -0.0739658 -0.042458 -0.0680372 -0.0526415 -0.037295 -0.0537338 -0.0234662 -0.0117628 -0.00542696 -0.000112532 0.00416602 0.00313387 0 0 0 0 7.61421e-05 -0.0033233 -0.0114346 -0.00256514 -0.0221178 -0.0158495 -0.0639677 -0.0983156 -0.111002 0.00817394 -0.0234412 -0.10135 -0.0811596 -0.0722703 -0.175892 -0.116686 -0.067159 -0.119466 -0.000569613 -0.00753489 -0.0202983 0.00373783 -0.0114281 0.00191116 -0.000307372 0 0 1.67068e-06 0.000210774 0.000676369 -0.0119789 -0.0138588 -0.0192496 -0.01197 0.0358025 -0.0868332 0.00133767 0.0279901 -0.136002 -0.16434 0.0685917 0.0437945 -0.0474412 -0.0343753 -0.0590611 -0.0866748 -0.0644733 -0.12849 -0.0680063 0.0306955 0.0374469 -0.0145165 -0.0041605 0.00060751 0 0 0.000596933 0.0025211 0.0438088 0.12058 0.0551611 -0.0324192 -0.246186 -0.196351 -0.20835 -0.31603 -0.328063 -0.273239 0.0744562 0.0502311 0.124466 0.0993406 0.0195206 0.0125194 0.090798 -0.0383428 -0.0409081 0.0900793 0.0760406 -0.0128396 -0.0117212 -0.00115127 0 3.24068e-05 -0.00692268 0.0390699 0.0764362 0.122077 0.138297 -0.0816306 -0.0820137 0.0811139 -0.138357 -0.321813 -0.431709 -0.194868 0.169128 0.512233 0.298986 0.189774 0.124991 0.02152 0.259748 0.0717252 -0.120559 0.0275969 0.0109288 -0.103371 -0.0252975 0.00159516 8.74902e-07 0.00116964 0.012132 0.0792728 0.202186 0.184176 0.122247 0.0205089 -0.00117358 -0.0246216 -0.113577 -0.240954 -0.287213 -0.171225 0.186888 0.367731 0.44649 0.0367852 -0.106125 0.0207803 0.0530985 0.135098 0.0534991 -0.0836807 -0.151159 -0.141779 -0.0240472 0.00150916 0.000966032 0.00157767 0.011754 0.110203 0.263306 0.182312 0.0582662 0.207602 -0.0595841 -0.122397 0.101803 -0.168437 -0.583403 -0.232059 0.0197148 0.0143511 0.193413 0.0103362 -0.0692179 -0.00509242 -0.269977 0.0811342 0.132313 -0.0182387 -0.191917 -0.118646 0.00988911 0.0175828 0.000218055 0.00326182 0.0251539 0.0823541 0.194677 0.135335 -0.0233786 -0.0247673 -0.082528 -0.0261777 -0.115228 -0.815551 -0.471175 0.355905 0.38925 0.293925 0.252268 -0.0736422 0.175319 0.117196 -0.0365652 0.186719 0.201567 0.147088 -0.0746212 -0.0406808 -0.0164978 -0.00837666 0.000274931 0.00506996 0.0264857 0.0421975 -0.0272002 0.0761293 -0.125155 -0.250985 -0.0777172 -0.195364 -0.382221 -0.580759 0.0905717 0.5795 0.65626 0.157714 0.14435 -0.173055 0.0182493 -0.0577007 -0.00268844 0.198893 0.163778 0.276117 0.00321548 -0.093111 -0.0372359 -0.00931216 -1.96668e-05 0.0135379 0.0160906 0.0190783 -0.016394 0.0939237 -0.209195 -0.284665 -0.0351966 -0.223584 -0.377188 -0.386561 0.270611 0.406817 0.28099 0.00508535 0.037729 -0.0205638 -0.180799 -0.23922 -0.0977453 -0.00872633 -0.108267 -0.0425888 0.0239878 0.025994 -0.00141486 -0.00156919 3.90844e-05 -5.8275e-05 0.00651646 -0.0467026 -0.0140281 0.0414034 -0.193091 -0.141461 -0.259506 -0.314898 -0.255432 -0.265146 0.297441 0.416543 0.309487 0.0836254 0.223749 0.10557 0.0421026 -0.0850186 -0.205191 -0.173538 -0.367683 -0.274494 0.0408808 0.0317273 0.0540416 0.00406118 4.97724e-06 -0.0132732 -0.00677345 -0.0698266 -0.182412 -0.145784 -0.186766 -0.261474 -0.269725 -0.290152 -0.224527 0.262159 0.401046 0.642092 0.51191 0.167981 -0.0255035 0.0960608 0.106717 -0.00389286 0.224585 -0.143525 -0.379407 -0.260797 -0.135954 0.00839647 0.0694008 0.0299216 0.000128425 -0.00483266 -0.00959531 -0.116415 -0.227864 -0.185439 -0.419209 -0.542159 -0.396978 -0.228002 -0.0456855 0.270559 0.488917 0.497783 0.459698 0.433954 -0.0522729 -0.156372 0.00701858 -0.000713354 -0.0604842 0.0119564 -0.173757 -0.244352 -0.20653 0.0443837 0.0738128 0.00123892 4.76747e-05 0.00421313 -0.00643698 -0.0579421 -0.102896 -0.186677 -0.399694 -0.403375 -0.199017 -0.0664942 -0.193818 0.0268781 0.0760971 0.165274 0.641654 0.578231 -0.0202796 -0.0786315 0.174254 0.0976663 -0.0506772 0.0137342 -0.0211079 -0.0867692 -0.0423943 0.106175 0.099117 0.0219719 3.21379e-05 0.00223507 0.0106851 0.0186544 0.00135561 -0.15386 -0.197211 -0.330394 -0.433329 -0.139913 0.108868 0.0489858 0.239093 0.408195 0.607055 0.557596 0.200663 0.016864 -0.0228424 0.0992384 -0.0590752 -0.02165 -0.243461 -0.0606158 0.0440038 0.127287 0.142064 0.0331244 0 0.000834888 0.0205697 0.0707142 0.125137 0.0492643 0.0400083 -0.146046 -0.250096 -0.129547 -0.103605 -0.0708214 0.207075 0.337646 0.624807 0.622451 0.0205445 -0.328587 -0.259016 0.00660983 -0.285781 -0.169482 -0.140412 -0.00484001 0.0967061 0.167016 0.0841388 0.0118863 0.000262289 3.46031e-05 0.00451306 0.0770067 0.123888 0.19482 0.242841 -0.0518098 -0.0462791 -0.181071 0.111509 0.167105 0.156853 0.456969 0.704256 0.380833 -0.372024 -0.48975 -0.354086 -0.212005 -0.318552 -0.189027 0.097312 0.138489 0.101912 0.11767 0.0428847 0.0207796 5.30638e-06 0.000375617 -0.0253731 -0.000998965 0.0363563 0.167832 -0.0677213 -0.100692 -0.0486632 0.00461659 -0.0354939 -0.00932282 0.128303 0.460675 0.434777 0.160697 -0.50688 -0.223462 -0.0285381 -0.147151 -0.114375 -0.0363194 0.0541877 0.116027 0.0789308 0.122125 0.0334528 0.00357926 0 0.000229622 -0.0101801 -0.00485198 -0.0877936 -0.00730812 0.0582973 0.0113457 0.0529731 -0.0365195 0.193937 0.186425 0.0190856 0.289809 0.379527 -0.363066 -0.588929 -0.0167408 0.0535324 0.00502274 0.189945 0.224445 0.0896223 0.0823222 0.0291571 0.0283945 0.012791 -8.7144e-06 5.15852e-06 0.000222734 0.0125136 -0.00585337 -0.045608 0.00958163 0.0569235 -0.0946084 -0.126271 0.0383131 0.0479366 -0.039048 0.108189 0.356098 0.388361 -0.339649 -0.460666 0.104397 0.0797465 -0.0227807 -0.127517 0.0901055 0.0786926 0.14112 0.0415367 0.00197602 0.00894224 -2.42491e-06 4.99732e-06 4.50089e-06 0.0249431 0.0483104 0.0183955 0.0458239 0.252361 0.20193 0.208382 0.275249 -0.0115842 -0.395308 -0.0933897 0.319806 -0.0351998 -0.320656 -0.272339 0.0341573 -0.0884401 -0.297985 0.0431139 0.0365524 0.141197 0.113554 0.0677853 0.0104802 0.00465635 -4.47675e-06 0 0 0.0100226 0.0148402 0.0921959 0.0457319 0.0509772 0.137712 0.0669271 0.133358 -0.168399 -0.250143 -0.0215934 0.248025 -0.24569 -0.27624 -0.374517 -0.28485 -0.0690858 -0.0774072 -0.0631118 -0.0732312 -0.0328263 0.0230886 0.0604437 0.0315383 0.00378925 0 0 0 0.00155003 -0.0114869 0.0277481 0.0251404 -0.0184126 -0.00394417 -0.0505483 -0.129933 -0.101491 -0.0942447 0.0404572 0.20571 0.0935991 -0.225397 -0.277083 -0.322798 -0.23549 -0.20713 -0.357904 -0.257325 -0.121762 -0.0703982 0.0136326 0.0289606 0.00822536 0 0 0 0.000357866 -0.0118077 0.0049949 -0.000889227 -0.0354621 0.0197039 0.0423971 -0.00632772 0.0457277 -0.0135122 0.0826261 0.115795 0.163396 0.136148 -0.00484201 -0.0651264 -0.076609 -0.149313 -0.22557 -0.193834 -0.106853 -0.0334231 -0.00780109 0.0066516 0.00871015 0 0 0 0 -8.87043e-05 -0.00218701 -0.0288375 -0.0435287 -0.0440574 -0.0210772 -0.0676048 -0.020867 0.0212352 0.034559 0.00187752 -0.0544324 -0.104576 -0.115497 -0.09402 -0.0392796 -0.0777674 -0.137262 -0.124724 -0.0485667 -0.00332869 -5.48189e-05 2.20852e-06 0 0 0 0 0 0 -2.93326e-05 0.000126635 -0.00184773 -0.011301 -0.00770944 0.00354126 0.00148137 -0.0042441 -0.00806174 0.0158777 -0.000315679 -0.0163497 -0.0118064 0.00599049 -0.0015267 -0.00277294 -0.0336038 -0.0173439 -0.0187996 0.000999609 0 0 0 0 ^0 0 0 0 0 0 0 0 0 0 0 0 -0.000496317 -0.000697613 0.000433051 1.80438e-05 0 0 0 0 0 0 0 0 0 0 0 0 0 0 0 0 -4.52405e-06 -4.08619e-06 0.00208974 -0.000229933 -0.0269754 -0.0163549 -0.028779 -0.0179212 -0.0161374 -0.0275493 -0.014594 -0.00125231 0.0202623 -0.00573741 -0.0254866 -0.00997825 -0.0283453 -0.0787903 -0.00626432 0.000649027 0 0 0 0 0 0 -5.15387e-07 -0.000109577 -0.000481517 4.51309e-05 -0.0117729 -0.0348088 -0.0640884 -0.0583332 -0.076832 -0.00622744 0.00190948 -0.0501766 9.23137e-05 0.0241887 0.042773 -0.0493964 -0.113204 -0.169573 -0.0775112 -0.157311 -0.0938093 -0.0136027 0.0202115 0.0163476 0 0 0 0 0.0014357 -0.00029416 -0.0038953 0.00422433 -0.0184264 -0.0320277 -0.0215566 0.0103907 -0.0916303 -0.00253758 0.0960072 0.20582 0.530346 0.396502 0.240401 0.0743753 0.145521 0.118848 -0.0553873 -0.215694 -0.175343 -0.171136 -0.0854439 0.0103421 -0.00294113 0 0 3.55669e-06 0.00506351 0.00185408 0.00685313 -0.00143 0.0734227 0.0578714 0.103927 -0.089695 -0.0628021 -0.32332 -0.502287 -0.267965 0.133957 0.019044 0.264205 -0.0198336 0.208625 0.234065 0.241279 -0.189882 -0.11444 -0.225484 -0.136176 -0.0135969 -0.00909407 -0.0102375 0 0 0.00139376 -0.00510175 0.00534706 -0.00761361 -0.0066901 -0.0591186 -0.211278 -0.124717 -0.035767 -0.31197 -0.365444 -0.145711 -0.445539 -0.349558 0.164723 -0.248021 0.131635 0.00947647 -0.106669 -0.0146997 -0.153928 -0.0643262 -0.0203017 -0.0256135 -0.0289349 -0.0153477 0 0.0010319 -0.00103873 -0.011933 -0.00850621 -0.0356453 0.00709152 -0.216362 -0.081466 0.219903 0.259777 -0.0420598 -0.259378 -0.461503 -0.329358 0.0112357 0.19738 -0.242625 0.245926 -0.0260628 -0.075836 -0.14564 -0.0167432 -0.117792 -0.153705 -0.0308817 0.013241 0.00773303 2.21445e-06 0.0243283 -0.00238221 -0.0189394 -0.0204317 -0.0668562 -0.0716287 -0.119256 0.00721052 0.0912876 0.109287 -0.0754923 -0.106278 -0.13904 -0.271805 -0.299151 -0.0802833 -0.131367 -0.221245 0.53819 0.211816 0.0970147 0.311222 -0.213981 -0.458037 -0.138716 0.0159101 0.00500965 0.00128717 -0.00529281 -0.00683459 0.0270797 0.0429699 0.0135282 -0.181318 0.14321 -0.0544069 -0.393981 0.0555117 0.376483 0.215116 -0.165139 -0.289177 0.0132809 0.00816266 0.12308 0.0278773 0.334009 -0.0915097 -0.00947469 0.311141 -0.0769728 -0.594647 -0.20801 0.000209813 0.000978691 0.000275315 -0.00754622 0.0261531 0.0821871 0.112553 0.232767 0.334001 0.2097 0.174448 0.0106372 0.344994 0.337466 0.665357 0.267274 -0.0928064 -0.0307435 0.267749 0.024499 0.173391 0.0145927 -0.0414101 -0.157834 0.328168 0.0198437 -0.482561 -0.131068 -0.00518125 -0.0032295 0.000296765 -0.00299183 -0.00900846 -0.0751093 0.0737737 0.346101 0.300977 0.412544 0.787071 0.545171 0.472721 0.400741 -0.027257 -0.0926085 -0.524479 -0.0888411 0.198742 0.0165349 0.0658824 0.228057 -0.0184015 -0.147698 -0.0172307 -0.330716 -0.270739 0.0141026 0.019898 -0.00414737 -0.000107285 0.0127193 -0.0919702 -0.157028 -0.110838 -0.0220295 -0.0301201 0.190579 0.224536 -0.133446 -0.0911893 -0.274004 -0.825728 -0.880086 -0.765969 -0.323164 -0.135499 0.132379 0.142146 -0.148441 0.060191 -0.127975 -0.00131874 -0.258488 -0.185301 0.0976301 0.00979415 -0.000320729 -5.37874e-05 -0.0133706 -0.0828952 -0.165933 -0.376633 -0.543455 -0.42004 -0.518209 -0.627127 -1.00058 -0.84359 -1.09957 -0.990686 -0.70369 -0.374407 -0.099406 -0.102357 -0.0226541 -0.0448179 -0.134358 0.248583 0.0838606 -0.112271 -0.382793 -0.118005 0.157849 0.0624559 0.0138384 7.83132e-06 -0.0282772 -0.0353685 -0.280862 -0.705098 -0.896557 -0.993865 -1.18501 -1.07892 -0.906536 -0.869497 -0.499634 -0.0460453 0.142343 0.0580521 -0.312783 -0.162072 -0.00140069 -0.0455723 0.0357792 0.176415 0.0973604 -0.0646567 -0.103599 0.116333 0.207412 0.196925 0.0841925 4.59012e-05 -0.0114783 -0.0236065 -0.261678 -0.446831 -0.847228 -0.87439 -0.681912 -0.620045 -0.38468 -0.193661 -0.0823318 0.279381 0.261836 0.290942 -0.110258 0.0197718 -0.0672924 0.171896 0.303598 0.0343026 0.074165 -0.112525 0.0356587 0.207751 0.210771 0.154353 0.00466569 2.09504e-05 0.00380733 -0.00273236 -0.15633 -0.178657 -0.412588 -0.414457 -0.131013 0.24099 0.127344 0.111402 0.0763683 0.0630702 0.426061 0.0288915 0.219449 0.23732 -0.0181195 0.201337 -0.107559 -0.026939 0.126635 -0.058805 0.0728589 0.227034 0.185133 0.127276 0.0159941 3.38328e-05 0.00225648 0.0400948 0.0687485 0.0455732 -0.0851654 0.0811727 0.145365 -0.025088 0.292295 0.0260319 -0.076455 0.423425 0.176572 0.0953528 0.0467471 0.208869 0.264264 0.267668 0.330422 0.249324 0.407724 -0.00973065 0.264329 0.342204 0.245197 0.168904 0.0161681 0 0.000909746 0.0607283 0.0458615 0.270237 0.165359 -0.00667006 0.181779 0.15409 0.0489984 -0.0236682 0.107084 0.251169 0.0314008 0.115097 -0.160198 -0.014031 0.044224 -0.140833 0.0853676 -0.0759911 0.0356125 -0.161749 0.0351925 0.11965 0.180904 0.107774 0.0169093 0.000556494 4.62596e-05 0.0275172 0.288291 0.420136 0.163001 -0.153494 0.27665 0.0974471 -0.0702928 0.0555694 -0.0174466 0.141815 -0.0236473 0.181161 0.0136836 0.154587 -0.0284798 -0.196615 0.147706 -0.28431 -0.124051 -0.264116 0.0950293 0.224458 0.168872 0.0201345 0.0117798 -1.80984e-06 -0.00234292 -0.00379364 0.132462 0.311059 0.153324 0.0638297 0.257504 -0.100549 -0.170934 -0.129138 -0.0855038 -0.374552 0.0239231 -0.0869136 0.0583693 0.350388 0.124781 -0.0758326 0.18701 -0.07819 -0.0503486 -0.217871 0.0901208 0.206913 0.198451 0.0231015 0.00309594 0 -0.00652311 0.0324759 0.214212 0.362655 -0.0449344 0.0774397 0.146955 0.137587 0.0319757 -0.0151419 0.0671812 -0.344934 -0.0821508 -0.0672567 -0.115735 0.208065 -0.117349 -0.0892282 0.120896 0.118288 0.00444782 -0.18598 0.0720855 0.0908531 0.0583997 0.012231 -5.93027e-06 7.07628e-06 0.000209105 0.0813619 0.2616 0.152197 0.236946 -0.0602496 -0.106895 0.333763 0.0232088 -0.128251 -0.22181 -0.0574176 -0.0167029 -0.221689 0.111518 -0.0275123 0.0747697 0.0730681 0.22213 -0.0928339 0.117117 0.0115842 0.170231 0.0943977 0.0556454 0.0118508 -2.90036e-06 6.85515e-06 3.71801e-06 0.0482817 0.104401 0.0646813 0.37687 0.131321 -0.0717212 0.234782 -0.090252 -0.0603655 0.0900345 -0.127825 -0.140378 -0.07536 -0.144925 0.311048 0.473126 0.08296 0.179532 0.28767 0.335131 0.260577 0.168267 0.132339 0.0557762 0.0110407 -5.35451e-06 0 0 0.0204659 0.0361541 0.0556028 0.0316108 0.0151934 0.104392 0.0307077 -0.126582 -0.326954 -0.0538031 0.120811 0.248203 -0.138343 0.0297113 0.153157 0.123926 0.202559 0.0435767 0.230824 0.292348 0.0121696 0.0297303 0.073207 0.0463487 0.0105336 0 0 0 0.00635478 0.0207103 0.095783 -0.0920605 -0.191352 -0.108403 -0.0162158 0.0562066 -0.204456 -0.0637912 -0.21925 0.00872644 -0.00428644 -0.120582 -0.0147248 0.199179 -0.234272 -0.389604 -0.103591 0.101114 -0.0689825 -0.052439 0.030511 0.0113185 0.00250046 0 0 0 0.00103632 0.00328909 0.0340623 -0.00411073 -0.0806136 0.0092226 0.0845898 0.0710849 -0.179102 -0.114329 -0.000350666 -0.174506 -0.0577618 0.261625 -0.0071939 -0.319283 -0.383024 -0.37907 -0.290458 -0.124879 -0.142948 -0.0524199 -0.00425038 0.0020118 0.002596 0 0 0 0 -0.0002621 -0.0399907 -0.0685761 -0.0675422 -0.07937 -0.123303 -0.198896 -0.187281 -0.0611296 0.0191607 -0.143086 -0.0200676 0.113085 -0.0931506 -0.235465 -0.16968 -0.155592 -0.1557 -0.0417327 -0.0163096 -0.00340699 -3.99076e-05 3.11438e-06 0 0 0 0 0 0 -1.84628e-05 0.00016487 0.000118418 0.000290401 0.00306969 0.00561516 0.00875065 -0.00528839 -0.00807521 0.00767729 -0.00325496 0.00592711 0.00794981 0.00753188 -0.0338215 -0.0278331 -0.0730352 -0.0252503 0.00633336 0.00269285 0 0 0 0 ^0 0 0 0 0 0 0 0 0 0 0 0 -9.55059e-05 -0.000214711 -6.21614e-06 -2.59006e-07 0 0 0 0 0 0 0 0 0 0 0 0 0 0 0 0 -2.90297e-06 -7.17941e-05 -0.00529241 -0.0115852 -0.0159983 -0.00938175 -0.0388841 -0.0272145 -0.0332138 -0.0199568 -0.0140444 -0.0212266 -0.00201283 -0.00055149 -0.0087799 -0.0183446 -0.0103947 -0.0049895 -0.0105426 -0.0104799 0 0 0 0 0 0 3.11588e-07 -0.000746117 -0.00020487 -0.000237018 -0.0156745 -0.0288567 -0.0375439 -0.0265321 -0.0669689 -0.109542 -0.077072 -0.0979114 -0.120254 -0.109306 -0.0864443 -0.0700453 -0.0476451 -0.0576088 -0.038117 -0.0452871 -0.0185114 -0.0104847 0.0169808 0.012916 0 0 0 0 0.00107841 -0.00509985 -0.00562588 -0.0158277 -0.0431426 -0.0511899 -0.0706587 -0.0611594 -0.0665524 -0.0496785 -0.0841267 -0.285561 -0.316363 -0.282637 -0.185951 -0.0844748 -0.0913725 -0.131055 -0.106379 -0.0498914 -0.0148402 -0.0355078 -0.0141735 0.0143052 -0.0024606 0 0 -1.35459e-06 0.00369641 0.00138539 -0.00161512 -0.0342778 -0.0617299 -0.128826 -0.169231 -0.206925 -0.257647 -0.122361 -0.185328 -0.378715 -0.468148 -0.470931 -0.418425 -0.322242 -0.200702 -0.199023 -0.0955843 0.0373383 0.0210139 -0.00974774 -0.0263226 0.017078 0.00939312 0.00520901 0 0 0.000172645 -0.00665381 -0.00944193 -0.0216888 -0.121287 -0.22198 0.0822406 0.21967 -0.0767285 -0.183777 -0.146245 -0.198188 -0.323397 -0.52995 -0.425596 -0.605279 -0.581785 -0.497885 -0.480098 -0.289993 -0.150098 -0.0241933 0.0113404 0.0478098 0.0151112 0.00688452 0 3.03228e-05 -0.0169421 0.00862886 0.100502 0.295958 0.230687 0.132403 0.281861 0.350433 0.291992 0.201357 0.34639 0.114609 -0.0438578 -0.0254566 -0.170314 0.000469187 -0.429942 -0.191291 -0.157731 -0.0807634 -0.188437 -0.163746 -0.09315 -0.0282645 0.0088455 0.0141435 1.86966e-05 0.0184267 0.0444235 0.191803 0.312818 0.21551 0.222165 0.110269 0.0857062 0.274139 0.274258 -0.0112273 0.0466485 0.227243 -0.0234152 -0.0768483 0.323744 0.140495 0.120373 0.312572 0.201299 0.00459018 0.00901137 0.0920606 -0.0852643 -0.087256 -0.00926288 0.00747489 0.00810217 0.0490451 0.0565702 0.171569 0.329329 0.303429 0.223454 0.255533 0.0337399 0.0638309 0.1796 0.414995 0.173401 0.161751 0.150009 -0.0626063 -0.242358 -0.200768 0.352663 0.188699 0.217291 -0.0949258 0.234391 0.279204 -0.099706 -0.130831 -0.0325565 -0.00725022 0.000571105 0.0481269 0.110947 0.137263 0.252615 0.522411 0.506274 0.173628 0.0198759 0.209989 -0.158577 0.00848164 0.484057 0.236641 0.491328 0.116308 -0.230883 -0.0324135 -0.209292 0.318484 -0.129064 -0.147881 0.0743698 -0.0463355 -0.198216 -0.105603 -0.0205484 -0.00497578 0.000931802 0.0141895 0.115556 0.045549 0.0385421 0.303192 0.474089 0.199983 -0.087178 0.0893167 0.0706259 0.34696 0.220811 0.664445 0.519817 0.59428 0.534733 -0.165857 -0.279245 -0.0139798 -0.182418 -0.0876363 -0.135128 -0.24088 -0.233737 -0.11826 -0.0210178 0.00374523 0.00115703 0.0254851 0.0755214 0.0285039 -0.0303875 -0.0580132 0.0927218 0.0522673 -0.230682 -0.322723 -0.234785 -0.0935345 -0.0778815 0.162856 0.251097 0.620726 -0.0577714 -0.191255 -0.200872 -0.0979062 -0.0745428 -0.195287 -0.2506 -0.308196 -0.217672 -0.013431 -0.0142081 0.000686046 0.0006767 0.020764 0.0669795 -0.0491291 -0.111298 -0.160494 -0.0849376 -0.112669 -0.0845156 -0.490584 -0.559845 -0.456187 -0.141929 -0.24615 -0.475387 0.484019 0.336558 -0.0965184 0.115377 -0.368549 -0.302718 -0.336018 -0.180944 -0.163042 -0.0961772 0.124212 0.0304078 0.0110611 -4.07619e-06 0.00478493 0.0915525 -0.103466 -0.127806 -0.281775 -0.0311177 -0.114472 -0.192374 -0.328264 -0.332749 -0.018814 -0.377055 -0.378611 -0.489141 -0.168465 -0.00488104 0.176484 0.13871 -0.344052 -0.42106 -0.304595 -0.154707 0.097833 0.224137 0.200853 0.131476 0.0563989 -3.16245e-05 0.00129005 0.0278277 -0.117055 -0.120956 -0.312998 -0.29027 -0.223439 -0.288252 -0.336807 0.0531091 0.247866 0.0290032 -0.372269 -0.38255 -0.01326 -0.0746584 0.109794 0.333488 0.284074 -0.175001 -0.142212 -0.00496941 0.156495 0.0486879 0.109275 0.082884 0.00432314 8.97932e-06 0.000243188 -0.00105452 -0.0165383 -0.172188 -0.434272 -0.387341 -0.199496 -0.443218 -0.355999 0.0157166 0.234398 0.00868965 -0.339564 0.111948 0.205907 -0.177124 -0.0486061 0.291804 0.0155474 0.261372 0.301261 0.0672339 0.0106589 0.0690804 0.010974 0.0784946 0.00926083 0.000110481 -0.000120722 -0.00941989 -0.0534111 -0.208377 -0.562159 -0.383492 -0.0581333 -0.225501 -0.237346 -0.053874 -0.167509 -0.0609307 0.0131766 0.00875752 0.114621 0.0325156 -0.125093 0.0465476 0.221231 0.252474 0.221897 -0.0219096 0.112431 0.144608 -0.0501961 0.0632615 0.00494478 0 0.000103783 -0.0172923 -0.111385 -0.252363 -0.517483 -0.427845 -0.126346 -0.209309 0.00973535 -0.115278 0.0199876 0.0377029 -0.014936 0.163295 0.337819 -0.0450028 0.112679 0.141798 0.298493 0.299387 0.30364 0.233593 0.165147 0.0932647 0.0875532 0.0371327 0.00783357 0.0227059 8.6996e-06 -0.00693581 -0.0899441 -0.200123 -0.288731 -0.283859 0.0269986 -0.0159213 0.0272119 -0.189965 0.00655774 0.0947375 0.113053 0.146312 -0.0293277 -0.14581 0.17304 0.229865 -0.0506399 -0.115199 -0.133475 -0.00626046 -0.0662855 -0.0147728 0.00972563 0.0133594 0.00649633 5.3556e-06 0.0139443 0.0113316 -0.0830192 -0.0463742 -0.109937 -0.137095 0.00668326 0.226441 0.104677 0.0169227 0.0992966 0.00297846 -0.182002 0.0112862 0.0267912 -0.170099 -0.206695 -0.128286 -0.283672 -0.120839 -0.0683595 0.079591 -0.0341221 0.00667725 0.0233531 0.0027625 -0.000293816 0 -0.00507568 -0.0194583 -0.0632842 -0.150419 -0.229134 -0.259791 -0.0912408 0.0757977 0.168408 0.0305381 0.369227 0.297194 -0.136514 0.0413321 -0.0353713 -0.690308 -0.631286 -0.693167 -0.544085 -0.43755 -0.0779767 -0.0299467 -0.0173988 0.0562498 0.0373452 -0.00240881 -2.16984e-06 2.7471e-06 -0.000180914 -0.03083 -0.0766593 -0.0875556 -0.210509 -0.130871 -0.105348 -0.101798 -0.0955605 -0.103083 0.161199 0.283517 -0.14415 0.0347903 -0.259529 -0.291566 -0.465267 -0.489309 -0.491382 -0.536888 -0.34708 -0.231509 -0.0701301 0.120614 0.0627883 0.00821903 -1.90812e-06 2.66126e-06 -1.3131e-05 -0.0325331 -0.0617655 0.0378131 0.0573775 0.14361 0.0845831 -0.0182283 -0.0358714 0.151818 -0.133045 0.110085 -0.320396 0.143717 0.0292512 -0.0352428 -0.117759 -0.28307 -0.309107 -0.494616 -0.393182 -0.239658 -0.0523355 0.12408 0.0608017 0.0129942 -3.52269e-06 0 0 -0.0456386 -0.0553101 0.0419162 0.226729 0.361577 0.277195 -0.312937 -0.118669 -0.072732 -0.0348127 -0.275485 -0.0332533 0.198574 -0.227083 -0.0641833 -0.1598 -0.254805 -0.452292 -0.493669 -0.341718 -0.288945 -0.144625 0.0881833 0.044666 0.00616312 0 0 0 -0.0292532 -0.0219156 0.0559355 0.296644 0.254135 0.000189592 -0.188181 -0.349106 -0.287988 0.0236381 -0.274302 0.103898 0.0398849 -0.341325 -0.377683 0.0261244 -0.233833 -0.266823 -0.243884 -0.0949109 -0.175739 -0.155609 0.0062426 0.00473588 0.000316616 0 0 0 -0.00485196 0.00278831 0.129885 0.0268735 -0.153043 -0.00840277 0.016457 0.120293 -0.114123 0.132615 -0.00428978 -0.042912 -0.120538 0.211769 0.083909 -0.117347 -0.0909108 -0.0361833 -0.103325 -0.0176601 -0.0405346 -0.0379469 0.000211814 0.000367 0.000364397 0 0 0 0 -0.000212791 -0.161552 -0.131833 -0.092667 -0.0532256 -0.0130294 -0.00217017 0.147003 0.244254 -0.107958 -0.0298266 -0.0143662 -0.024628 -0.169979 -0.255694 0.0496564 0.0509266 -0.0314826 -0.0285469 0.0134184 0.00343562 -0.000116969 1.55445e-05 0 0 0 0 0 0 -8.32109e-06 0.0002302 0.000367884 0.000227198 0.00459042 0.0158438 0.0590352 -0.00506773 -0.00470183 0.0644762 0.0600346 -0.00449023 -0.00293658 0.0407722 0.0145724 0.0162748 -0.0142895 0.0174546 0.0420809 0.0163539 0 0 0 0 ^0 0 0 0 0 0 0 0 0 0 0 0 -3.5302e-05 -6.6316e-05 1.22222e-05 5.09257e-07 0 0 0 0 0 0 0 0 0 0 0 0 0 0 0 0 -8.16276e-07 -2.71035e-06 -3.10519e-05 -7.75726e-05 -0.000779182 -0.000854336 -0.00122994 -0.00193578 -0.00268713 -0.00144806 0.00816146 0.0174553 -0.00194708 -0.00171882 -0.000870488 -0.00119269 0.000770207 0.00360672 -0.000203487 -0.000119342 0 0 0 0 0 0 -1.66771e-07 -1.58266e-05 8.01403e-06 3.46117e-05 2.22798e-05 -0.000471726 -0.0010684 -0.00246488 -0.00290583 -0.00334525 -0.010359 -0.0194901 -0.015369 -0.00938199 -0.0183665 -0.0127641 -0.00971115 -0.00412255 -0.00427746 0.00782642 -0.00111935 -0.00091118 -0.000781206 -0.000401776 0 0 0 0 0.000935621 0.000229624 0.000742178 0.000435595 -0.000730266 -0.00238817 -0.00860692 -0.0240454 -0.0440202 -0.0707314 -0.0918915 -0.148114 -0.187711 -0.138294 -0.141998 -0.0850576 -0.059945 -0.031359 -0.0169998 0.0065576 -0.000810819 -0.0374616 -0.0450969 -0.00245207 -0.00327354 0 0 -1.25918e-06 0.00320506 0.000766068 0.0010221 0.000195701 -0.00204588 -0.000811409 -0.0301914 -0.0754745 -0.107048 -0.132238 -0.161756 -0.166887 -0.184503 -0.185316 -0.150292 -0.0787323 -0.0263877 0.0150631 0.0576089 0.0190623 -0.019465 0.00873679 -0.014671 -0.0351728 -0.0206223 -0.00313112 0 0 0.000529838 0.00216145 0.00296603 -0.00287338 -0.0109374 -0.0293029 -0.0949071 -0.143755 -0.192528 -0.212101 -0.232547 -0.220017 -0.226575 -0.23306 -0.244506 -0.171481 -0.0969172 -0.0388459 0.063527 0.0772924 0.0573039 0.0525815 -0.0367357 -0.0788719 -0.0138551 -0.00150658 0 -7.94199e-06 -0.00217277 0.00269734 0.00461628 -0.0129956 -0.0390892 -0.0739723 -0.122276 -0.172657 -0.198887 -0.198196 -0.238578 -0.259519 -0.209499 -0.276954 -0.165294 -0.0424968 0.0286392 -0.0380949 0.072097 0.0154737 0.0278341 0.0478186 -0.0488902 -0.0984077 -0.0232831 -0.0205918 1.97873e-06 -0.00144099 -0.00152521 0.00165202 -0.00117272 -0.0129337 -0.0492873 -0.0908779 -0.146909 -0.172254 -0.213779 -0.223706 -0.176843 -0.193377 -0.130515 -0.191319 -0.0844206 0.0185759 -0.0914773 -0.0524188 0.0606151 -0.00727864 -0.00388933 -0.0232652 -0.128517 -0.10532 -0.00750609 -0.0143171 -0.00104853 -0.00151208 0.00120611 0.00732306 0.00407541 -0.0140592 -0.0619743 -0.116383 -0.150695 -0.167665 -0.204714 -0.205526 -0.233869 -0.183483 -0.175405 -0.0995122 -0.121872 0.0300475 -0.0205344 -0.0117766 0.0383162 0.000891748 -0.0493255 -0.0861811 -0.0738291 -0.0299132 0.0145617 0.00048394 -1.98814e-05 -0.00351481 0.0024939 0.00892485 0.00512218 -0.0167082 -0.0666898 -0.107507 -0.168676 -0.171178 -0.138485 -0.16542 -0.243568 -0.229196 -0.134783 0.0382144 0.229689 0.185069 0.0533805 0.00723722 -0.0248741 -0.0023966 0.0137069 -0.0240289 0.0498655 0.00266493 0.0149166 0.00585137 -7.3615e-06 0.000774729 0.00686227 0.0106292 0.00449061 -0.012816 -0.0757253 -0.110862 -0.152248 -0.150016 -0.100234 -0.176284 -0.239491 -0.194854 -0.0162714 0.274345 0.303479 0.143348 0.132979 0.146973 0.125663 0.163011 0.105409 0.153222 0.219007 0.137326 0.0293219 -0.00104356 2.92943e-06 -0.000231834 0.010324 0.00531675 0.00780237 -0.00606279 -0.0752086 -0.116409 -0.10043 -0.102288 -0.134811 -0.212123 -0.218826 -0.0787237 0.188978 0.34372 0.118762 0.0754659 0.162497 0.0351763 0.0420897 0.101506 0.0620993 0.166111 0.220075 0.139562 0.0218912 0.000598981 1.79072e-05 0.000178447 0.00531613 -0.00152611 0.00735531 -0.0377727 -0.0751935 -0.0781148 -0.0656079 -0.0259112 -0.100478 -0.171561 -0.0718986 0.0349505 0.289396 0.107953 -0.0691809 -0.0395345 -0.135039 -0.197456 -0.180165 -0.149291 -0.137771 -0.0774953 -0.0214132 0.0380795 0.0228897 0.000623958 7.31071e-06 0.000153065 -0.00589567 0.00683752 -0.00196097 -0.0465639 -0.0817413 -0.0778247 -0.0272905 0.00375348 -0.0757516 -0.0640636 0.027283 0.148718 0.120141 -0.130683 -0.100705 -0.0969307 -0.266538 -0.270691 -0.251144 -0.171088 -0.165461 -0.139895 -0.0714534 -0.0103157 -0.0106561 -0.00369352 -1.05241e-05 0.000111317 0.000337512 0.0144618 -0.0102435 -0.0495265 -0.111552 -0.0888981 -0.0525244 0.019618 0.0388895 0.0697489 0.0700206 -0.0102614 -0.0367969 -0.123822 -0.0180764 -0.15625 -0.253216 -0.247381 -0.216656 -0.146009 -0.130263 -0.111225 -0.0508437 -0.0135712 -0.0185906 -0.000235964 -1.6665e-06 4.37658e-05 0.00493436 0.0125484 0.00117792 -0.0548143 -0.0442907 -0.0157697 -0.0218673 0.016138 -0.0233759 0.00614841 -0.00195124 -0.0113295 -0.126915 -0.1214 -0.0667509 -0.175128 -0.215198 -0.2681 -0.206018 -0.135211 -0.140315 -0.122171 -0.0658113 -0.0349379 -0.019746 -0.0066523 1.01682e-05 1.44043e-05 0.00104687 0.0162297 0.0107947 0.0548252 0.107594 -0.0260184 -0.0897363 -0.148464 -0.127988 -0.00718412 -0.0560502 -0.00530064 -0.0988907 -0.0615716 -0.0319468 -0.152767 -0.22069 -0.226005 -0.187141 -0.143778 -0.133345 -0.0843126 -0.0188858 -0.021954 -0.0127448 -0.00106207 0 0.000102372 -0.00385174 0.00416617 0.0189669 0.110348 0.13081 -0.0292959 -0.169605 -0.11364 0.0309333 0.0731276 0.0696343 0.00268964 -0.0286341 -0.150523 -0.143895 -0.22845 -0.271741 -0.224568 -0.185796 -0.126281 -0.0844514 -0.0651832 -0.0134369 0.00786684 -0.00766869 -0.00188571 -0.000715833 2.32754e-05 -0.00200482 -0.0102109 -0.0260865 0.0342031 -0.0339998 -0.076328 -0.0418683 0.0259442 0.175726 0.254697 0.200372 0.00232451 -0.165384 -0.205163 -0.289595 -0.234928 -0.215396 -0.156496 -0.138189 -0.104246 -0.0771103 -0.0403624 -0.0173379 0.02397 0.00247332 0.00176552 8.71674e-06 -0.00124891 -0.00291542 -0.0221261 -0.0549945 -0.0310517 -0.110695 -0.0505683 -0.00929513 0.151853 0.145589 0.265164 0.100352 -0.112083 -0.247883 -0.238292 -0.248668 -0.201021 -0.159908 -0.126362 -0.123192 -0.104367 -0.0571113 -0.0130452 0.0393871 0.0338726 0.00169009 0.00113917 0 -0.00331674 -0.00459154 -0.0292551 -0.0639804 -0.0376187 -0.0196944 -0.10461 -0.0162993 0.00742046 0.0858194 0.133204 -0.041825 -0.181014 -0.103334 -0.233341 -0.204102 -0.191781 -0.148735 -0.132116 -0.115501 -0.122132 -0.0589957 -0.00422201 0.0425445 0.016433 0.00197274 1.07871e-05 9.4412e-06 -8.3069e-05 -0.00297698 -0.0195884 -0.0151101 0.0732042 -0.06093 -0.0861674 -0.0195401 -0.0236478 0.0528889 -0.0865932 -0.163955 -0.155775 -0.140673 -0.220881 -0.26702 -0.2131 -0.146806 -0.153868 -0.118907 -0.093161 -0.0503337 0.00566878 0.0504574 -0.00070162 -0.00392941 -8.88276e-07 9.14616e-06 -1.18354e-05 -0.00245933 -0.00674794 0.0186922 0.106887 0.065825 -0.0843427 -0.0648983 0.0119349 -0.166925 -0.295347 -0.20396 -0.1482 -0.150768 -0.181077 -0.139439 -0.0957058 -0.0894853 -0.0950977 -0.0924779 -0.0636704 -0.0178626 0.00555978 0.00249531 -0.00164095 0.00149503 -1.63989e-06 0 0 -0.000467946 -0.0121706 0.00851592 0.0806631 0.059693 -0.0218854 0.0140455 -0.0412885 -0.124331 -0.164237 -0.0760155 -0.0909558 -0.165978 -0.0964294 -0.0751674 -0.0128058 -0.0480931 -0.0809981 -0.0707084 -0.0614108 -0.0234301 -0.00466717 -0.000916777 5.13068e-05 0.00706129 0 0 0 -4.79575e-05 -0.00641251 -0.0155582 0.003691 -0.0251997 -0.0784445 -0.0672906 -0.0188179 -0.149726 -0.168727 -0.121065 -0.0849305 -0.09171 -0.0885907 -0.0937696 -0.0238496 -0.0136579 -0.0248283 -0.0273639 -0.0150197 -0.00297219 0.00705038 -0.000519299 -0.000190165 -6.30909e-05 0 0 0 -8.63626e-06 0.000213228 0.00213306 0.00362151 -0.0316445 -0.0374394 0.0173751 0.0010239 -0.109569 -0.0952076 -0.0685576 -0.0702528 -0.0710945 -0.0714449 -0.0390789 -0.00617488 -0.00144121 0.00114262 0.00383649 0.00595554 0.00861434 0.00120755 -0.000213325 -9.44956e-05 -0.000121001 0 0 0 0 -2.04735e-05 0.00342397 0.00124356 -0.00457166 -0.00231372 0.000409868 0.00265012 -0.0191565 -0.0221768 -0.0274122 -0.0139639 -0.00863555 -0.00535464 -0.00626818 -0.00217578 0.00108229 0.00162723 0.000818564 0.000425909 -0.00077522 9.70616e-06 3.7702e-07 3.94941e-07 0 0 0 0 0 0 -4.73233e-05 -3.32345e-05 0.000280374 0.00137218 0.00170976 0.00151639 0.000733731 0.00169793 0.00373551 0.00327537 0.00289032 0.00436176 0.00400837 0.00295156 0.00390993 0.000471506 0.000532204 2.72179e-05 -0.00057993 -0.000124988 0 0 0 0 ^0 0 0 0 0 0 0 0 0 0 0 0 -5.81682e-05 0.000188504 0.000351506 1.46461e-05 0 0 0 0 0 0 0 0 0 0 0 0 0 0 0 0 -2.05866e-06 7.2513e-05 0.0155305 0.0307452 0.0325509 0.00489761 0.00708657 0.00527985 0.0155663 -0.00333421 -0.054548 -0.0131531 -0.00295154 -0.00183361 0.00192591 0.013832 0.0074062 -0.00101923 0.00490357 0.00612094 0 0 0 0 0 0 1.26911e-05 0.000875234 4.92561e-05 0.000143256 0.0189509 0.0465225 0.0539511 0.0192049 0.0265336 0.0394697 0.0423311 -0.0177152 -0.0237468 0.0177154 -0.0268607 -0.0774744 -0.0634527 -0.0438641 -0.0202822 -0.0153789 -0.00483363 0.00507578 0.0170978 0.0111224 0 0 0 0 7.1265e-05 0.00235946 -0.00744097 0.0226065 0.0510288 0.0848478 0.140194 0.0891213 0.017185 0.145339 0.194394 0.0529603 -0.00757944 -0.153251 -0.0392448 0.0847914 0.0180387 -0.108976 -0.0739356 -0.142358 -0.0494919 0.0136877 0.0295963 0.00114848 -0.00323791 0 0 8.09302e-07 0.000235313 0.00159839 -0.00371056 -0.0122721 -0.0240777 -0.0444815 0.0138448 -0.0273675 -0.0446047 -0.132171 -0.178323 -0.272701 -0.151038 -0.115501 -0.0312479 0.110028 -0.0339759 -0.157293 -0.112888 -0.224113 -0.0729478 -0.0922566 0.0081725 -0.00730665 0.000604346 0.00181729 0 0 0.000689211 0.00763908 0.0454291 0.028436 -0.0317945 -0.176449 -0.286454 -0.340479 -0.484734 -0.379958 -0.224572 -0.121511 -0.0244607 0.0750683 0.178125 0.277747 0.113429 0.138413 0.0940899 -0.0698619 -0.0298106 -0.048513 -0.0183204 -0.014583 -0.0034023 -0.000441604 0 0.000484635 -0.00308577 0.0108376 0.0873078 0.0315058 -0.142264 -0.303128 -0.283833 -0.15253 -0.225826 -0.299173 -0.225941 0.0295269 -0.137024 -0.220241 0.217558 0.480121 0.0595879 -0.0549269 0.144261 0.0501534 -0.128164 -0.0741936 -0.0898141 -0.0990585 -0.0246981 -6.3591e-05 -5.66585e-06 0.0105078 0.00169786 0.0168496 0.1894 0.0273983 -0.114915 -0.0358502 0.0980123 0.0536151 -0.160001 -0.184416 0.100922 -0.00148733 -0.43275 -0.230179 0.218894 0.232969 0.142871 0.116074 -0.038662 0.103936 0.0786669 -0.0902493 -0.179826 -0.158318 -0.0266575 1.94191e-05 0.00118458 -0.00547492 -0.0171803 0.0490045 0.238096 0.140041 -0.0222839 0.147427 0.0777029 -0.108773 -0.0132202 -0.10017 -0.0966791 -0.327487 -0.65714 -0.10825 0.186106 0.178193 0.143896 0.203337 -0.14875 0.140693 0.213829 -0.0865575 -0.232352 -0.173372 -0.0212172 0.0096284 6.59994e-06 -0.0106343 -0.00626162 0.0699316 0.210817 0.162144 0.0138998 0.0699893 -0.037933 -0.136461 -0.111543 -0.299603 -0.38329 -0.784685 -0.289499 0.259194 0.517075 0.161978 0.235848 0.0653851 -0.0352697 0.0486676 0.19785 -0.00295165 -0.0938686 -0.13206 -0.0231156 -0.00321348 -0.000186281 -0.00867308 -0.00645884 0.0374596 0.0170936 0.149984 0.0296783 -0.0266114 0.165402 0.086246 -0.0176225 -0.222026 -0.631068 -0.393298 0.458126 0.434901 0.396566 0.222177 0.20952 0.197631 0.106002 0.0311711 0.113187 0.233904 0.0405098 -0.105004 -0.0218997 -0.00169199 -0.000353529 0.00280675 0.0103828 0.0485159 0.0120679 0.0143077 -0.138779 -0.0327939 0.0611841 0.0587162 -0.0309343 -0.201813 -0.312336 0.112633 0.78119 0.414428 0.0511907 0.188054 0.477867 0.284421 0.272763 0.159875 0.0740787 0.127688 0.239793 0.0121967 -0.0107555 -0.000499917 -3.4808e-07 0.00806894 0.0167982 0.0351845 0.0426773 -0.0122217 -0.0799153 0.146798 -0.0182555 0.117196 -0.237702 -0.126116 -0.176852 0.139448 0.668081 0.135721 -0.129689 0.160828 0.270849 0.119216 0.192789 0.220352 -0.0698007 -0.0258043 0.253832 0.0624611 0.0294676 0.00558697 5.11368e-06 0.0038605 0.00948108 -0.0558483 -0.127257 -0.110574 0.0583125 0.277175 0.28837 -0.0477379 -0.327204 -0.181141 -0.133737 0.471476 0.593646 0.112439 -0.0455697 0.0709502 0.111891 -0.00849856 0.0331481 -0.0485615 -0.205882 -0.0982636 -0.0109314 0.0287676 0.0682767 0.0270593 -5.44691e-05 0.00672154 0.00874516 -0.128407 -0.183336 -0.100957 -8.02278e-05 0.137704 0.203506 -0.00555347 -0.091697 0.267252 0.312871 0.509736 0.467166 0.334073 0.23792 -0.063157 0.11799 0.0837427 -0.0731158 0.142732 -0.130948 -0.167632 -0.185832 0.08954 0.0797805 0.00254941 -1.19458e-05 0.0108813 0.00745175 -0.0609643 -0.175518 -0.0108644 -0.0534215 -0.0183529 -0.156938 -0.182695 -0.131198 0.103599 0.161141 0.574254 0.603236 0.472674 0.205462 -0.183245 -0.00805783 0.120227 0.0859531 -0.0635087 -0.0728011 -0.0716599 -0.0155552 0.165056 0.0754429 0.014232 3.36528e-05 0.00524604 0.0155581 -0.00506162 -0.156994 0.00730756 -0.0424326 -0.19055 -0.323439 0.0149293 0.23413 0.0668939 0.156193 0.595528 0.493205 0.106094 0.0591342 0.0023356 -0.145293 0.00707734 -0.0115229 -0.0322554 -0.0477572 0.107775 0.153971 0.180979 0.128572 0.0165998 0 0.00186103 0.0119487 -0.0384609 -0.106468 -0.0388881 -0.0773643 -0.024687 -0.00982559 -0.0480708 0.00819849 -0.166121 0.22934 0.740506 0.215598 -0.358361 -0.183841 -0.173526 -0.205612 -0.0324976 0.0495125 0.160881 -0.000653732 0.0656496 0.06748 0.173108 0.0869428 0.00650035 0.00121666 3.07453e-05 0.000820776 -0.00591697 -0.065011 -0.0375458 0.00605257 0.0834893 0.0582047 -0.042368 0.028517 0.263909 0.498265 0.676598 -0.142447 -0.445522 -0.254602 -0.090659 -0.251195 -0.0461002 -0.019817 -0.0950889 0.0182346 -0.0623659 -0.0655852 0.0528097 0.0249916 0.00839808 5.35493e-06 0.00367101 -0.0188905 0.041223 -0.152776 -0.0344209 -0.213342 -0.125007 -0.091808 0.216747 0.0465805 0.407473 0.579178 0.342649 -0.389886 -0.50978 -0.117486 -0.011183 -0.152639 0.0226833 -0.0215676 -0.154688 -0.0206388 -0.0459864 -0.0867871 0.053369 0.021165 0.00297487 0 0.000233742 -0.00900798 0.0701992 -0.0901701 -0.0700225 -0.0931785 -0.196874 -0.0574602 -0.0284331 0.168691 0.272442 0.120744 -0.258692 -0.474832 -0.37017 -0.197304 -0.0390076 -0.0946816 0.0370175 0.00731326 -0.0316578 -0.0405295 -0.0422216 -0.0931455 0.0606927 0.00721813 -4.73446e-06 5.18123e-06 0.00022123 0.0141729 0.0217924 -0.1001 -0.0268789 0.0772749 -0.0899623 -0.0376559 0.0854528 0.201694 0.012157 -0.0118259 -0.0688452 -0.426772 -0.312445 -0.0845515 0.0527702 -0.166167 -0.0209758 -0.247488 -0.13327 -0.0441207 -0.0728379 -0.0432805 0.0609649 0.00415391 -2.12927e-06 5.01932e-06 4.767e-06 0.0266982 0.0414188 -0.022166 -0.0550134 0.159717 0.151311 0.00103461 0.223987 0.381525 0.0592268 -0.0846353 -0.139117 -0.549295 -0.275362 -0.0843901 -0.107427 -0.267362 -0.213381 -0.00166749 -0.013144 -0.0458958 -0.0241265 0.00136227 0.0595414 0.0117658 -3.93097e-06 0 0 0.0190661 0.0420185 0.0945265 0.0738057 -0.0213894 0.167034 -0.048942 0.105046 0.242099 0.215537 0.0281773 -0.092921 -0.369522 -0.0718033 -0.181805 -0.128434 0.149997 0.0837324 0.161534 0.0927933 -0.0414556 0.0675305 0.0900792 0.048499 0.00768032 0 0 0 0.0044187 0.00206369 0.0717592 0.0639137 0.093043 0.157692 0.0358036 -0.0918615 -0.142048 -0.0391652 -0.14071 -0.11193 -0.153163 -0.126149 -0.111489 -0.0342968 0.0825209 0.1553 0.096291 0.106755 -0.0140571 -0.0382417 -0.0102733 0.0103836 -0.000475135 0 0 0 0.000772264 -0.00882389 0.0344808 0.0476174 0.0782889 0.157353 0.143647 0.129441 0.0823076 0.0122445 0.0326056 -0.062296 -0.0992342 -0.234866 -0.1808 -0.0120191 0.0385662 0.0890009 0.0207459 0.0124641 -0.0208264 -0.035459 -0.0168293 -0.000804942 -0.00051271 0 0 0 0 -8.31552e-05 -0.00167205 -0.0188977 -0.0338343 -0.0298083 -0.0234329 -0.0999731 -0.0459161 0.00461718 -0.0142106 -0.101742 -0.0715766 -0.0822901 -0.14369 -0.0785681 0.0307142 0.0194984 -0.027296 -0.00878481 0.00933215 0.00208962 0.000476223 1.91248e-06 0 0 0 0 0 0 -3.05787e-05 0.000110946 0.00028527 0.0011662 0.00362718 0.00547581 -0.00448112 -0.00938705 -0.00179167 0.0192697 0.0288252 -0.0156198 -0.0268805 -0.00378746 0.000791991 -0.00139376 -0.0340944 0.00384344 0.0133638 0.00364619 0 0 0 0 ^0 0 0 0 0 0 0 0 0 0 0 0 -3.3071e-05 -6.12273e-05 1.24487e-05 5.18697e-07 0 0 0 0 0 0 0 0 0 0 0 0 0 0 0 0 -8.84716e-07 -2.94271e-06 -3.46908e-05 -8.24095e-05 -0.000733353 -0.000818051 -0.00116103 -0.00285535 -0.00468853 -0.00231651 0.00683676 0.0157499 -0.00287382 -0.0019888 -0.000777961 -0.000928985 0.000992569 0.00368997 -0.000199987 -0.000115539 0 0 0 0 0 0 -2.25682e-07 -4.66671e-05 9.60231e-06 3.49084e-05 4.9489e-05 -0.000365701 -0.000533319 -0.00211273 -0.00586579 -0.00988807 -0.0161106 -0.0245235 -0.0222942 -0.0191544 -0.0232908 -0.0124237 -0.0142374 -0.0024579 -0.00350531 0.0120171 -0.00221956 8.55217e-05 0.000412468 0.000186621 0 0 0 0 0.00245009 0.000512657 0.000988741 0.000383561 -0.000862061 -0.00170147 -0.00654165 -0.0246834 -0.0450506 -0.0799272 -0.0978236 -0.165725 -0.226862 -0.184672 -0.171821 -0.0753815 -0.0430292 -0.0337197 -0.00646516 0.0186277 -0.000883971 -0.0545121 -0.070587 0.0048379 0.000954233 0 0 -1.34797e-06 0.00839789 0.00205351 0.00132186 0.00154432 -0.00035478 0.00620814 -0.0288251 -0.0859725 -0.112651 -0.131028 -0.186295 -0.17913 -0.195895 -0.210232 -0.150788 -0.0745872 -0.0613118 -0.0710393 -0.0186596 -0.0317992 -0.0398788 0.0168094 -0.0133109 -0.00996055 -0.00839219 -0.00215709 0 0 0.00122861 0.00170364 0.0031746 -0.00236011 -0.00787157 -0.0241368 -0.0888213 -0.142308 -0.186186 -0.231345 -0.239971 -0.193584 -0.170522 -0.194907 -0.196395 -0.140424 -0.122857 -0.0776835 0.0168783 -0.0250583 -0.0039987 0.0667369 -0.0208448 -0.0471937 -0.0020505 0.000352743 0 -1.35125e-05 -0.00185929 0.00170097 0.00675652 -0.0115817 -0.034538 -0.0729315 -0.117559 -0.166516 -0.203292 -0.2377 -0.223476 -0.1776 0.00199224 -0.116721 -0.157639 -0.0937748 -0.0716695 -0.0784042 -0.0267106 -0.113587 -0.0428979 0.0617064 -0.0271277 -0.0606891 0.0108969 -0.00332061 1.91845e-06 -0.00109496 -0.00309964 0.00453777 0.00389505 -0.00175296 -0.0382367 -0.100649 -0.149742 -0.201946 -0.269143 -0.237025 -0.0630602 -0.034287 0.0504423 -0.177804 -0.0998046 -0.0634389 -0.166895 -0.0820522 0.0462697 -0.014728 0.0307709 0.061046 -0.0555857 -0.0592304 0.0122807 -0.00407117 -0.00452344 -0.00130711 -0.000960197 0.00996452 0.0183674 0.00114199 -0.0447569 -0.10871 -0.149604 -0.176197 -0.236112 -0.183827 -0.167366 -0.0741205 -0.0894677 -0.156739 -0.166961 0.0174184 -0.0543037 -0.01976 0.124638 0.117417 0.0248859 -0.0108299 -0.00704842 0.0202319 0.0131334 -0.00023149 -2.01446e-05 -0.00214981 0.000417174 0.009082 0.0164826 0.00678067 -0.0524613 -0.10284 -0.180666 -0.159992 -0.081857 -0.0915917 -0.146815 -0.0110676 0.135886 0.114437 0.209271 0.135627 0.0172398 0.0716589 0.0865716 0.0582007 -0.0199092 -0.0470163 0.0674794 0.0104022 0.00749087 0.0107644 -7.51671e-06 0.000720842 0.00736674 0.0124652 0.0082509 0.00931859 -0.0682497 -0.105929 -0.160623 -0.14047 0.025174 -0.0350106 -0.130977 0.0654436 0.188957 0.269057 0.300658 0.118817 0.178253 0.218599 0.139199 0.0947921 0.053744 0.139158 0.247662 0.180452 0.0492408 0.000170362 4.02169e-07 -0.00170922 0.0133905 0.00616689 0.0164607 -0.0125007 -0.0831448 -0.116513 -0.0802384 -0.113221 0.00394511 -0.143303 -0.182814 0.112831 0.288363 0.260809 0.153068 0.164679 0.203788 0.0135674 -0.0411489 0.0675722 0.0772058 0.193825 0.259872 0.203951 0.0465035 0.00103274 1.83034e-05 8.47845e-05 0.0101068 -0.00359136 -0.00492975 -0.0747597 -0.101549 -0.0794649 -0.01272 0.0541289 0.0304382 -0.157668 -0.0180772 0.181062 0.35345 0.0947288 -0.00767875 0.00396355 -0.151863 -0.308952 -0.26632 -0.200974 -0.15979 -0.0952941 -0.0194446 0.0882293 0.0571815 0.00106415 6.78776e-06 0.000107695 -0.00664409 0.00352035 -0.0135019 -0.0745137 -0.0918782 -0.0513235 0.0495701 0.0723822 -0.0739687 -0.102277 0.0981368 0.226862 0.121405 -0.219939 -0.0894552 -0.0611217 -0.294707 -0.392609 -0.364307 -0.231412 -0.219614 -0.181592 -0.0854841 -0.0044159 -0.0180816 -0.010266 -9.14813e-06 0.000110231 -0.000307431 0.00911194 -0.0132541 -0.0670732 -0.112961 -0.0304139 -0.0150634 0.0719018 0.0480276 0.0858007 0.130859 -0.0662167 -0.0732582 -0.174446 0.0233551 -0.0956487 -0.307866 -0.328705 -0.280791 -0.192661 -0.181463 -0.158449 -0.0643178 -0.0082076 -0.0269204 -0.0004872 -1.522e-06 7.2283e-05 0.00246944 0.00612077 -0.015136 -0.072851 -0.015576 0.0064534 0.0607594 0.122497 0.0696718 0.115099 0.0778962 -0.016195 -0.105724 -0.0632209 0.0607432 -0.15259 -0.280889 -0.36715 -0.26519 -0.197856 -0.190117 -0.155348 -0.0821288 -0.0426666 -0.0308381 -0.0115661 8.41944e-06 3.07432e-05 -0.00158874 0.00395737 -0.0250607 0.0228351 0.0740912 -0.0637766 -0.0288228 -0.105319 -0.109203 0.0214184 -0.0849797 -0.00910409 -0.000196753 0.0588072 0.135077 -0.1371 -0.246559 -0.308381 -0.248059 -0.202934 -0.169654 -0.111365 -0.0284542 -0.0324874 -0.0194702 -0.00216837 0 0.000106374 -0.00575021 -0.0121337 -0.0252388 0.0624828 0.0420497 -0.119747 -0.18776 -0.052667 0.0676175 0.0788944 0.0420714 0.119941 0.138473 -0.0280676 -0.0428146 -0.222265 -0.353434 -0.319268 -0.245448 -0.157379 -0.0976534 -0.0864055 -0.0195404 0.00580388 -0.0108864 -0.00347546 -6.94823e-05 2.31414e-05 -0.00277097 -0.0286541 -0.0537039 -0.0186336 -0.12778 -0.123919 -0.122372 -0.0194398 0.0493241 0.201542 0.19798 0.168866 0.0290677 -0.105945 -0.26342 -0.325414 -0.2963 -0.200922 -0.160084 -0.132193 -0.0968348 -0.0652313 -0.0332752 0.022071 0.00237539 0.00218492 8.81051e-06 -0.00165751 -0.00228722 -0.0489757 -0.0913915 -0.0385939 -0.181885 -0.0883611 -0.0450585 0.0303881 -0.0323494 0.20341 0.232745 0.160752 0.00406627 -0.192275 -0.33387 -0.265259 -0.193229 -0.154111 -0.152422 -0.12488 -0.0763479 -0.0343057 0.0288918 0.0328142 0.00131357 0.00171115 0 -0.00468044 -0.00299972 -0.049355 -0.105821 -0.0470034 -0.0772168 -0.189077 -0.0286987 -0.0711739 0.000689162 0.231572 0.202126 0.0874587 0.101218 -0.244351 -0.284611 -0.243954 -0.149059 -0.133797 -0.117037 -0.126776 -0.0632264 -0.0171875 0.0330162 0.0118718 0.00194083 1.07318e-05 8.95571e-06 -8.55144e-05 -0.00163792 -0.030704 -0.0286235 0.0218063 -0.0832226 -0.146963 -0.0722815 -0.0121056 0.157447 0.106274 0.00696836 -0.00487853 -0.123729 -0.223049 -0.405648 -0.277376 -0.144007 -0.153628 -0.110526 -0.0759554 -0.0390192 0.00763655 0.0488461 -0.00399208 -0.00735541 -9.33673e-07 8.67585e-06 -1.20881e-05 -0.00221341 -0.00910529 0.026336 0.100546 0.0844761 -0.0946144 -0.0166153 0.0757148 0.0290349 -0.150961 -0.0465995 -0.183276 -0.17382 -0.18753 -0.174645 -0.117268 -0.0919196 -0.0915981 -0.0842349 -0.0425549 0.00896454 0.0269445 0.00357292 -0.00269006 0.00166017 -1.72371e-06 0 0 -0.000267005 -0.00587674 0.0483926 0.1269 0.0756688 -0.0290681 0.0581703 0.0591969 0.0156801 -0.0744514 -0.0521345 -0.15894 -0.171015 -0.078562 -0.0736702 0.00265698 -0.0296561 -0.0925567 -0.0805696 -0.0659975 -0.0152244 0.00463152 0.000540737 -0.00107464 0.00816039 0 0 0 4.6186e-06 -0.00232077 -0.00217234 0.0231798 -0.019989 -0.0612072 -0.0643728 -0.019292 -0.0499487 -0.124161 -0.187866 -0.159922 -0.0890016 -0.056284 -0.055929 0.0118567 -0.00115274 -0.0324459 -0.0432872 -0.027145 -0.00154384 0.0179021 0.000168041 -0.00082557 -0.000321252 0 0 0 -5.65228e-06 0.000311008 0.00440268 0.00724067 -0.0602098 -0.0593453 0.00258902 9.79703e-05 -0.0882998 -0.0916683 -0.146158 -0.153228 -0.0712781 -0.0767564 -0.0348331 0.0110206 0.00115575 0.0124977 0.00931554 0.0104326 0.018032 0.00390672 -0.00039982 -0.000319948 -0.000391417 0 0 0 0 -1.7686e-05 0.00710991 0.00686176 0.000653772 0.00548874 0.00270003 0.0164823 0.0104126 -0.00113636 -0.021491 0.00255014 0.0165258 0.00719498 -0.0125233 -0.00209542 0.00605857 0.00783225 0.0021325 0.000737095 -0.00130391 -2.1184e-05 4.31486e-07 2.58735e-07 0 0 0 0 0 0 -4.65805e-05 -2.83625e-05 0.000543525 0.00323754 0.00372062 0.00269102 0.0056006 0.00582875 0.00983253 0.006362 0.00336795 0.00602248 0.00502149 0.00353811 0.00610133 0.000480606 0.000657126 -1.21958e-05 -0.00101347 -0.000243011 0 0 0 0 ^0 0 0 0 0 0 0 0 0 0 0 0 -1.36471e-05 -1.97486e-05 1.12771e-05 4.6988e-07 0 0 0 0 0 0 0 0 0 0 0 0 0 0 0 0 -1.26599e-07 -3.25389e-05 0.00110276 0.00236323 0.00227852 0.00232045 0.0185143 0.00738245 0.000562199 -0.00492127 -0.0126699 0.00816106 0.0141065 0.024105 0.0244612 0.00775849 0.000510737 0.000236294 -7.82648e-07 -3.87445e-06 0 0 0 0 0 0 -8.36586e-07 -0.00527942 -0.00189088 0.000205972 0.0124784 0.0312572 0.0650831 0.0675102 0.0473784 0.00264397 -0.0593539 -0.121755 -0.0943444 0.0536977 0.111972 0.177104 0.189929 0.135198 0.0891246 0.0424704 0.00953674 0.00542864 0.00314099 -7.04716e-05 0 0 0 0 -4.53672e-06 -0.0126537 0.0173355 0.022955 0.0522899 0.044835 0.063997 0.11211 -0.0502692 -0.32568 -0.584724 -0.562822 -0.266405 0.103414 0.0561298 0.0669698 0.357063 0.385468 0.250759 0.310041 0.255747 0.12544 0.0486658 0.00130492 -0.000306903 0 0 -3.21179e-05 -0.000283325 -0.00170496 0.0183485 0.0257164 0.0227727 -0.0979981 -0.334925 -0.256572 -0.16926 -0.116499 -0.138781 -0.301214 -0.135667 -0.354887 -0.239117 -0.16989 -0.0138848 0.131559 0.307402 0.338816 0.362612 0.334264 0.134161 0.0178807 0.00153904 -0.000120717 0 0 0.000460466 -0.0234475 -0.0423573 -0.107252 -0.149545 -0.345917 -0.478639 -0.0759236 0.112739 0.0569895 0.00202096 -0.138364 0.0444822 -0.361044 -0.318932 -0.14375 -0.0966188 -0.165261 -0.129097 -0.0331581 0.0146832 0.191525 0.140263 0.0558981 0.0137143 0.00169609 0 -4.9596e-05 0.00302668 -0.105271 -0.145025 -0.1554 -0.247763 -0.253619 -0.0554429 0.124723 -0.102475 -0.2469 0.066363 -0.300515 -0.022357 0.402532 0.3462 0.0883459 0.237562 0.119778 -0.0552075 -0.415926 -0.0396899 0.188824 0.265932 0.150455 0.0405995 0.00558741 -5.83031e-06 -0.0181556 0.00655084 -0.124684 -0.207594 0.0782359 -0.224981 -0.191812 0.149492 -0.0331883 0.0124802 0.0425372 0.0283248 -0.183579 -0.0021785 0.375394 0.339585 -0.0681112 -0.103209 -0.0286241 0.315922 0.197381 0.199391 0.171143 0.362782 0.17896 0.0799161 0.00459523 -0.0014763 -0.0156464 0.0407487 -0.075002 -0.0988304 0.220329 0.188995 0.031351 -0.0448055 0.0102961 -0.00480903 0.324109 -0.140029 0.138533 -0.0800499 -0.20229 -0.0688272 -0.0926987 -0.10524 0.154272 -0.0600996 0.0846286 0.0263305 -0.121218 0.246449 0.231493 0.0925096 0.0149979 -0.000270189 -0.0148357 0.0345991 -0.05545 -0.0866485 0.177543 0.0574716 0.160179 0.101903 0.118441 0.228533 0.148393 0.0145157 0.0925411 -0.106891 -0.172687 -0.518061 -0.045954 0.138354 0.173183 0.222043 0.305785 0.267502 0.00472102 0.0171009 0.154777 0.0691746 0.00493877 -0.00027257 -0.00124942 -0.0327646 -0.0850408 0.0328683 0.0977464 -0.0125331 0.274603 0.134383 0.195645 0.089911 -0.00767595 0.355567 -0.324752 -0.493219 -0.204597 -0.295322 -0.331581 -0.258243 0.0545201 -0.225308 -0.176062 -0.106771 -0.248802 -0.119523 0.0886657 0.0289676 0.000672246 -6.21229e-06 -0.0149741 -0.11921 -0.184762 -0.196768 -0.00511861 0.0767723 -0.197182 -0.162562 0.167738 0.115754 -0.359994 -0.553325 -0.576743 -0.199626 0.317873 0.54287 0.0304247 -0.54605 -0.464779 -0.543612 -0.460006 -0.120892 -0.270352 -0.349195 -0.074701 0.00976661 0.0018957 8.49647e-07 -0.0123468 -0.0278366 -0.189986 -0.17477 -0.122917 0.129192 -0.27887 -0.250662 -0.164979 -0.518823 -0.393966 -0.441865 0.116331 0.368912 0.561606 0.362964 0.0794909 0.0879333 0.358251 -0.445686 -0.106766 -0.203251 -0.26195 -0.332477 -0.10904 -0.00633383 1.47341e-05 5.93898e-06 0.00407812 -0.0331929 -0.0964605 -0.0450158 -0.310893 -0.242717 -0.255653 -0.344134 -0.469221 -0.759291 -0.0380583 0.220327 0.607092 0.462303 0.706636 0.0564303 0.216964 0.246146 0.475814 0.0891794 -0.117005 -0.143196 -0.116904 -0.105807 -0.041256 -0.0053331 -0.00383574 0.00112681 -0.000991078 -0.0208539 0.0137368 0.103332 -0.333566 -0.0179833 -0.0677944 -0.388882 -0.103453 -0.172221 0.143585 0.177924 0.801967 0.717925 0.332898 0.275879 0.00943015 0.2104 0.0248727 0.254497 -0.0738564 -0.146319 -0.201318 -0.054936 -0.0332779 -0.0233516 0.000720772 0.000365196 -0.00816649 0.00113162 0.0330011 0.0291466 -0.27927 0.146403 0.0206287 0.144457 0.392951 0.0206708 0.235814 0.374893 0.860678 0.283185 0.225254 0.590513 -0.0027326 0.00709002 -0.191272 -0.0788647 0.135932 -0.122011 -0.084284 -0.146616 0.00608825 -0.0732345 -0.00363202 -2.14755e-05 -0.00395198 -0.00182742 0.0644379 0.0254942 0.0184902 0.493239 0.297287 0.178047 0.0416459 -0.0634527 0.509423 0.510995 0.383704 0.136256 0.308328 0.0544139 -0.35801 -0.134246 -0.183484 -0.374654 -0.096397 -0.0831573 -0.198925 -0.0596446 0.0845514 -0.0625701 -0.00850493 0 -0.00165859 0.0270292 0.0260744 0.235853 0.131203 0.326208 0.14672 0.350974 0.293259 0.271596 0.470175 0.498303 0.398754 0.430423 0.63896 0.0611792 -0.32071 -0.302066 -0.164078 -0.11973 -0.0479887 -0.049643 -0.189249 -0.0718637 0.00289269 -0.0253362 -0.0166164 -0.00352693 -0.000209021 0.00322462 0.0859263 0.221051 -0.167797 -0.0758645 0.195525 0.219348 0.22124 0.216258 0.102067 0.214028 0.141185 0.393689 0.546509 0.364404 -0.276635 -0.272155 -0.268968 -0.323981 -0.124533 -0.30781 -0.0647454 0.0241301 -0.0268307 -0.019653 -0.0136336 2.95817e-06 -0.0191224 -0.0259586 0.0184941 0.0173268 -0.0983737 -0.126118 -0.0539496 0.263658 0.264598 0.279571 0.0610753 -0.177768 0.0598529 0.304706 0.352479 0.232519 -0.235569 -0.123982 -0.424122 -0.202871 -0.08419 -0.0763241 0.100565 0.081516 0.0146109 -0.00589183 -0.000857475 0 -0.00155906 0.012588 -0.0065757 0.0981651 -0.142977 -0.418178 -0.00786848 0.168023 0.293422 -0.112627 -0.366009 -0.405172 -0.30184 -0.0653418 0.165169 0.0436265 0.0495919 0.151058 0.0591207 -0.104685 -0.207773 0.0596348 0.127173 0.127151 0.0515789 0.00286187 -2.42498e-05 2.66158e-06 0.000288349 0.0150975 0.0679209 0.205878 0.153382 -0.089055 -0.0113554 0.117989 0.149305 0.181579 0.150308 -0.119013 -0.166051 0.17594 0.222201 -0.0668212 0.0963949 0.183057 -0.0597755 -0.054932 0.142833 0.10453 -0.0272137 -0.0296789 0.0255973 -0.00409268 -1.13208e-05 2.57841e-06 6.70658e-06 0.00301788 0.00556277 0.166269 0.187174 0.062352 0.0524419 0.01841 -0.129129 0.055911 0.0953527 -0.196896 -0.496815 0.0651703 -0.0586027 0.345604 0.0212498 -0.104168 0.0061356 0.143138 0.124874 -0.044456 -0.113936 -0.00162111 0.0132702 -0.000305831 -2.09e-05 0 0 0.000307831 -0.0173014 0.0312829 0.161842 0.216775 -0.00797046 0.172083 -0.0301734 -0.418797 -0.417853 -0.217595 -0.27496 -0.143529 -0.0953704 0.114553 0.00185886 -0.161866 0.0776803 0.173817 0.112869 0.180473 0.0576573 -0.0413302 -0.0100077 -3.99777e-05 0 0 0 0.00207501 -0.00698752 -0.0638019 -0.0123529 -0.1083 -0.230854 -0.052143 0.162878 -0.118954 0.0941234 0.139524 -0.2933 -0.240438 0.0161126 0.016559 0.102723 0.192304 0.0999342 0.32707 0.0477154 0.212018 0.17008 0.00900351 -0.000376045 -9.96106e-06 0 0 0 0.000462332 0.00307093 -0.0486543 -0.067127 -0.0784585 -0.15036 0.0912799 0.34136 0.382769 0.101974 -0.108736 0.166375 0.098465 0.0215591 -0.0797266 0.325701 0.309753 0.113621 0.142821 -0.00794403 0.038984 0.0893201 0.00261856 -4.2861e-05 -1.14706e-05 0 0 0 0 -2.1732e-05 0.00383491 0.0276876 0.0500413 0.0464516 -0.0112559 0.117629 0.0732269 -0.0280578 -0.0205613 -0.071227 0.0332258 0.0519665 -0.11862 -0.0211334 -0.149789 -0.132885 0.00973585 -0.0752286 -0.0746152 -0.00274794 -0.000115312 -9.54767e-07 0 0 0 0 0 0 -7.15296e-05 -0.00020483 -0.00194978 -0.0107288 -0.0163897 -0.0157729 -0.0189042 0.00846814 0.00424497 -0.0219497 -0.0380622 0.019652 -0.00163731 -0.0219972 -0.00828883 -0.0176094 -0.00857882 -0.0718924 -0.106637 -0.0173055 0 0 0 0 ^0 0 0 0 0 0 0 0 0 0 0 0 -0.000279873 -0.000205619 0.000453142 1.88809e-05 0 0 0 0 0 0 0 0 0 0 0 0 0 0 0 0 -6.45851e-06 -1.89182e-05 -0.000423743 -0.0020228 -0.0109129 -0.00822582 -0.00737588 -0.0114232 -0.0109557 -0.0130126 0.000678775 0.0103449 0.0120897 -0.00127151 -0.00544619 -0.00385559 -0.00485311 -0.00398581 -0.00188804 -0.00195332 0 0 0 0 0 0 1.71773e-07 -3.35223e-06 -0.000253882 -1.97412e-05 -0.00366527 -0.0127761 -0.0309986 -0.0522124 -0.0945644 -0.13219 -0.120855 -0.0956617 -0.133618 -0.0842908 0.0523888 -0.0109608 -0.0438936 -0.0905554 -0.0516634 -0.0435743 -0.0273787 -0.00781375 0.00675632 0.00585082 0 0 0 0 0.0132369 0.00317561 -0.00832001 0.00185087 -0.000355789 0.0116633 -0.0269869 -0.0879962 -0.107169 -0.0647612 0.159055 0.0507941 -0.20249 -0.0831902 0.0293742 0.000178893 0.027801 0.0975525 0.110435 -0.03367 0.0149998 0.0888828 0.0435289 0.0117577 -0.00356248 0 0 1.02961e-05 0.0454866 0.0143872 -0.00176183 0.0245493 0.0772113 0.116499 0.104115 0.0637745 0.108032 0.34731 0.255276 0.0430223 0.285368 0.210648 0.164056 -0.0634309 0.102592 0.135719 0.13791 0.19611 0.149559 0.119817 0.0907042 0.028129 0.0116732 0.000643152 0 0 0.00650709 0.0167196 -0.00213851 0.0460537 0.120518 0.211275 0.12562 0.168015 0.0965542 0.479008 0.317278 0.221951 0.0186332 0.158336 0.312695 0.235879 0.339786 0.077888 0.208769 0.152957 0.223838 0.0693529 0.00415133 0.0378407 0.00071863 -0.00178187 0 0.000447028 0.00421673 0.0363241 0.0121107 0.0126134 0.216871 0.222825 0.277711 0.349778 0.442685 0.311083 0.251061 0.414884 0.158964 0.35616 0.410757 0.284446 0.500249 0.202449 0.0821583 0.233294 -0.0749213 0.00299054 0.14007 0.0480066 0.0100185 -0.000599544 4.03967e-06 0.0133768 0.00520626 0.0448563 0.0683625 0.0755635 0.282213 0.330446 0.324014 0.325059 0.220694 0.114815 0.465603 0.295427 -0.00940506 0.14181 -0.0752696 -0.0429592 -0.0363611 0.0800381 -4.81704e-05 -0.0339201 0.0456451 0.248176 0.224043 0.0449174 -0.04381 0.00800381 -0.000166466 0.00534603 -0.0110577 0.0556521 0.141779 0.227229 0.38182 0.306778 0.314484 0.31657 0.105906 0.493219 0.279782 -0.0853181 -0.0713146 -0.358689 -0.343689 -0.336329 -0.110416 -0.110544 -0.20648 -0.0606451 0.121223 0.0946119 0.196531 0.085199 0.0596249 0.0385701 0.000336785 0.00625073 0.00349995 0.0865308 0.228593 0.424909 0.449355 0.263426 0.30465 0.466574 0.131069 0.141033 -0.00932006 -0.16762 -0.046327 -0.352963 -0.392012 -0.303769 -0.179424 -0.430211 -0.355068 0.0228631 0.037778 0.0283553 -0.0775995 0.0805184 0.0560857 -0.0230997 0.000369823 0.000801997 0.0202136 0.0622304 0.279958 0.407072 0.307212 0.0470779 0.188623 0.213415 -0.00424965 -0.142059 -0.208587 -0.051363 0.345205 -0.038897 0.175248 -0.132435 -0.109154 -0.320411 -0.278772 0.0688118 0.105304 -0.290441 -0.397229 -0.137578 0.00388783 -0.01027 -6.22426e-05 0.00130095 0.0311076 0.0825404 0.319633 0.328932 0.126579 0.106837 0.0943406 -0.165874 -0.315187 -0.00328972 0.314135 0.240613 0.602626 0.443079 0.264221 0.291452 0.172949 0.00779913 0.0448199 0.01465 0.0978722 -0.237196 -0.16117 0.0542689 0.0297616 -0.000548067 -1.14235e-05 0.00597823 0.0321701 0.0976883 0.300422 0.140032 -0.0850978 -0.088306 -0.242036 -0.413726 -0.336823 -0.254625 -0.0914393 -0.247034 0.289242 0.322546 0.191716 0.183308 0.135893 0.284802 0.224541 0.328495 -0.0336486 -0.290196 -0.262594 -0.00402641 -0.0136137 0.00288507 4.51858e-06 0.00250234 0.036592 0.131747 0.236988 -0.158958 -0.300132 -0.378874 -0.529544 -0.43309 -0.519222 -0.447081 -0.40354 -0.177943 0.0631498 -0.141623 0.305341 0.19203 -0.032414 -0.0755979 0.211378 0.0268474 -0.162784 -0.278564 -0.417466 -0.131758 -0.0356759 0.00405479 -0.000641819 0.00141158 0.0156023 0.123648 0.1919 -0.256843 -0.252902 -0.413853 -0.517112 -0.500208 -0.449839 -0.325424 -0.409506 -0.077241 0.00905976 -0.119882 0.109116 -0.137927 -0.199562 -0.032257 -0.29573 -0.399885 -0.439241 -0.383345 -0.200386 -0.102623 0.0237071 -0.00021065 -0.000190771 3.48802e-05 0.014871 0.0791877 0.202912 -0.17596 -0.240921 -0.27402 -0.336959 -0.250419 -0.513079 -0.177552 -0.268423 -0.0547612 0.0325871 0.123937 0.182566 -0.493317 -0.0913326 0.0258486 -0.249204 -0.195621 -0.285775 -0.115077 -0.115657 -0.118958 0.022804 0.0073352 0.000110753 9.62954e-05 0.0190524 0.0965486 0.23033 -0.128576 -0.26139 -0.17316 -0.222261 -0.198858 -0.257892 -0.60414 -0.382295 -0.274443 0.271777 0.252045 -0.306502 -0.349112 0.120061 0.0197607 0.0152031 -0.0941709 -0.119796 0.151708 -0.109801 -0.0510507 0.0423819 0.0162686 0 0.000244353 0.00836992 0.107122 0.14359 -0.0916795 -0.0782481 -0.0330625 -0.333967 -0.0952256 -0.536518 -0.528004 -0.00257806 -0.123397 0.266357 0.211799 -0.196273 0.167376 0.0356916 -0.0883631 0.0479807 -0.0807154 -0.1723 0.168761 0.00205807 -0.00582282 0.0446514 0.00539892 0.00368906 6.3443e-05 0.00889737 0.0263773 -0.00271269 0.0962274 0.311263 0.183657 -0.345199 -0.385273 -0.303672 -0.332381 -0.492084 -0.282021 0.305205 -0.091677 -0.213211 0.0278962 0.0941886 0.119788 0.204064 -0.0486311 0.0473814 0.118434 0.0661187 0.0076859 0.0311706 0.0105993 4.45492e-06 0.0059835 0.0240967 -0.0191572 -0.00772013 0.109173 0.275572 0.302053 0.0132051 -0.0428237 0.0904954 -0.140456 -0.314884 0.0335426 0.194171 -0.109679 0.0182324 0.111525 0.0521463 -0.105923 0.0449344 -0.0434076 0.100819 0.195055 0.179384 0.0752684 0.0249653 0.00327072 0 0.000150283 0.00810482 0.099099 0.0181878 0.0936154 0.198494 0.256455 0.313419 0.0515169 0.359478 0.262799 0.107396 0.315731 -0.0175627 -0.0198519 -0.0297351 -0.177801 -0.0500374 0.00874383 0.122612 0.0363028 0.175043 0.262984 0.108517 0.0367356 0.00333866 -2.20329e-05 4.45908e-06 8.94585e-05 0.0115243 0.0938009 0.0947214 0.151766 0.18805 0.124128 0.0466725 0.194141 0.248997 -0.0513894 -0.0599791 -0.064972 -0.101782 -0.0207168 0.0696542 -0.217653 0.116045 0.229515 0.119674 0.202979 0.188024 0.218887 0.145821 0.0481342 -0.00994153 -5.88026e-06 4.31973e-06 -4.93381e-07 0.00493422 0.0396282 0.0645575 0.156444 0.273513 0.240121 0.220442 0.413019 0.0280787 0.111445 -0.215379 0.0148843 0.391846 0.164789 -0.295479 -0.0174009 0.193147 0.128741 0.182187 0.181534 0.174173 0.251392 0.156491 0.067942 0.0117089 -1.08559e-05 0 0 0.00167909 0.0209835 0.0151855 0.0361356 0.102707 0.0808511 0.171489 0.175141 0.169509 0.0630986 0.124963 0.126 0.399301 0.556248 0.499719 0.252052 0.157444 -0.01159 0.062013 0.0321429 0.0602597 0.140825 0.120881 0.035739 0.00499078 0 0 0 0.000120669 0.00628665 0.0245673 0.0310042 0.0924971 0.147117 0.347815 0.130922 0.157198 0.281433 0.0720184 -0.102026 0.201837 0.423193 0.18507 0.112656 0.0812265 0.0394987 0.11741 -0.0418478 -0.0333115 0.0376736 0.0237763 -0.00741155 -0.00256909 0 0 0 -0.000107295 -8.11056e-05 -0.0174917 0.00979128 0.112455 0.181675 0.284983 0.237435 0.254767 0.166136 0.0366661 -0.0463244 0.122165 0.213575 0.0311334 0.0346617 0.00661227 0.123663 0.0770874 -0.0397274 -0.0531167 0.00734119 0.00786379 -0.00268298 -0.0027496 0 0 0 0 -0.000134307 -0.00240224 -0.00448235 0.0108508 0.0382266 0.0786861 0.106085 0.117831 0.107855 0.0603359 0.0873916 0.203984 0.139926 0.109853 0.145975 0.183465 0.115031 0.0125658 -0.00726407 -0.0107535 0.00416976 0.00147723 3.7723e-06 0 0 0 0 0 0 -2.41306e-05 0.00025527 0.000765181 0.00388463 0.00858989 0.0112829 0.0185113 0.00742777 0.0141964 0.0361649 0.0509995 0.0124601 0.0140209 0.0200125 0.0241336 0.0156292 -0.00521575 -0.00207674 0.00525028 0.00228705 0 0 0 0 ^0 0 0 0 0 0 0 0 0 0 0 0 -0.000455042 -0.0015628 -0.000630308 -2.62628e-05 0 0 0 0 0 0 0 0 0 0 0 0 0 0 0 0 -1.15866e-05 -0.000245168 -0.0286982 -0.061822 -0.0829835 -0.0265903 -0.0438335 -0.0568796 -0.0979947 -0.0471254 -0.00371925 -0.0160532 -0.0342534 -0.0195895 -0.0185095 -0.0372864 -0.0226084 -0.0508286 -0.0826079 -0.0309118 0 0 0 0 0 0 -2.14317e-06 -0.00543471 -0.00210638 -0.000806029 -0.0311732 -0.0942206 -0.140743 -0.103492 -0.178051 -0.193177 -0.208537 -0.195396 -0.165687 -0.0992301 -0.0812735 -0.0702455 -0.0800608 -0.0874381 -0.0572235 -0.062844 -0.106069 -0.0611434 -0.00713508 -0.002009 0 0 0 0 0.000164172 -0.0162319 -0.0071879 -0.0128543 -0.103141 -0.195882 -0.315446 -0.2596 -0.189662 -0.180638 -0.419855 -0.58669 -0.537138 -0.495352 -0.303512 -0.0800558 0.0269541 -0.0252741 -0.0588147 0.0507673 0.0914306 -0.00946616 -0.0189143 -0.00198542 -0.00102201 0 0 -2.76296e-06 0.000587956 -0.0003946 0.0195836 0.0388486 -0.0940326 -0.218796 -0.293592 -0.441446 -0.491227 -0.348038 -0.569873 -0.801417 -0.885956 -0.671953 -0.321594 -0.309581 -0.155511 0.152066 0.143165 0.339305 0.229313 0.120002 0.0397748 -0.0579222 -0.038191 -0.00719571 0 0 -5.1044e-05 -0.00259005 0.0137031 0.179707 0.0892687 -0.140578 -0.129939 -0.265424 -0.347202 -0.0566319 0.0384887 -0.209753 -0.321917 0.0253715 -0.180612 -0.359264 -0.0452249 0.191041 0.0749118 0.007648 0.0394026 0.0283518 -0.0123958 -0.060888 -0.024295 -0.000746661 0 -0.000763772 -0.0374954 -0.0337237 -0.0249714 0.206047 0.118608 0.0185637 -0.100463 -0.160153 -0.0454771 -0.0390815 -0.190612 -0.226258 0.0813751 -0.11392 0.0948352 0.238065 0.152151 0.156105 0.10843 0.104903 -0.0946654 -0.176211 -0.186981 -0.0428745 -0.00697712 0.000305583 4.10471e-06 -0.0201622 -0.0246281 0.0539541 -0.027622 0.0688211 0.172184 0.00979313 -0.140745 -0.143227 -0.143864 -0.344387 -0.14395 0.0554803 0.117901 0.159711 0.221211 0.344892 0.284139 0.300792 0.295888 0.101798 -0.104874 0.0861175 -0.0559002 -0.0351869 0.05909 -0.00141766 -0.00261091 0.000849157 -0.0044529 0.0423496 0.109662 0.223977 0.342039 0.344159 0.460779 0.270622 -0.0631336 -0.124906 -0.120741 -0.227631 0.0625258 0.0801086 -0.0450213 0.109695 0.33348 0.126034 0.0560419 0.0239425 -0.0342923 0.208751 0.0617277 -0.00590826 -0.0255562 -0.0218418 8.6222e-05 0.00880775 0.0170257 0.0538196 0.0812228 0.395096 0.355151 0.277476 0.19757 0.199976 0.212165 0.158816 -0.229834 -0.115866 -0.113172 0.0406946 0.170075 0.261441 0.340479 0.0453563 0.0621429 0.0890261 0.197723 0.031864 -0.17876 -0.196298 -0.0689412 -0.0102754 0.000210609 0.0059998 0.0341642 0.0946847 0.0576982 0.285099 0.245362 0.0252923 -0.0649124 0.119184 -0.0463484 -0.158404 -0.258891 -0.368344 -0.0801753 0.256991 0.102625 0.0848766 0.355589 0.158037 -0.0218009 0.0877869 0.0768507 -0.0897086 -0.291005 -0.15685 -0.0671953 -0.00388754 0.000280902 0.00222573 0.036997 0.0273286 0.112222 0.228155 0.208071 -0.0243323 0.17153 0.0491948 0.0322012 -0.0103785 -0.326002 -0.622594 -0.0268174 0.2989 -0.0129536 0.384127 0.237757 -0.0755217 0.064332 -0.0932856 0.00850177 -0.289533 -0.384352 -0.163978 -0.0502363 -0.00303897 5.28313e-05 0.0036744 0.0323716 0.00354922 0.11115 0.173507 0.175484 0.0917165 0.0576321 0.0389121 0.093024 0.319304 -0.285638 -0.387173 -0.416393 -0.069892 0.152531 0.199803 0.227429 0.271 -0.0283819 -0.0207774 0.0641889 -0.265575 -0.42682 -0.0775555 -0.0206621 -0.00336748 -1.25074e-06 0.00235793 0.0313487 -0.0209725 0.231856 0.191002 0.219581 0.283566 0.000799589 0.133403 0.0642513 -0.0999569 -0.165781 -0.285626 -0.166791 0.0877854 0.335001 0.28013 0.0296678 0.0953254 0.230378 0.118748 0.0566102 -0.45532 -0.32425 0.0021596 0.0022835 -0.00201259 -0.00279256 0.000827036 0.00817815 0.0258381 0.204386 0.167018 0.241634 0.157181 0.169666 -0.02238 -0.0954591 -0.169009 0.00258564 -0.144989 -0.251026 -0.0242463 0.278762 0.26179 0.06899 0.248012 0.344312 0.00758758 0.075057 -0.28484 -0.247667 -0.0158303 -0.0500154 -0.000586329 -0.000901916 -0.00088866 0.00403927 0.0305919 0.0604016 0.0289721 0.156512 -0.0687569 0.123549 -0.0460052 0.0164294 -0.0627196 -0.186655 -0.339926 -0.0824812 0.321992 0.332094 0.314258 0.0345487 0.2025 0.30361 0.203308 0.197901 -0.235565 -0.315456 -0.164804 -0.0407655 -0.00317857 7.12074e-05 -0.000791415 -0.00192034 -0.0873519 0.0399518 -0.00676378 0.149714 0.121045 0.0663666 -0.449391 -0.294847 -0.212446 0.0898472 0.17065 0.126466 0.0629118 0.452884 0.378545 0.149873 0.0790042 0.333443 0.13732 0.00152792 -0.333009 -0.333483 -0.147912 -0.0929457 -0.00267977 0 -0.000119703 -0.0142602 -0.187297 -0.0442449 -0.0230429 -0.0639101 -0.020931 -0.298322 -0.424154 -0.434723 -0.428178 0.239144 0.234115 -0.133754 0.00270263 0.108648 0.0297183 0.178383 -0.148528 -0.0601836 -0.0682116 -0.0271011 -0.259067 -0.272215 -0.106435 -0.0584326 -0.00975398 0.00242142 -1.31946e-06 -0.0187159 -0.23922 -0.204983 -0.166416 -0.218579 -0.316152 -0.442121 -0.39031 -0.42085 -0.0234551 0.127004 0.180738 -0.119929 -0.170158 -0.043765 0.124006 0.114849 0.0800562 0.0785384 -0.136715 -0.408916 -0.553514 -0.220731 -0.0410262 -0.00269959 0.00796528 1.1805e-05 -0.00217038 -0.0137096 -0.1523 -0.271542 -0.263612 -0.454491 -0.449682 -0.25459 -0.25526 -0.289003 0.146655 0.314609 -0.00660202 -0.0428766 -0.265473 -0.0769678 -0.231322 -0.0904507 0.000488233 -0.131671 -0.351399 -0.542298 -0.54251 -0.0871959 -0.042461 -0.0219455 0.00389989 0 -0.00651461 -0.0430272 -0.23357 -0.392 -0.427114 -0.596124 -0.733488 -0.226304 -0.255872 -0.386316 -0.0719967 0.0504199 -0.0654504 -0.16482 -0.162796 0.158555 -0.142393 -0.310015 -0.0688887 -0.277039 -0.217047 -0.342661 -0.333317 -0.0230045 -0.0320689 -0.0164536 -8.33542e-06 8.28092e-06 -0.00216649 -0.0576509 -0.305309 -0.365705 -0.432508 -0.565191 -0.477637 -0.128378 -0.050895 -0.0882175 -0.142833 0.0930452 -0.188838 -0.18537 0.00549159 -0.00165225 -0.492649 -0.152911 -0.188991 -0.106706 0.0152492 -0.173763 -0.0524847 0.0979574 -0.00374668 -0.00879474 -2.79708e-06 8.02214e-06 -9.47555e-05 -0.06538 -0.245816 -0.32672 -0.422772 -0.282059 -0.0567119 0.157936 -0.0260908 -0.114403 -0.224338 0.14661 0.175076 0.227261 -0.06614 -0.164165 -0.406981 -0.0432192 -0.0145778 0.0353607 0.033788 -0.0646617 0.00273255 -0.00545557 -0.0118008 -0.00116556 -5.16384e-06 0 0 -0.0630161 -0.161062 -0.29785 -0.432108 -0.152497 0.00775303 -0.231976 -0.265883 -0.207957 -0.155385 0.216283 0.215017 0.132976 0.0455527 0.0503837 -0.0311991 0.186323 0.0485013 0.038111 0.202253 0.036053 0.0294358 -0.0605413 -0.0171897 -0.00270845 0 0 0 -0.0217309 -0.0599796 -0.0842146 0.0161217 0.0219879 -0.112545 -0.0788042 -0.0784683 0.286545 0.10826 -0.056525 0.0515466 -0.0591112 0.252523 0.0825417 0.175603 0.156153 0.131445 0.233939 0.247364 0.03465 0.0529526 -0.0491103 -0.00905019 -0.00164788 0 0 0 -0.00279234 0.00726406 0.056295 0.0503556 -0.015865 -0.0638899 -0.0244865 -0.0983547 -0.0835672 0.015309 -0.106093 -0.097947 0.101726 0.0338979 0.0504426 0.121479 0.0497245 -0.151708 0.0249744 0.00027666 -0.0892171 -0.055118 -0.0551217 -0.00123718 -0.00176409 0 0 0 0 0.000273248 0.00835678 0.0636178 0.157776 0.202249 0.253529 0.369538 0.245016 0.172691 0.124977 0.168969 0.391495 0.180626 -0.0506814 0.0608642 0.0539444 -0.0315093 0.0419198 0.0269589 0.0261102 0.00615034 0.00180831 1.39501e-05 0 0 0 0 0 0 -2.19721e-05 0.000119228 0.00199284 0.009192 0.00953793 0.00562631 0.011983 0.00634885 0.0274487 0.0316828 0.0537276 0.0403577 0.0289885 0.0256978 0.0505111 0.0194237 0.0191745 0.0142277 0.0148078 0.00325752 0 0 0 0 ^0 0 0 0 0 0 0 0 0 0 0 0 -0.000500438 -0.00154445 -0.000499277 -2.08032e-05 0 0 0 0 0 0 0 0 0 0 0 0 0 0 0 0 -1.64345e-05 -0.00012324 -0.0077309 -0.0152076 -0.0165594 -0.0111326 -0.0308464 -0.0278014 -0.0332028 -0.0205659 0.035579 0.0027794 -0.0385714 -0.0309857 -0.0237974 -0.0195332 -0.00906709 -0.000888535 -0.00541608 -0.00604937 0 0 0 0 0 0 2.7965e-07 -0.000103565 -0.000234106 -0.000335424 -0.0314524 -0.0591161 -0.0568981 -0.0572211 -0.134813 -0.170316 -0.138847 -0.0960872 -0.0658446 -0.118433 -0.144585 -0.158975 -0.194103 -0.0500004 -0.0352774 -0.0311637 -0.0186716 -0.012128 -0.00541592 -0.00202738 0 0 0 0 0.00187896 -0.000347584 -0.00154951 -0.00625333 -0.0447769 -0.0923656 -0.125595 -0.141218 -0.136754 -0.103644 -0.264226 -0.233314 -0.289537 -0.317543 -0.203538 -0.190945 -0.286048 -0.0886017 0.0721033 0.121696 0.032293 -0.0688585 -0.0730365 -0.0157899 -0.0242248 0 0 -1.09561e-06 0.0064213 0.00130856 0.0175629 0.0583901 -0.00890419 -0.0476048 -0.079863 -0.129673 -0.0118945 -0.174832 -0.413789 -0.403495 -0.349981 -0.208506 -0.0949238 -0.373411 -0.106995 0.197618 -0.000219207 -0.0565017 0.00231017 0.0547379 -0.13899 -0.223472 -0.102644 -0.0248022 0 0 0.000829678 -0.00136096 0.02076 0.114656 0.0341101 0.015486 0.243829 0.170644 -0.0294058 -0.305136 -0.311134 -0.195458 -0.126832 -0.04158 -0.149994 -0.278252 0.0521099 -0.359315 -0.295325 -0.168157 -0.200117 0.00635759 -0.0678294 -0.168122 -0.0573488 -0.0118781 0 -0.000752564 -0.0286411 0.00296333 0.0413166 0.165239 0.2812 0.202236 0.357663 0.394006 0.253679 -0.17438 -0.196327 -0.0583158 0.0428132 -0.255346 0.285587 0.268122 0.409221 -0.204329 -0.267053 0.123579 -0.0861062 -0.276637 -0.253961 0.0183679 0.0185354 -0.00211482 1.40535e-05 -0.0159485 -0.00133777 0.0939145 0.0049405 -0.109395 0.0971331 0.0691731 -0.0704016 0.337188 0.447622 -0.248179 0.0331129 0.0104578 -0.0420107 -0.217104 0.17997 0.381689 -0.323946 0.0289925 0.0719439 -0.13594 -0.104797 -0.0277647 -0.196575 0.0770398 0.159075 -0.00851806 -7.28035e-05 0.0113658 0.0215971 0.0105774 -0.110403 -0.184353 0.0401455 -0.153273 0.169995 0.367346 0.152012 0.0803992 -0.16324 -0.350716 -0.129521 -0.00537106 -0.0879901 0.198667 0.323874 -0.164461 -0.01199 -0.169502 -0.0324026 0.130438 -0.0783759 0.074621 0.0421483 -0.0322335 0.00012427 0.0194854 0.0309999 0.0161001 0.0646996 0.0113111 -0.116649 -0.316146 -0.0920562 0.00276168 0.0221865 0.153214 0.0817445 -0.0476948 -0.415177 -0.0595181 0.269368 0.20196 0.154216 -0.1484 -0.148494 -0.28959 -0.00857642 -0.153137 -0.369538 -0.374749 -0.0811117 -0.000769005 0.000335695 0.00969749 0.0416712 0.0415734 0.0404973 0.00334118 -0.109655 -0.418782 -0.261232 0.17556 -0.187059 -0.255666 -0.0377103 0.0195217 -0.677138 0.345869 0.0938397 0.353613 0.0231705 -0.0447439 -0.115852 -0.263767 -0.230984 -0.476257 -0.639965 -0.130241 -0.0653901 -0.00769497 0.000511699 0.00652623 0.0363171 -0.0122954 -0.129796 -0.130974 0.0404295 -0.0589322 -0.133195 0.02218 0.131167 0.126037 -0.0262205 -0.223286 0.0768091 0.719345 0.137343 0.819826 0.269101 0.0625668 0.255741 0.109744 -0.127897 -0.541918 -0.668545 -0.169245 -0.0784267 -0.00922292 0.000237322 0.00580415 0.0245307 -0.163596 -0.224752 -0.187941 0.0902567 0.146044 -0.0815128 0.0661628 0.212461 0.266403 -0.089353 0.0842045 -0.0277664 0.67461 0.516944 0.0800852 0.613889 0.154271 0.164289 0.266537 0.09424 -0.482681 -0.671887 -0.11851 -0.0433298 -0.0100499 -3.17144e-06 0.00121619 0.016121 -0.100409 0.0529606 -0.0302079 0.0191016 0.276709 0.0277634 -0.147778 0.283861 0.0897279 -0.0434247 -0.0516153 0.0115676 0.336106 0.261428 0.219201 0.401787 -0.0535862 -0.0447386 0.162393 -0.259893 -0.511055 -0.26808 -0.118004 -0.0371743 0.00123969 -0.000657135 0.000561575 0.00589853 -0.00543265 0.175696 0.179135 0.0346294 0.254142 0.00735544 0.0720464 0.321265 0.333423 0.197386 0.259992 0.10344 0.337504 0.0836266 0.59822 0.396208 0.499964 0.506368 0.146048 0.0963828 -0.231504 -0.248947 -0.104435 -0.0299239 -0.000316838 -0.000207495 -0.000105137 -0.00610154 0.0223766 0.265007 0.426257 0.128924 0.014368 0.0361011 0.00328024 -0.0471078 -0.0412375 -0.414206 -0.0398564 0.0490873 0.191186 0.0168648 0.632899 0.29102 0.582198 0.413724 0.200681 0.161727 -0.112297 -0.294961 -0.199349 -0.034831 -0.00179847 4.38453e-05 -0.000580287 -0.010077 -0.0330975 0.293588 0.306973 0.475667 0.529237 0.327753 -0.0771774 -0.191669 -0.110521 -0.207768 -0.0476226 -0.0742184 -0.0897792 0.059103 0.272958 0.22324 0.206492 0.0849119 0.0758459 -0.0556507 -0.105162 -0.291491 -0.291214 -0.105242 -0.00333597 0 4.94543e-05 -0.0257991 -0.0419955 0.228024 0.276821 0.498655 0.311611 -0.0605167 0.202475 0.367047 0.199759 0.0227929 0.0908705 0.1845 0.484415 0.469209 0.606156 -0.0700187 -0.29793 -0.174313 0.245645 -0.0376485 -0.0917102 -0.215854 -0.064418 -0.0693271 -0.00865029 0.00442705 1.15267e-05 -0.0224557 -0.0556638 0.23027 0.217407 -0.0208748 -0.124291 0.0283918 0.406851 0.431261 0.411569 0.184954 0.486432 0.328938 0.734988 0.497371 0.304443 -0.0111338 -0.18791 -0.0494383 0.110281 -0.0606472 -0.268796 -0.209697 0.0223956 -0.00470916 0.0188905 1.15504e-05 0.00047652 -0.0203436 -0.0607729 0.153506 0.110499 -0.306492 0.0133462 0.0368982 0.0117416 0.0182245 0.166092 0.378288 0.0988732 0.403519 -0.0382055 -0.147032 -0.448656 -0.320156 -0.242101 -0.247761 -0.203588 -0.412049 -0.510759 -0.124337 0.0101952 -0.00911301 0.0108986 0 -0.00398565 -0.0250624 -0.0703842 -0.026171 -0.137704 -0.308443 -0.427602 -0.286046 -0.286857 -0.214134 -0.403626 -0.357799 -0.399743 -0.419688 -0.735989 -0.229322 -0.25959 -0.221168 -0.167362 -0.451054 -0.384149 -0.499056 -0.340777 0.0401091 -0.00781592 -0.00540631 8.76477e-06 1.09576e-05 -0.00254879 -0.0283687 -0.0895029 -0.13688 -0.231258 -0.496968 -0.462954 -0.384435 -0.419529 -0.183009 -0.401119 -0.444991 -0.625317 -0.770281 -0.662391 -0.414692 -0.634924 -0.111939 -0.280012 -0.52489 -0.467923 -0.502789 -0.106148 0.13538 0.0100344 -0.0083753 -2.69361e-06 1.06152e-05 -0.000108333 -0.0598406 -0.119874 -0.121345 -0.074495 0.018507 -0.221566 -0.114329 -0.507228 -0.0404931 -0.521695 -0.602078 -0.511918 -0.204661 -0.272928 -0.365052 -0.252728 -0.0498046 -0.144857 -0.291144 -0.393481 -0.256893 -0.124072 -5.47641e-05 -0.0275202 0.000441601 -4.97283e-06 0 0 -0.0445277 -0.109791 -0.175345 -1.09274e-05 0.224453 0.0234607 -0.213676 -0.37086 0.0399952 -0.0355519 -0.183579 -0.289608 -0.308271 -0.652792 -0.554535 -0.299006 -0.175739 -0.198475 -0.279107 -0.0303764 -0.157954 -0.140682 -0.0355841 -0.0299529 0.0072583 0 0 0 -0.0142998 -0.0301792 0.0346169 0.315926 0.229447 -0.103391 -0.108841 -0.280706 -0.24078 -0.41532 -0.399121 -0.363923 -0.469403 -0.06033 -0.609752 -0.290318 -0.376115 -0.402664 0.0202212 0.0852062 -0.120172 -0.0241146 -0.0501804 -0.00685284 -0.00205568 0 0 0 -0.00213831 0.00214104 0.131649 0.161649 -0.111971 -0.18222 -0.00358664 -0.26366 -0.527444 -0.0972277 -0.227266 -0.226954 -0.184829 -0.229057 -0.387474 -0.282902 -0.196228 -0.288146 -0.0520662 0.0796385 0.017423 -0.0322907 -0.0410658 -9.75396e-05 -0.00219415 0 0 0 0 0.00031684 0.00419315 0.0490537 0.0729147 0.0633161 0.0750775 0.239853 0.221567 0.070451 -0.0557574 0.113626 0.319585 0.0147997 -0.0487827 0.0613376 0.0267123 0.0567857 0.124168 0.122082 0.0927566 0.0111134 0.000129686 1.44291e-05 0 0 0 0 0 0 -1.817e-05 0.000136924 0.0011818 0.00334176 0.00397101 0.00515494 0.0213316 0.00871191 0.018808 0.0377046 0.0738411 0.0224202 0.0275205 0.0326066 0.0549814 0.0240789 0.0238394 0.0323033 0.045314 0.0105495 0 0 0 0 ^0 0 0 0 0 0 0 0 0 0 0 0 -6.15787e-05 -0.000149612 -1.64426e-05 -6.8511e-07 0 0 0 0 0 0 0 0 0 0 0 0 0 0 0 0 -2.08101e-06 -2.97616e-05 -0.00412248 -0.00923292 -0.0221816 -0.00895416 -0.0311263 -0.0136215 -0.0180005 -0.00997062 -0.00208326 -0.00166084 -0.00220974 -0.00173898 -0.00206859 -0.0025776 -0.00181257 -0.000566298 -0.00246267 -0.00325498 0 0 0 0 0 0 -4.29966e-07 -0.000189344 -0.000130112 -9.61085e-05 -0.0148086 -0.0262 -0.0415999 -0.042263 -0.0814003 -0.0831956 -0.0796818 -0.0625199 -0.0577963 -0.0539885 -0.0281653 -0.00955146 -0.0109116 -0.0133073 -0.00816346 -0.00527603 -0.00451769 -0.00395197 -0.00136284 -3.36864e-05 0 0 0 0 4.79897e-05 -0.000504508 -0.00397984 -0.00421703 -0.0364606 -0.0639928 -0.125336 -0.1456 -0.173961 -0.169708 -0.170805 -0.201281 -0.132619 -0.0767703 -0.0228442 0.00183724 -0.0431529 -0.0555399 -0.022211 -0.00363214 -0.00494614 -0.00516661 -0.00274704 -0.000131162 -3.63695e-05 0 0 -1.19576e-06 0.000170081 0.000392294 -0.00888721 -0.0371128 -0.0927865 -0.149974 -0.193441 -0.321241 -0.340987 -0.295257 -0.281063 -0.285811 -0.243431 -0.183726 -0.0752456 -0.0501069 -0.0228773 -0.0542434 -0.0278133 0.00612601 0.0185215 0.0170158 -0.000891618 -0.00113172 -0.000158714 -4.12007e-05 0 0 7.28325e-05 0.00147239 -0.0229807 -0.0532747 -0.174025 -0.237373 -0.290242 -0.333115 -0.460311 -0.372441 -0.379012 -0.278801 -0.167964 -0.114878 -0.199373 -0.177722 -0.110159 -0.369782 -0.299021 -0.0918125 -0.0335554 -0.0046381 -0.0159912 -0.0103159 -0.00561784 -0.000194337 0 5.35361e-07 0.0037226 0.0881552 