-0.0282754 -0.0329399 -0.0374035 -0.0157844 0.0341204 -0.00115686 0.000367157 0.0328485 -0.0715755 0.00644375 -0.000145267 0.0117366 -0.0150601 -0.00860461 -0.0863708 0.000527165 0.0156318 -0.00842063 -0.0844832 0.0706852 0.0273975 0.0265164 -0.00356106 0.00311604 0.0117928 0.0335227 0.0321896 0.0337337 -0.0270787 -0.0373028 0.00696347 -0.0781582 0.0399611 0.0105237 0.0408759 -0.0105164 -0.0207258 -0.0565141 -0.0709014 0.0824847 -0.0303332 -0.020067 0.00852821 -0.0411593 -0.00514175 0.116692 0.0344323 0.00481067 0.0377892 0.0137934 -0.015688 -0.0185819 -0.0244604 0.0142107 -0.00900718 -0.0163435 -0.0196658 -0.0343934 0.0112179 0.0285497 0.016061 -0.0309675 -0.0534285 -0.0543245 -0.0422046 3.94088e-05 0.0404243 0.0103368 0.0192916 0.00397254 -0.0408973 0.00668381 -0.00159416 0.00906381 0.00722531 -0.0395473 -0.00274388 -0.0597174 0.0198872 -0.00155071 -0.00913097 -0.0113731 0.0374181 -0.0523198 0.0124739 -0.030785 0.0432642 0.0173635 -0.00548149 -0.0586502 -0.0452084 -0.0168285 -0.0390917 -0.0078731 -0.00394583 0.0215688 -0.00652008 -0.0217799 -0.0205998 -0.013806 -0.00793066 0.0529072 -0.0229254 -0.0729124 -0.0416286 0.0222643 0.0219897 0.00965422 0.0211966 -0.0146765 0.0244084 -0.117773 0.0434124 0.0137243 -0.00846682 0.0573763 0.0049746 0.0169188 0.0452432 -0.00835793 0.0403352 0.0379293 -0.0157198 0.028235 0.0417869 0.106845 -0.00584787 -0.0307895 0.0369173 0.00810716 0.0602109 -0.0151647 0.0145013 0.0245574 0.0228152 0.0331222 0.00236525 0.0361122 -0.0262636 -0.00221553 -0.00340714 0.0657655 0.0440568 0.0405822 -0.0400272 0.0049237 0.00922817 -0.000636279 -0.00926907 -0.0508775 0.00708684 -0.0692653 -0.00379941 0.0377625 0.0513776 -0.00319086 -0.041495 -0.0185791 0.0500956 0.0556695 0.0274107 0.0326207 -0.0280168 -0.0622101 0.0411341 0.0414847 0.0179422 -0.0157136 0.0301287 0.0191492 0.0229301 0.046728 -0.023158 -0.0230292 -0.00656195 -0.0253978 -0.0515951 -0.0233511 -0.0370646 0.0378813 0.0275096 0.0270463 -0.0560005 -0.0179763 0.0278927 -0.017091 -0.0077209 -0.0345074 -0.0411534 0.0142961 -0.0111836 0.0117473 -0.0120401 -0.00812184 0.0212956 -0.0443315 0.0349537 0.023245 0.0376998 0.0292879 0.0406732 0.0518667 0.00560578 -0.0201544 -0.0234989 -0.0356556 -0.0206282 0.0165913 0.00964016 0.0607272 0.0801014 0.0502242 0.0469164 -0.0331762 -0.00310133 -0.00399716 0.0427744 -0.000337869 0.00938159 0.0476711 -0.0307623 0.0403087 0.00312827 -0.0398116 0.0281767 -0.0605088 -0.0963428 0.0252999 -0.0259807 -0.0481686 -0.0368102 -0.074537 -0.0817515 -0.0142968 -0.0095315 -0.00272919 -0.0439122 -0.0216164 0.0464032 0.0449564 0.0660222 0.00716682 0.00876279 0.00572435 0.0273452 -0.000687436 -0.0146088 -0.0694931 0.0755525 0.00807218 0.0583568 -0.054217 -0.0424605 0.0462479 0.0525994 0.0962249 0.0305138 -0.0471256 0.0307875 0.00535936 0.0259958 -0.01265 -0.0106785 0.0711474 0.0215505 -0.0262647 -0.0166883 0.0645885 0.0567717 0.0209899 0.0375526 -0.026107 -0.0271633 0.00143017 0.0260977 0.0292799 -0.00457709 -0.000543592 0.0201405 0.0923574 0.00268673 -0.0264322 -0.046819 -0.0181118 0.0552055 -0.0490464 0.0466702 0.0366214 -0.0600581 0.0151442 -0.0124615 0.0444503 -0.0379572 0.0414775 0.0562422 0.00602366 -0.0313549 0.0411068 0.00278009 -0.0195384 0.0490898 -0.0976452 -0.0405583 -0.00592263 0.0291264 -0.0185313 0.0245528 0.0617321 -0.0408191 0.0438052 -0.00710476 -0.0842655 0.0566724 0.0184643 0.015225 0.072236 0.046346 -0.0520366 -0.03055 0.0126636 0.0229749 0.00366114 0.0378677 -0.0134745 -0.0138091 -0.0512863 0.0329608 -0.0243184 -0.0137241 0.0679128 0.0313402 -0.0429146 -0.0083281 -0.011169 0.00432241 -0.035495 -0.0481727 0.0702951 0.00871342 -0.0193564 0.0387537 -0.0138232 0.0573184 0.00113197 0.0482989 -0.0191859 0.0631771 0.00244009 0.0447151 0.0422219 -0.0241369 -0.0224867 0.0732619 0.0331584 -0.0497747 0.0530048 -0.0231698 -0.0248758 -0.0350281 0.0170749 -0.0242146 0.017568 0.00480759 -0.013415 0.0841007 -0.0109912 0.0562634 0.0237467 -0.0239204 0.000409671 0.0336577 -0.0956983 0.0178181 0.00244 -0.0685026 -0.0109498 0.0603314 -0.0105744 -0.0158424 -0.0131877 0.0249382 -0.000680394 -0.0393665 0.00672982 -0.0323931 0.00314193 -0.013213 0.0379313 -0.0641894 -0.0283718 0.021484 0.0597422 0.0128355 0.0184838 0.0180397 0.0304123 0.0228108 -0.00510118 -0.0567946 0.0472545 -0.0744922 0.0728091 -0.0474199 -0.0161066 -0.00207585 -0.024815 -0.0615125 -0.00404659 -0.0016536 -0.00422698 0.00895698 0.0531791 0.0324492 0.0157115 0.0302718 -0.0344121 -0.0249988 -0.0511138 -0.00283022 -0.0295016 0.0252707 -0.0228557 -0.00567945 -7.24675e-05 0.0308798 -0.0429317 -0.0445738 -0.00858594 0.0166528 -0.0375313 -0.0028626 -0.0153266 0.00683768 -0.0628887 0.0176307 0.0178601 -0.0269249 0.0481829 0.0223426 0.0448833 0.0179029 -0.0189941 0.00242471 -0.0249916 0.0385785 0.0370337 -0.0614735 -0.00138558 -0.0301507 0.0524448 -0.0223002 -0.0249387 -0.0428534 -0.0894307 -0.0165951 -0.000114229 -0.0153609 0.00396826 0.022083 0.0556575 -0.0157992 0.0385785 0.0112767 -0.0508921 -0.0643682 -0.0453646 -0.0264683 -0.0135273 0.0290352 -0.000305851 0.03501 0.0211575 0.083207 0.0473533 -0.0127278 0.011873 -0.0040428 -0.0118637 -0.0151494 0.000627445 0.0401436 0.00750491 0.0738515 0.00859325 0.0337585 0.0401925 -0.0400094 0.0486033 0.0479194 -0.061669 0.0412088 0.0318085 -0.0103042 0.011474 0.0292137 0.00802809 -0.00210273 0.0279552 0.0470002 0.00146352 0.00669188 0.0267152 0.00550203 0.0636496 -0.0445609 -0.00120851 0.0021212 0.0135932 0.0088396 -0.0620145 0.038107 0.0455025 0.00558892 -0.0305452 0.0587308 0.0391531 0.101033 -0.00436575 -0.0457921 0.0779467 0.0043095 -0.0392404 0.00427183 -0.0207517 -0.00161657 0.00023295 -0.0142624 -0.00942675 0.0339417 -0.0761953 0.0593942 0.0519383 -0.0921337 0.0909554 0.0476201 0.0363213 -0.0128591 -0.0911416 0.0667169 -0.00514751 -0.0612452 0.0116355 -0.0524833 0.0282278 0.0122902 0.0693192 0.0652421 -0.0511691 0.0382123 0.0230666 -0.0522959 0.00842753 0.029546 -0.043302 0.025589 -0.0150972 -0.0378059 0.000721412 0.0599948 -0.0247479 -0.0337967 -0.00547183 -0.0118353 0.00789886 -0.0700061 -0.0261719 0.0370697 -0.0276144 -0.0434208 -0.0409669 0.00605641 -0.0201254 -0.0483284 0.00074272 0.00276018 0.044177 0.0459617 -0.0143479 -0.00703745 -0.00766839 -0.0797253 -0.020649 -0.00629944 0.0349497 0.0634031 -0.0367066 -0.0132937 -0.00579379 -0.0221351 0.0181575 -0.0162589 0.00252761 0.00374683 0.0504375 -0.014677 0.0254183 0.00990533 0.038315 0.0455639 -0.0124832 0.0286154 0.00503831 0.0654964 -0.0572806 0.0225697 0.0156671 -0.0349326 -0.0176939 0.0323676 0.0352334 0.0239301 0.0132306 -0.0254546 -0.008732 -0.0102075 -0.0415893 0.0101668 -0.0234872 0.0469157 0.00938883 0.0113019 0.015941 0.0287315 0.0103006 -0.000327811 0.0392242 -0.00757571 -0.0283131 0.057781 -0.0307678 0.0012396 -0.037254 -0.0317642 0.0310138 0.0127687 -0.00120864 0.0531133 0.0376164 -0.00858368 0.026128 0.0123417 0.0150318 -0.0268563 -0.00447898 -0.131823 -0.0111938 -0.000755242 -0.108727 0.00608145 0.00342486 -0.0281543 -0.0156042 -0.00186924 0.0150377 -0.0136104 0.0196242 -0.00663793 -0.00842729 0.0341643 -0.0625284 0.0759029 -0.0492316 -0.069014 -0.0350581 0.0505446 -0.0587526 -0.0403338 -0.00807011 -0.0284603 0.0579915 0.0112764 0.012326 -0.0188517 0.043982 -0.000400198 -0.00971864 0.0493302 0.0468438 0.0411764 0.0201638 -0.0529597 -0.0451417 -0.0556818 -0.0364562 -0.0270939 0.0176991 0.037449 -0.042165 -0.0141271 0.0310055 0.0114944 -0.0372415 0.0120699 -0.0845934 -0.0449981 -0.0296875 0.0295982 -0.0185366 0.0114473 -0.0319399 -0.00207155 -0.0222837 -0.0376428 -0.0134737 0.0273343 0.0421466 -0.0621422 0.0180929 -0.0617831 -0.0287396 0.0651914 0.00492553 -0.0157272 0.0219681 -0.0785154 -0.0209677 0.0116763 -0.0484873 -0.00971659 0.0433253 -0.0176896 0.0292427 -0.0174396 -0.0390655 0.0050045 0.0242889 -0.0221225 -0.0784257 0.019175 0.005515 -0.0203744 -0.00427023 0.0760495 -0.0437161 0.0209822 0.0143548 0.0349107 0.0173685 0.0646551 0.0332112 0.00112922 0.0186105 0.0350512 -0.0343959 0.0416699 0.0113228 0.0169638 0.0352884 0.029486 0.0474768 0.0174849 -0.0754157 -0.044681 0.0415372 -0.00594548 0.038088 -0.0077954 0.0145891 0.0419335 -0.0104707 -0.0031234 0.0086471 0.0898202 0.0654076 -0.0425274 0.0269882 0.00486586 0.0221956 -0.0127647 -0.0188544 -0.00562087 0.00726867 0.0112344 -0.0112209 0.0586144 0.0486982 0.0169419 0.0334283 0.03474 -0.0101465 -0.0274877 0.0119669 -0.0270898 0.0767367 ^-0.0164291 0.00261141 0.0336983 -0.0141033 0.0524128 -0.0419375 -0.0236444 0.00410677 -0.0309261 0.0342867 -0.0455628 -0.00807907 0.098313 -0.0181316 -0.00547543 0.0330817 -0.035763 0.0227215 -0.0630421 -0.00506419 -0.00112887 0.0222 -0.0135424 0.0171158 0.0352014 0.0678004 0.000268062 0.0469423 0.00250063 0.0770542 -0.0368775 0.0025565 0.0101298 0.0241727 -0.0270217 -0.0530489 0.0407938 -0.0133685 -0.0179276 -0.0122347 0.0303183 0.0467479 0.015831 -0.0135572 -0.017942 -0.0402703 0.0257537 0.0328568 0.0311677 0.0640372 -0.0353456 -0.0153434 -0.0300245 -0.0188654 0.0246974 -0.0398244 0.0331147 -0.00815936 -0.0650667 0.0326511 0.0635933 -0.0199914 0.0162205 0.0185727 -0.0166891 0.0267638 -0.0266348 -0.0189825 -0.0280128 0.00226858 0.0520052 -0.0141467 -0.011619 -0.0506637 -0.0107372 -0.0181436 0.0520872 -0.00318358 -0.02922 -0.0247678 -0.0287625 -0.0524152 0.0213803 0.0484353 -0.066972 0.0353599 0.00790469 -0.010477 -0.0177181 0.0113987 0.0105662 0.0269874 -0.0421635 -0.0552589 -0.0233263 -0.0393867 -0.0174646 0.047259 0.0273935 0.0191017 0.0172933 -0.00580822 -0.0495498 -0.0461941 0.00493738 -0.0282374 0.0196811 0.0157944 0.0481467 -0.00101647 -0.0317358 0.070094 -0.0473938 -0.0464017 0.0150274 -0.00783263 0.0490546 0.0253049 0.0160386 -0.0198265 0.0229864 -0.0506605 -0.0154458 0.0301692 -0.0338355 0.0105866 -0.0331978 -0.0107726 -0.0199245 -0.0124277 0.0238055 -0.0268976 -0.00229057 -0.0271861 0.021947 -0.0357836 -0.00840209 0.0077571 -0.0218486 0.0241477 0.0563072 -0.0572105 -0.0160486 0.00558184 -0.0155522 -0.0028577 0.0138924 0.0298186 -0.0175909 0.0231013 0.0243334 0.0583423 -0.0237332 -0.0237867 0.0266188 -0.00279843 0.00276077 -0.0130851 0.0371614 -0.0107847 0.0179978 0.0463564 0.0400074 -0.0534437 0.0455261 0.0484213 0.030209 0.0712539 -0.0323144 -0.0104844 -0.0395344 -0.00554953 0.0408513 0.0822941 0.0362643 -0.00124386 -0.00738704 -0.0232336 -0.00928476 -0.0192878 0.0215145 0.0230549 -0.00287617 0.0469936 0.0529727 0.0395474 -0.00188616 0.0502291 -0.0128082 -0.0439776 -0.00130382 0.027737 0.0123853 -0.0836608 0.010916 -0.00742619 0.0679514 -0.0149158 -0.0233073 -0.0567665 -0.0337791 -0.0214222 -0.0208866 0.0302197 -0.0227667 0.058882 0.027667 0.0355982 0.0712719 0.0433768 -0.0481216 0.0480944 -0.0278912 -0.111936 -0.0668009 0.0146242 -0.0558612 -0.0502505 0.0566304 -0.00832136 -0.0279516 0.0456932 -0.0208365 0.0205657 0.0344431 0.0810231 -0.027599 -0.0229206 0.017646 0.0964895 0.0230158 0.0524714 -0.039054 0.00906563 0.00581841 -0.0303984 0.0202357 -0.0505132 0.0484836 -0.0372989 -0.00880802 0.0328576 0.0197513 -0.0191584 -0.0334359 0.0624682 0.0505846 0.0763153 0.0869661 -0.00428835 0.00665518 0.0247036 -0.0544874 0.0420326 -0.0463614 0.0675595 0.0588211 0.0178371 -0.0512467 -0.0473908 -0.0239411 -0.00451406 -0.0562184 0.06602 -0.00732111 -0.0223327 0.0255726 0.0682315 0.00660929 0.0423411 -0.0313679 0.00147987 0.00371456 0.0094528 -0.024586 0.014505 -0.0248556 -0.00130974 0.029278 -0.00383922 0.0397576 -0.00670041 0.000232806 0.00207321 0.0201674 -0.0371209 0.00484458 0.00293313 -0.0408494 -0.00178471 -0.0109633 -0.0211349 0.00624692 0.0156167 -0.0619434 -0.00772371 -0.0811559 -0.0446425 -0.00651016 0.016313 0.0519672 -0.0199438 0.0209714 0.0366627 0.0340956 0.040998 -0.0325931 -0.0182964 0.0185788 0.0083051 -0.0151706 -0.0152109 0.0213166 -0.0374491 0.00826148 0.0745285 -0.0104906 -0.0672723 -0.0182922 -0.00599689 -0.00259562 0.0400886 0.0161896 -0.0318643 -0.0366086 0.0251642 0.0354394 -0.0679485 0.00602843 0.0320713 -0.000880986 -0.0459085 0.0466705 0.0790049 0.0582765 -0.00649578 -0.0352058 -0.0180215 -0.0847485 0.00924253 0.0349538 -0.00359366 -0.0159443 0.0252341 0.0287566 0.0216052 0.0644317 -0.0185925 0.027441 -0.085733 -0.0299648 0.00446009 0.0520878 -0.0123616 -0.0278077 -0.0357899 0.0227643 -0.0238437 0.0550593 0.0454827 -0.0322641 -0.0161781 -0.00672918 -0.0474404 -0.0442805 0.00435309 -0.00554344 0.026022 0.0103157 0.00182859 -0.0133875 -0.0293063 -0.0341695 -0.0448832 -0.0134453 -0.0293289 0.057203 -0.0433799 -0.0135117 0.00697283 -0.0166926 -0.00353294 -0.0177709 0.111785 -0.033485 -0.0291781 0.0701247 -0.0260485 0.00941683 -0.00366981 -0.0362171 -0.0163164 -0.0236897 0.0241705 -0.00962233 -0.0156076 -0.0552656 -0.0129818 0.0152594 -0.0607179 0.0259607 0.0719705 0.0165989 0.0118606 0.0187625 0.024238 -0.0225046 -0.0457292 0.0420241 -0.025716 0.0723666 -0.0315785 -0.0318632 -0.0018154 0.0108359 -0.00828155 0.0277091 0.000231548 -0.0108285 0.0206405 0.00840096 0.00228211 0.0450431 0.00601534 -0.0828625 0.0127722 0.0188677 -0.0481824 0.0067409 0.0367529 0.0051103 0.00104726 0.0303969 0.0384792 0.00356922 -0.0588115 0.0439625 0.0342147 0.00881932 0.0146586 -0.0191012 0.031663 0.0323821 -0.000923613 -0.028031 0.0569276 0.00856645 -0.0513514 -0.0495649 -0.0266239 -0.0214246 0.0248888 -0.0453166 0.0443907 -0.0963056 0.0471576 0.059949 0.0396024 0.0296491 -0.0755515 0.0264494 0.0295015 -0.0768347 -0.0362391 0.0334197 -0.0323867 0.0260337 -0.0379702 -0.0544261 -0.0221183 -0.0454565 -0.036122 0.00862711 0.00353123 0.00871641 0.00602679 -0.00432644 -0.0214416 0.0156143 -0.0177287 0.000799529 -0.00270014 -0.0268526 0.00418175 -0.0730356 0.0381846 -0.0842923 -0.0124484 0.050109 -0.0719362 0.0079391 0.0153423 -0.00126232 0.0049817 -0.0246287 -0.0513275 0.0168082 0.0578808 -0.0592308 0.014432 0.0400634 -0.01887 -0.0287523 -0.0218465 0.0640587 -0.0369902 -0.028058 0.00197229 -0.081524 -0.0197437 0.000365976 -0.0322776 -0.0104446 -0.0137351 -0.068565 -0.0277227 -0.0267974 -0.0684498 0.0262999 -0.0580538 -0.036321 0.00982314 -0.000598737 0.150886 -0.0122425 0.00859964 -0.0199452 -0.017527 -0.0546573 -0.0500951 -0.0260612 -0.0183143 -0.0150947 0.0211386 0.00622764 0.0084415 0.0146799 -0.0621915 0.00555506 0.0660277 -0.0767019 -0.00527818 -0.00733812 0.0402126 0.0047881 0.0213708 0.0490663 0.016986 -0.0144301 0.000178319 -0.0354369 0.00671694 0.0172402 0.00339828 -0.0365976 0.0231383 0.044114 0.00851338 -0.0367454 -0.0392446 -0.0633508 0.0317284 -0.0301495 0.00160034 0.0212306 0.0362251 -0.0458489 0.0165367 -0.0153993 -0.013177 -0.0287747 -0.020084 0.0158209 0.0134602 -0.0136605 -0.0191029 0.00801242 0.0609616 0.0378857 -0.00869994 0.0359397 -0.0596365 0.0256476 0.0377452 0.0140483 0.0375083 -0.0190864 0.0495707 -0.0589049 0.0628164 -0.00371866 0.0505452 0.0340652 0.0210961 -0.0633482 0.0174628 -0.0244266 0.0919882 -0.00282835 0.0355551 -0.00538485 -0.056078 0.00893809 -0.0266016 0.045147 0.047066 0.0300196 0.0462988 -0.0245015 0.0294003 0.0357404 -0.0318208 -0.00875551 -0.0667077 -0.0104217 0.0163765 0.0288569 0.0396045 -0.0714329 -0.0873478 0.00123387 -0.0522042 -0.0225113 -0.0518973 0.0278377 0.0285255 -0.00579737 0.0573841 0.0697645 -0.0349675 0.0501613 0.0317925 -0.0159287 0.030021 -0.0200466 0.0200092 0.0100171 -0.0121976 0.0418827 -0.00916789 0.0185915 0.00558075 0.0225752 -0.0035255 -0.0179737 0.0436912 0.0244397 -0.018817 0.00717813 0.00639888 0.0596834 0.0035969 -0.0146443 -0.0458403 -0.00765594 -0.0259213 0.0450173 -0.010873 -0.00845509 0.0477858 0.0230085 0.0308996 -0.0817086 -0.039785 0.0605513 0.0541391 -0.0335643 0.0114297 0.010996 0.0244806 -0.0407755 -0.0265989 0.0683851 -0.0183655 -0.0232151 -0.0158126 0.0277309 0.0572445 -0.0168634 0.00793555 -0.00782771 0.0117528 0.0267181 -0.0288782 0.0373012 0.0336367 -0.0188048 -0.0204868 -0.0255114 0.0260245 -0.0566777 -0.0195584 0.0333938 0.0175716 0.00504117 -0.0182714 -0.0242753 0.0767941 0.0114886 -0.0199175 -0.00177802 -0.00984199 -0.0336678 0.00323236 -0.032217 0.0704386 0.04024 -0.0517055 0.0281214 -0.0771768 -0.0011741 0.00188067 -0.00368221 -0.0472134 -0.0156891 0.0353545 0.0361653 -0.0127091 -0.0244604 0.0322886 0.0208535 0.0322196 -0.0444232 -0.0121766 0.0508595 0.0895179 0.0467465 -0.0309231 -0.0144196 -0.0197474 0.0184187 0.0172334 0.0359671 -0.00966931 -0.0165399 0.00372826 -0.00271985 0.0586114 -0.0266425 0.0186649 -0.0127421 0.0262621 -0.0311051 0.0162385 0.018849 -0.00950872 0.0023405 -0.0115157 -0.0502058 0.0118689 0.00268785 -0.0153547 -0.0357852 0.014695 -0.00689204 -0.0154594 -0.0680429 0.0384807 0.0325985 -0.0270639 -0.0524911 -0.0334949 0.00998557 -0.00310096 0.0531653 0.0328677 -0.0344968 -0.0152959 0.0982644 0.0240668 0.0386306 0.0401444 -0.00649625 0.0489111 -0.0256777 0.0179421 0.0482849 -0.00938061 0.00377875 0.0257754 0.067581 0.0599053 0.000996122 -0.0357782 ^-0.0428623 -0.09433 0.0810539 0.0428064 0.016364 -0.0254942 -0.0758808 0.0124774 -0.0158259 0.00297488 0.0070148 0.0111376 -0.092816 0.00813925 -0.0441868 -0.00481722 -0.0321623 0.0188854 0.0265341 0.0201792 -0.0348618 -0.0440124 0.0356486 0.016551 -0.0562297 -0.0726117 -0.0238014 -0.00370116 0.0552493 -0.0447426 -0.0523394 0.00323817 0.0313645 0.039499 -0.081636 0.00818179 -0.0380758 0.000238437 0.0453681 -0.0122187 0.00146054 -0.0168789 0.0121446 -0.0199851 0.0283122 0.0752051 0.0669701 0.00349315 0.0643972 0.0035253 -0.0051402 0.019483 -0.0407848 0.0168189 -0.068975 -0.00396432 0.0405191 0.0378083 -0.00119061 0.0427151 -0.0187131 0.0175322 -0.0549791 -0.0103528 0.000926808 -0.0153132 -0.0129667 0.0300952 0.0704455 -0.0164795 0.0140135 -0.0441911 0.0389844 -0.0171164 -0.021616 -0.00366647 -0.00146008 0.00144386 -0.0165451 0.00975008 0.0175745 0.0204904 -0.00758251 0.00165455 0.0765328 0.0284773 -0.0636477 0.0273355 0.038584 0.0186201 0.0321689 0.0320053 -0.0275202 0.014046 -0.0283956 0.039739 0.0353895 0.00692608 0.0192372 -0.0447617 0.0181705 -0.0112626 -0.00750538 -0.0263442 0.0461653 0.0142899 0.0572553 -0.0425948 0.00195856 0.0101572 -0.00321903 0.00880979 -0.0143096 0.0208795 -0.0438404 -0.00350383 0.0140741 0.0243125 -0.0206786 0.0193253 -0.0352699 0.0216455 -0.0460318 0.0465549 -0.0313618 -0.0386333 0.0273631 -0.0388002 0.0360734 -0.0447162 -0.039851 -0.0135551 -0.0301945 0.0317036 -0.0150667 0.00133062 -0.00474196 -0.0647943 0.0337929 0.00763275 0.0310926 -0.0129933 -0.0376263 -0.0257963 0.0480375 0.00161402 0.00856879 -0.0527589 -0.0171515 -0.0162123 0.0298881 0.012942 -0.0609332 0.00301689 -0.00869532 -0.0281875 0.0249133 -0.0288145 -0.0417889 -0.0215851 0.0241211 -0.060185 -0.0545504 -0.0426749 -0.0142711 0.0254324 -0.00856715 0.0200488 0.0284353 0.0432542 0.0517335 0.00283521 -0.0211804 0.0343728 -0.0631696 0.0289875 -0.0332915 0.0238827 0.0262862 -0.0939146 0.0220571 -0.063977 0.00691675 0.0109843 0.0834998 0.0207617 -0.0358501 0.022574 -0.0254711 -0.0165641 0.0286246 -0.00260496 -0.0103655 -0.0374181 -0.00890272 0.0109477 0.0263601 0.0224041 0.00633605 0.00723774 0.0272721 -0.0652468 -0.0263994 0.00824697 -0.00266131 0.00682403 0.0588436 -0.0139039 0.0468452 -0.039831 0.132489 0.0765249 -0.0543584 -0.00527627 -0.0329157 -0.0740388 -0.041502 0.000887265 0.00813241 0.0719662 0.00755741 0.0296521 0.0530502 -0.0217149 0.0146205 -0.00377799 0.0228608 0.0222511 -0.0195054 0.0468253 -0.0317363 -0.0115968 -0.00984945 -0.00438946 0.0419921 0.0411677 0.0117132 -0.0236622 0.0103805 0.0304616 -0.0185301 0.011142 -0.0205369 -0.0440811 -0.0249535 -0.0245091 -0.021418 -0.0133877 0.00516751 -0.0146263 0.0654226 0.0331024 -0.0756292 0.0179219 -0.00194846 0.0423498 -0.0342181 0.00973001 -0.034408 -0.00378439 -0.0324076 -0.0057448 -0.0264424 0.071041 -0.0354559 0.0354745 0.0968113 -0.029982 -0.0166629 0.0258719 -0.0144745 -0.00997101 0.0499456 0.0632123 -0.0309663 -9.11334e-05 -0.00194957 -0.00699553 0.0250729 -0.00504236 -0.0319236 -0.0293514 0.04657 -0.0142538 0.00968794 -0.037471 0.0466221 0.0162065 0.0104898 0.0764945 0.0238031 0.0431319 -0.0703833 0.0384985 -0.021927 0.0264481 0.0109323 -0.0321655 0.0674265 0.0276794 -0.0479895 0.0272913 -0.0128791 0.0115736 -0.0186024 -0.00483196 0.0159647 -0.0181815 -0.046077 -0.0323384 -0.016043 0.0200023 0.00124269 -0.038243 -0.0298453 -0.0343859 -0.0169497 -0.00640918 -0.035732 0.00775847 0.0153495 0.0258002 -0.0329847 -0.0214214 -0.0295745 0.0219604 0.0278998 -0.0286062 -0.0159209 -0.0209657 0.00478128 0.00378207 -0.0315532 -0.0507343 -0.0509684 -0.00363543 0.0446379 0.0388977 -0.0108547 0.0158712 -0.0303505 0.0218027 -0.0156139 0.00908097 0.0292927 0.00965639 -0.0433744 -0.0331171 -0.0413759 0.00979377 0.0199383 -0.0313364 0.0228632 0.0120683 -0.00294423 -0.0424263 -0.0353144 0.00244819 -0.0745234 2.57018e-05 -0.05407 -0.0479198 0.0502333 0.0286887 -0.0965451 0.00671393 0.0581076 -0.0399501 0.0796595 0.0253504 -0.0161715 -0.0788788 -0.022823 0.0369629 0.00162788 0.00888349 0.0322521 0.0722458 -0.00434107 0.0258677 0.0699668 -0.00130941 -0.0152692 0.011626 0.0596641 0.0351936 0.00820825 0.00107864 0.0163496 0.0520683 -0.0118487 -0.0680685 -0.00326101 0.0175511 -0.0149915 -0.0180005 0.0382465 -0.0139103 -0.0418743 0.0171344 0.0499872 0.0170064 0.00429912 -0.0181526 -0.014007 0.054421 -0.0599527 -0.0183302 0.0254702 -0.00259143 0.0101849 -0.0631079 -0.0335656 0.0153013 0.00210928 0.0141106 -0.000338083 0.0335545 0.00434826 -0.0428935 -0.00581395 0.013173 -0.0322856 -0.0503771 0.0707769 -0.0228652 0.079252 -0.0448855 0.00561218 0.0288106 -0.077602 0.00839468 0.0193533 0.0744385 -0.01285 0.00341866 0.00990809 0.0252866 0.0439934 0.0546467 0.0101423 -0.016716 -0.0432865 0.00446304 0.0496632 -0.0252776 0.0469616 0.042252 0.011823 -0.0189755 0.0242629 0.00564127 -0.0659546 0.0396277 -0.0185287 0.0317287 0.00927951 0.0362635 0.00388345 -0.0178161 0.0098422 -0.000571516 0.00181753 0.00624825 0.0732248 -0.0459349 -0.00322649 0.0248632 -0.0438617 0.0229955 -0.0525134 -0.0213757 -0.0505181 -0.00512382 0.0543587 -0.0448259 0.00140244 0.00785509 -0.0148538 -0.0542592 -0.035807 0.0256262 -0.0371604 0.00110628 -0.0336112 0.0289609 -0.0203204 -0.010932 0.0690983 0.0288035 0.0408198 0.0407881 -0.0190988 0.0353145 -0.00843297 -0.0109056 0.0317766 -0.048984 -0.0622494 0.0378354 -0.00448998 0.0154148 -0.0420261 -0.000857932 0.00566071 -0.0624438 0.0381152 0.00826671 0.00770791 -0.00166017 0.0101763 -0.00204223 0.016058 -0.004598 -0.00693136 -0.0270673 -0.00926789 0.00512622 -0.0563432 -0.0254345 0.0278158 -0.0525368 0.0469291 0.00643125 -0.0308979 0.0160156 0.033763 0.0524203 0.0243104 -0.0518354 0.000919605 -0.0156622 -0.00424373 0.0146594 0.00304128 0.0263501 0.0200155 0.0590489 -0.0454162 -0.00353497 0.0217146 -0.0182571 0.0676724 0.0790885 0.0613886 0.00119507 0.00572975 0.0233227 0.0230597 0.0255667 0.0397297 -0.00861672 0.0517875 -0.0266361 -0.0469145 0.0428935 -0.0434453 -0.0257602 0.00940638 -0.0109897 -0.026489 -0.0102174 -0.0560517 0.00485799 -0.0510676 0.00403725 0.0164705 0.00345173 0.12513 0.0153087 -0.0414496 -0.0449224 -0.0367113 -0.0263831 -0.0261624 0.0846711 0.00632117 0.0130101 -0.00275186 0.0496095 -0.0251301 0.0182902 0.0232307 0.00607121 -0.0402834 -0.0145043 -0.0336356 -0.035449 0.013234 -0.0640676 0.00911683 -0.0309119 -0.0147149 -0.0120623 0.0147897 -0.0357601 -0.0725997 0.0374381 -0.0336851 0.086133 0.0466283 0.0402356 -0.0207545 -0.00812283 0.0178954 0.00844465 -0.0317309 0.0128106 -0.0309932 0.0125694 0.00358022 -0.0130415 -0.00525235 0.00215727 -0.050025 0.0188726 -0.0165545 0.0152711 -0.0143121 -0.00661083 -0.00175275 -0.0436448 0.0218431 0.037386 -0.0374017 0.00408097 0.0380124 0.00905268 -0.0460385 -0.00548421 -0.051193 -0.000177951 -0.0148735 0.0261182 0.0366622 -0.0447561 -0.0218909 -0.0238834 -0.0213701 -0.00956765 0.0222293 -0.0349824 -0.0607695 -0.00116725 0.0237456 0.00103141 -0.0113825 -0.0204025 -0.0484038 0.0110383 0.0125774 0.0391496 0.0504275 0.0516906 -0.00606858 -0.00153262 0.0266391 -0.00891237 0.0421697 -0.0954121 -0.0104473 0.0928096 -0.0242982 -0.0174784 0.00614893 0.0384656 0.0703144 0.00245686 0.0541893 0.0340918 -0.011176 -0.0449911 -0.00827015 -0.038176 -0.0293638 -0.067388 -0.014903 0.0698294 0.0361929 -0.0509237 0.0508375 -0.0197895 -0.0890151 -0.0277564 0.0347217 0.0722025 -0.00156301 -0.0241882 0.0849731 -0.027139 -0.0173889 0.084164 0.00206642 -0.0426991 0.0129201 -0.00182585 -0.00088666 0.0058875 0.0193604 0.0361437 -0.0498567 0.00585078 0.0358481 -0.0249596 0.0382625 -0.0327491 -0.00529528 -0.0742323 -0.0156152 -0.00123333 0.0456484 0.0463924 0.0291679 -0.0247396 -0.0914779 0.046186 -0.0425966 0.00373646 0.0383104 0.0617075 0.0072706 -0.0076349 0.00694981 0.0279471 -0.0329641 0.0227576 -0.000731682 -0.0262928 0.0534642 -0.0320657 -0.0106412 0.0402666 0.0148146 -0.00915401 -0.0232924 -0.0188318 0.00902537 0.0472456 -0.0289135 0.104276 0.00176971 -0.0201473 0.0165968 0.0491235 -0.0916568 0.0106884 -0.0489283 -0.0219588 0.0445058 -0.0112678 -0.00588647 0.0140019 -0.0713564 0.0188464 0.0101083 0.0275215 -0.0798412 0.0186505 -0.0196658 -0.0155453 0.01853 -0.0478269 0.0129968 -0.0524625 -0.0117873 -0.0449094 0.0170188 -0.0403411 0.0252722 0.0360964 0.0451681 0.00540486 0.0758749 -0.0192978 -0.00949493 0.0235571 0.0174579 0.00264743 0.00329342 0.0165786 -0.00771929 0.00229601 0.106426 -0.00623152 ^-0.030135 0.0357728 -0.0019341 -0.0871443 -0.0645498 -0.0188567 0.0398854 -0.0286178 -0.00158399 0.0107288 -0.00496384 0.0386776 -0.0930726 -0.0404855 0.0465843 -0.0417345 0.00143451 -0.0132465 -0.0296202 -0.0598432 -0.000829172 0.0539592 -0.0655484 0.0126076 0.0391437 0.0059605 -0.053232 -0.0403896 0.0367638 0.00793947 -0.0278443 0.00820451 0.0167682 -0.0140152 -0.0435435 0.0466741 -0.0259147 0.0262764 0.0654211 0.0737994 -0.0209155 -0.00946431 -0.0491345 0.00911693 0.0245477 -0.00575934 -0.000564516 -0.0397293 -0.00944575 -0.0275558 0.0543839 0.0160288 0.0528622 -0.0371358 -0.0050282 -0.0344617 0.0034694 0.0279181 0.00697431 0.0133869 0.0443669 0.0370091 0.0226356 -0.0151818 0.0113749 -0.0142465 -0.00357285 -0.0366885 0.00136926 0.0596179 0.00049664 -0.00832334 -0.00667685 0.00179617 -0.0180142 -0.0602765 -0.00834527 -0.100508 0.019211 0.00544165 0.0130157 -0.0992951 -0.0265498 -0.00618195 -0.0281308 -0.0490737 -0.0243026 -0.048049 -0.00547838 0.00622817 -0.032844 -0.00135944 -0.0238415 -0.0515168 0.0164808 -0.0433709 -0.04843 0.0812603 -0.0143693 -0.0373986 -0.0245099 -0.00905249 0.0687345 -0.0120713 -0.0378251 0.0174323 -0.0161361 0.0222729 0.00105351 -0.00749999 -0.0604231 -0.010762 -0.103328 0.0242293 0.0258175 -0.00802074 0.0803335 0.0168559 -0.00656429 -0.0195431 0.042708 0.00584018 0.0207144 -0.000298019 0.0429196 -0.00178151 -0.00654239 -0.0238292 0.0477764 0.0317033 -0.0444706 0.0289013 -0.01237 0.0902128 -0.00165013 0.0589396 -0.0101916 0.020279 0.00627443 -0.0340016 0.0151279 -0.0250083 0.0535969 -0.00965999 0.0136635 0.0220419 -0.0250806 0.0592096 0.0175022 0.0187576 0.0060861 0.047638 0.0596525 -0.0559349 0.0651668 -0.00779679 -0.0247755 0.0396594 -0.0196829 0.067335 0.0430302 -0.00863804 0.012659 0.0253472 -0.0578472 -0.0239728 -0.0138994 0.0203363 0.0362091 0.0452782 -0.0112796 -0.00182685 -0.0134035 0.0858815 -0.0275572 -0.011812 -0.0879815 0.0184415 -0.0175688 -0.0889765 -0.0156812 0.0462783 0.0823463 0.047262 -0.00113293 0.0537398 -0.0278842 -0.061947 0.00165802 0.00455976 -0.0991323 -0.0650033 0.0933164 -0.0341072 -0.0377521 -0.0546838 0.0243749 -0.0463178 -0.0240255 -0.00357057 0.0509541 0.0618132 0.0205475 0.0206142 -0.0449231 -0.0108162 -0.00186951 -0.0112489 0.0261326 0.0555243 0.04335 0.0142568 0.0648419 0.0232804 -0.0353201 0.0287144 -0.0102879 -0.0473635 -0.0321435 0.00135732 -0.0135025 0.0577294 0.0104748 -0.0144549 0.00865721 -0.0454185 -0.0610454 0.0104858 0.00912405 -0.0388192 0.00258943 0.00659837 0.0192874 -0.0145053 0.00748636 0.0460356 0.0261667 0.00391171 0.0212556 -0.00677731 0.0169079 -0.0313918 0.0231434 -0.00120901 -0.0117508 0.0545091 -0.00134636 -0.0305251 0.0580671 -0.0180927 0.0415368 0.0210745 0.0400101 0.0543904 0.015848 -0.0643845 0.0282094 -0.0285741 0.0413184 -0.0127352 -0.0143519 -0.0146688 0.0315112 0.0170529 -0.0480514 0.039461 -0.0255148 0.0523248 0.00307879 0.0641903 0.0280766 -0.0120288 -0.0115979 0.0284494 0.0160615 0.0119914 0.0375411 0.0237537 -0.0298616 0.0275779 0.0128366 0.051655 0.0273274 0.0148844 0.0299024 -0.00495742 0.00515829 -0.00856367 0.0506688 0.00536105 0.0231588 -0.052076 0.0605032 0.00695953 0.00803959 0.00670143 0.0408838 -0.0422383 -0.00583274 0.0511702 0.0752988 0.0211393 -0.0782065 0.00190234 0.000874428 0.023573 0.0380017 -0.0529985 -0.0947343 -0.0307146 -0.022411 0.00158452 0.0142475 -0.0232487 -0.021471 -0.011184 0.0315757 0.0302077 0.00070595 0.0484205 -0.0313472 0.0299326 -0.010933 -0.0619705 0.057274 0.0194058 0.0109214 0.00559445 -0.00365671 -0.0244887 -0.0452031 0.0457967 -0.0498846 -0.0105633 0.0447854 -0.0130811 -0.0322387 0.0704273 -0.00111383 -0.0022784 -0.0220224 -0.0439019 0.00650054 -0.0653748 -0.0142774 -0.0312508 0.0303037 -0.0115611 0.0119078 0.0585079 -0.0681908 -0.0187107 -0.0109757 -0.0202086 0.0117371 0.0396254 0.0181222 0.011886 0.0211424 -0.0092736 -0.0171737 -0.022604 0.0268921 0.0212209 0.0161364 0.0151309 -0.00632717 -0.0353646 0.00479298 0.00890453 -0.0243998 0.0282955 0.0391772 -0.0558884 0.0439152 0.014566 0.0281893 -0.0260111 -0.0349282 0.0890317 0.0324238 0.0716258 -0.00294354 0.0538666 -0.0059429 -0.0594962 -0.0717171 -0.0548487 -0.0215418 0.0392505 -0.0306146 0.0137793 -0.0181717 0.0142879 0.0117494 -0.00443583 -0.0788848 0.0300056 0.053082 -0.0233989 0.0120025 -0.0361429 0.0135212 0.00072396 -0.0395489 -0.00801924 0.0166309 -0.0181479 -0.0220672 -0.0259892 -0.0264095 -0.0313719 0.0268548 -0.00334354 0.00883268 -0.0538255 0.0373429 -0.0599759 -0.0140669 0.0695248 0.0945588 -0.0400899 0.0233959 -0.0247286 -0.0369229 0.0774117 0.00672616 0.0333473 -0.0269585 -0.0303939 0.0128634 0.058362 0.0207819 0.000708393 0.0218997 0.0615135 -0.014573 0.038472 0.0386171 -0.0135061 0.082864 -0.0344937 0.00267317 0.0405773 -0.0087582 0.0170391 0.0249836 0.0257363 -0.0235318 0.0191596 -0.00358008 0.0113314 0.0315234 -0.0369713 0.0143971 0.0439533 -0.0349457 0.00993202 -0.0807796 0.00918713 -0.038352 -0.00537569 0.0576473 0.000905852 0.0473947 0.0150357 -0.0253788 -0.0365958 0.0182719 0.0332804 0.0357956 0.0393204 -0.0647323 -0.0179524 -0.00303205 0.0355156 -0.00018419 -0.0322334 0.0431302 -0.0425534 -0.0231621 0.0557542 -0.0217617 0.00960433 0.0577295 0.00974016 0.0111948 -0.0426018 0.00950649 -0.0216993 -0.0105167 0.0112615 -0.0915331 0.0442372 -0.0389077 -0.00231145 0.011495 -0.0235502 0.0232964 0.0896011 0.0545588 -0.0392236 0.023453 -0.0789192 0.00573715 -0.0121632 0.0367251 0.00188086 -0.0764931 0.00451324 0.00442114 -0.021218 0.0267953 -0.0222539 0.043628 0.0186186 -0.0173846 -0.014328 0.0804299 -0.0173543 -0.00338169 -0.0496914 0.0244453 0.0323561 -0.0581382 0.00492099 -0.0041539 -0.0562335 0.0343277 0.0178844 0.0628528 -0.0584624 0.0896764 -0.0249221 -0.0257617 0.0112783 0.0522067 0.0379234 0.0398347 -0.0268786 0.0309915 0.0198882 0.0466195 -0.0226978 -0.0254636 -0.0245014 -0.0365527 0.0552595 0.00155829 0.00970276 0.00561623 -0.032745 -0.0440212 0.0436116 -0.0313552 -0.0503227 0.00888409 -0.0402917 0.0215829 0.0194965 -0.0428089 0.0629655 -0.0308422 0.0309282 0.0738981 -0.0157948 -0.0255833 0.00359216 0.00147855 0.0463992 0.0377104 -0.00663551 -0.0655233 0.0313745 -0.00788997 -0.041865 0.0416464 0.0190554 -0.0206726 0.020569 0.0497718 -0.0127564 -0.0173771 0.0178159 0.0361642 -0.0578473 -0.023006 0.00364231 0.0353469 0.00195759 0.0312244 0.0361812 -0.0305347 0.00191404 0.0201984 0.0267714 0.0275881 0.00435504 -0.0759628 0.0159591 0.00281836 -0.0258477 0.00382788 0.040238 -0.00421934 -0.0527745 0.0616951 0.00299085 0.0201387 -0.0191791 0.00403619 0.0497702 0.0254806 -0.0457691 0.0121198 -0.0485867 0.022763 0.050464 0.0319521 0.00128024 0.0258106 0.0159111 -0.0143867 0.0827753 0.0178927 -0.0161316 -0.0471782 0.0150167 -0.0129126 0.000577646 -0.0396726 0.00638736 -0.071704 -0.00292917 -0.059164 0.0369697 -0.0447013 0.000155315 -0.00088282 -0.0181567 -0.0137408 0.0179505 -0.0703392 0.0137433 0.0153472 0.0206727 0.0437459 -0.02474 0.0149606 0.0684431 -0.0721662 0.0434379 -0.0523789 -0.0109163 0.101683 0.0356375 -0.0274086 0.038029 0.0363834 -0.0434312 0.0017844 -0.0454838 0.0122234 0.0208511 0.0501415 0.0657737 -0.0278318 -0.0154974 -0.0726225 0.0453498 -0.0151953 0.0275422 -0.0473449 0.0464498 0.0146653 0.0439375 0.0208266 -0.0364252 0.0172246 0.0239897 -0.0572268 -0.0019615 -0.0346505 0.0135872 0.00456634 -0.0224383 0.0267108 0.00463301 0.00984013 -0.0254342 0.0231598 -0.0194239 0.0259141 -0.0334702 -0.0126241 -0.0885872 -0.00163217 0.006063 -0.0625191 0.00199954 0.0380416 -0.0100287 -0.0045134 -0.00510993 0.0189969 0.027231 0.0102476 0.00045688 0.0112879 0.021284 -0.0205318 -0.0281418 -0.0100677 0.0193236 -0.0158198 -0.0392509 0.0414244 -0.0113848 0.0181644 0.00314273 0.0115033 0.0213179 0.0517835 -0.0565057 -0.0288483 0.0329636 -0.0122683 0.00829705 0.0446365 -0.0686264 -0.050181 -0.034006 -0.000849035 -0.00473462 -0.0366721 -0.0137319 -0.00558299 -0.0338868 -0.0220892 0.0323074 -0.0322275 0.0186534 0.00291856 0.0385663 -0.034863 -0.0212507 0.0673162 -0.00683877 -0.00578851 -0.0065541 0.0265246 0.0258615 0.0536732 -0.0197892 -0.0188453 -0.0438671 -0.0458564 0.0488838 -0.0222333 -0.0118462 -0.0826758 0.0187252 -0.0447325 -0.0191819 -0.0541585 -0.0149544 0.00343326 0.0615773 0.0343283 0.0785429 0.0261827 -0.00243155 0.0207338 -0.0100334 0.0398946 -0.00705811 -0.0206545 -0.032508 0.0174439 0.016589 0.0166378 -0.0458846 -0.066398 -0.0414056 ^0.0412379 -0.0289807 0.0351486 -0.0174721 0.0208969 -0.0304124 -0.0182623 0.00895471 0.0597426 0.0540371 -0.0124243 -0.00157131 -0.00712517 0.0523719 -0.000604129 -0.0666705 0.0202849 0.00651338 0.0495374 0.012438 -0.0276814 0.000277803 -0.0503282 -0.032663 0.0337196 -0.00495298 0.0062745 0.0157511 0.0259014 0.0256954 -0.0413275 -0.0480227 -0.032228 0.0172307 0.0808906 -0.0155594 -0.0172195 -0.0268831 0.0200236 -0.00151689 0.00685737 -0.0728196 0.0485029 -0.000262009 0.0408979 0.00595646 -0.044003 0.0478484 -0.0128771 0.00568267 -0.00600109 -0.0411807 0.0630088 -0.0816584 0.0537481 0.0647418 -0.0702449 -0.00154439 -0.000838708 0.00391016 -0.0582445 0.0287091 -0.00522722 -0.0266621 0.0277992 0.0352756 0.0242593 0.0170707 0.0579029 0.0494544 0.0169526 0.0562912 -0.0224383 -0.052767 -0.062861 0.060049 0.0287266 -0.0237274 -0.0181926 0.0197173 -0.0541352 -0.0221863 -0.000872762 -0.0303674 0.00597226 0.0473621 0.0109813 -0.0172905 0.00131111 -0.0387976 -0.0475669 -0.0239689 -0.0529129 -0.0525855 -0.0174694 -0.0186995 -0.00477149 0.0640442 0.0974355 0.0405139 0.0711813 0.025678 0.0126995 0.0760438 0.043991 -0.0211671 -0.0204425 0.0103752 -0.0229449 0.0225595 -0.0163958 0.0224316 0.0249557 0.00266071 0.0196443 -0.0314394 0.0109646 -0.0189678 -0.00692378 -0.0390464 0.0224817 -0.000466085 0.0443783 0.01904 -0.000570133 0.00961832 0.0237479 -0.00830293 0.00385492 -0.0198533 -0.00926724 0.0141943 -0.0103106 -0.0403905 -0.023193 -0.00216476 -0.0443756 0.0225023 0.025646 -0.0135648 0.0134964 -0.0155285 -0.0230134 -0.0160938 -0.0143147 -0.0918571 -0.0161508 -0.0470758 -0.0595216 -0.04438 -0.0244515 -0.0517134 0.00076926 0.0655386 0.019006 0.0498258 -0.02458 -0.0171339 0.0321316 0.023508 0.0562531 -0.00080132 -0.00920272 -0.0331676 -0.00897588 -0.0275704 0.0130631 0.0365084 0.0257945 -0.0055133 -0.00293241 0.00200925 0.0555424 0.0103921 0.0825811 0.0231838 -0.020754 0.0171386 0.0130802 0.0493198 -0.0118103 -0.0288409 -0.0435917 0.0219018 -0.0197914 -0.0218695 0.0174348 -0.013992 0.050792 0.0422837 0.0447876 0.0259921 -0.0220714 0.0223396 -0.00481369 0.00242617 -0.0216103 -0.0252947 -0.00250905 0.0773724 -0.00322217 -0.0221632 0.0335077 0.00272431 0.00067966 -0.0295674 0.0140164 -0.00544389 -0.0519083 0.0319985 0.0653613 0.0033276 0.0213482 -0.0159097 0.0506264 0.0388376 -0.0204299 0.109258 0.00330269 -0.0560123 -0.101757 -0.0023287 -0.0661408 0.0200582 0.0504417 -0.0551806 0.0108404 -0.0115057 0.0433953 -0.0417595 -0.00857139 0.0322267 -0.0112565 0.0150497 -0.0160286 -0.00304385 0.0412059 -0.0330589 -0.000727749 0.0236594 0.0299636 0.0129529 -0.0106128 -0.00463139 -0.0438107 -0.0340293 -0.0268835 -0.000566317 0.00727112 0.0156711 -0.0307465 0.0270712 -0.0984011 0.00471083 0.013934 0.0502102 0.0141438 0.041388 -0.0269552 -0.042006 -0.0843469 0.0117225 -0.0196684 -0.0190235 0.0448412 -0.0302928 0.0223372 -0.0213438 -0.0964693 -0.02717 -0.0105445 0.00339022 0.0330813 0.00385875 -0.0147063 0.0449183 0.00673747 -0.0494276 0.0184183 -0.0586954 0.0199853 0.0778775 0.00211812 0.00427991 0.00704244 -0.0405395 -0.0291893 0.0827804 -0.00169854 0.013531 0.0545279 -0.0276508 0.058606 0.0298319 0.0112744 0.0136882 0.0580219 -0.0296679 0.0664536 -0.0346302 -0.0141615 -0.00394557 0.0222071 -0.000883811 -0.0399139 -0.00536368 -0.032712 0.0702735 -0.00143909 -0.0175369 -0.0444458 0.0441723 -0.0367027 -0.0538034 0.0358073 0.0164955 0.0335909 0.0699811 -0.0325045 0.0589505 0.0310272 -0.074324 -0.00166687 0.0233352 -0.0548489 -0.025504 -0.00560448 0.0390996 0.0257894 -0.021505 -0.00449687 0.0391667 -0.00906807 -0.0346053 -0.0124628 -0.0252985 -0.0423138 -0.0348195 0.0413434 -0.00932536 -0.0158402 0.00320358 -0.0185023 0.011587 -0.0306822 0.0412189 0.0117536 0.00325442 -0.0302662 0.0027788 0.0112724 0.0355137 0.0536363 -0.00257221 0.0181818 -0.0609866 0.0247503 -0.0371248 -0.00189843 0.0500889 0.0320648 0.0124918 -0.0306361 0.000787387 0.0415954 -0.00716049 0.0437283 -0.0299323 0.0195901 -0.0136763 0.0369173 -0.0294705 0.0381539 0.025094 0.0134997 -0.0419007 -0.020543 0.0192538 0.0689744 -0.0530543 0.0402068 0.0351775 -0.0189045 0.0167411 0.0526247 0.0230867 0.0475978 -0.0396355 -0.0417841 0.0250037 -0.00688462 -0.0450272 0.0089343 0.0134945 -0.0487085 0.0155497 0.0666855 0.00520048 -0.00893563 0.00603494 0.0215921 0.030372 -0.0413158 0.0200926 0.0180635 0.0863481 0.0101111 -0.0257013 -0.0110753 -0.00483205 0.0180016 0.0136886 -0.00405552 -0.0127719 -0.050599 0.000213244 0.00485456 -0.0128426 -0.00430279 -0.00853794 0.0349871 -0.0193979 0.020592 -0.0237706 -0.0707808 0.0457123 0.0409398 -0.0455892 -0.0196477 -0.00688694 -0.0997911 -0.0599946 0.0522405 0.00174536 0.00515254 0.0104355 -0.0170498 0.00970754 0.0174558 -0.0462935 0.0706689 0.0105801 -0.0252528 -0.0661282 -0.0273609 -0.0467594 0.0251682 -0.00405091 0.0418899 -0.0100579 -0.0367677 -0.0118755 0.0628013 -0.027077 0.0281431 -0.0302435 -0.0253095 0.0430534 0.00897124 0.00280233 -0.0149061 0.0108187 0.00705941 0.0124289 -0.0329512 -0.0156488 0.0452719 0.00863748 -0.0106716 -0.0716978 -0.0109079 -0.0485142 0.00239095 0.0446947 0.0292612 0.0247091 -0.0273922 0.0283584 -0.0411053 0.0106149 -0.00249925 -0.00332465 -0.0661968 0.0291404 0.0117612 -0.0713602 0.00777282 0.0703174 0.046796 -0.0222298 -0.0186687 -0.0142572 0.026286 -0.0425151 0.00998944 0.0151125 0.0254504 -0.0269616 0.0206625 0.0852253 -0.016286 0.0080469 -0.00286272 -0.0703568 0.018643 0.0122524 0.0668374 0.000400484 0.0519864 0.109172 -0.00855635 -0.0262276 0.037753 0.0207851 0.0106533 0.0386271 0.00745231 0.0155034 0.102455 0.019303 0.0232785 0.0367717 0.00351392 0.0214822 -0.0442585 0.0025147 -0.0426211 1.92005e-05 -0.0190911 0.0539999 -0.04681 -0.0268262 -0.000333662 0.0270393 0.0173113 0.0057751 0.0388071 -0.0666754 0.0493387 0.00340521 0.00312244 0.0103343 -0.0419287 0.030266 0.0413874 0.019606 0.0242042 0.00123693 0.00375121 0.0388873 0.0451205 -0.0263839 0.0120033 0.0469045 0.00915928 0.0317012 -0.0470834 -0.0145607 -0.0183537 -0.0484595 0.036452 -0.00812629 0.0517923 0.0134957 0.0746099 0.0257285 0.0836909 -0.0799115 0.00632525 -0.00341684 -0.0157697 0.0490302 0.00475083 -0.0177198 0.0111461 0.0112782 0.0132784 0.0420195 -0.0326742 -0.0104663 0.0188182 0.0431014 0.0467028 0.0315577 -0.0496469 -0.00822766 0.0101353 -0.0189664 0.0190626 0.0221261 -0.0617876 0.00122229 -0.0488896 0.0375079 0.0110819 0.0367139 0.0494958 -0.0373822 0.043484 -0.0338184 0.0175715 -0.00158177 -0.0213242 0.0134463 -0.0156714 0.00565265 -0.00514496 -0.0486233 -0.0591212 0.017884 -0.0131699 -0.0171705 0.0309077 0.00946805 0.0206736 0.0475251 -0.0332224 -0.0605055 0.0084831 -0.0145378 0.00851904 -0.0391072 -0.00695924 -0.0197763 0.00463556 -0.0177134 0.0273524 0.0108158 0.0619525 -0.019159 -0.0132699 0.00537039 -0.0755003 -0.0015101 0.0407382 -0.0509273 0.0214623 0.0434016 0.0164638 0.000861293 -0.0420098 0.0242535 -0.045091 0.0139681 -0.0103581 0.0138597 -0.0409838 0.000412992 0.0533352 0.0111233 -0.0510766 -0.0147826 -0.0453475 0.0266007 0.0131807 -0.0244753 -0.0513776 0.00478783 -0.00221092 0.0421902 0.00581107 0.0288014 0.00926603 -0.0166076 0.0514291 0.00619003 0.0262914 -0.0148341 0.0185909 -0.0528584 -0.0276652 -0.0543593 -0.0134855 -0.0271726 -0.00158304 -0.0537145 -0.000591105 0.0262571 -0.0245491 0.014079 -0.012909 0.0270848 -0.0273361 0.00413745 0.0062531 0.0358092 0.0163985 -0.00514355 -0.0528278 0.0283184 0.0219578 -0.0435415 0.0253603 0.0442616 -0.0461973 0.0686009 -0.053047 0.00951899 -0.0757716 0.0345921 -0.0109259 -0.014125 0.0662669 -0.0186116 0.014766 -0.0251093 0.0151873 0.0240343 0.0215106 -0.0426876 0.0235065 0.0472635 -0.00512661 -0.0394942 -0.0421916 0.0573598 -0.0210922 -0.0544362 0.0318187 -0.0130907 0.0327423 0.0108989 -0.000102194 -0.000336604 -0.000827388 -0.0101863 -0.0138156 0.0301307 -0.0676429 0.016648 0.0268793 -0.0184356 -0.00406353 0.0268774 -0.0559642 -0.0565034 -0.117576 -0.00984232 -0.00308105 -0.104414 -0.039896 0.0266224 -0.00505652 0.0195212 -0.0450855 -0.0121898 -0.0345422 -0.0268563 0.0119664 0.0240015 0.0153123 0.0178785 0.000333067 -0.00672468 -0.0513717 -0.0285476 -0.033613 -0.0169001 0.0632228 0.000843856 0.0514115 0.0499973 0.00161 -0.00188758 0.0600716 0.0126215 -0.0127204 -0.0169393 -0.00116065 0.0579543 0.0478558 0.0839837 0.0141957 0.00460956 0.00134609 0.0462604 -0.00892369 -0.00525018 -0.0170987 -0.0182646 0.0326227 -0.00940775 0.0190665 0.0240567 ^-0.0279486 -0.000544446 -0.0344145 0.0402735 0.00842803 -0.00940106 -0.00806174 -0.000487203 -0.0143659 0.0296624 -0.0258286 0.025098 0.0524924 0.015604 0.0445962 0.00773633 0.00878178 -0.0290417 -0.0346634 -0.0365367 -0.0307212 -0.00650286 0.041717 -0.0605576 -0.0194097 -0.0795592 0.0538552 -0.00460381 0.0169886 -0.0418546 0.0195986 -0.0466878 -0.0157163 -0.00419456 0.0806477 0.0340806 0.0560291 -0.00663322 -0.0296905 -0.0297824 -0.0357226 -0.00291233 -0.0082143 0.0165533 -0.0935952 0.00670791 -0.0107533 -0.0880507 0.0385462 0.0124871 0.00755301 0.0319312 -0.0324016 0.0334359 -0.023956 0.0240603 0.0136278 -0.00359102 -0.0145843 -0.00456395 0.0376212 -0.0190884 0.0295206 0.0587984 0.0246274 0.0162777 -0.141419 0.0302981 0.0168763 0.00810795 -0.0286248 0.0478974 0.00710681 -0.0333645 -0.00466331 -0.0106027 -0.0517933 0.0116973 -0.0412311 -0.0254223 0.0295641 0.00576961 -0.0320181 0.0172254 -0.00984043 -0.0340649 0.0403941 0.02999 -0.0055934 0.0107499 0.0751171 0.0190191 -0.0621742 0.0638468 -0.0335024 -0.00699656 -0.00424558 0.0010308 0.0111228 0.00184086 0.0280429 -0.0282587 -0.0257579 -0.00300039 0.0126094 -0.00566582 0.0434118 -0.0358819 -0.00128038 -0.00753324 0.0362595 0.00234328 0.0242081 0.00122483 -0.0384843 -0.0648823 -0.0292521 -0.0203182 -0.0809291 0.0447679 -0.0045526 0.00437542 -0.0391529 0.0649457 -0.0222841 -0.0177619 0.0300073 -0.0254024 0.0262974 0.00667806 -0.010629 -0.0146492 0.0182633 -0.0383476 0.0407241 0.00309732 0.0505121 0.0167132 0.0652618 0.032093 0.0135751 0.0255432 0.00538065 0.00256223 0.0230723 -0.0373209 -0.0188005 0.00842766 0.0654882 -0.013612 -0.0257574 -0.0164023 -0.080698 -0.00988152 0.0433336 0.00607508 0.0114315 -0.0174797 -0.0240021 0.0161032 0.0552468 -0.043753 0.00431225 0.00956391 0.0503338 0.0230932 -0.0191771 -0.0527739 0.0124406 0.0374515 -0.0132165 0.0549259 -0.0119857 0.0652709 -0.026053 0.00658116 0.00597489 -0.0100841 0.0121841 -0.00326817 0.017299 -0.0111956 0.0342172 0.0428389 0.0703865 0.023088 -0.0221588 0.00313476 0.0571493 -0.0226666 0.00547105 0.0436791 -0.0246381 -0.060606 0.0814805 0.0807321 -0.033716 0.0101431 0.0155304 -0.0113245 0.0454283 4.52308e-06 -0.0501893 -0.033674 0.0389378 -0.0141793 -0.00599498 -0.00455183 -0.0103061 -0.0134376 0.0514378 0.0290696 -0.0364896 0.0505832 0.0803095 -0.0408964 0.0466793 -0.0437112 -0.0688653 -0.0580511 -0.0812178 0.0457792 0.0499161 -0.0173513 0.0162371 -0.0584322 -0.0241053 -0.00900189 -0.0191217 0.0764733 0.0170612 -0.000482538 0.0144841 -0.0083428 -0.012923 0.0407305 0.0798197 0.00269671 -0.0546309 -0.0248707 0.00677672 -0.0285864 0.0769249 -0.00733228 -0.00939397 0.0394677 0.0493386 -0.000723381 0.0307493 0.00421449 0.0607768 0.0540853 -0.0300885 -0.0410092 -0.0482394 -0.00243425 -0.0504808 0.0209821 0.0165953 0.0415021 -0.040195 -0.0303567 0.059214 0.0559373 -0.00408299 -0.0409427 0.00727234 -0.00615514 -0.0261821 0.00762267 0.025763 0.0282749 -0.0600721 0.00708733 0.0251141 -0.0243896 0.0920162 -0.069657 -0.000210905 -0.0618077 0.00665886 0.0293113 -0.0147352 -0.00677986 -0.0329528 0.0244577 -0.026546 -0.0268443 0.00637684 0.0505431 0.029839 -0.00790005 0.0570254 0.0466982 -0.0489256 0.0189028 -0.00633796 0.00285626 -0.00347294 0.0226719 -0.00125864 -0.0413047 0.0379655 0.0102119 -0.00353841 0.059069 -0.00129675 -0.0186812 0.0112301 -0.0150559 -0.0271653 0.027701 -0.0464451 0.0347694 0.0179442 0.020898 0.0175073 0.00149827 -0.007495 0.0153271 0.0312593 -0.00246427 -0.0372768 0.0110742 -0.0127557 -0.0194819 -0.0692102 -0.0360661 -0.0552785 -0.033902 -0.02595 -0.00911956 -0.033257 -0.0128389 0.0140299 0.00130677 0.0111178 0.00372873 0.00987005 0.0249881 -0.0255731 0.0173536 -0.0282416 0.0221045 -0.0402768 -0.012469 0.00151435 0.00941789 0.00798307 0.0288757 0.0145565 -0.0289387 -0.0643119 -0.00483347 0.0148024 0.0286086 -0.0143416 -0.0533957 0.0340552 0.0201907 0.0271171 0.0291059 0.0362855 -0.00780612 -0.0441789 -0.0154654 0.00487057 -0.0304915 0.00223578 -0.0138711 0.0239966 0.00178283 0.019712 -0.0248249 0.0431452 0.033497 -0.0520902 0.00359167 0.0527321 -0.03082 0.00643048 -0.0238056 -0.0165399 0.00944627 0.0576986 0.00593535 0.0581061 0.0226445 0.037413 -0.0333816 -0.0551164 -0.030465 0.0165768 -0.00118661 -0.0658391 0.00866843 -0.000317856 0.0139308 -0.0145588 0.0632548 0.048099 0.0258423 -0.023754 -0.000490802 0.0696492 0.00227622 -0.00960976 -0.047225 0.0188836 -0.000370322 0.0270166 0.0802188 0.0251738 -0.03154 0.0485901 0.0489244 -0.0353985 -0.00822253 0.0669116 -0.0160909 0.0686918 0.0385879 -0.0342759 0.042759 0.0789632 -0.0491816 0.102896 0.0211808 -0.0026599 0.0334944 -0.0422198 -0.0458874 0.0206509 -0.00926525 0.0484749 0.00693562 0.0808209 0.00932573 -0.000987584 -0.0654673 -0.0425141 -0.00491675 -0.0298747 0.00891049 0.0286345 -0.04083 0.0659742 0.0230058 -0.0151473 0.0145525 -0.00315716 0.104297 -0.0177737 -0.00697773 -0.0344984 0.0082272 0.0369404 -0.0373548 0.0229951 0.037207 -0.0142713 0.0380116 -0.0193943 0.0583422 0.0192064 0.0435493 0.0087034 -0.0603568 0.0229735 -0.0399155 0.0670704 -0.0220355 0.0460385 -0.0123887 -0.0441372 0.0139467 -0.0902629 -0.0278573 0.0326464 0.0398239 -0.0198756 0.034536 -0.00796762 0.0233573 0.0133403 0.0282073 0.0190567 0.00705376 -0.0141058 0.0411344 -0.055259 -0.0125619 0.0475527 0.0323278 0.036834 -0.051791 0.0205141 -0.0258574 -0.0537822 -0.0276064 0.0326576 0.0167257 0.0482009 0.00406185 0.0103372 0.0395568 -0.0386763 0.0855939 0.0330996 -0.0622289 -0.0279248 0.0121611 0.0157494 0.0309997 -0.0347771 -0.0118395 0.0181999 0.000900909 0.0115801 -0.00237629 0.0334222 0.0192574 0.0660295 0.0390774 0.06473 0.0470045 -0.0484757 0.0238205 -0.0654419 -0.0393877 -0.0267172 0.0194617 -0.00562843 0.021686 0.0056867 -0.0303474 -0.0464477 -0.019595 0.0138279 -0.0508046 -0.000857741 -0.0585627 0.0191949 -0.0109563 0.0414712 -0.0327912 0.0157338 0.018745 0.0163688 -0.0889172 -0.0472191 0.060698 0.0363044 0.0223246 -0.0812816 0.0338514 -0.0253828 -0.00198079 -0.00111528 -0.0321073 -0.0130697 0.0191821 0.00812758 0.032149 -0.0543787 0.0408927 -0.0310014 -0.0294515 0.00269119 0.0220579 -0.0240463 0.0663889 0.00277203 -0.0137629 0.0366947 -0.0157264 0.0165455 0.020719 -0.00131555 0.0363182 0.0180142 -0.00494353 -0.0481048 0.0602811 0.00422561 -0.034969 0.00717068 0.0819245 -0.00228508 0.0244552 0.0234877 -0.0212639 0.084438 -0.0369514 -0.0249852 -0.0163032 0.0100359 0.0802777 -0.0386561 -0.00517609 0.0229974 -0.0265565 -0.00999317 -0.0339474 0.0138213 0.0177416 0.00620011 -0.0479961 0.050781 -0.062577 0.0228949 0.0106752 0.0203013 -0.00374389 0.0644243 0.0252592 -0.0176017 -0.00441191 -0.0475822 0.0253035 -0.0058029 -0.017362 0.0354858 -0.00651716 0.0368136 0.00732845 0.0176834 -0.0475944 -0.0210743 -0.0399001 -0.0457103 0.0276001 -0.00687315 0.0489515 -0.0789035 0.00358601 -0.00733016 0.00951673 -0.0287028 0.0137819 0.00539382 -0.0498989 -0.0161509 -0.0156396 -0.047964 0.0778122 -0.00873704 -0.0312311 -0.00819455 0.0549232 0.0994602 -0.0320946 0.0336988 -0.0373462 -0.0347347 0.0804512 0.0401055 0.00553087 0.0544269 0.0241816 -0.00115428 -0.0144961 0.00893895 0.00679746 -0.00515385 0.0570031 0.00382142 -0.0643719 0.0180911 0.0665407 -0.0290985 0.0240473 0.0106921 0.0171302 -0.00756956 -0.0671782 0.0508179 -0.0528971 -0.0551482 0.0383907 -0.0226297 0.039229 0.00215171 0.0515014 -0.035482 -0.045914 -0.0149611 0.0412636 -0.0184053 0.0250944 0.0259563 0.0166728 -0.0362214 0.00558813 0.0429797 0.083005 -0.0130107 0.0456427 0.0226435 0.0334001 0.0338019 0.0149017 -0.0459969 -0.039649 -0.0191257 -0.0370646 0.0128219 0.0292898 -0.00415414 -0.0234538 -0.0236054 0.0920435 0.0186711 0.00771696 -0.0279315 -0.00125859 0.0659996 -0.00246219 -0.0148968 -0.0013066 0.00499907 -0.0602537 -0.0165841 0.0236212 0.0203632 -0.0448673 -0.0755254 -0.00470725 0.0375884 -0.0546565 -0.0288743 0.008992 0.0224721 0.0209379 0.0152792 -0.00768399 -0.02809 0.0281402 0.0304706 0.0201695 -0.0543318 -0.0100989 -0.00344015 -0.0110773 0.0479509 0.0192873 0.0188082 -0.011531 0.0208676 0.00137595 -0.00956598 0.0052362 -0.000408185 0.0491957 0.012265 -0.0226796 0.029605 0.0067369 0.0123513 0.0987896 -0.0118097 0.0011332 -0.00389557 -0.0246546 0.0674505 -0.0455583 0.00105243 -0.0356666 0.0285811 0.0231058 0.0317057 -0.0144138 -0.0276961 0.0428935 -0.00615862 -0.00465478 0.0060348 0.0203071 -0.070289 0.0155909 -0.0355026 -0.0376482 0.0570026 -0.0138973 ^0.0366747 0.0124953 -0.0201898 -0.10027 0.0123785 -0.0081258 0.00762239 -0.0312598 0.0438871 0.0361519 0.00766132 -0.0744558 0.0501636 -0.0261052 -0.130085 0.0272166 0.021038 -0.00119966 -0.00119267 -0.00213186 0.03532 -0.0121365 0.0389348 -0.0590232 0.0107906 -0.036943 0.00713949 0.0176722 -0.0018682 0.0174565 0.0277648 0.0137781 -0.00769974 -0.0313668 -0.0300209 0.00617316 0.0134952 0.00347352 0.00238716 0.0816702 0.0193135 0.0109801 0.020988 0.0237375 0.0305347 0.0326033 -0.000615201 0.0181912 -0.0636478 -0.0292506 -0.0392562 0.00123078 -0.0512258 0.00284006 -0.00280556 0.085593 0.0885114 -0.0151513 0.0315394 0.0249309 -0.0397524 0.0356999 -0.0582312 -0.025284 -0.00927594 -0.0447752 0.00117022 0.0415735 -0.0413031 0.00413426 0.0151047 0.0508917 0.00230453 0.0159955 -0.0114518 -0.0569813 -0.0547818 -0.00442043 0.0159025 -0.0586639 -0.0224996 0.057058 0.021839 0.0156645 -0.0466068 0.0196557 0.00178978 0.0189265 -0.0647722 0.016651 0.00119952 -0.0762084 -0.0293134 0.0157001 -0.0123711 -0.0366851 0.0230019 0.00917763 -0.0200666 0.0190599 0.0243084 0.0507965 -0.000995905 0.0644223 0.0128181 -0.0326904 0.0110433 -0.00745212 0.00474161 -0.0220091 -0.015664 0.0104686 -0.0488644 0.0178957 0.0128274 -0.00256339 0.00624298 -0.000377856 0.0126088 0.0494768 0.023712 0.0054778 -0.0353416 0.0528674 0.030511 0.000757704 -0.00264414 0.0157748 -0.0199644 0.00344495 -0.0427459 0.0367172 -0.0197056 -0.0159605 0.0542704 -0.00422543 0.0359301 -0.0395718 -0.0173496 -0.0400375 0.0462721 -0.107723 -0.020534 0.0595978 -0.0516095 -0.00321064 -0.00877211 -0.0687159 -0.00338001 0.0395687 0.0411085 -0.016884 -0.0357202 5.93529e-05 -0.0421181 -0.0246773 -0.0105063 0.0145968 -0.0324981 -0.00113776 -0.0725026 0.0503344 0.00730146 0.0385899 -0.0182818 0.0133837 0.019357 0.00161408 -0.00250104 0.04692 0.0159367 -0.0679044 -0.0121242 0.0213911 -0.0410833 0.0304013 0.0790805 -0.0173078 0.00789283 0.0268365 -0.0476503 0.0113209 -0.0107259 0.0817896 0.0736817 -0.0101954 0.0207183 0.0428955 -0.0155721 -0.0401503 0.029033 -8.74569e-05 -0.0218701 0.0360683 0.0281539 0.0303321 -0.0229824 -0.0239248 -0.0140596 0.0276549 0.0173733 -0.00723733 -0.0251828 -0.0480386 0.0312907 -0.0148441 -0.0288208 0.0882555 -0.0141035 -0.0450791 -0.0211504 -0.0359745 0.0173243 0.0230529 0.0244786 -0.0501831 -0.0606683 0.000615046 -0.0129794 0.0111076 -0.06927 0.000586346 0.00684258 0.00801929 -0.0185037 -0.0746742 0.0256554 0.00734339 0.028497 -0.00778087 -0.00323122 0.0209274 -0.0839109 0.0527349 -0.0140509 0.0107958 0.00997259 0.0526235 -0.0335969 -0.0556186 -0.097278 -0.0560479 0.00954717 -0.0186475 -0.032752 -0.0970751 0.0215184 -0.0419039 0.0268586 -0.020433 -0.0105522 -0.0301794 -0.0264107 0.0451241 0.00160593 0.00836238 0.0188255 -0.0108411 -0.0249131 0.0200936 0.101937 0.0265436 -0.0389235 0.00735828 0.0335103 0.0218827 -0.0154769 -0.00517257 -0.0565541 -0.0493596 -0.051655 -0.0166177 0.00832631 -0.0289843 0.004503 0.0140451 -0.00500231 0.0240781 -0.00825083 -0.0104859 -0.0102156 -0.0170515 -0.0375852 -0.0406036 -0.0215579 -0.000209381 0.0202256 -0.0252511 -0.0476589 -0.0191141 -0.0442059 0.019662 0.000447052 -0.0259428 -0.000713434 0.0352299 0.0458487 -0.00286139 0.0128649 -0.0218273 0.00418633 0.0169888 -0.0187873 -0.0150702 0.0453987 -0.00715416 -0.0115758 -0.0190069 0.0152489 0.0324552 -0.053027 0.00677967 0.0184887 -0.0311865 0.0403726 -0.0219614 0.0483627 -0.0788692 0.0197397 0.00178765 -0.000451672 -0.0101658 -0.0459884 0.0217649 0.0372265 0.0042989 0.0181367 0.0408817 -0.0503296 -0.00265692 0.0460855 -0.00154076 0.0299644 0.0463434 -0.0557123 0.00984483 -0.0336043 -0.0574753 0.0205568 -0.0332674 -0.00139073 0.019564 0.0216974 -0.0154321 0.0212719 0.0840906 -0.0333394 0.00706798 -0.0372807 -0.0594177 -0.0568448 -0.0487713 0.0242338 0.0530952 0.0363722 0.0137496 0.00936827 -0.0159825 0.0199744 0.000127747 -0.0502147 -0.0140358 0.00854447 0.010638 0.0020416 -0.0596001 -0.00420948 0.0525521 -0.0268826 0.0404784 -0.0395257 -0.0286798 0.00552129 -0.0181018 0.0167862 -0.0168702 0.00182601 -0.0522268 0.0202912 -0.0113943 0.0589951 0.0824964 -0.0138096 0.015222 -0.00451967 -0.0462837 0.00734055 -0.057887 -0.0178149 -0.0360071 -0.023491 0.0235424 0.0381402 -0.0118857 -0.0534791 -0.0173487 -0.020238 -0.0087815 0.000720729 -0.0550508 0.064789 0.0544102 0.00274117 -0.00372739 0.00899287 0.0300814 0.00327375 0.0092963 -0.0097511 -0.0255985 -0.0448895 0.039929 -0.00159826 0.00716584 -0.00664612 -0.0373838 0.0465078 0.00369486 0.0111539 -0.0599961 0.0288311 0.0190821 -0.023631 -0.0013328 0.0114693 0.0211875 -0.0248421 0.0585314 -0.00403582 -0.0293201 0.00612176 -0.0294499 -0.0117416 -0.0165935 -0.0595816 -0.0202442 0.00296529 0.0505472 -0.00885321 0.0346943 0.0180271 -0.0159598 0.0207272 0.0462215 0.0232627 0.00492663 -0.104367 0.0436778 -0.0168762 0.0122794 0.0328922 -0.00370591 0.0528331 0.0112659 0.0268454 -0.0156957 -0.084037 -0.0199834 -0.0403322 0.0286729 0.00830593 -0.0540037 0.0152329 0.00594532 -0.0428013 0.013551 -0.033943 0.00166326 0.0334837 -0.0297653 -0.00218851 -0.0745004 -0.0642118 -0.0432056 0.0163948 0.0119748 -0.0255779 -0.0608933 -0.0414251 -0.0136142 0.0256669 -0.00378964 -0.0431942 0.0194581 0.0305356 -0.0342891 -0.036031 -0.0391931 0.0394698 -0.0268583 -0.0291607 -0.0825963 -0.00935232 0.00481159 -5.26899e-05 -0.011621 0.00219507 0.0362417 -0.0510389 0.0133352 0.0982543 0.024705 -0.0266485 -0.0181995 -0.00801652 -0.0546646 -0.00978191 -0.0100325 0.0197119 0.00636375 0.0359059 0.0114572 0.0128935 0.0219287 0.0237099 -0.067989 0.0219308 0.0404201 -0.0236411 0.0480181 0.036533 0.0325876 0.0260385 0.0455783 0.0503102 -0.0532576 0.0116278 -0.0120582 0.00591988 -0.0201462 -0.0472637 -0.0203076 -0.0162484 0.0555502 -0.000319864 -0.0157202 0.0126366 0.0450189 -0.054952 0.0657554 0.00678667 -0.0307203 -0.0403038 -0.030107 -0.00598782 0.0297311 0.0216567 0.052086 0.0165753 -0.0181329 -0.0238352 -0.0412572 -0.000905155 -0.05901 -0.0507581 0.0229117 -0.00331878 0.0433423 0.0348377 -0.00553926 0.0142241 0.00299312 0.00074774 -0.0193116 0.0415495 0.014552 0.0104324 -0.0405559 0.0239942 -0.021977 -0.0201358 0.0448386 -0.0445243 0.0202299 -0.0332958 -0.0190579 0.0568529 0.030751 0.0315338 -0.0139709 0.0385777 0.0230619 -0.0348525 -0.0150752 0.0362722 0.0367858 -0.0464626 0.0162368 0.0470317 0.0357777 -0.0275513 0.0178583 0.0176445 0.114543 0.005972 -0.0125683 -0.0296486 -0.00645397 -0.0443192 -0.007285 -0.073599 -0.0107386 -0.00574128 -0.0291602 0.00260235 0.00670125 0.00631321 0.0250639 0.0291816 -0.025272 -0.00966247 -0.0158561 0.0326326 -0.0175749 0.0316693 0.0739617 0.0302951 0.00784825 -0.0185754 0.0035219 -0.00861704 0.0641698 -0.00751094 0.0796062 -0.0381722 -0.00962051 -0.045244 0.00650238 -0.0129734 -0.0449981 -0.0675582 -0.00971247 0.0142955 0.00120019 0.0455522 -0.00273518 0.0088093 0.0332987 -0.020698 0.00802226 -0.0473146 -0.00943063 -0.0190797 -0.00847607 0.0760357 0.0275332 0.0333159 0.00555539 0.0195487 -0.00858943 0.0117646 -0.012629 -0.00521727 -0.0144018 0.0355328 0.0128271 -0.0230972 -0.0183949 -0.0317296 0.00105211 0.013279 0.0204085 -0.0530552 -0.0126981 0.0169306 -0.0300016 -0.0742466 0.00351391 -0.0198251 0.00972114 -0.0312602 -0.0405577 -0.0156852 -0.0046951 -0.0181023 0.0126447 -0.0722893 0.0301324 -0.0353311 0.0448627 0.0702416 -0.0542834 0.0115805 -0.0375427 0.0179995 -0.00743401 -0.0114668 -0.0314882 -0.0130224 0.0431958 -0.0436347 0.00713946 -0.0230589 -0.055244 0.0350601 -0.0814221 -0.0124878 -0.0205747 -0.0160485 0.0203211 0.0603269 0.0363309 -0.0388242 0.00987473 -0.0327626 -0.0124699 -0.0219516 -0.0217335 0.00761993 -0.0376115 0.0144014 -0.00675078 -0.0112651 -0.0493347 -0.0228605 -0.00624395 -0.0165357 0.119557 -0.0228131 -0.0260643 -0.0307986 -0.00279165 0.00548309 -0.0127086 0.00311618 0.043793 -0.0498486 0.0380235 -0.00665959 -0.00920451 0.0563859 0.0309505 0.0456036 0.0540772 -0.0169377 -0.0315405 -0.0505388 0.00962831 -0.0239874 0.0235657 -0.0479354 -0.0262306 0.0242469 -0.0270464 -0.00444918 0.0089294 0.063862 -0.0242521 0.0383973 0.0611566 0.0767526 -0.0600468 0.0706537 -0.0476383 -0.0271637 -0.0219203 -0.000372253 -0.0107837 -0.070648 0.0492893 -0.0107945 0.0157726 0.0140117 -0.00675375 -0.0194552 0.000350792 -0.0192733 0.0249784 -0.00457245 -0.0791761 0.049199 -0.0150867 -0.00986803 0.0137811 -0.0182245 -0.0585504 -0.0171725 0.0662528 -0.0233868 -0.0267304 0.0112809 -0.00863756 0.00929434 0.018959 ^-0.00154032 -0.028801 0.017767 -0.0131192 0.0536963 -0.0384314 0.0186604 0.0285148 -0.0473277 -0.0375663 -0.0466953 0.020331 0.00707544 0.0195408 -0.0421365 -0.0031347 -0.0275702 0.0114188 -0.0202276 -0.0401855 -0.0392312 -0.000861126 -0.024854 0.0432517 0.0293757 0.0132469 0.0533731 -0.0543012 -0.0325441 0.000603507 0.00886009 -0.0718484 0.0151189 0.00800903 -0.0149321 -0.00462217 -0.031552 -0.0219374 -0.00578141 -0.0368326 -0.0370622 -0.0130767 0.0183658 0.038596 0.0461121 0.0380049 -0.00831656 0.0062603 -0.00770815 0.0569711 0.0235137 0.0434208 -0.00526222 -0.00789492 -0.028181 -0.0376915 -0.0719183 -0.00231931 0.00448393 -0.0239961 -0.0619557 0.00252067 -0.103051 -0.0873039 0.0207827 0.0200259 -0.0372436 -0.019802 -0.022462 -0.00469985 -0.024742 0.025732 -0.0157403 0.0262616 0.0271091 -0.0153187 0.0652381 0.00321612 -0.0111504 0.0149153 0.0223375 0.0524494 -0.0130107 0.0186177 0.0128081 0.0575633 0.0320982 0.0176111 0.0229982 -0.0178464 0.00475782 -0.0738897 -0.036868 -0.034747 0.00476791 0.00563253 0.00921358 -0.0561505 -0.0279624 0.0224414 -0.00914617 -0.0349687 -0.0037565 0.0293649 0.0216464 0.0601297 -0.0249122 0.0160449 0.100029 0.000936811 0.0465652 0.0126862 0.0358169 0.0333563 -0.00515512 -0.0830774 -0.0305623 0.0672065 -0.0819853 0.0438093 0.00145786 0.0215077 0.00658508 0.0270841 -0.0463236 0.00431594 0.0189485 0.0147441 0.0135273 0.0053349 0.00870826 0.0475199 0.0381224 0.0670711 0.0148341 0.0767034 0.0311419 0.0681859 -0.0021549 -0.00834885 -0.0135843 0.0656529 -0.000208105 -0.0171872 0.00907206 -0.00136529 0.026223 0.0170025 -0.0513032 -0.0233076 -0.00919005 -0.00716591 -0.0107494 -0.00626949 -0.0221636 -0.00663647 -0.0510108 -0.0506153 0.0406223 -0.0487295 -0.00166069 0.0320119 -0.0361177 -0.0478674 0.0711069 0.00162773 0.0413603 0.0484917 0.0171933 -0.00498471 -0.0301109 -0.026824 0.0433442 0.0396688 0.0341983 -0.019668 -0.0108478 0.0128365 0.00946731 -0.0339484 -0.0233019 -0.0119581 0.0367431 0.0337724 -0.0079176 -0.0375861 0.0152276 0.00495949 0.00832271 0.0368358 0.0289487 0.0285804 0.00910803 -0.026407 0.000942613 -0.0329563 0.00870675 0.0107769 -0.0303756 0.0195492 0.0351503 -0.0246006 -0.025276 0.0300718 0.0245749 0.0322148 0.00376732 0.00808756 -0.032267 -0.00317561 0.0157864 0.00886226 0.010165 -0.0239907 0.0539074 0.0336335 -0.039241 0.0275802 0.0168001 -0.00503988 0.0463235 -0.021607 0.00436278 0.0363562 0.00386911 0.0272983 -0.0130696 0.00750016 -0.00471809 0.0384329 0.0194758 0.000721412 0.00487789 0.00208659 -0.0104397 -0.00263259 -0.00614623 -0.0177743 0.0535357 1.23342e-05 0.0031657 0.0258917 -0.00996351 0.0527668 -0.0275701 -0.0277991 0.0834995 0.00655025 0.00404315 0.0286623 -0.0336377 -0.0451727 0.0323815 -0.0298113 -0.0423632 0.0123313 0.000349484 -0.0111482 0.0725179 -0.0267872 0.0290354 0.0372678 0.0217614 0.0440152 -0.0288973 -0.0308764 -0.00884132 -0.0535395 -0.0290838 0.00322278 -0.00531586 0.022689 0.0134885 0.00188815 0.013369 -0.0515552 -0.0196144 -0.033013 -0.0725603 -0.0301521 -0.000983421 -0.0480861 0.0486536 -0.0403039 -0.0150228 0.0230131 0.047024 -0.0440735 -0.0146214 0.033811 -0.0490644 0.018108 -0.0478316 -0.0876026 0.0291671 -0.0182052 0.0191692 0.0334476 0.0354892 -0.0125354 -0.00529048 0.0764437 0.0138354 -0.0161136 0.0497147 0.0379999 0.0205727 0.0357922 -0.0312474 0.000840299 -0.0142788 -0.0273958 -0.0428032 0.0298429 0.00542284 0.0255151 -0.0250692 0.0129938 0.0398495 0.0225193 -0.00688496 -0.0225319 -0.0282264 0.0248388 0.0213203 -0.0339257 -0.0060538 -0.0224943 0.0527703 -0.0353027 -0.031037 -0.0236437 0.0411005 -0.0687181 0.0286434 -0.00528091 -0.0209749 0.0271353 0.019769 -0.0163364 -0.00345019 -0.077238 -0.0656355 0.0168793 -0.0571966 -0.0494954 -0.038297 -0.0351841 0.0517229 0.0106276 -0.0536715 -0.0347481 -0.0190146 -0.0259896 -0.0761844 0.0291385 0.0561367 -0.0715842 0.0042009 0.0124972 -0.0346067 0.0678218 0.0137771 -0.00266011 -0.0338295 -0.0112323 -0.0197961 -0.0716628 -0.00389642 0.0446196 0.00401829 0.061479 -0.0247831 0.0200499 0.0363497 0.03581 0.0232871 -0.040086 0.0309284 0.00411319 0.0739734 0.0493773 0.0472854 -0.00337552 -0.0188035 0.00940423 0.0356633 -0.025846 -0.0071068 0.0402361 -0.0289551 -0.000997573 0.0184337 -0.0113427 -0.0224589 -0.0318099 0.0515089 -0.0289449 0.0819589 0.0654497 -0.00216181 0.0620241 -0.0372053 -0.00385993 0.0415926 0.0197999 0.0324916 -0.0242905 0.0233092 -0.00656768 0.00950348 -0.0589361 -0.0244695 -0.0632538 0.0435983 -0.0144829 0.0168772 0.0446406 -0.0139119 -0.0219726 -0.0070641 0.0354565 0.0610071 0.0406736 0.0121297 -0.0365023 0.0240224 0.0336263 -0.0231809 -0.00447943 -0.0183925 0.0209794 0.0259957 0.0187401 0.0436631 0.0264983 0.00239293 0.0936549 0.0615838 -0.0291636 0.0442847 0.0107746 0.0416127 0.0277465 0.040902 -0.0544398 0.000602596 -0.0659004 -0.0191688 0.025741 0.0293903 0.0167523 0.0141736 -0.0334971 -0.0359929 -0.0125378 -0.0368596 0.00768953 -0.00782475 -0.00527504 0.0597837 -0.00245922 0.053231 0.0227554 -0.0239692 0.0276997 -0.0555762 0.0300626 0.0365064 -0.00306539 0.0209184 0.0975633 -0.0067072 0.022099 -0.0290511 -0.0408805 -0.00330571 -0.00362007 0.0254085 0.000361786 0.0204278 -0.0622922 0.0125229 -0.00070461 0.0467803 0.0363097 -0.0113519 -0.0315305 0.0629196 0.0549933 -0.055526 -0.0503492 0.00637251 -0.0472688 0.0250059 -0.039573 -0.0119653 0.0257404 0.00392009 0.0521244 -0.00350817 0.0260957 -0.0432752 0.013099 0.0107477 0.102793 -0.0171234 0.00436441 -0.0597461 0.0527562 0.0198461 0.0672112 0.00721733 -0.015443 0.0180197 0.00217064 0.00355942 -0.0299804 -0.0650802 0.0259569 -0.00275775 -0.0200519 0.0384856 -0.0427026 -0.0226431 -0.0307626 -0.0187641 0.000558589 0.0277916 -0.00541013 0.034291 -0.0717949 -0.0448488 0.0169212 0.0183102 0.0243843 -0.0032806 0.0403329 0.0220474 0.0487754 -0.00194036 -0.00844498 -0.00634914 -0.0144436 0.0398573 0.0421942 -0.0078299 0.00464265 0.0197976 0.0622218 -0.03176 0.0221999 0.00522695 0.000784244 -0.0262353 -0.0266272 0.0408992 0.0569237 -0.00569049 8.85786e-06 0.0162146 -0.0613857 -0.0370326 -0.0661449 -0.00963911 -0.000973392 0.000500931 0.0102524 0.0296862 0.000536989 -0.0501591 0.0370253 -0.0096771 0.0143583 -0.0394181 0.014128 -0.0121688 0.0481246 0.00232803 -0.00873388 0.0291986 0.0642818 -0.000981825 -0.012072 -0.0258314 0.0249969 -9.29592e-05 0.0215851 0.043242 -0.00549255 -0.00773734 -0.0330662 0.0153305 0.0656256 0.000529712 0.00177356 0.085151 0.00133363 0.0377334 0.0297532 0.00979576 0.0378082 0.025951 0.0826144 -0.0285142 -0.0462627 -0.0143756 -0.0380858 0.00582936 0.0425056 -0.000564817 -0.061799 -0.0504417 -0.0906691 0.0479076 0.0148212 -0.0214051 0.0101626 0.0245756 -0.0329878 -0.00414394 -0.0600576 0.0115726 0.0258803 0.0215557 0.014159 0.00849434 0.0350408 0.00333425 0.00474787 -0.0160832 0.0289091 0.0733032 -0.0521192 0.0248373 -0.0464046 0.00142179 0.0524504 -0.0355893 -0.0598274 0.0317458 -0.00640953 0.0380591 -0.0211439 0.0128932 0.0197151 -0.0632906 0.00942829 0.020071 -0.0199128 -0.0202304 0.0183539 0.0486315 -0.0415727 0.0571622 0.00202971 0.0288307 -0.0509848 -0.0726786 -0.000933351 0.0348465 0.0696476 0.00571192 -0.0151767 -0.0115086 -0.0374476 -0.0126413 0.0152694 -0.00168558 0.0151447 -0.0240706 -0.0150079 0.00703867 -0.0318512 -0.0122681 -0.000760313 -0.00495108 0.0367361 -0.00583533 0.0044732 0.048755 0.0266256 -0.0761184 0.0444359 -0.0215819 0.0720623 -0.0241678 0.0350271 0.0397043 0.00601531 0.0161787 0.00792087 0.0225482 -0.0559628 -0.0024191 0.0473209 -0.0349058 0.025904 0.0265897 0.0329339 0.0725051 0.00249901 0.00251718 -0.0230714 0.053074 0.0401289 0.0431914 -0.0307401 -0.033946 0.0198224 0.0160284 -0.000860947 -0.0242681 0.0409227 0.00940829 -0.0327593 0.0320689 0.0257083 0.047297 0.013707 0.0258487 -0.00302641 0.045074 0.051118 -0.022972 0.0140444 -0.071872 -0.0272666 -0.0232383 0.0368873 -0.045708 -0.0400677 0.0299205 -0.0620381 0.00387039 -0.0116138 0.0178391 -0.0344992 -0.0257577 0.0063653 0.00838798 -0.0535236 -0.0127426 0.0128554 0.012013 -0.004459 0.00775846 -0.0327309 0.00628259 0.02597 -0.0325136 -0.012816 0.0131313 -0.0257235 0.00070736 -0.010549 -0.0352798 0.0158079 -0.0412038 -0.0538044 -0.0861573 0.0565747 -0.00454461 0.0294096 0.00401944 0.035786 0.02169 -0.0386472 0.00899193 -0.00313084 0.0327946 0.0358473 -0.00478481 0.000535796 0.0167576 0.0644207 -0.0464818 0.0501424 0.0211722 -0.0161794 0.0043245 -0.00641164 -0.000286614 0.0573644 ^0.085921 -0.0246399 0.0108757 0.0170521 -0.00472702 -0.00983367 -0.0271351 0.0171659 -0.00787872 -0.0105506 -0.0546788 -0.0255259 -0.0209568 0.0740601 0.00018746 -0.0224012 0.0244697 -0.00711385 -0.0578699 0.00651668 0.0254477 0.0560631 -0.0148054 0.0113542 -0.0549663 -0.0567063 0.0636952 0.0273626 -0.0170619 0.0477622 -0.0408209 0.0549915 0.000618457 -0.0152685 -0.0578295 -0.0376594 -0.0826964 -0.028815 0.0492394 -0.0152473 -0.0407459 -0.0218633 0.0722063 -0.0254866 -0.0394589 0.0136471 0.00696325 0.00779238 -0.0118604 -3.87929e-05 -0.0237661 0.00230532 0.0582791 0.0338129 0.00596864 -0.021776 0.00858832 0.0745181 -0.0149022 0.0247455 0.0224398 -0.0127624 -0.0159982 0.016835 -0.00579556 0.0277623 -0.046788 -0.070361 0.0104116 0.0539598 0.00914935 -0.00826268 0.0427519 0.0227961 -0.00948671 -0.0728874 0.0199781 -0.0266656 0.0523109 0.0103529 0.0461235 -0.0184713 -0.021748 -0.0276936 -0.0797638 0.035903 0.000910643 -0.0249243 0.0249942 0.0202936 -0.0309923 -0.0109172 -0.0609247 0.0600565 0.0499034 0.0461265 -0.0147652 -0.0642996 0.00640418 -0.0439857 -0.00498113 -0.0244477 -0.00716573 -0.0124952 -0.0308128 -0.00371211 0.0715199 0.00803523 0.0233265 -0.032101 0.0412236 0.073887 0.0387364 0.0129418 0.0173227 -0.0534239 0.0490833 -0.0406326 0.053675 -0.0520218 -0.0119761 0.00313892 0.0114259 0.035509 0.0152733 -0.0284207 0.0737932 -0.0438719 -0.0120338 -0.050604 0.0454085 -0.0340372 -0.0348761 -0.0426363 -0.00639348 0.0294464 -0.0155844 0.0350873 0.00324621 -0.0471929 0.0145241 0.0242442 0.0377282 -0.0186643 0.0106066 -0.0388906 -0.0605179 -0.0466023 0.0590451 -0.00121157 0.00906012 -0.0789491 -0.0116072 0.0203571 -0.00338654 -0.0283013 -0.0476253 -0.0111797 -0.0283411 -0.0364812 0.0187822 0.0518539 -0.0463114 -0.0271307 -0.0355672 0.0262276 -0.035706 -0.0436968 0.0221994 -0.068588 0.061089 -0.0283847 0.0774996 0.0323316 -0.00309665 0.0198205 -0.0308043 0.0279919 -0.003411 -0.0386905 -0.00916082 -0.0392031 -0.0181101 -0.00598285 0.012578 -0.0305519 -0.0221525 0.0172415 -0.052587 -0.0163132 0.000172823 0.0447379 0.0172387 -0.0539222 0.0213027 0.0255661 -0.0323361 0.0344318 -0.0458126 0.0163004 -0.0517236 0.0357976 -0.0617256 0.0416072 -0.0081895 0.0173976 0.0292389 0.0475777 0.0201833 -0.0167658 -0.029793 0.0397487 0.0345384 0.00368559 0.0187666 -0.0027258 0.00791907 0.0561275 -0.0164547 0.0234581 0.00076046 -0.0368253 0.00456758 -0.0190419 -0.0765509 -0.0232319 -0.0583124 0.0461737 0.0201605 0.0215349 0.00979743 0.00252542 0.0157612 0.0396161 -0.0181841 0.0152842 -0.0336515 -0.0385173 -0.0603806 -0.0533798 0.0567927 0.0247173 0.0135914 0.0096735 0.0341869 -0.0719143 0.0210982 -0.00780217 -0.00371367 -0.0267978 -0.00720331 0.024188 0.0136987 0.0238927 -0.0242994 0.0601211 -0.0289323 0.00735621 0.0722723 -0.000766917 -0.067405 0.00419454 -0.0267331 -0.0227579 0.00682837 -0.0341777 0.00951161 0.010779 -0.0596293 -0.00143601 -0.000464115 -0.0137935 0.056366 0.0110377 0.00430319 -0.0125436 0.0330028 -0.0282829 0.00853289 0.0322971 0.0532697 -0.00940959 -0.00989266 0.0339419 -0.0101454 0.00282088 -0.00312001 -0.0103035 0.0259208 0.0735667 0.000541228 0.00168517 0.0175921 -0.0306411 -0.0793222 -0.0140839 -0.00155635 0.0614041 -0.0256545 0.00564065 -0.00501108 -0.063871 -0.0274108 0.00647091 0.0346375 0.0745305 -0.0131999 0.0794944 0.0090717 -0.0466454 -0.0159932 0.0345895 -0.0625723 0.0143066 0.0685559 -0.0167047 0.024487 0.00804409 -0.0247402 -0.00867367 -0.0328752 0.01439 0.0470775 -0.00173097 0.0107354 -0.0142275 -0.00672926 -0.0566526 0.0340231 0.00714202 0.086352 -0.0272969 -0.0369913 0.0308372 -0.0157758 0.0711763 -0.0105407 -0.0643366 -0.00479061 0.0384422 0.0168185 -0.025566 0.0442153 0.0362324 0.0513583 0.0466065 0.0382705 0.0619858 0.00596128 0.0149162 -0.0678691 -0.014349 0.0260476 0.0296788 0.0251413 -0.0199855 -0.00125288 -0.0328811 0.0169844 0.0407147 0.0515737 -0.0570856 0.0128997 -0.0128161 0.00203275 -0.059028 -0.0324352 -0.00171041 -0.0312167 -0.00153108 0.0201173 -0.0465675 0.0141188 -0.0316476 -0.0282827 0.0134755 -0.0159418 0.0233159 -0.00847069 -0.0515069 -0.0171438 0.0159928 0.0115339 0.0232651 -0.000775843 0.0400475 -0.0159217 0.0704727 0.0102293 -0.0354057 0.00988828 0.00937321 0.0192764 0.0683345 0.0110544 0.0203727 0.0191673 0.0455508 -0.039154 -0.0375711 -0.0620575 -0.0212666 -0.00765232 0.0171308 0.01951 0.0448407 -0.000100359 -0.0552859 -0.0465212 0.0185038 -0.0841199 -0.0285397 -0.0252817 0.0723434 -0.0540246 0.0643029 0.00968859 -0.0244559 -0.0736937 0.0414995 0.0418519 -0.0279477 -0.0457413 0.00686284 0.0244037 0.0295669 0.0634458 -0.00566427 0.00325868 0.0643025 0.00542936 -0.00456742 -0.0264674 -0.0114074 -0.0356403 0.0209963 -0.0320025 -0.0162976 0.0155507 -0.0355705 0.0107364 -0.0148532 0.00463441 0.0262975 0.01154 0.0256101 0.0396614 0.000754165 -0.0146144 -0.050605 -0.00610772 0.00829469 0.0344595 0.00851708 -0.00115648 -0.0266154 0.0750043 0.0854754 0.00503736 -0.00423602 -0.0131252 -0.00126188 -0.0665271 -0.038617 0.017732 -0.0443388 0.0630112 0.0313362 -0.0259941 -0.00453982 -0.0122888 -0.00282539 -0.0120206 0.0129095 0.020247 -0.0451208 0.0297863 0.0674241 -0.014196 -0.0528153 -0.0644795 0.0287252 0.0367836 -0.0244278 0.0211164 -0.046659 -0.0389512 -0.0301154 -0.0143008 -0.00593888 0.0140965 0.0155274 -0.0278458 0.00777202 0.0289589 -0.0612524 0.00723566 -0.000739779 0.0151092 -0.00776639 -0.0395051 -0.00251895 0.0024919 0.00507748 0.00822906 0.035807 0.00434898 -0.00429789 -0.00587953 -0.040561 -0.0357791 -0.0171525 0.0250732 -0.0358624 -0.0310633 0.0207937 -0.0144738 -0.00585689 -0.0316937 -0.038602 -0.036107 0.0445543 0.00178479 -0.0944647 0.00531035 -0.0141214 -0.0162535 -0.0155512 0.0167876 0.00129517 -0.0366291 0.0264254 0.0573819 -0.0717479 0.0145985 -0.0395225 0.0164193 0.0265685 -0.0107453 0.00555546 0.0568312 -0.064018 -0.0406552 0.0301736 0.0199089 0.00998081 -0.0125144 0.0608076 0.0377685 0.0219595 0.0011383 -0.0290684 -0.0186043 -0.0171607 0.000589471 -0.0242111 -0.0187565 0.0249432 -0.00804804 0.00604454 -0.0320069 0.0542991 -0.0132049 0.0199686 -0.00654333 -0.0218834 -0.0674438 -0.0637836 0.0841302 -0.036164 -0.0278222 -0.0318426 0.0174957 -0.0240434 0.0215088 0.00120719 -0.00658236 0.0326073 -0.0640409 -0.0197053 -0.038617 -0.0105872 -0.00320905 0.00714035 -0.0232997 -0.0291242 0.00093055 -0.0313128 0.0127616 0.0519641 0.0397008 -0.0391905 0.0187422 -0.0286029 -0.041065 0.0166828 -0.0114064 0.0414414 0.0543848 0.0174603 -0.0620896 0.0189699 -0.020856 0.00783046 0.0168911 0.0840794 -0.0465975 -0.0644302 -0.0222101 -0.000803787 0.0178449 -0.034722 0.0688938 0.0221966 0.0105336 0.015085 0.0303415 -0.037813 -0.0391119 -0.0426965 -0.0608777 -0.0131838 -3.04402e-05 0.0329876 -0.0212662 -0.0368148 0.0196879 0.000909511 0.019212 0.0186004 0.0289297 -0.00336934 -0.0503509 0.00451054 0.0068286 -0.0185374 0.00099385 0.0560865 -0.00119745 -0.0547974 -0.00145153 -0.0344417 0.0360261 -0.0388037 0.0262995 0.0321366 -0.0318961 -0.043113 0.0343463 -0.0534315 -0.0302398 0.0190868 0.0219173 0.0297774 -0.0348163 0.0485824 -0.00571386 0.00522699 -0.015931 0.0091874 -0.060201 -0.0152129 -0.049096 0.0452738 -0.0259828 0.0297352 0.0347415 -0.0434041 0.0367277 0.00154001 0.0174116 -0.0124484 0.0816786 0.0138992 -0.00738952 0.0157387 0.00999311 0.0262346 -0.0314681 -0.0193882 0.0038254 0.0335519 0.0377337 -0.0216915 0.0853889 -0.0247027 0.0326382 0.0459882 0.00807493 0.0399768 0.0208318 0.0168372 -0.0171312 0.0479234 -0.0284686 0.00949527 0.011355 -0.00167961 -0.0132126 0.00289372 0.0281408 0.0166892 0.0467814 0.00371714 -0.0154004 0.0323956 0.0448197 0.0266187 0.011469 0.0456771 -0.0619758 0.0799496 0.0406256 0.0485251 -0.0754941 -0.052587 -0.0650246 -0.02313 0.0105787 0.0240723 0.00594612 -0.00102915 0.0557196 0.00570756 -0.0146124 -0.0278493 0.0548417 -0.0485148 -0.00803312 -0.0608963 -0.00220636 0.03876 0.00157 0.0203275 0.0435064 -0.0413595 -0.0377027 0.00831346 -0.0626354 0.0371201 0.101259 0.0184479 0.018215 -0.0551477 -0.0596143 -0.046164 0.0101804 0.0657454 0.00274234 -0.0332699 0.0227996 -0.0335784 0.0186906 0.0381108 0.0175432 0.0273229 -0.0135126 -0.0135047 -0.0298344 0.0742485 -0.0250719 -0.0552085 -0.0201121 -0.0318546 0.0534226 0.016088 0.0450221 -0.0280051 0.0244253 0.061632 0.00416035 -0.0409529 0.0260769 -0.0221576 0.0461756 -0.0931204 -0.0212804 0.0148298 0.0013893 0.00965865 0.0568372 -0.00655334 -0.022887 -0.00269765 ^-0.0194102 0.0284706 0.0562558 0.0193175 -0.0215324 -0.00588205 0.0230319 -0.0181505 0.0438817 -0.0242374 -0.0209881 -0.00126731 0.0576509 0.00857464 -0.0300563 0.0057424 0.0130774 -0.0614042 -0.00259358 0.0624319 0.0199028 -0.0497581 0.00184191 -0.00766221 -0.0196319 -0.0433655 0.0472856 0.0495898 -0.00458164 -0.0173023 -0.0289696 -0.0144958 0.0294796 -0.0891963 0.0168027 -0.0270105 -0.00601015 0.0223183 0.039966 0.0268544 -0.00987099 -0.0348135 0.00280848 0.00998346 0.0247219 0.0523392 -0.0390212 0.0839873 0.014681 -0.0759434 -0.0173162 -0.0133674 -0.0372449 -0.0253668 -0.0762913 -0.0235803 -0.0221811 0.0615454 -0.0014904 -0.0179634 0.0332679 0.00221714 -0.0248319 0.0188659 0.00566307 0.0410741 0.0329864 0.000977037 -0.062293 0.0429833 -0.0260269 -0.105191 -0.0253855 -0.0174899 -0.0129689 -0.0157665 -0.00802078 0.0163715 0.0304218 0.0299219 0.0123788 -0.00343173 -0.0151784 -0.017834 -0.00145367 0.0441965 0.0054497 0.0258565 -0.00937788 0.00260437 -0.0755357 -0.0286394 0.0553663 -0.00575062 0.0106648 0.00746706 -0.0258626 0.015045 -0.00372853 0.0127085 0.0651809 -0.0214999 -0.0170946 -0.0219618 0.0446064 -0.0246881 -0.0526026 0.0299017 0.0286118 -0.012101 -0.0456123 -0.0388444 -0.0684806 0.0493361 0.00867502 0.0530938 0.00607397 0.0125361 0.0224442 -0.0435225 -0.00149892 -0.0250691 0.0222414 -0.0515953 0.0478581 0.00736492 0.00981553 -0.00285236 0.00745304 -0.0601713 -0.0393483 0.0614395 -0.0464548 0.101687 0.0560202 0.012948 -0.00247026 0.0272234 0.00216701 -0.0167242 -0.0224032 -0.0201583 0.0110191 -0.0670358 0.0116617 -0.0362346 -0.00287702 -0.0240635 -0.0175428 -0.0108228 -0.0176953 -0.0359483 -0.0513069 -0.0109446 0.0347632 -0.126922 -0.0259787 -0.0140541 -0.0534812 0.00779265 0.0593044 -0.0322415 0.0199912 -0.0268735 0.0393445 -0.00324699 0.0564562 0.0519839 0.00166257 -0.0516048 -0.0429737 -0.00132569 0.011462 0.0205287 -0.00567838 -0.00195708 -0.0614534 -0.0131722 -0.00075086 0.00637258 0.0137084 0.0499854 0.0140237 -0.00166811 -0.0305949 -0.0150184 -0.0117928 -0.00182833 -0.00610453 -0.0360272 0.022969 0.0441193 0.00193058 0.0329389 0.00351637 0.0226085 -0.015417 -0.0334904 0.0322348 -0.0128415 0.024414 -0.0360326 0.0707856 0.0208594 -0.0125024 0.00134538 0.00603906 0.0596573 0.00240748 0.021744 -0.059136 0.0125528 0.00213908 0.00885313 0.0298169 0.0117744 -0.0150954 0.00305853 -0.0287903 -0.0318255 -0.00419237 0.0349804 -0.0245334 0.00662388 -0.0222466 0.0208539 -0.0451095 -0.0163972 -0.0512672 0.0682681 -0.0209132 0.0432481 -0.0117311 0.0558585 -0.0110504 -0.0168677 0.0146264 -0.0155557 0.0141532 -0.0338798 -0.0322693 0.0668968 -0.0320331 0.00956444 0.0178952 0.00706198 0.0130363 -0.079401 0.00456965 0.0126459 -0.0148501 -0.0153937 0.00406132 -0.000638704 -0.0164549 0.00454177 0.0510676 -0.0212379 0.0332703 -0.0542436 0.0201334 0.0188675 -0.0415637 -0.0117057 -0.0237927 0.0176113 -0.00602039 0.0224982 -7.09884e-05 -0.033088 0.00535539 0.0133491 0.00385293 -0.0242646 -0.00822554 0.0127067 0.0225558 0.0411716 0.0275576 0.0229515 -0.0605978 0.0299158 0.000788092 0.00749728 -0.0304611 -0.0907596 -0.0308972 -0.0361902 0.0198927 0.0224364 0.00141862 -0.0325761 0.0266905 -0.0388451 -0.0222453 0.0339703 -0.0222849 -0.0176642 0.0163389 -0.0562185 -0.036136 -0.0374524 -0.00968377 0.00921721 -0.0129118 0.0273939 -0.0347291 0.00149082 0.00162187 0.0245392 0.00559553 0.0486488 -0.0671503 -0.0195425 0.021008 0.0396921 0.0246454 0.0428923 -0.00594327 -0.0410774 0.00200328 0.0212205 -0.0051354 -0.0220066 0.0151452 0.0220519 0.0422174 -0.0316716 0.0496038 -0.0371687 -0.0175588 0.0234372 -0.000728781 0.0943663 -0.00338302 -0.0192379 -0.0321922 -0.0226107 0.00230315 -0.00574095 0.0531706 -0.032498 0.00173646 -0.0324253 0.0347408 -0.0318331 0.00766516 -0.0699915 -0.00848227 -0.0150897 0.0546693 -0.116317 -0.0593605 0.0127268 -0.064542 0.0256839 -0.0516545 -0.0805145 -0.0457644 0.00209665 0.0323276 -0.0355878 -0.0133428 0.0307983 0.00705206 0.0522361 -0.0220861 0.0116599 0.0085172 -0.0150075 0.011724 0.000719489 0.0619205 -0.00128494 -0.0212763 0.0235284 -0.0332173 -0.0544624 -0.00708129 -0.0887369 -0.00269229 -0.0226515 -0.00208896 0.00334435 -0.0363953 0.017943 0.0287007 -0.00174322 0.0525346 0.00941963 -0.0513228 -0.0571391 0.0203247 0.00486415 -0.0246245 0.0135847 -0.00183976 -0.00948768 -0.0134415 -0.0335161 0.0591637 0.024083 -0.0824899 -0.0225004 -0.0289734 -0.0154695 0.0477932 -0.0777616 0.0185566 -0.0375357 -0.00433265 -0.0382827 -0.0173098 -0.0397256 -0.0161652 0.0523172 -0.0368799 -0.0140702 -0.0652345 0.0119188 0.0673351 -0.0113667 0.0458408 0.0248211 0.0482676 -0.0248806 0.00551143 -0.0138524 -0.0352355 0.0127408 0.00500742 -0.0144004 0.0519735 -0.0164806 0.000393771 0.0495238 0.0420832 0.0155604 0.0275641 -0.0413093 0.00873715 -0.0421462 0.0456508 -0.0536756 0.0170031 0.0239059 0.0528917 -0.0112243 0.0226451 -0.0742979 0.0622624 -0.00396262 -0.0413193 -0.0364078 0.0425803 -0.0177318 0.0133042 0.0131216 -0.0517152 -0.0335302 -0.0119739 0.0594477 -0.0288101 -0.0424289 0.0309719 0.0223729 0.0609038 0.054026 -0.00320638 -0.000770765 0.0132356 0.0123749 0.074108 0.0295488 -0.00871795 -0.037954 0.0572422 0.00680563 0.0447247 -0.0712985 0.101372 0.0576779 -0.0276352 -0.0016193 0.00674513 0.00291858 -0.033326 -0.0521249 -0.0125493 -0.0360075 0.0563775 0.0240112 0.0417887 0.000453598 -0.000811635 -0.0169517 -0.0135502 0.00500816 0.0418662 -0.00221697 0.0567873 0.0139411 0.0229401 -0.000810026 0.00686949 -0.0160584 -0.0212383 0.0296855 -0.0902594 -0.0260092 0.035046 0.0485896 0.0640396 -0.0170141 -0.00729209 0.00529468 0.0600651 0.031838 0.00503016 -0.0506357 0.0472707 -0.0269386 -0.0410401 -0.0070888 -0.00798813 0.0369588 -0.0189207 -0.0282024 -0.00868943 -0.0373519 0.000299398 -0.0146404 -0.0316633 -0.00331516 0.0165105 -8.71821e-05 0.030429 0.0667769 -0.0100273 0.036724 -0.0296101 -0.0160053 0.0225361 -0.0335325 -0.0039999 0.0483977 -0.00180704 0.0552958 -0.0376322 -0.0705766 -0.0309669 -0.0290923 -0.0267933 0.0363581 0.0425065 0.0297818 -0.0403264 -0.0266463 -0.0392424 -0.0332712 -0.0213517 -0.0127343 -0.0122119 0.0017004 -0.0382607 -0.00745968 0.0197425 0.0124347 -0.0417295 -0.0233787 0.0549428 0.0288319 0.020427 0.0262671 -0.00256358 0.0182949 -0.0173835 -0.00396937 0.000547777 -0.023586 0.0192138 0.0143488 0.0233845 0.0726181 0.0308088 -0.0530497 -0.0198715 -0.0560764 -0.0189237 0.0308791 -0.00840833 0.0185902 -0.0570682 -0.0154005 -0.000398831 0.00827269 -0.0064111 -0.0317067 0.0156541 0.0881617 0.0201325 -0.0243279 0.00563056 -0.0126917 0.00480035 0.0225723 -0.0340054 -0.0557736 -0.0490042 0.032634 -0.0330011 0.0251619 0.0788932 0.0105934 -0.0150798 0.0155218 0.0157345 -0.0661792 0.0324868 -0.0170836 0.00437213 -0.0214021 0.0600621 -0.0287113 0.00245968 0.0350241 -0.0493587 -0.0162324 -0.00946119 -0.0124671 -0.00559031 -0.0649466 0.0522981 -0.0319815 0.034706 -0.0631655 0.0424538 -0.0342933 -0.0315587 0.0117108 -0.039238 -0.0593505 0.0207772 -0.0414415 -0.0516247 -0.0443271 -0.0467745 0.0434498 -0.0154592 0.00992674 -0.0284815 -0.0168698 0.000427084 -0.0269257 0.0179369 -0.0139323 0.0729534 -0.042436 -0.0503837 0.0402121 0.0219236 0.0592409 -0.0209292 0.0220509 0.0347456 0.0547241 0.0559471 0.00397611 0.0296613 -0.00588918 -0.0203614 0.0277878 0.0375331 -0.0685601 -0.00845426 -0.0216043 -0.0152322 0.0554824 -0.00512609 0.069627 0.00365507 0.00191127 -0.0271084 -0.0216679 -0.0611372 -0.0392724 -0.0412141 -0.0231255 -0.0407824 0.0695748 -0.0298059 0.00634525 0.00733265 -0.00966776 -0.0499632 0.00603535 0.0882453 0.0350547 -0.0133499 0.0132194 -0.0434011 -0.0246577 -0.0258268 -0.0103379 -0.014521 0.0378964 -0.0489124 0.0400351 0.0194119 -0.00437037 0.00604621 -0.0139163 0.0470278 0.05596 -0.00761879 0.054752 0.00931831 -0.0150971 0.00484378 -0.0674522 0.0297531 -0.0538314 0.0201324 0.0308515 0.0514389 -0.025999 -0.0686005 0.00915627 0.012805 0.0144781 -0.0338625 0.0421156 -0.0276223 0.0179405 0.00590926 -0.0111147 -0.0147927 0.0120077 -0.0401099 0.0178023 -0.0397354 0.0143573 -0.046073 -0.0160023 0.0157991 -0.0582077 -0.040163 0.0142726 0.0268368 0.0306462 0.00617443 -0.0133457 -0.0380744 0.0327617 0.0643421 0.0477273 -0.0327506 0.026583 0.0192782 0.042098 0.020401 -0.0217036 -0.0470904 -0.0193934 0.029879 0.00222025 0.0378279 -0.0393241 -0.0547461 -0.0342644 0.00131941 -0.0184954 -0.0135401 -0.0146128 -0.00212391 -0.00423624 -0.0319443 0.0576743 0.0568779 0.0221492 -0.0193809 -0.00674544 -0.0318901 0.0294871 ^0.073429 0.0160238 -0.00324833 -0.0275117 0.0287196 0.0244392 0.0211722 0.0152215 0.0434708 -0.0397338 -0.0367118 0.000168504 -0.0293487 0.00276604 -0.0238625 -0.066906 0.0860075 -0.0650418 0.0309833 0.0308978 0.00306497 -0.0119749 0.0272613 0.0180162 -0.0261704 -0.00274521 0.0693389 0.00656715 -0.0284855 -0.0056095 -0.00618266 0.0261489 0.00220248 -0.0153609 -0.0146239 -0.0516783 -0.0043128 -0.00025124 -0.0116281 0.0197189 0.00586748 0.0110946 -0.0491918 -0.0465191 -0.0425669 -0.0423609 0.00143296 -0.0323796 0.0434631 0.00999555 -0.060757 0.0668215 0.0349175 0.0115089 -0.0327278 0.0125416 -0.0510654 0.00153823 -0.0666271 -0.05288 0.0459652 0.00267585 0.0380339 -0.00268763 0.0418031 0.0360083 0.0127256 -0.00384116 0.023018 -0.0158791 -0.00530634 0.0452027 -0.0079948 0.0642219 -0.00598075 -0.00468538 0.00842186 -0.0255235 0.000398268 -0.058462 0.00259118 0.0288452 0.00817259 -0.0771321 0.0151038 0.0132141 0.00240663 -0.0302462 -0.0516781 0.0172004 -0.0449393 0.0884334 -0.000677444 -0.0311331 0.000913626 -0.0376774 -0.063461 0.0152727 0.0152974 0.0137324 0.0229163 -0.0267317 0.0262697 0.00843859 0.00726405 -0.019821 0.00560684 -0.0491887 -0.0257033 -0.0338461 0.00752144 0.0495721 0.0422125 0.0227332 -0.0421812 0.014968 0.0321734 0.00813608 -0.0215435 0.0135346 0.0165958 0.0382265 0.0221413 0.00509976 -0.0582011 -0.00522122 0.0401718 0.0355665 0.0173219 0.043288 -0.0321355 -0.00808367 0.00191012 -0.0222186 0.018876 0.0351362 -0.0138054 -0.0111234 -0.0327876 0.00321941 0.0135267 -0.0130999 -0.0035499 0.038767 0.00134878 -0.0354703 0.0190357 -0.0458554 -0.028701 -0.0127004 0.0433339 -0.0314749 0.0315663 0.0103501 0.039887 0.00905818 0.0129344 -0.0148523 0.00281763 -0.00495301 -0.035791 0.015412 0.014078 0.0506838 -0.0123632 -0.0201838 -0.0115388 0.00130728 -0.0644209 -0.0152113 0.0392922 -0.0566102 -0.0173376 0.0113615 -0.0432438 0.0219118 0.0179967 0.026043 0.0245897 0.0231716 -0.00747154 -0.0299011 -0.0176763 -0.0178293 0.00741196 0.0150905 0.0300914 0.022016 -0.0360681 -0.0912673 0.0214592 -0.0200023 -0.0204788 0.0341733 -0.0100561 -0.0484794 -0.00787188 0.0479539 0.0280977 0.00839436 0.0506644 -0.00805564 0.00677583 0.0149259 0.0129877 0.0221456 0.0316448 -0.0385464 -0.033147 -0.0424876 0.0193175 0.0613091 -0.04228 0.0376425 0.0479869 -0.0356175 -0.0048633 0.0473018 -0.0462093 0.0165532 0.0247929 0.0374193 -0.0092735 -0.0603262 0.0155109 -0.0227584 0.0615107 -0.0336386 -0.00134918 0.00815603 -0.00551622 -0.0125203 -0.0454643 0.00273868 -0.0177066 -0.0377217 0.00727546 0.0344722 0.0242224 -0.0385661 0.0195238 -0.0304017 -0.0287641 0.015394 0.0313007 -0.00265775 0.019163 0.0361429 -0.044786 0.018532 -0.0314445 0.0113915 -0.0331496 -0.0194162 -0.0195742 0.0502337 -0.00784975 0.00620679 0.0177214 0.0148057 -0.0138746 0.0224201 0.0209539 0.00947428 0.0291913 0.0172338 0.0792813 0.00511529 -0.00691766 0.0120251 0.00018218 -0.0739271 -0.026492 0.013451 0.00817621 0.034101 0.038508 0.00852323 -0.0292396 0.0424594 -0.0466181 0.0016049 -0.00892641 0.00789376 0.00771288 -0.0272685 0.0254266 0.00160375 -0.0466136 -0.0116857 -0.0432507 -0.079016 -0.0148585 -0.00450383 0.0135378 -0.0272237 0.0334811 0.0371169 0.0363472 -0.00297218 -0.0438233 -0.0308083 0.00626622 -0.0152925 0.0261417 -0.0265295 -0.019707 0.0481115 0.00612381 0.0370589 -0.0537303 0.0163739 -0.0140853 -0.0709128 -0.0446287 -0.00771171 -0.025979 -0.040914 0.0464247 0.0180413 -0.0122998 -0.015556 -0.0351613 0.00525629 0.00651606 0.015596 0.0223915 -0.0436865 -0.0541626 0.0229673 0.0127325 0.0480512 -0.00749218 0.0350384 -0.0569485 -0.000118486 0.034065 -1.32388e-05 -0.00616045 -0.0444005 0.0137625 0.000244176 -0.0454447 -0.0435818 0.0142196 -0.0408013 -0.0225778 -0.0290857 0.0793979 0.0173093 -0.0572045 -0.0339457 0.0343654 0.0178351 0.0190679 0.0375565 0.00294238 -0.0211208 0.0111976 0.0258801 0.0273239 0.0256085 -0.0269503 -0.0688013 -0.00159058 -0.0423059 0.0268818 -0.0147852 0.00199103 -0.0676469 0.00945525 0.00150572 -0.0232553 0.0185846 -0.0141156 0.00135151 0.0488422 -0.0210676 0.0176005 0.0272084 -0.00720923 -0.0144493 -0.0677249 0.0519805 0.0120574 -0.0334107 0.0314699 0.0202196 0.00237424 -0.0192283 -0.0331108 0.023417 -0.00909253 -0.0108286 -0.0403646 -0.0447536 0.0382694 0.0140825 -0.00670149 0.000212325 0.0568592 0.0316109 0.0189528 0.048569 0.014053 0.0403596 0.0226853 0.0773111 0.0398484 0.0308538 -0.0407417 0.023199 -0.0358954 -0.0116319 0.00930042 -0.0214336 -0.0311232 0.0604 -0.0238467 0.0213763 0.00686476 0.000540487 0.0467931 0.01149 0.00378751 0.0129775 -0.0376727 0.0756901 -0.0340179 -0.00305541 -0.0893827 0.00482263 0.00070433 0.025798 0.0121978 -0.0454402 -0.0525679 0.0381094 0.0301675 -0.0166185 0.0387831 0.00772621 -0.0404219 -0.00103557 -0.0618525 -0.0265537 0.0102602 -0.0103053 -0.0407943 0.0465445 -0.00180663 -0.0520436 0.0667726 -0.044673 -0.076191 0.031637 -0.0580191 0.00407796 0.0315583 -0.0679486 -0.0333478 0.0145236 0.0145624 0.034614 0.0120149 0.0413697 -0.0527222 0.0205505 0.0140991 -0.0282677 -0.0014133 -0.0127587 -0.0468887 -0.0291282 -0.0651027 -0.0433653 -0.0616353 0.00776104 -0.0178416 -0.0280272 -0.00715907 0.0224999 0.0197938 0.00380153 -0.0369852 -0.00428309 -0.043666 0.0802493 -0.0030722 -0.016594 0.00179632 0.0538838 0.0258433 -0.00787822 -0.00938334 -0.0349926 -0.0407263 -0.000883658 -0.0186185 -0.0558224 0.0372941 -0.0355517 0.0323226 -0.0156069 -0.0299854 -0.0423439 0.0143116 -0.0107402 0.0209451 -0.0375706 -0.0238469 -0.00861763 -0.0310518 -0.0291001 0.0539059 0.055305 -0.0335504 0.0500256 0.0338185 0.0135166 0.0468293 -0.0190396 -0.0169111 -0.0109644 -0.0174552 -0.00571573 0.0775736 0.0754787 0.0629478 -0.00662609 -0.0248728 -0.0369839 0.0171577 -0.025502 -0.0166041 0.000471816 -0.0216058 0.0154197 -0.0230762 0.0214189 0.0386627 -0.0579703 -0.0463438 -0.00494695 -0.00258683 0.0355664 -0.019441 0.0327883 -0.047975 0.0592758 -0.0454697 -0.0526597 0.069548 0.0112172 -0.0286391 -0.0264319 -6.67213e-05 0.0604726 0.0057193 -0.0479115 -0.0434989 0.00900938 0.00675125 -0.0254012 -0.000571699 -0.0253376 -0.0497382 -0.0453453 0.0034279 0.054226 -0.0117514 -0.00975775 0.0535508 -0.060915 -0.00547724 -0.0498666 -0.0351409 -0.0549953 -0.142533 -0.0623556 -0.0127769 0.00308826 -0.00655742 -0.00720115 -0.0170631 0.00299475 0.0218828 0.0545596 0.00599722 0.00126102 -0.0138398 0.0181749 0.031822 -0.0647049 -0.0436208 -0.0230032 0.104948 -0.0511631 0.0369054 -0.011603 -0.0209199 0.00605782 0.0604277 -0.00656299 -0.0173225 -0.0122027 0.0302112 -0.053574 -0.00238378 -0.0202753 -0.0372624 0.0102521 -0.00666297 0.0252519 -0.0935055 -0.00409836 -0.00697329 0.00197027 -0.0222396 -0.00501601 0.0358487 -0.0646251 -0.0140455 0.0378653 0.0104238 -0.0460073 -0.014146 -0.0484535 -0.023428 -0.036398 0.0786394 -0.00706743 -0.019108 0.000809916 0.0575469 -0.036642 0.0103309 -0.053738 0.0523919 -0.0414857 0.0197645 0.0277981 -0.00224041 0.0450605 -0.0450685 -0.00307396 0.0356283 -0.0250759 -0.0101629 -0.0285472 0.0248134 0.0311873 -0.0243166 0.0111925 0.0134834 -0.0451063 0.018725 -0.0526605 0.0176915 -0.0429392 0.0609208 -0.00173889 0.0089031 -0.00640459 0.0222687 0.0577063 0.0148179 0.00925208 0.00348165 0.0151115 -0.0339591 0.0447666 0.000475443 0.0137636 0.0540159 0.0584573 -0.0244051 -0.0372658 -0.0207889 -0.0112549 0.0231874 0.0240919 -0.000997765 -0.00351876 -0.02341 -0.0438092 -0.040253 -0.0418613 0.0508272 -0.0277671 -0.017341 0.0383253 -0.0765428 0.00952179 -0.018991 0.0400296 0.0327629 0.0130798 0.0250093 0.0234664 0.0207409 0.0302835 -0.00118996 0.000887593 -0.0163251 0.0736395 -0.0210389 -0.0285449 -0.00424919 0.0602511 0.0679836 0.0197257 -0.0364078 -0.0385683 0.0100098 -0.0726954 0.0152553 0.0398156 0.0415773 0.0521165 0.009998 -0.0297968 0.00334096 0.00454072 0.00825687 -0.000680965 -0.0321297 0.0681579 -0.0590733 0.0107274 -0.0768079 -0.0607219 -0.0341841 0.099469 0.000172734 -0.0361461 -0.0131867 -0.0319404 0.0505766 -0.0073035 0.0481795 0.0115837 -0.0267629 -0.00587688 -0.0138417 0.0683288 0.0315642 0.0376129 0.0200142 -0.0102365 -0.0331579 0.027232 0.0739048 0.00533233 -0.00436535 0.047292 -0.0140575 0.0319505 0.00454855 -0.0037051 -0.0167692 -0.0186303 -0.0140198 0.0382558 -0.0160579 0.0132638 -0.0322561 0.0142193 -0.00901861 0.0450658 -0.0637454 -0.0175325 0.00544754 0.0233306 -0.0367325 -0.0370482 0.000268268 -0.0138224 -0.0281592 0.00469736 0.0229975 -0.0131254 0.0125461 0.00770654 ^-0.0450184 -0.00541179 0.0366341 -0.0381782 0.0476741 0.0250146 -0.0140663 0.00705141 0.0560194 0.0251377 0.0413958 -0.010383 -0.0473412 -0.0244031 -0.0404568 0.0208081 -0.062482 0.0293844 -0.0440143 -0.0409064 -0.0132983 -0.0193306 -0.0202081 0.0502975 -0.0191453 -0.0236906 -0.0211198 0.0137732 0.02012 -0.0265161 -0.0474273 0.0355633 0.00908832 -0.0243759 -0.0652588 0.017993 0.0149666 0.00865792 0.0249562 0.0145949 0.0212047 -0.00355501 -0.00932014 -0.00317717 -0.0342099 -0.0374486 0.00922909 -0.00341444 -0.0083073 0.0133156 -0.008499 -0.0196147 0.0397116 0.0278659 -0.062626 -0.0195513 0.00248464 -0.00747175 0.00806838 -0.00683165 -0.01212 0.0140623 -0.0614511 0.018878 -0.00213364 -0.0364549 0.000854667 0.0118683 -0.0669379 -0.00302358 0.0364015 0.0268387 0.0572276 -0.0396161 0.0113729 0.0149233 0.056678 0.0204334 0.0556211 0.0182119 0.0867168 -0.0612965 0.00496523 -0.0235004 0.00494274 0.025708 -0.0158489 0.0683775 -0.00127205 -0.0185756 -0.0418534 -0.0395065 -0.015729 0.0285955 0.00889148 0.00815522 0.0266418 0.00341409 -0.0105553 0.0169294 -0.0281471 0.0287001 0.0126128 -0.0257982 0.0331446 0.0198219 -0.0195264 -0.0585935 -0.00697558 0.021522 -0.0418569 0.00504405 0.0316791 0.012337 0.0148258 0.0345256 -0.00817512 0.0361962 0.0101456 0.0376964 0.0455522 -0.0196431 -0.00895029 0.0518097 0.0348663 -0.00345166 0.026034 -0.00501285 -0.0135546 -0.0358788 0.0633165 0.0542773 -0.0309977 0.0111909 0.0557189 -0.0389916 -0.0602044 -0.0175783 -0.00366585 0.0110218 -0.0339006 -0.0723049 0.0473661 -0.025315 -0.00710406 -0.0193478 0.0829888 -0.0423833 0.00311907 -0.0421957 0.0321721 -0.0231609 -0.105874 -0.0147626 0.0586417 0.0652745 0.0157506 0.0302757 -0.0204696 -0.106216 0.00349438 0.00526017 -0.0192718 -0.031059 0.0660531 0.0234632 -0.0138631 -0.0131806 0.0458057 0.0141989 -0.038773 0.0397853 0.0269452 0.0463334 0.0840994 -0.0105227 0.000592729 -0.0647413 -0.110187 0.0130486 0.0451467 -0.0377965 -0.0288415 0.023195 -0.0310331 -0.011227 0.0334766 -0.00149128 -0.0441434 -0.0757012 -0.0540902 0.000699893 -0.0627254 0.0419719 -0.00276239 -0.0663992 -0.0323157 -0.0810162 0.0196092 0.00748353 -0.0166931 0.0163938 0.0224955 0.0496295 -0.0217404 0.0453763 0.0029211 0.0382039 -0.0503861 0.0333105 -0.0163158 -0.0473672 -0.0678602 -0.000114064 0.0719591 0.059582 -0.0147113 0.0106886 -0.0153362 -0.0374143 0.0823674 -0.0186447 -0.0114348 0.0303256 0.0023144 0.0195461 0.0497567 -0.0105691 0.0293295 -0.00534602 0.0150484 -0.0596222 0.00723952 0.0420194 0.0670087 0.0314366 -0.0332595 -0.0476875 0.02478 0.0224563 0.0402389 -0.0186233 -0.0662821 0.016612 -0.051497 0.0640739 -0.0363791 0.0420553 0.0175258 -0.0540337 0.0231556 -0.0152323 0.00589238 0.0535445 -0.0301744 0.0346664 0.029993 -0.0104693 0.000243039 0.0712917 0.00576857 -0.0570269 0.0528279 0.0182924 -0.0040164 -0.0374793 0.0511057 -0.0296884 0.00193208 0.0126413 0.0219992 0.0116664 -0.0546104 0.0258598 0.0358596 0.0426328 -0.00237754 0.003713 0.00791671 -0.042506 -0.00319114 -0.00370589 -0.0267847 -0.0178416 -0.0334218 0.0424778 -0.0104655 0.0606611 0.0538499 0.0357349 0.0219259 0.0052507 0.0314022 0.0351744 -0.0393098 0.00355774 -0.00781492 0.0514852 0.0178277 -0.000126418 -0.0523846 -0.00651286 -0.0524358 -0.0440042 -0.0228242 -0.0305153 0.0042254 -0.0222409 0.0769883 0.0226475 -0.0176652 -0.0413607 0.0388987 -0.0419689 -0.0571911 0.0287765 0.0427557 0.0312422 0.0146316 -0.021586 -0.0420712 0.0344308 0.00930897 0.0127271 0.000886588 0.0589877 -0.0810182 -0.0257707 0.0386465 0.0328192 0.014036 0.0188406 0.0371497 0.0488813 -0.0544644 0.0207585 0.0305477 0.019362 0.0324844 -0.0408739 0.00323045 0.0106776 -0.00332233 0.0190208 0.030552 0.0104292 0.0201416 0.000363598 -0.00755216 0.0738636 0.0384261 0.00235991 0.00704548 0.0336851 0.0351741 0.0211077 -0.0197861 -0.0125037 -0.0705217 0.0288532 0.0124699 0.0160104 0.041797 -0.00525661 0.0107009 0.0369032 -0.0196218 0.0243115 0.00115441 -0.00728115 0.000987926 0.00838229 -0.0175488 0.0551793 0.00826329 0.0124517 0.00330286 -0.0177707 -0.0837933 -0.0233489 0.0473564 0.0520431 -0.00319872 0.0136239 -0.0185548 -0.0581113 0.0286606 0.0121843 0.014351 -0.00752101 -0.0418968 -0.00545987 -0.0158548 0.0433255 0.0254572 0.0119569 -0.0195301 0.0276845 0.0362163 0.0197232 0.0673944 -0.00767948 -0.0601657 0.0259958 0.0179911 -0.00344079 -0.0310324 0.037982 0.0714055 -0.030007 0.0150869 -0.0287412 -0.0276803 0.0897427 0.0466206 0.0423982 0.0631362 0.00572641 -0.00950609 0.00537626 -0.0356771 0.00191451 -0.0275021 0.00182326 -0.0435942 0.00880282 -0.0434642 0.00963253 -0.0135376 -0.027331 0.0126137 0.0229074 0.00102308 -0.0145128 0.0184809 0.0146098 0.0217479 -0.0132463 -0.0130599 0.00380798 -0.0151396 0.0153044 0.0502625 -0.0152802 -0.00844277 0.0167311 -0.0293591 -0.0741796 0.00225626 -0.0360567 -0.0515651 -0.00923127 0.0154662 -0.0413872 -0.030159 -0.0370803 0.0147138 0.0390813 0.0450997 0.0844839 -0.0229857 3.47238e-05 -0.0801411 0.0429195 0.0439651 -0.03257 -0.00881261 -0.010232 0.0113121 -0.0215943 0.0224363 0.0140954 -0.0804343 0.00528114 -0.0158903 0.0162004 -0.0551986 0.0311266 0.0207202 0.0620255 -0.0918539 -0.0294964 0.0162196 0.0341682 0.0324586 0.0064897 0.0470839 0.043554 -0.0616166 0.0511268 -0.00195477 0.0183396 -0.0358023 -0.0383143 0.0393605 -0.0402449 0.0337338 -0.0210034 0.0273167 -0.027168 0.066105 0.0154015 0.0159849 0.0348206 0.0334718 -0.0286955 0.015279 -0.031513 0.00570181 0.0925297 0.00757333 0.0363862 -0.00917137 0.0179878 0.0133876 -0.0320644 0.140059 -0.0246469 0.0267347 -0.000151986 -0.0111497 0.0354703 0.00410042 0.00936236 -0.00866728 -0.0382455 0.00469832 0.0195025 -0.00864531 0.0308697 0.000687494 -0.0049507 -0.0138179 0.000767889 0.0129432 -0.115953 -0.124699 -0.0205093 -0.0274357 -0.0326065 0.0202527 0.00831964 -0.0159281 0.0102868 0.0266474 0.0292878 -0.0347549 -0.0108004 -0.00677333 -0.0284334 0.0183785 0.032318 0.0156159 0.0540654 0.00396448 -0.0224341 -0.00222625 -0.0286563 -0.0250159 -0.112582 0.0248997 0.0487099 -0.00721091 0.00669254 -0.032764 0.0125221 0.0461963 0.0184025 0.00473667 0.0462392 0.032359 -0.0199269 -0.0526218 0.0123967 0.0282168 0.0554299 -0.0149814 -0.00570975 0.0481365 0.0113435 -0.0203968 -0.0303882 0.0569104 -0.0443235 0.00771546 0.00390021 -0.0258858 0.00108883 -0.00180602 0.0506527 0.00398959 0.000162982 0.0120912 -0.0173306 0.0406989 -0.0337809 0.00529929 -0.0216872 -0.0316655 0.0317079 0.0797186 -0.00202461 0.0730007 -0.0323692 -0.0503416 -0.02951 0.0553169 -0.00441102 -0.0413927 -0.0226856 -0.0400781 0.0502679 0.00529104 0.0460506 0.0250797 -0.00627927 -0.0414029 0.00161982 -0.0278688 0.0428684 -0.00394447 -0.0719735 -0.0326132 0.0285145 -0.0293794 -0.0297023 -0.032476 -0.012753 -0.017233 -0.000936962 0.0497132 0.0571377 -0.00313622 0.00238151 -0.0412133 0.0205938 0.0153229 -0.0334437 0.0404489 0.00643904 -0.0185181 -0.0278669 0.0288845 0.0239329 0.0352179 0.0300738 -0.0126885 0.0462065 -0.00388038 0.0267937 -0.0191968 0.0561899 -0.0395701 -0.00915243 0.00158391 -0.0341798 -0.0163799 0.0483453 -0.0262877 0.0100063 0.0472188 0.0287543 0.101146 0.0145038 0.0261504 0.0156969 0.0222769 0.00823171 -0.0206861 0.048221 -0.0339734 0.0267753 0.0404899 -0.0271352 -0.0552288 0.013095 0.0166701 0.0146196 0.0121095 -0.0239151 0.0792677 0.0398525 0.000563376 -0.00232703 -0.0027037 -0.0299302 0.0133316 0.0376503 -0.0136247 -0.0406928 0.00777086 -0.00638829 0.0461323 0.0243173 -0.00286455 -0.0132474 -0.0817537 -0.0198439 0.0232195 0.0507499 -0.0221869 -0.0129512 0.0390938 0.0139716 0.0386095 -0.0217784 0.00425255 -0.0205555 0.0268096 -0.00460353 0.0333409 0.0432455 -0.0501115 -0.0163403 -0.042401 -0.00539529 -0.072075 0.0130226 -0.0308289 0.0223271 0.0355624 -0.0074152 0.0153749 -0.0109562 0.00382364 0.0498948 -0.0290414 0.00273786 0.0321246 -0.0301796 -0.0311223 0.0110911 0.0271246 -0.00971314 0.023353 0.0248088 0.034237 0.0576377 -0.00764406 -0.0294225 0.0100968 -0.073852 -0.010102 -0.0330526 0.0693243 0.0488415 -0.0301052 -0.00492441 -0.0135779 0.049231 0.0324284 -0.0647055 0.00178886 -0.030879 0.0327537 -0.0859254 0.0586675 0.0342782 -0.000471279 -0.0215375 0.0182088 0.00306222 0.00123418 0.0161517 -0.0862826 0.0341443 -0.0171973 -0.0329611 0.0352236 0.0192056 0.0602923 -0.0219311 -0.0237002 0.0329287 0.0164411 -0.0323605 -0.124081 0.00639115 0.0076943 -0.00445582 -0.0417226 -0.015297 -0.0196441 0.0330495 ^-0.00914919 0.0519407 0.0306191 -0.0117273 -0.00514166 -0.00647743 -0.0405433 -0.00675193 0.0300678 0.0211332 0.0537343 0.0691152 0.0138257 0.0323663 